\data\
ngram 1=53
ngram 2=319
ngram 3=985
ngram 4=2233
ngram 5=4078
ngram 6=6249

\1-grams:
-2.5095892	<unk>	0
0	<s>	-2.1875992
-1.305688	</s>	0
-1.2790028	O	-0.505402
-1.2538627	=	-0.5903334
-1.0155243	C	-0.71663857
-1.2790028	N	-0.47770554
-1.0759827	c	-0.6632631
-1.61282	n	-0.38594937
-1.4711783	6	-0.3845299
-1.14624	)	-0.56237465
-2.0597708	#	-0.24791074
-1.560304	Cl	-0.46779546
-2.0597708	4	-0.35343346
-1.560304	[C@@H]	-0.37356523
-1.560304	[C@H]	-0.40969697
-1.3645465	5	-0.5312668
-1.9263172	7	-0.36136752
-1.9263172	3	-0.23470627
-1.61282	F	-0.43303335
-1.8243773	s	-0.39064625
-1.8243773	[nH]	-0.34787408
-1.4711783	S	-0.4695269
-1.7418748	%10	-0.31976455
-2.2419915	[S@]	-0.21355365
-2.2419915	[S@@]	-0.38184854
-1.9263172	Br	-0.30614853
-2.0597708	o	-0.30614853
-1.9263172	9	-0.31822592
-1.9263172	[NH+]	-0.30654803
-2.316704	P	-0.21355365
-2.2419915	[N+]	-0.4991284
-2.316704	[O-]	-0.21355365
-1.7418748	/	-0.40668732
-2.2419915	\	-0.30654803
-2.2419915	%12	-0.21355365
-2.2419915	%11	-0.21355365
-2.316704	[O]	-0.21355365
-2.2419915	[C-]	-0.4991284
-2.316704	[CH-]	-0.21355365
-1.8243773	[NH2+]	-0.3495271
-2.316704	%15	-0.21355365
-2.316704	[C@]	-0.21355365
-2.316704	[N@@H+]	-0.21355365
-2.316704	B	-0.21355365
-2.0597708	[NH3+]	-0.38184854
-2.316704	[S]	-0.21355365
-2.316704	8	-0.21355365
-2.2419915	I	-0.21355365
-2.316704	[C@@]	-0.21355365
-2.316704	[N@H+]	-0.21355365
-2.0597708	[nH+]	-0.38184854
-2.316704	.	-0.21355365

\2-grams:
-1.0068809	O </s>	0
-1.4165953	C </s>	0
-1.3331066	N </s>	0
-1.0256082	6 </s>	0
-0.5556089	Cl </s>	0
-0.6633324	4 </s>	0
-0.7959822	5 </s>	0
-1.1544135	7 </s>	0
-1.1114395	3 </s>	0
-0.8705027	F </s>	0
-1.1324865	S </s>	0
-1.3321937	%10 </s>	0
-0.65831727	Br </s>	0
-0.7555217	9 </s>	0
-0.64884716	[O-] </s>	0
-0.37811568	[CH-] </s>	0
-0.532282	<s> O	-1.8375868
-1.6242037	O O	-0.22350635
-0.3469714	= O	-0.77614826
-1.2445967	C O	-0.46583077
-1.6504196	N O	-0.22350635
-1.6044483	c O	-0.26324034
-1.2832543	6 O	-0.26498032
-1.1605766	) O	-0.40909553
-1.1034677	4 O	-0.22350635
-1.1620895	[C@@H] O	-0.27554592
-0.94805855	[C@H] O	-0.26498032
-1.6142775	5 O	-0.22350635
-1.4681678	S O	-0.22350635
-0.97650343	%10 O	-0.22350635
-1.1646993	9 O	-0.22350635
-0.9844115	\ O	-0.22350635
-0.37613156	B O	-0.22350635
-1.606665	O =	-0.22350635
-1.0727984	C =	-0.7427298
-1.2144767	N =	-0.33315745
-1.2644831	c =	-0.40010425
-1.1242367	6 =	-0.2802109
-1.569524	) =	-0.22350635
-1.0958779	4 =	-0.22350635
-1.1493651	5 =	-0.40048465
-1.0914084	3 =	-0.22350635
-0.4852514	S =	-0.6226336
-0.9703706	%10 =	-0.2873038
-0.6414913	[S@] =	-0.22350635
-0.320063	[S@@] =	-0.2873038
-0.37415648	P =	-0.22350635
-0.15440735	[N+] =	-0.2873038
-0.6414913	%12 =	-0.22350635
-0.6414913	%11 =	-0.22350635
-0.37415648	%15 =	-0.22350635
-0.47540236	<s> C	-1.5426756
-0.8214553	O C	-0.4129434
-0.66023594	= C	-0.29227516
-0.8478884	C C	-0.6596873
-0.7279424	N C	-0.4805394
-1.2706468	c C	-0.3015485
-1.0641317	n C	-0.22350635
-0.8683437	6 C	-0.3412624
-1.0078578	) C	-0.48030877
-0.47612858	# C	-0.26324034
-1.2024543	Cl C	-0.22350635
-0.5950192	[C@@H] C	-0.30588418
-0.5472376	[C@H] C	-0.31630117
-0.8916226	5 C	-0.3562195
-0.67208844	7 C	-0.26498032
-0.6365034	3 C	-0.24791257
-1.1676922	F C	-0.22350635
-0.75868183	S C	-0.33011508
-0.89131564	%10 C	-0.24791257
-0.9864509	Br C	-0.22350635
-1.0480304	9 C	-0.22350635
-0.49364388	[NH+] C	-0.26498032
-0.49351922	/ C	-0.34124124
-0.49364388	\ C	-0.25423467
-0.59649444	%11 C	-0.22350635
-0.14647785	[C-] C	-0.2873038
-0.49976137	[NH2+] C	-0.22350635
-0.3492659	[N@@H+] C	-0.22350635
-0.7707563	[NH3+] C	-0.22350635
-0.3492659	[C@@] C	-0.22350635
-0.3492659	[N@H+] C	-0.22350635
-0.88145345	<s> N	-1.3973178
-1.3685218	O N	-0.26498032
-1.2528205	= N	-0.24374847
-1.1521088	C N	-0.46506754
-1.4610665	N N	-0.2873038
-1.6097887	c N	-0.24374847
-1.2832543	6 N	-0.26617637
-1.2179267	) N	-0.3660601
-0.96896124	# N	-0.22350635
-0.9906155	[C@@H] N	-0.25880745
-1.1293443	[C@H] N	-0.2873038
-1.3322648	5 N	-0.25423467
-1.1013083	3 N	-0.22350635
-1.4681678	S N	-0.22350635
-1.3184055	%10 N	-0.22350635
-0.8713514	/ N	-0.25423467
-0.9844115	\ N	-0.22350635
-0.96178645	O c	-0.41719842
-1.4771341	= c	-0.22350635
-1.0458308	C c	-0.6969854
-0.91930526	N c	-0.44594625
-0.58097166	c c	-0.6780811
-0.6059298	n c	-0.39693418
-1.0616779	6 c	-0.33315745
-0.95130104	) c	-0.4741001
-1.233069	Cl c	-0.22350635
-1.3145633	[C@@H] c	-0.22350635
-1.0632485	[C@H] c	-0.27554592
-0.90429115	5 c	-0.36510825
-0.6833708	7 c	-0.22350635
-1.0112004	3 c	-0.22350635
-1.1983069	F c	-0.22350635
-0.42400205	s c	-0.33717778
-0.5522404	[nH] c	-0.35939217
-1.0685176	S c	-0.2873038
-0.74171257	%10 c	-0.26193985
-1.0133499	Br c	-0.22350635
-0.61766	o c	-0.2822257
-0.716352	9 c	-0.2873038
-0.92397636	[NH+] c	-0.22350635
-0.8333736	/ c	-0.22350635
-0.92397636	\ c	-0.22350635
-0.6098498	I c	-0.22350635
-0.30956298	[nH+] c	-0.22350635
-1.810105	C n	-0.32571086
-0.8725021	c n	-0.55828345
-1.0459625	n n	-0.3381592
-1.7327031	6 n	-0.22350635
-1.2120925	) n	-0.39782017
-1.1843528	s n	-0.22350635
-0.96441716	[nH] n	-0.2873038
-1.1704313	o n	-0.22350635
-1.7475615	O 6	-0.22350635
-1.5113952	C 6	-0.37402192
-1.3848658	N 6	-0.27199543
-1.3978363	c 6	-0.27040988
-1.2183073	n 6	-0.2775958
-1.2230096	[C@@H] 6	-0.25423467
-1.5513612	[C@H] 6	-0.22350635
-1.3674045	[nH] 6	-0.22350635
-1.5583445	S 6	-0.22350635
-1.1415331	o 6	-0.22350635
-1.3408765	/ 6	-0.22350635
-0.6997935	O )	-0.3402569
-1.1303961	C )	-0.51781875
-1.103778	N )	-0.35498017
-0.9028614	6 )	-0.316295
-0.7319968	) )	-0.6178996
-0.4405505	Cl )	-0.35419473
-0.6443023	4 )	-0.22350635
-0.67392224	5 )	-0.48331872
-0.68653774	7 )	-0.25423467
-1.0450346	3 )	-0.22350635
-0.3222383	F )	-0.2886757
-1.3935341	S )	-0.22350635
-1.2437718	%10 )	-0.22350635
-0.6289633	Br )	-0.27554592
-1.1108226	9 )	-0.22350635
-0.9471513	[NH+] )	-0.22350635
-0.6236289	[O-] )	-0.22350635
-0.6236289	%12 )	-0.22350635
-0.36441365	[O] )	-0.22350635
-0.50653154	[NH2+] )	-0.22350635
-0.31419834	[NH3+] )	-0.22350635
-0.36441365	8 )	-0.22350635
-0.6236289	I )	-0.22350635
-1.4559677	C #	-0.50180215
-2.1103504	N #	-0.22350635
-1.0862494	[NH+] #	-0.22350635
-0.8221018	<s> Cl	-1.9802682
-1.9362208	C Cl	-0.2802109
-1.7186586	c Cl	-0.2873038
-1.3866228	6 Cl	-0.26498032
-1.5523182	) Cl	-0.34249273
-1.7714224	5 Cl	-0.22350635
-1.4433442	%10 Cl	-0.22350635
-1.2488277	9 Cl	-0.22350635
-0.3922641	. Cl	-0.22350635
-1.9039732	C 4	-0.270231
-1.6994206	N 4	-0.22350635
-1.7789881	[C@@H] 4	-0.22350635
-1.4637611	O [C@@H]	-0.25423467
-1.3653876	C [C@@H]	-0.3460768
-1.5745401	N [C@@H]	-0.26498032
-2.0127268	c [C@@H]	-0.22350635
-1.7033662	6 [C@@H]	-0.22350635
-1.7102599	) [C@@H]	-0.26193985
-1.2347742	[C@@H] [C@@H]	-0.22350635
-1.5908318	[C@H] [C@@H]	-0.22350635
-1.7714224	5 [C@@H]	-0.22350635
-1.2689041	O [C@H]	-0.2539762
-1.3653876	C [C@H]	-0.4275312
-1.4074298	N [C@H]	-0.24874714
-1.7033662	6 [C@H]	-0.22350635
-1.7102599	) [C@H]	-0.24791257
-1.2347742	[C@@H] [C@H]	-0.22350635
-1.5908318	[C@H] [C@H]	-0.22350635
-1.7714224	5 [C@H]	-0.22350635
-0.3922641	[C@] [C@H]	-0.22350635
-1.3993949	O 5	-0.26193985
-1.3807111	C 5	-0.37845075
-1.245246	N 5	-0.2802109
-1.1493675	c 5	-0.36428565
-1.1913953	n 5	-0.26847368
-1.1879419	[C@@H] 5	-0.26498032
-1.1588514	[C@H] 5	-0.26498032
-0.67212343	s 5	-0.26498032
-0.92358434	[nH] 5	-0.2802109
-1.5109198	S 5	-0.22350635
-0.65632975	[S@] 5	-0.22350635
-0.8314801	[S@@] 5	-0.22350635
-0.6644871	o 5	-0.2873038
-0.38211125	[S] 5	-0.22350635
-1.7549547	C 7	-0.270231
-1.6692251	N 7	-0.25423467
-1.7490934	n 7	-0.22350635
-1.4806483	[nH] 7	-0.22350635
-2.3952327	C 3	-0.22350635
-2.0555303	N 3	-0.22350635
-1.7456722	[C@@H] 3	-0.22350635
-1.2428924	[C@H] 3	-0.22350635
-1.2072735	<s> F	-1.5977652
-1.5376328	C F	-0.56296986
-1.5474147	c F	-0.40048465
-1.400523	6 F	-0.26498032
-1.5658288	) F	-0.40048465
-1.7957591	5 F	-0.22350635
-1.4618276	%10 F	-0.22350635
-1.2605892	9 F	-0.22350635
-1.2584056	c s	-0.42262086
-1.7187626	n s	-0.22350635
-1.834886	6 s	-0.22350635
-1.6090819	) s	-0.40048465
-1.4174461	/ s	-0.22350635
-1.2584056	c [nH]	-0.41618025
-1.2864777	n [nH]	-0.26498032
-1.834886	6 [nH]	-0.22350635
-1.3799362	) [nH]	-0.3723848
-1.8782068	5 [nH]	-0.22350635
-2.7189944	<s> S	-0.49739465
-1.4326317	O S	-0.27554592
-1.6893073	= S	-0.22350635
-1.5800554	C S	-0.37299657
-1.2698438	N S	-0.4380311
-1.9557513	c S	-0.22350635
-1.353307	6 S	-0.2802109
-1.416822	) S	-0.34464777
-1.1520222	4 S	-0.22350635
-1.3872634	5 S	-0.2873038
-1.3408765	/ S	-0.22350635
-1.8452567	C %10	-0.24791257
-1.6362029	N %10	-0.22350635
-1.7677283	c %10	-0.24791257
-1.6904125	n %10	-0.22350635
-1.6858482	[C@@H] %10	-0.22350635
-1.6577059	[C@H] %10	-0.22350635
-1.8780527	= [S@]	-0.22350635
-1.8778958	) [S@]	-0.2873038
-1.8780527	= [S@@]	-0.22350635
-2.3107843	) [S@@]	-0.22350635
-1.6845989	<s> Br	-1.1308631
-2.074187	C Br	-0.22350635
-1.8750926	6 Br	-0.22350635
-1.8183465	) Br	-0.27554592
-1.3547796	c o	-0.3713467
-1.3086909	n o	-0.26498032
-2.243598	) o	-0.22350635
-2.074187	C 9	-0.22350635
-2.0555303	N 9	-0.22350635
-2.2001233	c 9	-0.22350635
-1.4806483	[nH] 9	-0.22350635
-3.5683525	<s> [NH+]	-0.22350635
-1.8835063	C [NH+]	-0.35939217
-2.182725	) [NH+]	-0.22350635
-1.0737538	# [NH+]	-0.22350635
-1.5640762	O P	-0.2873038
-1.9662867	6 [N+]	-0.22350635
-1.8778958	) [N+]	-0.2873038
-2.3333914	) [O-]	-0.22350635
-1.5025516	O /	-0.2873038
-1.4908174	C /	-0.38243634
-1.6288425	N /	-0.26498032
-1.6904125	n /	-0.22350635
-1.7718378	) /	-0.26193985
-1.6510985	S /	-0.22350635
-2.5452123	C \	-0.22350635
-2.3107843	) \	-0.22350635
-2.5452123	C %12	-0.22350635
-2.1699145	N %12	-0.22350635
-2.5452123	C %11	-0.22350635
-2.1699145	N %11	-0.22350635
-2.1897137	N [O]	-0.22350635
-2.5452123	C [C-]	-0.22350635
-2.3107843	) [C-]	-0.22350635
-2.3333914	) [CH-]	-0.22350635
-1.8063445	= [NH2+]	-0.22350635
-2.03744	C [NH2+]	-0.27554592
-2.155618	c [NH2+]	-0.22350635
-1.834886	6 [NH2+]	-0.22350635
-2.1293447	) [NH2+]	-0.22350635
-2.572549	C %15	-0.22350635
-2.1897137	N [C@]	-0.22350635
-2.572549	C [N@@H+]	-0.22350635
-2.3333914	) B	-0.22350635
-3.6023653	<s> [NH3+]	-0.22350635
-2.465587	C [NH3+]	-0.22350635
-2.243598	) [NH3+]	-0.22350635
-1.8857465	= [S]	-0.22350635
-1.5241865	[nH] 8	-0.22350635
-3.6374474	<s> I	-0.22350635
-1.5918971	%10 I	-0.22350635
-2.572549	C [C@@]	-0.22350635
-2.572549	C [N@H+]	-0.22350635
-2.2497156	c [nH+]	-0.22350635
-1.7817026	n [nH+]	-0.22350635
-0.875842	[nH+] [nH+]	-0.22350635
-2.1897137	N .	-0.22350635

\3-grams:
-1.0426002	= O </s>	0
-1.345175	C O </s>	0
-0.9189367	6 O </s>	0
-0.8704818	) O </s>	0
-0.33618832	4 O </s>	0
-0.5850688	9 O </s>	0
-2.7705562	<s> C </s>	0
-1.4020364	O C </s>	0
-1.508035	= C </s>	0
-1.7752569	C C </s>	0
-1.673012	N C </s>	0
-1.2620884	6 C </s>	0
-1.0998439	) C </s>	0
-1.2780206	5 C </s>	0
-1.633951	C N </s>	0
-1.2984041	6 N </s>	0
-1.0416554	) N </s>	0
-0.6403527	# N </s>	0
-0.5892367	O 6 </s>	0
-0.9202537	C 6 </s>	0
-1.0817424	c 6 </s>	0
-0.7257953	n 6 </s>	0
-0.33853316	[nH] 6 </s>	0
-0.4691348	C Cl </s>	0
-0.54478025	6 Cl </s>	0
-0.32731435	) Cl </s>	0
-0.24520625	5 Cl </s>	0
-0.24520625	. Cl </s>	0
-0.73618096	C 4 </s>	0
-0.4802915	N 4 </s>	0
-0.7256447	O 5 </s>	0
-0.76529056	C 5 </s>	0
-0.6481198	N 5 </s>	0
-0.73805857	c 5 </s>	0
-0.8830414	n 5 </s>	0
-0.3877107	s 5 </s>	0
-0.556758	[nH] 5 </s>	0
-0.48875615	o 5 </s>	0
-0.9802104	C 7 </s>	0
-0.8332287	C 3 </s>	0
-1.0597658	C F </s>	0
-0.40249038	6 F </s>	0
-0.45007798	) F </s>	0
-1.2605076	C S </s>	0
-1.1554995	) S </s>	0
-0.6402419	N %10 </s>	0
-0.47831792	C Br </s>	0
-0.4542718	) Br </s>	0
-0.7318795	c 9 </s>	0
-0.29479238	[nH] 9 </s>	0
-0.47455338	) [O-] </s>	0
-0.18539423	) [CH-] </s>	0
-2.7026718	<s> O O	-0.2037996
-0.369494	C = O	-0.7598998
-0.17647423	c = O	-0.44176644
-0.2858227	6 = O	-0.21583174
-0.39474583	) = O	-0.2037996
-0.17318475	4 = O	-0.2037996
-0.10723247	5 = O	-0.31274173
-0.32790175	3 = O	-0.2037996
-0.10744545	S = O	-0.69703895
-0.14504373	%10 = O	-0.25287274
-0.17318475	[S@] = O	-0.2037996
-0.14504373	[S@@] = O	-0.25287274
-0.17318475	P = O	-0.2037996
-0.14504373	[N+] = O	-0.25287274
-0.17318475	%12 = O	-0.2037996
-0.17318475	%11 = O	-0.2037996
-0.17318475	%15 = O	-0.2037996
-0.9443099	<s> C O	-1.3282572
-1.0768595	O C O	-0.23844193
-1.1591673	= C O	-0.21954916
-1.2039719	C C O	-0.4138114
-1.5624102	N C O	-0.2037996
-1.3138163	c C O	-0.2037996
-1.1994429	6 C O	-0.2276434
-1.2151595	) C O	-0.27625877
-1.3250554	[C@@H] C O	-0.2037996
-1.1187091	[C@H] C O	-0.2037996
-1.2152439	5 C O	-0.2037996
-1.2207736	S C O	-0.2037996
-1.4287559	6 N O	-0.2037996
-1.350794	c c O	-0.31274173
-1.6748371	n c O	-0.2037996
-1.5106809	) c O	-0.2037996
-1.2653742	C 6 O	-0.25287274
-1.3834555	c 6 O	-0.2037996
-0.8874655	[C@@H] 6 O	-0.2037996
-0.82644707	O ) O	-0.2229915
-1.4452714	C ) O	-0.2037996
-1.1845343	6 ) O	-0.21967196
-1.2001883	) ) O	-0.31245685
-0.75598997	4 ) O	-0.2037996
-1.2729298	5 ) O	-0.2037996
-0.9801469	F ) O	-0.2358914
-0.35302553	[O] ) O	-0.2037996
-0.6051223	[C@@H] 4 O	-0.2037996
-1.320612	C [C@@H] O	-0.2037996
-0.7563457	6 [C@@H] O	-0.2037996
-1.0557466	) [C@@H] O	-0.2037996
-0.8438813	O [C@H] O	-0.2037996
-1.0433183	C [C@H] O	-0.2037996
-0.8840264	N [C@H] O	-0.2037996
-0.8412127	) [C@H] O	-0.2037996
-1.5581552	C 5 O	-0.2037996
-1.4193081	C S O	-0.2037996
-1.0005435	C %10 O	-0.2037996
-0.85355103	c %10 O	-0.2037996
-0.9159108	c 9 O	-0.2037996
-0.7076308	C \ O	-0.2037996
-0.18463226	) B O	-0.2037996
-0.09983922	<s> O =	-1.9386961
-1.3360839	<s> C =	-1.2341582
-0.9204665	O C =	-0.3448564
-1.2625015	= C =	-0.2037996
-1.0073045	C C =	-0.6806767
-0.56747943	N C =	-0.5262072
-1.2051817	c C =	-0.2037996
-1.0326949	6 C =	-0.21583174
-1.0233521	) C =	-0.40401623
-0.8053624	[C@@H] C =	-0.31198245
-1.0485616	[C@H] C =	-0.2358914
-0.69778425	5 C =	-0.43692118
-0.8919702	3 C =	-0.2037996
-0.88271505	F C =	-0.2037996
-0.9200883	S C =	-0.25287274
-0.8919702	%10 C =	-0.2037996
-0.4578159	/ C =	-0.37892926
-0.5390022	\ C =	-0.25287274
-0.27770665	[C-] C =	-0.25287274
-1.9379272	<s> N =	-0.3448564
-1.4143939	C N =	-0.25287274
-1.0289263	6 N =	-0.25287274
-1.4190508	) N =	-0.2037996
-0.5591578	/ N =	-0.25287274
-1.8237413	c c =	-0.2037996
-0.9336352	n c =	-0.44176644
-1.0347826	6 c =	-0.2037996
-1.389707	) c =	-0.25287274
-0.8501012	[nH] c =	-0.21583174
-0.6314298	/ c =	-0.2037996
-1.1038704	C 6 =	-0.21583174
-1.139258	c 6 =	-0.25287274
-0.34951103	S 6 =	-0.2037996
-0.34951103	/ 6 =	-0.2037996
-1.5820168	O ) =	-0.2037996
-1.6368082	C ) =	-0.2037996
-0.68961096	C 4 =	-0.25287274
-1.04126	C 5 =	-0.21991767
-1.3560166	c 5 =	-0.2037996
-0.35196945	[S@] 5 =	-0.2037996
-0.35196945	[S@@] 5 =	-0.2037996
-0.82681906	C 3 =	-0.2037996
-0.1916244	O S =	-0.21991767
-0.22342324	= S =	-0.2037996
-0.46961293	C S =	-0.44176644
-0.16269839	N S =	-0.44176644
-0.34344423	6 S =	-0.21583174
-0.33924276	) S =	-0.37892926
-0.22342324	4 S =	-0.2037996
-0.18523788	5 S =	-0.25287274
-0.22342324	/ S =	-0.2037996
-0.99687046	C %10 =	-0.2037996
-0.8509295	c %10 =	-0.2037996
-0.22057602	) [S@] =	-0.25287274
-0.31230575	= [S@@] =	-0.2037996
-0.1622044	) [S@@] =	-0.2037996
-0.1536712	O P =	-0.25287274
-0.08557091	6 [N+] =	-0.2037996
-0.07283753	) [N+] =	-0.25287274
-0.26861694	C %12 =	-0.2037996
-0.26861694	C %11 =	-0.2037996
-0.1838716	C %15 =	-0.2037996
-0.75161934	<s> O C	-0.91654813
-0.5356477	O O C	-0.2037996
-0.5795437	C O C	-0.3624623
-0.5472673	c O C	-0.21954916
-0.8268122	6 O C	-0.2037996
-0.7095566	) O C	-0.26829702
-0.25982237	[C@@H] O C	-0.2358914
-0.8268122	[C@H] O C	-0.2037996
-0.5770986	O = C	-0.2037996
-0.35077843	C = C	-0.34531018
-0.2983536	N = C	-0.23115912
-0.8401395	c = C	-0.2037996
-0.51106143	6 = C	-0.2037996
-0.5770986	) = C	-0.2037996
-0.47907457	3 = C	-0.2037996
-0.8534841	S = C	-0.25287274
-0.24013866	<s> C C	-1.3920785
-0.7132065	O C C	-0.34936073
-0.9481401	= C C	-0.23414193
-0.8518436	C C C	-0.49483752
-0.6891181	N C C	-0.3375982
-0.7181629	c C C	-0.23050128
-0.70814174	6 C C	-0.21786055
-0.8216356	) C C	-0.35586402
-0.6661637	# C C	-0.22492859
-0.6596826	Cl C C	-0.2037996
-0.73303235	[C@@H] C C	-0.2216974
-0.93137974	[C@H] C C	-0.23478524
-0.818909	5 C C	-0.22077541
-0.67528784	7 C C	-0.2037996
-0.79408765	3 C C	-0.2037996
-0.7817323	F C C	-0.2037996
-0.45532924	S C C	-0.3123274
-0.79408765	%10 C C	-0.2037996
-0.5436587	Br C C	-0.2037996
-0.31235817	9 C C	-0.2037996
-0.3982186	[NH+] C C	-0.2037996
-0.8162039	/ C C	-0.2037996
-0.74565285	\ C C	-0.2037996
-0.31235817	%11 C C	-0.2037996
-0.6596826	[NH2+] C C	-0.2037996
-0.31235817	[N@@H+] C C	-0.2037996
-0.31235817	[NH3+] C C	-0.2037996
-0.5436587	[C@@] C C	-0.2037996
-0.31235817	[N@H+] C C	-0.2037996
-0.6422422	<s> N C	-1.1029862
-0.3723548	O N C	-0.2037996
-0.75999224	= N C	-0.2037996
-0.5115539	C N C	-0.45534495
-0.23620142	N N C	-0.25287274
-0.57178336	c N C	-0.2358914
-0.7225108	6 N C	-0.21757813
-0.6773175	) N C	-0.29777882
-0.6173205	[C@@H] N C	-0.24260445
-0.47041216	[C@H] N C	-0.25287274
-0.46072102	5 N C	-0.2037996
-0.28894064	3 N C	-0.2037996
-0.28894064	S N C	-0.2037996
-0.6887534	/ N C	-0.2037996
-1.2956583	c c C	-0.30568686
-1.2171866	n c C	-0.2037996
-1.1305891	) c C	-0.2358914
-1.2467426	5 c C	-0.2037996
-0.6322822	7 c C	-0.2037996
-1.4727937	c n C	-0.2037996
-0.59737986	6 n C	-0.2037996
-1.2451366	) n C	-0.2037996
-0.8615616	C 6 C	-0.2544955
-0.74489564	N 6 C	-0.21954916
-0.9791633	c 6 C	-0.23115912
-0.88964945	n 6 C	-0.2037996
-0.75453633	[C@@H] 6 C	-0.2037996
-0.3158522	[C@H] 6 C	-0.2037996
-0.8929813	O ) C	-0.24363382
-0.5731788	C ) C	-0.391923
-0.8533876	N ) C	-0.2037996
-0.9906961	6 ) C	-0.24241126
-0.8753507	) ) C	-0.36259216
-0.71490437	4 ) C	-0.2037996
-0.82429594	5 ) C	-0.3775355
-1.100973	F ) C	-0.2037996
-0.71490437	%10 ) C	-0.2037996
-0.5852897	[NH3+] ) C	-0.2037996
-0.32545245	C # C	-0.3267226
-0.22041813	N # C	-0.2037996
-0.22041813	[NH+] # C	-0.2037996
-0.10518689	<s> Cl C	-1.8946397
-0.41626972	O [C@@H] C	-0.2037996
-0.5254213	C [C@@H] C	-0.26542947
-0.3366116	N [C@@H] C	-0.2358914
-0.25636753	c [C@@H] C	-0.2037996
-0.54368544	6 [C@@H] C	-0.2037996
-0.5014458	) [C@@H] C	-0.24551359
-0.6338985	[C@@H] [C@@H] C	-0.2037996
-0.25636753	5 [C@@H] C	-0.2037996
-0.35662976	O [C@H] C	-0.2037996
-0.3701327	C [C@H] C	-0.2804449
-0.4035649	N [C@H] C	-0.21726398
-0.2427411	6 [C@H] C	-0.2037996
-0.45118445	) [C@H] C	-0.2037996
-0.56846714	[C@@H] [C@H] C	-0.2037996
-0.2427411	[C@H] [C@H] C	-0.2037996
-0.2427411	5 [C@H] C	-0.2037996
-1.0187421	C 5 C	-0.2358914
-0.7848585	N 5 C	-0.2037996
-0.7718071	c 5 C	-0.245897
-0.75273633	n 5 C	-0.2358914
-0.40631947	[C@@H] 5 C	-0.2358914
-0.40631947	[C@H] 5 C	-0.25287274
-0.5598489	C 7 C	-0.2037996
-0.4431416	N 7 C	-0.25287274
-0.62231725	C 3 C	-0.2037996
-0.26734817	N 3 C	-0.2037996
-0.4695721	[C@H] 3 C	-0.2037996
-0.51349556	<s> F C	-0.70677304
-0.1323426	<s> S C	-0.24260445
-0.56162393	C S C	-0.2216974
-0.8839813	N S C	-0.2037996
-0.5451371	6 S C	-0.25287274
-0.6841374	) S C	-0.21583174
-0.7711855	C %10 C	-0.2276434
-0.55609506	N %10 C	-0.2037996
-0.31961614	[C@H] %10 C	-0.2037996
-0.2767246	<s> Br C	-0.8219777
-0.34122646	N 9 C	-0.2037996
-0.26613882	C [NH+] C	-0.21991767
-0.22615051	) [NH+] C	-0.2037996
-0.18736118	O / C	-0.25287274
-0.30059186	C / C	-0.36553618
-0.3036337	N / C	-0.25287274
-0.27741256	) / C	-0.22783114
-0.2261103	S / C	-0.2037996
-0.48692128	C \ C	-0.2037996
-0.40567002	) \ C	-0.2037996
-0.25677133	N %11 C	-0.2037996
-0.08150796	C [C-] C	-0.2037996
-0.08150796	) [C-] C	-0.2037996
-0.19548973	C [NH2+] C	-0.2358914
-0.22811617	) [NH2+] C	-0.2037996
-0.17410249	C [N@@H+] C	-0.2037996
-0.29790092	<s> [NH3+] C	-0.2037996
-0.17410249	C [C@@] C	-0.2037996
-0.17410249	C [N@H+] C	-0.2037996
-2.8851118	<s> O N	-0.2037996
-0.6444967	O O N	-0.2037996
-1.5827366	C O N	-0.2037996
-1.2772799	C = N	-0.22431554
-1.0985072	c = N	-0.2037996
-0.7760122	) = N	-0.2037996
-0.93166316	<s> C N	-1.0383636
-1.4255201	O C N	-0.2037996
-1.1179868	= C N	-0.24260445
-0.9465415	C C N	-0.47347775
-1.3576031	N C N	-0.2358914
-0.9761257	c C N	-0.21583174
-0.7539813	n C N	-0.2037996
-1.1590433	6 C N	-0.21954916
-0.98953086	) C N	-0.391923
-0.9916295	[C@@H] C N	-0.2358914
-0.93148154	[C@H] C N	-0.31274173
-1.1747693	5 C N	-0.2358914
-0.631924	3 C N	-0.2358914
-1.1631562	/ C N	-0.2037996
-0.8544777	\ C N	-0.2037996
-2.2977467	<s> N N	-0.25287274
-1.3629446	) N N	-0.25287274
-1.5740443	c c N	-0.21954916
-1.3553758	5 c N	-0.2037996
-1.2653742	C 6 N	-0.22276878
-1.2203312	c 6 N	-0.21318066
-0.56706285	[C@@H] 6 N	-0.2037996
-1.3816419	O ) N	-0.2037996
-1.4778738	C ) N	-0.2037996
-1.1741562	N ) N	-0.2037996
-1.2128427	6 ) N	-0.23050128
-1.0858643	) ) N	-0.34787473
-1.1410263	5 ) N	-0.31274173
-0.7688276	[NH2+] ) N	-0.2037996
-0.49765867	C # N	-0.2868645
-0.8027847	O [C@@H] N	-0.2037996
-0.9797171	C [C@@H] N	-0.2276434
-0.63437605	) [C@@H] N	-0.21583174
-0.84913856	[C@@H] [C@@H] N	-0.2037996
-0.914258	O [C@H] N	-0.2037996
-1.1184121	C [C@H] N	-0.2037996
-0.9121894	) [C@H] N	-0.2037996
-1.2107825	C 5 N	-0.2037996
-1.1733423	c 5 N	-0.2358914
-0.3471534	[C@@H] 3 N	-0.2037996
-1.4193081	C S N	-0.2037996
-1.1715137	C %10 N	-0.2037996
-0.7614736	C / N	-0.2276434
-0.6837081	N / N	-0.2037996
-0.5798813	) \ N	-0.2037996
-1.9054555	<s> O c	-0.6458864
-0.78690934	C O c	-0.35011598
-0.93169564	c O c	-0.2037996
-0.6563171	6 O c	-0.2276434
-0.8571561	) O c	-0.31274173
-0.33016753	5 O c	-0.2037996
-0.8124272	O = c	-0.2037996
-1.1831318	<s> C c	-0.90912783
-0.76076835	O C c	-0.51686174
-1.133343	= C c	-0.2276434
-1.0879847	C C c	-0.5552839
-0.9901282	N C c	-0.3267226
-1.1867326	c C c	-0.2037996
-0.72611845	n C c	-0.2037996
-0.7641173	6 C c	-0.391923
-1.1434747	) C c	-0.28949293
-0.6013343	# C c	-0.23280118
-0.72611845	Cl C c	-0.2037996
-0.95231986	[C@@H] C c	-0.21991767
-0.89784503	[C@H] C c	-0.31274173
-0.8898876	5 C c	-0.29257974
-0.8721105	F C c	-0.2037996
-1.1214684	S C c	-0.2037996
-0.61185634	%10 C c	-0.25287274
-1.1102221	/ C c	-0.2037996
-1.5979744	<s> N c	-0.4588698
-0.855049	C N c	-0.38709047
-0.8143874	6 N c	-0.21339852
-1.0301753	) N c	-0.22431554
-0.689037	[C@@H] N c	-0.25287274
-0.5169619	[C@H] N c	-0.25287274
-0.32398182	%10 N c	-0.2037996
-0.775646	/ N c	-0.2037996
-0.32398182	\ N c	-0.2037996
-0.35693952	O c c	-0.29807338
-0.5361686	= c c	-0.2037996
-0.30432218	C c c	-0.5186081
-0.33305407	N c c	-0.35763568
-0.563814	c c c	-0.5553587
-0.5926454	n c c	-0.33346
-0.28114915	6 c c	-0.25030562
-0.51298565	) c c	-0.45616004
-0.44610924	Cl c c	-0.2037996
-0.25247225	[C@@H] c c	-0.2037996
-0.21543102	[C@H] c c	-0.21583174
-0.31815767	5 c c	-0.30241778
-0.44610924	7 c c	-0.2037996
-0.25247225	3 c c	-0.2037996
-0.5361686	F c c	-0.2037996
-0.33261025	s c c	-0.29257974
-0.39921054	[nH] c c	-0.35952654
-0.20804437	S c c	-0.2358914
-0.3045927	%10 c c	-0.25287274
-0.25247225	Br c c	-0.2037996
-0.5602004	o c c	-0.22276878
-0.20804437	9 c c	-0.2276434
-0.25247225	[NH+] c c	-0.2037996
-0.44610924	/ c c	-0.2037996
-0.25247225	\ c c	-0.2037996
-0.25247225	I c c	-0.2037996
-0.44610924	[nH+] c c	-0.2037996
-0.3786002	C n c	-0.23767518
-0.402774	c n c	-0.47281548
-0.52422154	n n c	-0.25899985
-0.45686874	6 n c	-0.2037996
-0.39830977	) n c	-0.37892926
-0.25933048	s n c	-0.2037996
-0.21338049	[nH] n c	-0.2276434
-0.25933048	o n c	-0.2037996
-1.0775479	C 6 c	-0.21991767
-0.6925602	N 6 c	-0.21991767
-1.029061	c 6 c	-0.21339852
-0.7350518	n 6 c	-0.25287274
-1.0732564	O ) c	-0.22492859
-1.0647386	C ) c	-0.21339852
-1.0475581	N ) c	-0.2037996
-0.881119	6 ) c	-0.31765145
-0.89959264	) ) c	-0.45548528
-1.0260094	Cl ) c	-0.2037996
-0.75425535	5 ) c	-0.35952654
-0.5167423	7 ) c	-0.2037996
-1.064081	F ) c	-0.2037996
-0.6968919	%10 ) c	-0.2037996
-0.32868853	%12 ) c	-0.2037996
-0.6968919	[NH2+] ) c	-0.2037996
-0.68633145	<s> Cl c	-1.3400111
-1.114633	) [C@@H] c	-0.2037996
-1.0931491	C [C@H] c	-0.25287274
-0.9362879	N [C@H] c	-0.2037996
-0.8883872	) [C@H] c	-0.2037996
-0.94528574	C 5 c	-0.21991767
-0.7900109	N 5 c	-0.25287274
-0.775922	c 5 c	-0.29807338
-0.65019155	n 5 c	-0.21991767
-0.6950422	[C@@H] 5 c	-0.2037996
-0.6950422	[C@H] 5 c	-0.2037996
-0.6655029	N 7 c	-0.2037996
-0.27884883	n 7 c	-0.2037996
-0.58604264	[C@H] 3 c	-0.2037996
-0.17294444	<s> F c	-1.3841783
-0.2341146	c s c	-0.39334387
-0.20242374	6 s c	-0.2037996
-0.1237028	) s c	-0.21583174
-0.20242374	/ s c	-0.2037996
-0.3741777	c [nH] c	-0.27419385
-0.542992	n [nH] c	-0.2037996
-0.43328583	6 [nH] c	-0.2037996
-0.30297196	) [nH] c	-0.35952654
-0.43328583	5 [nH] c	-0.2037996
-1.0309751	C S c	-0.25287274
-1.1238202	) S c	-0.2037996
-0.84573966	C %10 c	-0.2037996
-0.73784614	c %10 c	-0.2037996
-0.291899	n %10 c	-0.2037996
-0.291899	[C@@H] %10 c	-0.2037996
-0.38505748	<s> Br c	-1.02155
-0.35310796	c o c	-0.29643387
-0.34327286	n o c	-0.2037996
-0.2624559	) o c	-0.2037996
-0.5003189	C 9 c	-0.2037996
-0.7092756	c 9 c	-0.2037996
-0.67082554	C [NH+] c	-0.25287274
-1.025194	C / c	-0.2037996
-0.30979502	n / c	-0.2037996
-0.6876082	C \ c	-0.2037996
-0.26038185	<s> I c	-0.2037996
-0.15781014	c [nH+] c	-0.2037996
-0.15781014	[nH+] [nH+] c	-0.2037996
-2.0715275	<s> C n	-0.37892926
-1.4486896	C C n	-0.37248012
-1.4575635	) C n	-0.21991767
-1.663185	5 C n	-0.2037996
-0.62588257	O c n	-0.3448564
-0.66905594	= c n	-0.2037996
-0.59477866	C c n	-0.47657958
-0.7733957	N c n	-0.31198245
-0.8571609	c c n	-0.43746343
-0.8283407	n c n	-0.22517723
-0.88831264	6 c n	-0.2037996
-0.71203315	) c n	-0.3839386
-0.55081624	Cl c n	-0.2037996
-1.0391237	5 c n	-0.2037996
-0.66905594	F c n	-0.2037996
-0.6990245	s c n	-0.2358914
-0.85609394	[nH] c n	-0.2358914
-0.7595803	%10 c n	-0.2037996
-0.5664487	o c n	-0.21339852
-0.660226	C n n	-0.25287274
-0.8046269	c n n	-0.28949293
-0.6446872	n n n	-0.27907747
-0.7699457	) n n	-0.21339852
-1.6319345	c 6 n	-0.2037996
-1.3777477	O ) n	-0.2037996
-1.2638232	C ) n	-0.2276434
-1.2871873	6 ) n	-0.22276878
-1.5283183	) ) n	-0.2276434
-1.1436044	Cl ) n	-0.2037996
-1.5389533	5 ) n	-0.2037996
-0.8704918	7 ) n	-0.2037996
-1.2196712	F ) n	-0.2037996
-1.1874388	c s n	-0.2037996
-0.6701428	c [nH] n	-0.3448564
-0.81363726	) [nH] n	-0.25287274
-0.9013167	c o n	-0.25287274
-1.1251909	C O 6	-0.21583174
-1.6532921	O C 6	-0.2037996
-1.5652806	= C 6	-0.2037996
-1.2023723	C C 6	-0.41695565
-1.5117195	N C 6	-0.2276434
-1.1953291	c C 6	-0.22276878
-1.2123929	[C@@H] C 6	-0.25287274
-1.0089924	[C@H] C 6	-0.3448564
-1.0430404	= N 6	-0.2037996
-1.2370675	C N 6	-0.22431554
-1.0430404	c N 6	-0.2037996
-1.529048	) N 6	-0.2037996
-1.7232822	C c 6	-0.2037996
-1.4628948	N c 6	-0.2037996
-1.5242093	c c 6	-0.2371135
-1.2581438	n c 6	-0.22576207
-0.6477072	[nH+] c 6	-0.2037996
-1.2915708	c n 6	-0.21583174
-1.2312706	n n 6	-0.2037996
-1.3320581	) n 6	-0.2037996
-0.89496183	C [C@@H] 6	-0.22783114
-0.9347032	[C@@H] [C@@H] 6	-0.2037996
-1.5141039	C [C@H] 6	-0.2037996
-1.20132	) [nH] 6	-0.2037996
-0.37798193	c S 6	-0.2037996
-1.1491867	c o 6	-0.2037996
-1.2803901	C / 6	-0.2037996
-0.10137864	= O )	-0.3793387
-0.78067005	C O )	-0.324835
-0.28266066	N O )	-0.2037996
-0.6070315	c O )	-0.25287274
-0.5690159	6 O )	-0.25287274
-0.59482884	) O )	-0.324835
-0.5690159	[C@H] O )	-0.25287274
-0.28266066	S O )	-0.2037996
-0.4942272	%10 O )	-0.2037996
-0.28266066	\ O )	-0.2037996
-0.28266066	B O )	-0.2037996
-1.1887167	O C )	-0.21991767
-0.86903703	= C )	-0.21954916
-1.1413244	C C )	-0.51686174
-1.3459423	N C )	-0.2358914
-0.8028438	c C )	-0.23280118
-0.74869275	n C )	-0.2037996
-1.0557102	6 C )	-0.21583174
-1.0395799	) C )	-0.4831591
-1.3043072	[C@H] C )	-0.2037996
-1.1645613	5 C )	-0.25287274
-0.44025296	7 C )	-0.2037996
-0.9125496	3 C )	-0.2037996
-0.75862277	[NH+] C )	-0.2037996
-1.1528697	/ C )	-0.2037996
-0.61010486	[C@@] C )	-0.2037996
-0.68563044	= N )	-0.22276878
-1.2789193	C N )	-0.2358914
-0.9865075	6 N )	-0.25287274
-0.78625983	) N )	-0.52094764
-0.60518116	# N )	-0.2037996
-0.84036297	5 N )	-0.2037996
-0.5592539	O 6 )	-0.2037996
-0.6323267	C 6 )	-0.30421755
-0.6508185	N 6 )	-0.2276434
-1.0027713	c 6 )	-0.2082415
-0.6897959	n 6 )	-0.21423557
-0.32144582	o 6 )	-0.2037996
-0.6941394	O ) )	-0.27298877
-0.43448827	C ) )	-0.4014585
-0.37387982	N ) )	-0.29376197
-0.7773836	6 ) )	-0.2749159
-0.64218843	) ) )	-0.50721735
-0.33647305	Cl ) )	-0.2906172
-0.61103904	4 ) )	-0.2037996
-0.6536818	5 ) )	-0.4271115
-0.6908117	7 ) )	-0.2037996
-0.28981936	3 ) )	-0.2037996
-0.572761	F ) )	-0.26944754
-0.28981936	S ) )	-0.2037996
-0.61103904	%10 ) )	-0.2037996
-0.24560526	Br ) )	-0.22783114
-0.28981936	9 ) )	-0.2037996
-0.28981936	[NH+] ) )	-0.2037996
-0.28981936	[O-] ) )	-0.2037996
-0.61103904	[NH2+] ) )	-0.2037996
-0.5059402	[NH3+] ) )	-0.2037996
-0.28981936	8 ) )	-0.2037996
-0.28981936	I ) )	-0.2037996
-0.32598275	C Cl )	-0.21991767
-0.17322844	c Cl )	-0.22276878
-0.28430483	6 Cl )	-0.25287274
-0.43635854	) Cl )	-0.21991767
-0.20828989	%10 Cl )	-0.2037996
-0.20828989	9 Cl )	-0.2037996
-0.4477692	C 4 )	-0.25287274
-0.47272915	N 4 )	-0.2037996
-0.32952094	O 5 )	-0.2037996
-0.489685	C 5 )	-0.32594666
-0.59847224	N 5 )	-0.21991767
-0.8583732	c 5 )	-0.22210918
-0.6541815	n 5 )	-0.23115912
-0.60345006	s 5 )	-0.2037996
-0.40559798	[nH] 5 )	-0.209774
-0.27660522	S 5 )	-0.2037996
-0.45430815	o 5 )	-0.21954916
-0.27660522	[S] 5 )	-0.2037996
-0.4617306	C 7 )	-0.2358914
-0.66719246	N 7 )	-0.2037996
-0.2795925	[nH] 7 )	-0.2037996
-0.8111971	C 3 )	-0.2037996
-0.09343725	C F )	-0.36622766
-0.10144373	c F )	-0.27873066
-0.4058437	6 F )	-0.2037996
-0.30934012	) F )	-0.29477793
-0.16310707	5 F )	-0.2037996
-0.16310707	%10 F )	-0.2037996
-0.16310707	9 F )	-0.2037996
-1.2608647	) S )	-0.2037996
-0.8893326	C %10 )	-0.2276434
-0.46648768	C Br )	-0.2037996
-0.26540938	6 Br )	-0.2037996
-0.44432113	) Br )	-0.21991767
-0.60650826	C 9 )	-0.2037996
-0.32809466	# [NH+] )	-0.2037996
-0.46428645	) [O-] )	-0.2037996
-0.26402265	N %12 )	-0.2037996
-0.18008819	N [O] )	-0.2037996
-0.23026966	= [NH2+] )	-0.2037996
-0.23026966	c [NH2+] )	-0.2037996
-0.23026966	6 [NH2+] )	-0.2037996
-0.15975767	C [NH3+] )	-0.2037996
-0.15975767	) [NH3+] )	-0.2037996
-0.18008819	[nH] 8 )	-0.2037996
-0.26402265	%10 I )	-0.2037996
-1.679275	<s> C #	-0.9188877
-1.6227208	O C #	-0.2037996
-1.5535283	C C #	-0.31274173
-1.424905	c C #	-0.2037996
-1.5027542	6 C #	-0.2037996
-1.5379053	) C #	-0.25287274
-1.5184164	5 C #	-0.2037996
-0.9989924	%10 C #	-0.2037996
-0.65352744	Br C #	-0.2037996
-0.26945636	<s> N #	-1.9011589
-0.34554318	<s> [NH+] #	-0.2037996
-2.3071334	C C Cl	-0.2037996
-2.0555723	) C Cl	-0.2037996
-1.6989841	5 C Cl	-0.2037996
-1.4627897	c c Cl	-0.44176644
-1.3791395	5 c Cl	-0.2037996
-1.3043852	C 6 Cl	-0.25287274
-1.2652754	c 6 Cl	-0.25287274
-1.5738425	O ) Cl	-0.2037996
-1.4494016	6 ) Cl	-0.25287274
-1.2743201	) ) Cl	-0.39600894
-1.2104946	5 ) Cl	-0.23280118
-1.683488	c 5 Cl	-0.2037996
-0.6697155	c %10 Cl	-0.25287274
-0.94248635	c 9 Cl	-0.2037996
-0.1907659	N . Cl	-0.2037996
-2.2902493	C C 4	-0.2037996
-1.8967139	N C 4	-0.2037996
-2.0412316	) C 4	-0.2037996
-0.84908557	[NH2+] C 4	-0.2037996
-1.8488917	C N 4	-0.2037996
-1.6896818	) N 4	-0.2037996
-1.320331	C [C@@H] 4	-0.2037996
-1.4043493	C O [C@@H]	-0.2037996
-1.5302867	) O [C@@H]	-0.2037996
-2.1085994	<s> C [C@@H]	-0.29257974
-1.382188	O C [C@@H]	-0.2037996
-1.3040837	= C [C@@H]	-0.2037996
-1.3224856	C C [C@@H]	-0.28808248
-1.4577739	N C [C@@H]	-0.2037996
-1.4544213	6 C [C@@H]	-0.2037996
-1.499415	) C [C@@H]	-0.2276434
-1.3928285	[C@@H] C [C@@H]	-0.2037996
-1.2661018	[C@H] C [C@@H]	-0.25287274
-0.7962473	[NH2+] C [C@@H]	-0.2037996
-2.5875387	<s> N [C@@H]	-0.2037996
-1.5730605	C N [C@@H]	-0.25287274
-1.3986678	) N [C@@H]	-0.25287274
-2.2495086	c c [C@@H]	-0.2037996
-1.6192108	c 6 [C@@H]	-0.2037996
-1.6425639	O ) [C@@H]	-0.2037996
-1.7316625	6 ) [C@@H]	-0.2037996
-1.8272358	) ) [C@@H]	-0.22276878
-0.8761329	O [C@@H] [C@@H]	-0.2037996
-1.1766567	C [C@@H] [C@@H]	-0.2358914
-0.78058344	N [C@@H] [C@@H]	-0.2037996
-0.3792188	[C@] [C@H] [C@@H]	-0.2037996
-1.683488	c 5 [C@@H]	-0.2037996
-2.834687	<s> O [C@H]	-0.2037996
-1.5241424	C O [C@H]	-0.2037996
-1.4308504	) O [C@H]	-0.2037996
-0.7199586	[C@H] O [C@H]	-0.2358914
-2.3173335	<s> C [C@H]	-0.2276434
-1.382188	O C [C@H]	-0.25287274
-1.3040837	= C [C@H]	-0.22276878
-1.5267653	C C [C@H]	-0.29643387
-1.4577739	N C [C@H]	-0.2276434
-1.5814451	) C [C@H]	-0.25287274
-0.7962473	Cl C [C@H]	-0.2037996
-1.3928285	[C@@H] C [C@H]	-0.2037996
-1.4598733	[C@H] C [C@H]	-0.2037996
-1.4700092	5 C [C@H]	-0.2037996
-2.2823234	<s> N [C@H]	-0.25287274
-1.4085261	C N [C@H]	-0.2358914
-1.343769	) N [C@H]	-0.2358914
-1.1021804	[C@@H] N [C@H]	-0.2037996
-1.6192108	c 6 [C@H]	-0.2037996
-1.6425639	O ) [C@H]	-0.2037996
-1.7316625	6 ) [C@H]	-0.2037996
-1.8272358	) ) [C@H]	-0.25287274
-1.070714	C [C@@H] [C@H]	-0.25287274
-0.7723537	6 [C@@H] [C@H]	-0.2037996
-0.9382898	[C@@H] [C@@H] [C@H]	-0.2037996
-1.0887569	N [C@H] [C@H]	-0.2037996
-1.683488	c 5 [C@H]	-0.2037996
-0.1907659	N [C@] [C@H]	-0.2037996
-1.0836658	C O 5	-0.23280118
-1.1011945	c O 5	-0.2037996
-1.0520473	[C@H] O 5	-0.2037996
-1.5784419	O C 5	-0.2037996
-1.3108057	= C 5	-0.22276878
-1.3839422	C C 5	-0.35355937
-1.3590193	N C 5	-0.22431554
-1.3882892	c C 5	-0.2037996
-1.5897169	) C 5	-0.2358914
-1.4008318	[C@@H] C 5	-0.2037996
-1.2719234	[C@H] C 5	-0.25287274
-1.2758454	S C 5	-0.2037996
-0.7825632	O N 5	-0.2037996
-1.0022556	= N 5	-0.2037996
-1.345738	C N 5	-0.22276878
-1.0022556	c N 5	-0.2037996
-1.4400299	) N 5	-0.2037996
-1.2360177	O c 5	-0.2037996
-1.3419346	N c 5	-0.2037996
-1.0913374	c c 5	-0.39356437
-1.0206739	n c 5	-0.22093381
-1.4794767	) c 5	-0.2037996
-1.045337	s c 5	-0.2037996
-0.95214593	[nH] c 5	-0.22276878
-0.75624925	o c 5	-0.2358914
-0.9019068	c n 5	-0.32076642
-0.86026657	n n 5	-0.25287274
-1.3178581	) n 5	-0.2037996
-1.3372216	C [C@@H] 5	-0.2037996
-0.9236067	[C@@H] [C@@H] 5	-0.2037996
-0.35550165	[C@H] [C@@H] 5	-0.2037996
-0.8344995	C [C@H] 5	-0.23280118
-0.8476118	[C@@H] [C@H] 5	-0.2037996
-0.65495056	c s 5	-0.23280118
-0.27617383	n s 5	-0.2037996
-0.83445513	c [nH] 5	-0.21991767
-0.4118303	n [nH] 5	-0.2358914
-1.0209779	) [nH] 5	-0.2037996
-1.4350017	C S 5	-0.2037996
-0.27232775	= [S@] 5	-0.2037996
-0.5387259	= [S@@] 5	-0.2037996
-0.723839	c o 5	-0.25287274
-0.5990665	n o 5	-0.2037996
-0.18692222	= [S] 5	-0.2037996
-1.9122874	C C 7	-0.21583174
-1.5391873	c C 7	-0.2037996
-1.9672204	) C 7	-0.2037996
-1.650553	[C@H] C 7	-0.2037996
-1.3793964	S C 7	-0.2037996
-1.6031352	C N 7	-0.2358914
-1.100911	c N 7	-0.2037996
-1.1594441	[C@@H] N 7	-0.2037996
-1.831523	c n 7	-0.2037996
-1.3828295	c [nH] 7	-0.2037996
-2.0329115	C C 3	-0.24551359
-1.9858962	C N 3	-0.2037996
-1.6045419	C [C@@H] 3	-0.2037996
-1.3822339	C [C@H] 3	-0.2037996
-0.87051	[C@@H] [C@H] 3	-0.2037996
-1.4434203	O C F	-0.25287274
-1.580241	= C F	-0.2037996
-1.9168603	C C F	-0.25287274
-1.5422896	6 C F	-0.2037996
-1.5687224	) C F	-0.21583174
-1.5580192	5 C F	-0.2037996
-1.0097072	F C F	-0.2037996
-1.3437197	c c F	-0.52094764
-1.6470125	n c F	-0.2037996
-1.3737397	) c F	-0.21991767
-1.3395592	5 c F	-0.2037996
-1.519775	C 6 F	-0.2037996
-1.2708616	c 6 F	-0.25287274
-1.345353	6 ) F	-0.23280118
-1.276014	) ) F	-0.39600894
-1.4026558	5 ) F	-0.25287274
-0.9406362	F ) F	-0.21583174
-1.6164306	C 5 F	-0.2037996
-1.2237444	C %10 F	-0.2037996
-0.9459256	c 9 F	-0.2037996
-1.2835746	O c s	-0.2037996
-1.4289793	C c s	-0.25287274
-1.0446922	N c s	-0.21991767
-1.06219	c c s	-0.48642343
-1.3098087	n c s	-0.25287274
-1.127581	) c s	-0.21583174
-0.77712	F c s	-0.2037996
-1.8211457	c n s	-0.2037996
-1.6725075	c 6 s	-0.2037996
-1.4701566	6 ) s	-0.25287274
-1.9929314	) ) s	-0.2037996
-1.2550753	Cl ) s	-0.2037996
-1.3831137	F ) s	-0.2037996
-0.9154454	) / s	-0.2037996
-0.77712	= c [nH]	-0.2037996
-1.1180491	C c [nH]	-0.31198245
-1.3993759	N c [nH]	-0.2037996
-1.1624045	c c [nH]	-0.3123274
-1.3098087	n c [nH]	-0.2358914
-1.127581	) c [nH]	-0.29257974
-1.2417027	5 c [nH]	-0.2037996
-1.1363122	c n [nH]	-0.21991767
-1.2621825	n n [nH]	-0.2037996
-1.3967475	c 6 [nH]	-0.2037996
-1.4825658	O ) [nH]	-0.2037996
-1.3754703	6 ) [nH]	-0.2358914
-1.6938267	) ) [nH]	-0.25287274
-1.1996748	Cl ) [nH]	-0.2037996
-1.6488588	5 ) [nH]	-0.2037996
-1.2994455	F ) [nH]	-0.2037996
-1.4203941	c 5 [nH]	-0.2037996
-1.1501452	) O S	-0.21991767
-0.6512749	%10 O S	-0.2037996
-0.6512749	9 O S	-0.2037996
-0.8347008	O = S	-0.2037996
-1.7168646	<s> C S	-0.5186081
-1.6036035	= C S	-0.2037996
-1.3574495	C C S	-0.4175185
-1.5613194	6 C S	-0.2037996
-1.2941958	) C S	-0.33346
-1.0169305	F C S	-0.2037996
-0.77999437	<s> N S	-1.396009
-1.0062048	C N S	-0.52094764
-1.2656108	6 N S	-0.2037996
-1.1899211	) N S	-0.2358914
-0.8844272	5 N S	-0.2037996
-2.2280107	c c S	-0.2037996
-1.2924407	C 6 S	-0.2358914
-1.1649716	N 6 S	-0.2037996
-1.2514485	c 6 S	-0.2358914
-1.5035242	O ) S	-0.2037996
-1.2430546	N ) S	-0.2037996
-1.296551	6 ) S	-0.21991767
-1.1152134	) ) S	-0.5144285
-1.1873386	5 ) S	-0.31274173
-0.6139271	[C@@H] 4 S	-0.2037996
-1.189111	c 5 S	-0.21991767
-1.1752766	n 5 S	-0.2037996
-1.2803901	C / S	-0.2037996
-1.7263154	= C %10	-0.2037996
-2.0512092	C C %10	-0.2037996
-2.0135934	) C %10	-0.2037996
-1.5814112	[C@@H] C %10	-0.2037996
-1.5931522	C N %10	-0.25287274
-1.4240813	6 N %10	-0.2037996
-1.7913976	c c %10	-0.2037996
-1.8214344	) c %10	-0.2037996
-1.5155485	) n %10	-0.2037996
-1.5841393	C [C@@H] %10	-0.2037996
-0.9441737	[C@@H] [C@H] %10	-0.2037996
-1.1355102	N = [S@]	-0.2037996
-1.8086218	6 ) [S@]	-0.2037996
-2.12915	) ) [S@]	-0.2037996
-1.1355102	N = [S@@]	-0.2037996
-2.266558	) ) [S@@]	-0.2037996
-2.1187983	C C Br	-0.25287274
-1.2071363	# C Br	-0.2037996
-1.404326	c 6 Br	-0.25287274
-1.7831179	6 ) Br	-0.2037996
-1.8585311	) ) Br	-0.2037996
-1.8620754	5 ) Br	-0.2037996
-1.3201152	O c o	-0.2037996
-1.4554912	C c o	-0.25287274
-1.4444612	N c o	-0.2037996
-1.3130025	c c o	-0.35276985
-1.3506789	n c o	-0.2358914
-1.4278449	) c o	-0.25287274
-1.3191366	c n o	-0.2358914
-1.3766998	) n o	-0.2037996
-1.9245346	6 ) o	-0.2037996
-2.3726232	C C 9	-0.2037996
-2.1103706	) C 9	-0.2037996
-1.9858962	C N 9	-0.2037996
-2.001497	c c 9	-0.21954916
-0.6557934	6 [nH] 9	-0.2037996
-3.012081	<s> C [NH+]	-0.2037996
-1.7643641	C C [NH+]	-0.31274173
-1.574388	c C [NH+]	-0.2037996
-1.7884461	) C [NH+]	-0.2358914
-1.9096615	6 ) [NH+]	-0.2037996
-1.2211471	C # [NH+]	-0.2037996
-1.6813437	C O P	-0.2037996
-1.573023	) O P	-0.2037996
-1.716521	c 6 [N+]	-0.2037996
-1.8735	) ) [N+]	-0.25287274
-1.8827847	5 ) [N+]	-0.2037996
-1.4498258	O ) [O-]	-0.2358914
-2.5464332	<s> O /	-0.21991767
-1.6526884	C O /	-0.2037996
-2.8171496	<s> C /	-0.2037996
-1.6421467	O C /	-0.2037996
-1.246071	= C /	-0.22431554
-1.8107847	C C /	-0.2358914
-1.645187	) C /	-0.25287274
-1.1244364	# C /	-0.2037996
-1.3131229	S C /	-0.2037996
-1.2899456	/ C /	-0.2037996
-1.0944362	= N /	-0.2037996
-1.8133335	C N /	-0.2037996
-1.6585655	) N /	-0.2037996
-1.222419	C n /	-0.2037996
-1.3861517	O ) /	-0.25287274
-1.7617987	6 ) /	-0.2037996
-1.8457412	) ) /	-0.2358914
-1.4798551	C S /	-0.2037996
-1.3796464	= C \	-0.24260445
-2.266558	) ) \	-0.2037996
-2.0221987	N C %12	-0.2037996
-1.1493207	c N %12	-0.2037996
-2.0221987	N C %11	-0.2037996
-2.0162935	C N %11	-0.2037996
-1.1938646	6 N [O]	-0.25287274
-1.8878073	= C [C-]	-0.2037996
-1.9391924	6 ) [C-]	-0.2037996
-1.7960973	O ) [CH-]	-0.2037996
-1.8234783	C = [NH2+]	-0.2037996
-2.0808895	<s> C [NH2+]	-0.5878945
-2.109593	C C [NH2+]	-0.25287274
-2.0967941	) C [NH2+]	-0.2037996
-1.8546025	n c [NH2+]	-0.2037996
-1.6725075	c 6 [NH2+]	-0.2037996
-1.7656634	C ) [NH2+]	-0.2037996
-1.6679995	N C %15	-0.25287274
-1.2144593	[C@@H] N [C@]	-0.2037996
-2.525729	C C [N@@H+]	-0.2037996
-1.9437358	6 ) B	-0.2037996
-1.8089877	[C@H] C [NH3+]	-0.2037996
-1.9245346	6 ) [NH3+]	-0.2037996
-1.8373476	C = [S]	-0.2037996
-0.6595155	5 [nH] 8	-0.2037996
-1.2620976	C %10 I	-0.2037996
-2.197427	C C [C@@]	-0.25287274
-2.525729	C C [N@H+]	-0.2037996
-1.9490685	) c [nH+]	-0.2037996
-1.219065	) n [nH+]	-0.25287274
-0.31709912	n [nH+] [nH+]	-0.2037996
-1.8352579	) N .	-0.2037996

\4-grams:
-1.3715014	C = O </s>	0
-0.82743335	6 = O </s>	0
-0.92434335	5 = O </s>	0
-1.2120924	) C O </s>	0
-0.7720722	c 6 O </s>	0
-0.6993318	O ) O </s>	0
-0.91055524	6 ) O </s>	0
-0.8534923	) ) O </s>	0
-0.42885068	F ) O </s>	0
-0.17851928	[C@@H] 4 O </s>	0
-0.45608893	c 9 O </s>	0
-0.92658126	6 O C </s>	0
-1.091718	) O C </s>	0
-1.6354098	C = C </s>	0
-1.5481231	) C C </s>	0
-1.2872565	# C C </s>	0
-1.1358209	5 C C </s>	0
-1.5904515	) N C </s>	0
-1.2273214	C 6 C </s>	0
-1.0214972	c 6 C </s>	0
-0.91746694	O ) C </s>	0
-0.6786914	C ) C </s>	0
-0.98629695	N ) C </s>	0
-1.0475978	6 ) C </s>	0
-1.0337845	) ) C </s>	0
-0.9137128	5 ) C </s>	0
-0.9044549	F ) C </s>	0
-0.75019556	C 5 C </s>	0
-0.89039713	n 5 C </s>	0
-1.5195713	) C N </s>	0
-1.1659338	c 6 N </s>	0
-1.0553334	O ) N </s>	0
-0.8225777	N ) N </s>	0
-1.0220362	6 ) N </s>	0
-0.934168	) ) N </s>	0
-0.53981256	C # N </s>	0
-0.60156494	C O 6 </s>	0
-0.77265906	O C 6 </s>	0
-0.8237327	= C 6 </s>	0
-0.70178306	C C 6 </s>	0
-0.9282816	N C 6 </s>	0
-1.0806736	c c 6 </s>	0
-0.93121094	n c 6 </s>	0
-0.57941175	c n 6 </s>	0
-0.515887	n n 6 </s>	0
-0.17953779	) [nH] 6 </s>	0
-0.39834636	) C Cl </s>	0
-0.39834636	5 C Cl </s>	0
-0.4201807	c 6 Cl </s>	0
-0.1746364	O ) Cl </s>	0
-0.31551677	6 ) Cl </s>	0
-0.36386663	) ) Cl </s>	0
-0.34496143	5 ) Cl </s>	0
-0.13657881	c 5 Cl </s>	0
-0.13657881	N . Cl </s>	0
-0.6203922	C C 4 </s>	0
-0.2354432	) N 4 </s>	0
-0.4578762	C O 5 </s>	0
-0.55387616	= C 5 </s>	0
-0.85762733	C C 5 </s>	0
-0.80707675	N C 5 </s>	0
-0.6486396	) C 5 </s>	0
-0.28804976	O N 5 </s>	0
-0.67875725	C N 5 </s>	0
-0.575973	) N 5 </s>	0
-0.7524648	c c 5 </s>	0
-0.7098678	n c 5 </s>	0
-0.7230033	s c 5 </s>	0
-0.7343642	[nH] c 5 </s>	0
-0.6363353	o c 5 </s>	0
-0.6805257	c n 5 </s>	0
-0.32057533	c s 5 </s>	0
-0.20018677	n s 5 </s>	0
-0.43664116	c [nH] 5 </s>	0
-0.34157005	n [nH] 5 </s>	0
-0.39580426	c o 5 </s>	0
-0.40866244	n o 5 </s>	0
-0.803249	C C 7 </s>	0
-0.67876995	C C 3 </s>	0
-0.83371747	) C F </s>	0
-0.2061289	C 6 F </s>	0
-0.35476685	c 6 F </s>	0
-0.41556072	6 ) F </s>	0
-0.30347195	) ) F </s>	0
-0.37793294	5 ) F </s>	0
-0.5094039	F ) F </s>	0
-1.1733705	) C S </s>	0
-0.8621499	O ) S </s>	0
-0.28588504	6 N %10 </s>	0
-0.2026874	C C Br </s>	0
-0.39038503	6 ) Br </s>	0
-0.39038503	) ) Br </s>	0
-0.39038503	5 ) Br </s>	0
-0.75881106	c c 9 </s>	0
-0.16002356	6 [nH] 9 </s>	0
-0.49535093	O ) [O-] </s>	0
-0.10641799	O ) [CH-] </s>	0
-0.22765017	O C = O	-0.39913687
-0.2644124	C C = O	-0.87625813
-0.19530843	N C = O	-0.74155957
-0.34257185	c C = O	-0.17660467
-0.25350928	6 C = O	-0.17728813
-0.22103727	) C = O	-0.4369221
-0.2414285	[C@@H] C = O	-0.30222684
-0.26573068	[C@H] C = O	-0.18827505
-0.1673872	5 C = O	-0.47831813
-0.19269586	3 C = O	-0.17660467
-0.16752577	S C = O	-0.18827505
-0.19269586	%10 C = O	-0.17660467
-0.51629955	/ C = O	-0.18827505
-0.1017437	c c = O	-0.17660467
-0.055886302	n c = O	-0.39913687
-0.1017437	6 c = O	-0.17660467
-0.08966355	) c = O	-0.18827505
-0.15291025	[nH] c = O	-0.17728813
-0.21252531	C 6 = O	-0.17711715
-0.13629836	c 6 = O	-0.18827505
-0.15588708	S 6 = O	-0.17660467
-0.35723805	O ) = O	-0.17660467
-0.08815577	C 4 = O	-0.18827505
-0.061409883	C 5 = O	-0.18164958
-0.06391121	c 5 = O	-0.17660467
-0.06391121	[S@] 5 = O	-0.17660467
-0.06391121	[S@@] 5 = O	-0.17660467
-0.3176415	C 3 = O	-0.17660467
-0.061525352	O S = O	-0.17728813
-0.06403172	= S = O	-0.17660467
-0.03586023	C S = O	-0.39913687
-0.03586023	N S = O	-0.39913687
-0.11180557	6 S = O	-0.17728813
-0.10662495	) S = O	-0.39913687
-0.06403172	4 S = O	-0.17660467
-0.05672205	5 S = O	-0.18827505
-0.06403172	/ S = O	-0.17660467
-0.08490971	C %10 = O	-0.17660467
-0.08490971	c %10 = O	-0.17660467
-0.08815577	) [S@] = O	-0.18827505
-0.08490971	= [S@@] = O	-0.17660467
-0.08490971	) [S@@] = O	-0.17660467
-0.08815577	O P = O	-0.18827505
-0.08490971	6 [N+] = O	-0.17660467
-0.07500379	) [N+] = O	-0.18827505
-0.10000839	C %12 = O	-0.17660467
-0.10000839	C %11 = O	-0.17660467
-0.10000839	C %15 = O	-0.17660467
-1.8626462	<s> O C O	-0.17660467
-1.0754949	C O C O	-0.17660467
-0.94708294	c O C O	-0.17660467
-1.0491197	) O C O	-0.17660467
-1.0138558	O = C O	-0.17660467
-1.0718024	C = C O	-0.25619584
-0.6370959	6 = C O	-0.17660467
-1.203303	<s> C C O	-0.7300324
-1.1515704	O C C O	-0.18240066
-1.2504306	= C C O	-0.17660467
-1.1766241	C C C O	-0.22515766
-1.3074623	N C C O	-0.18046005
-1.1057491	c C C O	-0.17660467
-1.2226416	6 C C O	-0.17660467
-1.3145753	) C C O	-0.18591577
-1.103126	# C C O	-0.17660467
-0.6451733	F C C O	-0.17660467
-1.5409185	) N C O	-0.17660467
-1.3782945	c c C O	-0.17660467
-0.99770254	N 6 C O	-0.17660467
-1.1948062	c 6 C O	-0.17660467
-1.1856911	O ) C O	-0.18435
-1.3417953	C ) C O	-0.17660467
-1.1702977	6 ) C O	-0.17660467
-1.3177508	) ) C O	-0.18020217
-1.4443157	5 ) C O	-0.17660467
-0.81125075	O [C@@H] C O	-0.17660467
-0.76337814	O [C@H] C O	-0.17660467
-1.2081687	C [C@H] C O	-0.17660467
-0.9118813	) [C@H] C O	-0.17660467
-1.2652379	c 5 C O	-0.17660467
-1.113486	n 5 C O	-0.17660467
-0.96132904	<s> S C O	-0.17660467
-1.2199663	c 6 N O	-0.17660467
-1.0440807	O c c O	-0.17660467
-1.694726	C c c O	-0.17660467
-1.0419542	c c c O	-0.33698896
-1.2497469	6 c c O	-0.17660467
-1.3774252	5 c c O	-0.17660467
-0.9930926	o c c O	-0.17660467
-1.3037695	C n c O	-0.17660467
-1.2218682	O ) c O	-0.17660467
-1.3953857	5 ) c O	-0.17660467
-0.96314484	= C 6 O	-0.17660467
-1.3302752	C C 6 O	-0.18827505
-1.3017286	c c 6 O	-0.18435
-0.85665137	C [C@@H] 6 O	-0.17660467
-0.9460117	= O ) O	-0.18198326
-0.7989878	C O ) O	-0.17660467
-0.7989878	) O ) O	-0.18827505
-0.32992935	S O ) O	-0.17660467
-0.32992935	B O ) O	-0.17660467
-1.4644561	C C ) O	-0.17660467
-1.3055967	C 6 ) O	-0.17660467
-1.2342298	c 6 ) O	-0.17660467
-1.0886344	n 6 ) O	-0.17660467
-1.0006151	O ) ) O	-0.17711715
-1.2640164	C ) ) O	-0.18435
-1.1792581	6 ) ) O	-0.18323499
-1.194171	) ) ) O	-0.18458176
-1.0206715	Cl ) ) O	-0.18435
-0.8758822	3 ) ) O	-0.17660467
-0.31493956	N 4 ) O	-0.17660467
-1.2845256	C 5 ) O	-0.17660467
-1.2161196	c 5 ) O	-0.17660467
-1.1250613	s 5 ) O	-0.17660467
-0.90207946	C F ) O	-0.17660467
-0.97222984	) F ) O	-0.17660467
-0.18576407	N [O] ) O	-0.17660467
-0.46529377	C [C@@H] 4 O	-0.17660467
-0.40927282	<s> C [C@@H] O	-0.30222684
-0.6299361	c 6 [C@@H] O	-0.17660467
-0.89425755	) ) [C@@H] O	-0.17660467
-0.33335	<s> O [C@H] O	-0.17660467
-0.8066626	C C [C@H] O	-0.18827505
-0.3653743	5 C [C@H] O	-0.17660467
-0.2887591	<s> N [C@H] O	-0.18827505
-0.28242257	) ) [C@H] O	-0.18435
-0.68915945	c C 5 O	-0.17660467
-1.4205699	C C S O	-0.17660467
-0.93564147	C C %10 O	-0.17660467
-0.5608273	) c %10 O	-0.17660467
-0.86765057	c c 9 O	-0.17660467
-0.728045	= C \ O	-0.17660467
-0.106020495	6 ) B O	-0.17660467
-1.3472327	<s> O C =	-0.18164958
-0.34712055	O O C =	-0.17660467
-0.745193	C O C =	-0.30222684
-0.8701036	c O C =	-0.17660467
-0.9053597	) O C =	-0.17711715
-1.4710038	C = C =	-0.17660467
-0.45390865	<s> C C =	-1.5326757
-0.80137783	O C C =	-0.32777762
-0.98375136	= C C =	-0.18123525
-0.8741926	C C C =	-0.5240756
-1.0169516	N C C =	-0.24775147
-1.0023913	c C C =	-0.17660467
-0.8871941	6 C C =	-0.1808047
-1.0872996	) C C =	-0.24775147
-0.9991419	# C C =	-0.17660467
-0.7296725	Cl C C =	-0.17660467
-0.9196619	[C@H] C C =	-0.18435
-1.0660167	5 C C =	-0.17660467
-0.36047196	3 C C =	-0.17660467
-0.6069966	S C C =	-0.30222684
-0.7296725	[NH+] C C =	-0.17660467
-0.11094699	<s> N C =	-1.0712347
-0.44782558	O N C =	-0.17660467
-0.53139985	= N C =	-0.17660467
-0.60302377	C N C =	-0.45011842
-0.22723867	N N C =	-0.18827505
-0.5495812	c N C =	-0.17660467
-0.4758378	6 N C =	-0.17728813
-0.64964277	) N C =	-0.24423489
-0.47964987	[C@@H] N C =	-0.18827505
-0.22723867	[C@H] N C =	-0.18827505
-0.44782558	5 N C =	-0.17660467
-0.26450992	3 N C =	-0.17660467
-0.26450992	/ N C =	-0.17660467
-1.1374149	c c C =	-0.17660467
-1.0945837	C 6 C =	-0.17660467
-0.92676777	N 6 C =	-0.17660467
-0.929885	c 6 C =	-0.18435
-1.173975	O ) C =	-0.17660467
-1.2273664	C ) C =	-0.17660467
-0.9477781	N ) C =	-0.17660467
-1.0071065	6 ) C =	-0.17711715
-0.9305612	) ) C =	-0.3811346
-0.73490363	4 ) C =	-0.17660467
-0.80639327	5 ) C =	-0.47831813
-0.7613719	C [C@@H] C =	-0.18827505
-0.6233132	N [C@@H] C =	-0.17660467
-0.6674603	) [C@@H] C =	-0.17660467
-0.325643	[C@@H] [C@@H] C =	-0.17660467
-1.0052164	C [C@H] C =	-0.18827505
-0.74394053	N [C@H] C =	-0.18827505
-0.8832695	) [C@H] C =	-0.17660467
-0.74733454	C 5 C =	-0.17660467
-0.6594192	N 5 C =	-0.17660467
-0.75305367	c 5 C =	-0.18827505
-0.80102694	n 5 C =	-0.17660467
-0.38642913	[C@@H] 5 C =	-0.18827505
-0.25696212	[C@H] 5 C =	-0.18827505
-0.6881263	C 3 C =	-0.17660467
-0.4807842	<s> F C =	-0.8462949
-0.61029905	<s> S C =	-0.18827505
-0.9245856	C S C =	-0.17660467
-0.52781665	C %10 C =	-0.18827505
-0.19651446	O / C =	-0.18827505
-0.24458998	C / C =	-0.4201552
-0.19651446	N / C =	-0.18827505
-0.39265904	) / C =	-0.17711715
-0.2273097	S / C =	-0.17660467
-0.51478106	C \ C =	-0.17660467
-0.25544208	) \ C =	-0.17660467
-0.15210456	C [C-] C =	-0.17660467
-0.15210456	) [C-] C =	-0.17660467
-0.9574143	= C N =	-0.18827505
-1.7015468	C C N =	-0.17660467
-0.8829846	C 6 N =	-0.17660467
-1.0235611	c 6 N =	-0.17660467
-1.2592982	O ) N =	-0.17660467
-0.4155975	C / N =	-0.18827505
-0.26190192	N / N =	-0.17660467
-1.8138586	c c c =	-0.18827505
-0.8077732	C n c =	-0.18827505
-1.3090949	c n c =	-0.17660467
-0.7785663	6 n c =	-0.17660467
-0.8734438	) n c =	-0.17728813
-0.788841	[nH] n c =	-0.17660467
-0.8814777	c 6 c =	-0.17660467
-1.2702976	6 ) c =	-0.17660467
-1.565467	) ) c =	-0.17660467
-0.8086618	c [nH] c =	-0.17660467
-0.5597246	6 [nH] c =	-0.17660467
-0.93847996	) [nH] c =	-0.17660467
-0.28342968	n / c =	-0.17660467
-1.1857502	C C 6 =	-0.17711715
-0.80423236	N C 6 =	-0.18827505
-0.9134813	c C 6 =	-0.17660467
-1.1674949	c c 6 =	-0.18827505
-0.95447206	n c 6 =	-0.18827505
-0.18426503	c S 6 =	-0.17660467
-0.18426503	C / 6 =	-0.17660467
-1.2082613	= O ) =	-0.18827505
-1.1172295	= C ) =	-0.17660467
-0.5974575	C C 4 =	-0.17660467
-0.29898837	) C 4 =	-0.17660467
-1.2218413	C C 5 =	-0.17660467
-0.64871454	N C 5 =	-0.17728813
-0.6123488	c C 5 =	-0.17660467
-1.2737556	n c 5 =	-0.17660467
-0.18531434	= [S@] 5 =	-0.17660467
-0.18531434	= [S@@] 5 =	-0.17660467
-0.6762067	C C 3 =	-0.17660467
-0.10513455	) O S =	-0.17728813
-0.10965564	%10 O S =	-0.17660467
-0.10965564	9 O S =	-0.17660467
-0.1258329	O = S =	-0.17660467
-0.1624806	<s> C S =	-0.7001669
-0.23161231	= C S =	-0.17660467
-0.2867806	C C S =	-0.6032568
-0.2906994	) C S =	-0.39913687
-0.39860037	F C S =	-0.17660467
-0.0054865885	<s> N S =	-1.3533794
-0.04294563	C N S =	-0.47831813
-0.094435096	6 N S =	-0.17660467
-0.15886207	) N S =	-0.18827505
-0.094435096	5 N S =	-0.17660467
-0.25361994	C 6 S =	-0.18827505
-0.18166098	N 6 S =	-0.17660467
-0.25361994	c 6 S =	-0.18827505
-0.42018834	O ) S =	-0.17660467
-0.17984545	N ) S =	-0.17660467
-0.17180298	6 ) S =	-0.17711715
-0.119608015	) ) S =	-0.48267958
-0.1796362	5 ) S =	-0.30222684
-0.1258329	[C@@H] 4 S =	-0.17660467
-0.10196884	c 5 S =	-0.17728813
-0.106336474	n 5 S =	-0.17660467
-0.1258329	C / S =	-0.17660467
-0.9336592	C C %10 =	-0.17660467
-0.6716079	c c %10 =	-0.17660467
-0.124408126	6 ) [S@] =	-0.17660467
-0.124408126	) ) [S@] =	-0.17660467
-0.30804816	N = [S@@] =	-0.17660467
-0.094170965	) ) [S@@] =	-0.17660467
-0.08958686	C O P =	-0.17660467
-0.08958686	) O P =	-0.17660467
-0.051516578	c 6 [N+] =	-0.17660467
-0.03917536	) ) [N+] =	-0.18827505
-0.044107534	5 ) [N+] =	-0.17660467
-0.14782342	N C %12 =	-0.17660467
-0.14782342	N C %11 =	-0.17660467
-0.09303164	N C %15 =	-0.18827505
-0.43241942	<s> O O C	-0.17660467
-0.35317513	<s> C O C	-0.8180952
-0.55569845	O C O C	-0.17660467
-0.51435983	= C O C	-0.18123525
-0.5804214	C C O C	-0.22071859
-0.60288984	6 C O C	-0.17660467
-0.4454177	) C O C	-0.17990717
-0.5383031	[C@H] C O C	-0.17660467
-0.4535124	5 C O C	-0.17660467
-0.2682302	S C O C	-0.17660467
-0.5896727	c c O C	-0.17694625
-0.2581157	n c O C	-0.17660467
-0.4381107	) c O C	-0.17660467
-0.7285563	c 6 O C	-0.17660467
-0.6880859	O ) O C	-0.17990717
-0.30397704	C ) O C	-0.17660467
-0.60181564	6 ) O C	-0.17990717
-0.82324827	) ) O C	-0.18435
-0.6074331	5 ) O C	-0.17660467
-0.14363612	C [C@@H] O C	-0.17660467
-0.14363612	6 [C@@H] O C	-0.17660467
-0.14363612	) [C@@H] O C	-0.17660467
-0.5521237	) [C@H] O C	-0.17660467
-0.0068510477	<s> O = C	-1.5650165
-0.014267282	<s> C = C	-0.8234541
-0.45526353	O C = C	-0.18123525
-0.1848064	= C = C	-0.17660467
-0.51352733	C C = C	-0.27633905
-0.5942774	N C = C	-0.17686085
-0.33147213	c C = C	-0.17660467
-0.43782943	6 C = C	-0.17660467
-0.60304	) C = C	-0.18435
-0.4382884	[C@@H] C = C	-0.17660467
-0.4158222	[C@H] C = C	-0.17660467
-0.5632271	5 C = C	-0.17660467
-0.1848064	F C = C	-0.17660467
-0.19224112	/ C = C	-0.3532084
-0.1608666	\ C = C	-0.18827505
-0.1608666	[C-] C = C	-0.17660467
-0.11047739	<s> N = C	-0.30222684
-0.14121641	C N = C	-0.17660467
-0.14121641	6 N = C	-0.18827505
-0.14121641	/ N = C	-0.18435
-0.74102104	[nH] c = C	-0.17660467
-0.55101514	C 6 = C	-0.17660467
-0.24614668	/ 6 = C	-0.17660467
-0.26748195	C ) = C	-0.17660467
-0.4035999	C 3 = C	-0.17660467
-0.7474317	6 S = C	-0.17660467
-0.7336209	) S = C	-0.18827505
-0.22423488	<s> O C C	-0.79795
-0.4792687	C O C C	-0.24775147
-0.74673533	c O C C	-0.17660467
-0.6681825	6 O C C	-0.17660467
-0.5784786	) O C C	-0.21266486
-0.39074802	[C@@H] O C C	-0.18827505
-0.51098776	[C@H] O C C	-0.17660467
-0.9066322	O = C C	-0.17660467
-0.64532614	C = C C	-0.35463795
-0.7160644	N = C C	-0.18827505
-0.79145	<s> C C C	-0.6931077
-0.7522225	O C C C	-0.29358327
-0.8911054	= C C C	-0.18435
-0.6699704	C C C C	-0.47162536
-0.68058586	N C C C	-0.24594177
-0.7427779	c C C C	-0.17660467
-0.80886155	6 C C C	-0.18323499
-0.7679776	) C C C	-0.28931507
-0.74021924	# C C C	-0.18435
-0.67198604	Cl C C C	-0.17660467
-0.631862	[C@@H] C C C	-0.18591577
-0.7771333	[C@H] C C C	-0.1808047
-0.8307536	5 C C C	-0.17660467
-0.3348758	7 C C C	-0.17660467
-0.56028235	F C C C	-0.17660467
-0.57220143	S C C C	-0.17711715
-0.56028235	Br C C C	-0.17660467
-0.56028235	/ C C C	-0.17660467
-0.3348758	\ C C C	-0.17660467
-0.3348758	[NH3+] C C C	-0.17660467
-0.7712421	<s> N C C	-0.2667795
-0.50137	O N C C	-0.17660467
-0.5783888	C N C C	-0.38000193
-0.3839535	c N C C	-0.17660467
-0.531285	6 N C C	-0.18046005
-0.567444	) N C C	-0.21590829
-0.53228664	[C@@H] N C C	-0.17660467
-0.50137	5 N C C	-0.17660467
-0.29886296	S N C C	-0.17660467
-0.864259	c c C C	-0.17660467
-0.6709703	n c C C	-0.17660467
-0.587907	) c C C	-0.18435
-0.30607688	5 c C C	-0.17660467
-0.6975075	C 6 C C	-0.18323499
-0.7434284	N 6 C C	-0.17660467
-0.8484674	c 6 C C	-0.17660467
-0.50899214	[C@@H] 6 C C	-0.17660467
-0.3036288	[C@H] 6 C C	-0.17660467
-0.8956881	O ) C C	-0.18123525
-0.8949078	C ) C C	-0.18240066
-0.8302754	N ) C C	-0.17660467
-0.7760554	6 ) C C	-0.18278985
-0.70731753	) ) C C	-0.29139927
-0.6592431	4 ) C C	-0.17660467
-0.7455483	5 ) C C	-0.25619584
-0.7715501	F ) C C	-0.17660467
-0.32896578	%10 ) C C	-0.17660467
-0.32896578	[NH3+] ) C C	-0.17660467
-0.6306106	C # C C	-0.17990717
-0.58543783	N # C C	-0.17660467
-0.005716398	<s> Cl C C	-1.5996226
-0.49545756	C [C@@H] C C	-0.18658854
-0.76995766	N [C@@H] C C	-0.17660467
-0.636071	) [C@@H] C C	-0.18435
-0.30963135	5 [C@@H] C C	-0.17660467
-0.60351396	C [C@H] C C	-0.18123525
-0.9047555	N [C@H] C C	-0.17660467
-0.8292692	) [C@H] C C	-0.17660467
-0.6284382	C 5 C C	-0.18827505
-0.7245961	N 5 C C	-0.17660467
-0.6957139	c 5 C C	-0.18123525
-0.72995794	n 5 C C	-0.18123525
-0.49570268	C 7 C C	-0.17660467
-0.32328224	N 3 C C	-0.17660467
-1.059133	<s> F C C	-0.18827505
-0.4236307	<s> S C C	-0.17660467
-0.44446754	C S C C	-0.18123525
-0.22639328	N S C C	-0.17660467
-0.19575182	6 S C C	-0.17660467
-0.2913921	) S C C	-0.18435
-0.32328224	N %10 C C	-0.17660467
-0.7542706	<s> Br C C	-0.27402717
-0.16799109	N 9 C C	-0.17660467
-0.356964	C [NH+] C C	-0.17711715
-0.20442384	) [NH+] C C	-0.17660467
-0.98607194	C / C C	-0.17660467
-0.81593126	) / C C	-0.17660467
-0.6249043	C \ C C	-0.17660467
-0.16799109	N %11 C C	-0.17660467
-0.3752785	C [NH2+] C C	-0.17660467
-0.16799109	C [N@@H+] C C	-0.17660467
-0.16799109	<s> [NH3+] C C	-0.17660467
-0.43635148	C [C@@] C C	-0.17660467
-0.16799109	C [N@H+] C C	-0.17660467
-0.1938845	<s> O N C	-0.17660467
-0.1938845	O O N C	-0.17660467
-0.6386803	C = N C	-0.17660467
-0.09540821	<s> C N C	-0.9765603
-0.42037067	O C N C	-0.17660467
-0.5777277	= C N C	-0.18323499
-0.4361381	C C N C	-0.47041747
-0.48678353	N C N C	-0.18827505
-0.31396496	c C N C	-0.18591577
-0.24631397	n C N C	-0.17660467
-0.4777405	6 C N C	-0.18046005
-0.38370106	) C N C	-0.2591427
-0.3250276	[C@@H] C N C	-0.17660467
-0.23042914	[C@H] C N C	-0.18240066
-0.3250276	5 C N C	-0.18591577
-0.3250276	3 C N C	-0.17660467
-0.24631397	/ C N C	-0.17660467
-0.24631397	\ C N C	-0.17660467
-0.115969494	<s> N N C	-0.18827505
-0.115969494	) N N C	-0.18827505
-0.510314	c c N C	-0.18435
-0.26584533	5 c N C	-0.17660467
-0.72506714	C 6 N C	-0.17660467
-0.8141351	c 6 N C	-0.17660467
-0.6137893	[C@@H] 6 N C	-0.17660467
-0.78861624	O ) N C	-0.17660467
-0.29582736	C ) N C	-0.17660467
-0.64758265	N ) N C	-0.17660467
-0.59161013	6 ) N C	-0.18266025
-0.5632046	) ) N C	-0.2836295
-0.26703477	5 ) N C	-0.18164958
-0.43939483	C [C@@H] N C	-0.17660467
-0.3518003	) [C@@H] N C	-0.18591577
-0.3990247	C [C@H] N C	-0.17660467
-0.23190111	) [C@H] N C	-0.17660467
-0.3938551	C 5 N C	-0.17660467
-0.30510297	c 5 N C	-0.18827505
-0.15733019	[C@@H] 3 N C	-0.17660467
-0.15733019	C S N C	-0.17660467
-0.6678389	C / N C	-0.17660467
-1.0297158	O c c C	-0.18827505
-1.1406432	C c c C	-0.18046005
-1.250501	N c c C	-0.18240066
-1.0339906	c c c C	-0.20812784
-1.5636457	) c c C	-0.17660467
-1.3473384	5 c c C	-0.17660467
-0.9088271	C n c C	-0.18435
-1.5189364	c n c C	-0.17660467
-0.8808517	6 n c C	-0.17660467
-1.1569271	6 ) c C	-0.17660467
-1.2489027	) ) c C	-0.18827505
-1.2283866	5 ) c C	-0.17660467
-0.7666244	7 ) c C	-0.17660467
-1.2415957	c 5 c C	-0.17660467
-0.2836688	n 7 c C	-0.17660467
-1.5905439	c c n C	-0.17660467
-0.4617671	c 6 n C	-0.17660467
-0.9627489	6 ) n C	-0.17660467
-0.793348	= C 6 C	-0.17660467
-1.0569092	C C 6 C	-0.1853279
-0.8919449	N C 6 C	-0.17660467
-0.8033848	c C 6 C	-0.17660467
-0.63180363	C N 6 C	-0.18046005
-0.62454545	c N 6 C	-0.17660467
-1.0184852	c c 6 C	-0.18198326
-1.0400295	n c 6 C	-0.17660467
-0.90220857	c n 6 C	-0.17660467
-0.51883453	C [C@@H] 6 C	-0.18435
-0.16955493	C [C@H] 6 C	-0.17660467
-0.8939822	= O ) C	-0.19453998
-0.55321825	C O ) C	-0.17932595
-0.7453128	) O ) C	-0.18240066
-0.2900183	[C@H] O ) C	-0.17660467
-0.65055037	= C ) C	-0.17660467
-0.22674459	C C ) C	-0.42278895
-0.34731117	N C ) C	-0.18435
-0.59144527	6 C ) C	-0.17660467
-0.54195976	) C ) C	-0.24423489
-0.26627633	[C@H] C ) C	-0.17660467
-0.45052254	7 C ) C	-0.17660467
-0.26627633	[NH+] C ) C	-0.17660467
-0.5842553	= N ) C	-0.17660467
-0.6855758	C N ) C	-0.17660467
-0.82291234	C 6 ) C	-0.21476586
-0.8121368	N 6 ) C	-0.17660467
-1.0910571	c 6 ) C	-0.17660467
-0.982972	n 6 ) C	-0.17660467
-0.8623712	O ) ) C	-0.1853279
-0.89985806	C ) ) C	-0.17711715
-0.8675832	N ) ) C	-0.18435
-0.8183407	6 ) ) C	-0.19858184
-0.8090561	) ) ) C	-0.32260025
-1.0223144	Cl ) ) C	-0.17660467
-0.90540993	5 ) ) C	-0.17689747
-0.5676583	7 ) ) C	-0.17660467
-0.75209063	3 ) ) C	-0.17660467
-0.8706327	F ) ) C	-0.18827505
-0.5676583	[O-] ) ) C	-0.17660467
-0.33925018	8 ) ) C	-0.17660467
-0.4836169	C 4 ) C	-0.18240066
-0.66038597	O 5 ) C	-0.17660467
-0.6433529	C 5 ) C	-0.18020217
-0.8019801	c 5 ) C	-0.18081228
-0.66934836	n 5 ) C	-0.17990717
-0.8685385	s 5 ) C	-0.17660472
-0.8561353	[nH] 5 ) C	-0.17660467
-0.8158189	o 5 ) C	-0.17660467
-0.631947	C F ) C	-0.17660467
-0.68239945	C %10 ) C	-0.17660467
-0.26997703	C [NH3+] ) C	-0.17660467
-0.02852143	<s> C # C	-0.87625813
-0.17381606	O C # C	-0.17660467
-0.17493951	C C # C	-0.27402717
-0.31450355	) C # C	-0.18435
-0.17381606	%10 C # C	-0.17660467
-0.17381606	Br C # C	-0.17660467
-0.0021757726	<s> N # C	-1.4904549
-0.12432898	<s> [NH+] # C	-0.17660467
-0.43807465	C O [C@@H] C	-0.17660467
-0.21156028	) O [C@@H] C	-0.17660467
-0.42734626	O C [C@@H] C	-0.17660467
-0.42734626	= C [C@@H] C	-0.17660467
-0.43600222	C C [C@@H] C	-0.18591577
-0.50669634	N C [C@@H] C	-0.17660467
-0.40092456	) C [C@@H] C	-0.18435
-0.2509738	[C@@H] C [C@@H] C	-0.17660467
-0.15570235	C N [C@@H] C	-0.17660467
-0.15570235	) N [C@@H] C	-0.17660467
-0.14197911	c c [C@@H] C	-0.17660467
-0.5175452	c 6 [C@@H] C	-0.17660467
-0.41521633	O ) [C@@H] C	-0.17660467
-0.41521633	6 ) [C@@H] C	-0.17660467
-0.43740702	) ) [C@@H] C	-0.18435
-0.36733457	C [C@@H] [C@@H] C	-0.18827505
-0.14197911	c 5 [C@@H] C	-0.17660467
-0.18729416	C O [C@H] C	-0.17660467
-0.18729416	) O [C@H] C	-0.17660467
-0.41976178	[C@H] O [C@H] C	-0.17660467
-0.4607822	<s> C [C@H] C	-0.17660467
-0.16774975	O C [C@H] C	-0.17660467
-0.36464244	= C [C@H] C	-0.18827505
-0.31025577	C C [C@H] C	-0.17990717
-0.3249908	N C [C@H] C	-0.17660467
-0.16774975	) C [C@H] C	-0.18240066
-0.19296163	Cl C [C@H] C	-0.17660467
-0.19296163	[C@H] C [C@H] C	-0.17660467
-0.28098553	C N [C@H] C	-0.17660467
-0.28098553	) N [C@H] C	-0.17660467
-0.20655619	[C@@H] N [C@H] C	-0.17660467
-0.13537641	c 6 [C@H] C	-0.17660467
-0.4607183	O ) [C@H] C	-0.17660467
-0.22485842	6 ) [C@H] C	-0.17660467
-0.42995587	C [C@@H] [C@H] C	-0.17660467
-0.13537641	N [C@H] [C@H] C	-0.17660467
-0.13537641	c 5 [C@H] C	-0.17660467
-0.8785981	= C 5 C	-0.17660467
-0.8018936	C C 5 C	-0.17711715
-0.56097454	C N 5 C	-0.17660467
-0.32131344	c N 5 C	-0.17660467
-0.9714954	c c 5 C	-0.18435
-0.7285607	n c 5 C	-0.17990717
-0.31847268	) c 5 C	-0.17660467
-0.7540815	[nH] c 5 C	-0.17660467
-0.40617466	o c 5 C	-0.18435
-0.7854334	c n 5 C	-0.18240066
-0.60934955	n n 5 C	-0.18240066
-0.20764868	C [C@@H] 5 C	-0.17660467
-0.20764868	[C@H] [C@@H] 5 C	-0.17660467
-0.39136964	C [C@H] 5 C	-0.18827505
-0.20764868	[C@@H] [C@H] 5 C	-0.17660467
-0.26211983	) C 7 C	-0.17660467
-0.26211983	S C 7 C	-0.17660467
-0.2978803	C N 7 C	-0.18827505
-0.22185364	[C@@H] N 7 C	-0.17660467
-0.72336066	C C 3 C	-0.17660467
-0.14722204	C N 3 C	-0.17660467
-0.23159753	[C@@H] [C@H] 3 C	-0.17660467
-0.77398485	<s> C S C	-0.18435
-0.616331	C C S C	-0.17711715
-0.26267838	6 C S C	-0.17660467
-0.6470325	) C S C	-0.17660467
-0.44503525	F C S C	-0.17660467
-0.6973958	) N S C	-0.17660467
-0.53698486	C 6 S C	-0.17660467
-0.53698486	c 6 S C	-0.17660467
-0.6515529	O ) S C	-0.17660467
-0.9967191	) ) S C	-0.17660467
-0.7554039	5 ) S C	-0.17660467
-0.31833574	= C %10 C	-0.17660467
-0.79741764	C C %10 C	-0.17660467
-0.22430487	C N %10 C	-0.18827505
-0.17123184	[C@@H] [C@H] %10 C	-0.17660467
-0.18070388	C N 9 C	-0.17660467
-0.14664802	<s> C [NH+] C	-0.17660467
-0.15360019	C C [NH+] C	-0.18164958
-0.14664802	c C [NH+] C	-0.17660467
-0.21538486	) C [NH+] C	-0.17660467
-0.12719327	6 ) [NH+] C	-0.17660467
-0.10302394	<s> O / C	-0.17728813
-0.107442565	C O / C	-0.17660467
-0.16267358	<s> C / C	-0.17660467
-0.16267358	O C / C	-0.17660467
-0.32893404	= C / C	-0.17694625
-0.23285003	C C / C	-0.18435
-0.1420858	) C / C	-0.18827505
-0.16267358	S C / C	-0.17660467
-0.16405582	C N / C	-0.17660467
-0.16405582	) N / C	-0.17660467
-0.13294917	O ) / C	-0.17660467
-0.15196678	6 ) / C	-0.17660467
-0.22117501	) ) / C	-0.18240066
-0.12717322	C S / C	-0.17660467
-0.4401429	= C \ C	-0.17660467
-0.36347175	) ) \ C	-0.17660467
-0.14217313	C N %11 C	-0.17660467
-0.049162395	= C [C-] C	-0.17660467
-0.049162395	6 ) [C-] C	-0.17660467
-0.042688858	<s> C [NH2+] C	-0.5452649
-0.09825846	C C [NH2+] C	-0.18827505
-0.111653164	) C [NH2+] C	-0.17660467
-0.12817109	C ) [NH2+] C	-0.17660467
-0.10049316	C C [N@@H+] C	-0.17660467
-0.08857707	C C [C@@] C	-0.17660467
-0.10049316	C C [N@H+] C	-0.17660467
-0.48270065	<s> O O N	-0.17660467
-1.106855	= C O N	-0.17660467
-0.91691065	C C = N	-0.23819412
-1.188674	N C = N	-0.18827505
-0.92023194	) C = N	-0.18435
-0.3722328	/ c = N	-0.17660467
-0.53457606	O ) = N	-0.17660467
-1.7985662	<s> O C N	-0.18435
-0.9949393	O = C N	-0.17660467
-0.9497572	C = C N	-0.23819412
-0.7673573	N = C N	-0.17660467
-0.5533166	<s> C C N	-1.4325606
-0.69830304	O C C N	-0.31805357
-0.9491369	= C C N	-0.17660467
-0.89546275	C C C N	-0.31950584
-0.8254438	N C C N	-0.2836259
-0.7012281	c C C N	-0.18020217
-0.8582312	6 C C N	-0.18240066
-0.8509989	) C C N	-0.31588712
-0.9625924	# C C N	-0.17660467
-0.7086639	Cl C C N	-0.17660467
-0.7490325	[C@@H] C C N	-0.18435
-1.0332924	[C@H] C C N	-0.17660467
-0.81483024	5 C C N	-0.17711715
-0.58836615	%10 C C N	-0.17660467
-0.58836615	Br C C N	-0.17660467
-0.7086639	[NH+] C C N	-0.17660467
-0.35136896	%11 C C N	-0.17660467
-0.7086639	[NH2+] C C N	-0.17660467
-1.421664	C N C N	-0.18240066
-1.2409308	) N C N	-0.18240066
-1.025502	c c C N	-0.18827505
-0.7966532	n c C N	-0.17660467
-0.9072902	) c C N	-0.17660467
-0.3144837	) n C N	-0.17660467
-0.972686	C 6 C N	-0.18827505
-0.98392254	c 6 C N	-0.18046005
-1.1464723	O ) C N	-0.17660467
-1.2051264	C ) C N	-0.17660467
-0.9296749	N ) C N	-0.17660467
-0.98813796	6 ) C N	-0.1808047
-1.0741483	) ) C N	-0.17962934
-0.7237256	4 ) C N	-0.17660467
-0.8807007	5 ) C N	-0.32314265
-0.85704786	F ) C N	-0.17660467
-0.7244363	O [C@@H] C N	-0.17660467
-0.35822645	c [C@@H] C N	-0.17660467
-0.7351152	) [C@@H] C N	-0.18827505
-0.945724	C [C@H] C N	-0.17660467
-0.9048135	N [C@H] C N	-0.17660467
-0.8293195	) [C@H] C N	-0.17660467
-0.3489413	5 [C@H] C N	-0.17660467
-0.9945256	C 5 C N	-0.17660467
-1.2390258	c 5 C N	-0.17660467
-0.5673184	C 3 C N	-0.17660467
-0.28356838	[C@H] 3 C N	-0.17660467
-1.1735691	C / C N	-0.17660467
-0.67307293	C \ C N	-0.17660467
-1.2341121	O ) N N	-0.17660467
-1.4897658	) ) N N	-0.17660467
-1.3258622	C c c N	-0.18240066
-1.7305542	c c c N	-0.18827505
-1.3353925	6 c c N	-0.17660467
-1.7228101	) c c N	-0.17660467
-1.2922528	c 5 c N	-0.17660467
-0.8942051	O C 6 N	-0.17660467
-1.3302752	C C 6 N	-0.18123525
-1.1552962	c c 6 N	-0.17889057
-1.1896826	n c 6 N	-0.17660467
-0.5121751	C [C@@H] 6 N	-0.17660467
-0.26438013	[C@@H] [C@@H] 6 N	-0.17660467
-1.4217337	= O ) N	-0.18343157
-1.4745582	C C ) N	-0.17660467
-0.9392971	= N ) N	-0.17660467
-1.3239549	C 6 ) N	-0.17660467
-1.2536825	c 6 ) N	-0.17660467
-1.1022644	n 6 ) N	-0.17660467
-0.9586545	O ) ) N	-0.18240066
-1.2077212	C ) ) N	-0.17660467
-1.1516045	N ) ) N	-0.17660467
-1.0568985	6 ) ) N	-0.1791198
-1.0104033	) ) ) N	-0.28171268
-1.1625453	Cl ) ) N	-0.17660467
-1.2667979	5 ) ) N	-0.17660467
-0.9698957	F ) ) N	-0.17660467
-1.1417742	c 5 ) N	-0.17660467
-1.0179579	n 5 ) N	-0.17660467
-1.0613846	s 5 ) N	-0.17660467
-0.9746249	o 5 ) N	-0.17660467
-0.31781477	= [NH2+] ) N	-0.17660467
-0.6389398	C C # N	-0.17660467
-0.41327012	c C # N	-0.17660467
-0.24154523	6 C # N	-0.17660467
-0.39979672	) C # N	-0.18827505
-0.24154523	5 C # N	-0.17660467
-0.65103036	C O [C@@H] N	-0.17660467
-0.93613005	<s> C [C@@H] N	-0.17660467
-0.9475955	C C [C@@H] N	-0.17660467
-0.35647303	6 C [C@@H] N	-0.17660467
-0.47831047	O ) [C@@H] N	-0.17660467
-0.47831047	6 ) [C@@H] N	-0.17660467
-0.66987723	) ) [C@@H] N	-0.17660467
-0.5594159	O [C@@H] [C@@H] N	-0.17660467
-0.4376901	[C@H] O [C@H] N	-0.18827505
-0.85789037	<s> C [C@H] N	-0.17660467
-0.91904014	= C [C@H] N	-0.17660467
-0.6959236	O ) [C@H] N	-0.17660467
-0.9517186	= C 5 N	-0.17660467
-1.1323682	C C 5 N	-0.18827505
-1.2550583	c c 5 N	-0.18827505
-1.1733315	n c 5 N	-0.17660467
-0.93229717	s c 5 N	-0.17660467
-0.18325552	C [C@@H] 3 N	-0.17660467
-1.4205699	C C S N	-0.17660467
-1.0193387	C C %10 N	-0.17660467
-0.6393481	= C / N	-0.17660467
-0.64694047	C C / N	-0.17660467
-0.3161758	# C / N	-0.17660467
-0.29747885	= N / N	-0.17660467
-0.45367032	) ) \ N	-0.17660467
-0.27601558	<s> C O c	-1.0223862
-0.5773898	O C O c	-0.17660467
-0.7933171	= C O c	-0.17660467
-0.46902508	C C O c	-0.40265343
-0.7576163	) C O c	-0.18435
-0.53845376	5 C O c	-0.17660467
-1.0249686	c c O c	-0.17660467
-0.6351939	c 6 O c	-0.17660467
-0.29027215	[C@@H] 6 O c	-0.17660467
-0.9186455	O ) O c	-0.17660467
-0.74024504	6 ) O c	-0.18827505
-0.6889517	) ) O c	-0.17711715
-0.3358813	4 ) O c	-0.17660467
-0.17588969	C 5 O c	-0.17660467
-2.1919534	<s> O = c	-0.18240066
-0.80636305	<s> O C c	-0.90428686
-0.9101842	C O C c	-0.18435
-0.77712893	c O C c	-0.17660467
-0.69435793	6 O C c	-0.17660467
-0.81495273	) O C c	-0.17728813
-0.6466256	[C@@H] O C c	-0.17660467
-0.52904594	[C@H] O C c	-0.17660467
-1.0021068	O = C c	-0.17660467
-1.2616475	C = C c	-0.17660467
-0.94839805	<s> C C c	-0.97554505
-1.16713	O C C c	-0.18827505
-1.1717155	= C C c	-0.17660467
-1.2104282	C C C c	-0.39913687
-1.0530097	N C C c	-0.30222684
-1.1458131	6 C C c	-0.17660467
-0.96046317	) C C c	-0.29267678
-0.83347577	# C C c	-0.18827505
-1.0184935	[C@@H] C C c	-0.17660467
-0.9562016	[C@H] C C c	-0.18827505
-1.1199261	5 C C c	-0.17660467
-0.37098342	[C@@] C C c	-0.17660467
-1.6424	<s> N C c	-0.18827505
-0.72392815	= N C c	-0.17660467
-1.0173709	C N C c	-0.30574343
-0.9374498	6 N C c	-0.17660467
-1.0034313	) N C c	-0.18164958
-1.3009018	c c C c	-0.17660467
-0.30799013	c n C c	-0.17660467
-0.90442806	C 6 C c	-0.17660467
-0.7792235	N 6 C c	-0.17660467
-0.8933116	c 6 C c	-0.17660467
-0.31676748	n 6 C c	-0.17660467
-0.5302715	[C@@H] 6 C c	-0.17660467
-1.2682074	O ) C c	-0.17660467
-1.0067617	N ) C c	-0.17660467
-1.0691879	6 ) C c	-0.18591577
-1.0495374	) ) C c	-0.2691334
-1.1990091	5 ) C c	-0.17728813
-0.32543197	C # C c	-0.32777762
-0.55056316	N # C c	-0.17660467
-0.27477005	[NH+] # C c	-0.17660467
-2.4028287	<s> Cl C c	-0.17660467
-1.0086724	C [C@@H] C c	-0.17660467
-0.89532506	N [C@@H] C c	-0.17660467
-0.932123	) [C@@H] C c	-0.17660467
-0.6904149	O [C@H] C c	-0.17660467
-0.92717886	C [C@H] C c	-0.17660467
-0.88531417	N [C@H] C c	-0.17660467
-0.81236553	) [C@H] C c	-0.17660467
-0.7588756	N 5 C c	-0.17660467
-0.9222333	c 5 C c	-0.18240066
-0.93378425	n 5 C c	-0.17660467
-0.6996191	[C@@H] 5 C c	-0.17660467
-1.2504967	<s> F C c	-0.17728813
-0.80766016	C S C c	-0.18435
-0.6227935	C %10 C c	-0.17660467
-0.2778463	[C@H] %10 C c	-0.17660467
-1.1494029	C / C c	-0.17660467
-1.0401902	<s> C N c	-0.30222684
-0.5613043	O C N c	-0.17660467
-0.7743383	= C N c	-0.18123525
-0.84442043	C C N c	-0.31805357
-0.8430562	N C N c	-0.17660467
-0.833746	6 C N c	-0.17660467
-0.91062975	) C N c	-0.17711715
-0.5713037	C 6 N c	-0.18827505
-0.8817241	c 6 N c	-0.17660467
-0.6561091	[C@@H] 6 N c	-0.17660467
-1.0478886	O ) N c	-0.17660467
-0.8154508	6 ) N c	-0.18827505
-0.81832	) ) N c	-0.32777762
-0.2988423	O [C@@H] N c	-0.17660467
-0.66799885	C [C@@H] N c	-0.17660467
-0.24814297	O [C@H] N c	-0.17660467
-0.42310417	C [C@H] N c	-0.17660467
-0.17316669	C %10 N c	-0.17660467
-0.71471244	C / N c	-0.17660467
-0.17316669	) \ N c	-0.17660467
-0.058812317	<s> O c c	-0.6032568
-0.2630918	C O c c	-0.2953857
-0.3351476	c O c c	-0.17660467
-0.3179011	6 O c c	-0.18435
-0.18552008	) O c c	-0.27402717
-0.1874253	5 O c c	-0.17660467
-0.5131026	O = c c	-0.17660467
-0.053686995	<s> C c c	-0.982437
-0.096941814	O C c c	-0.43228713
-0.28863886	= C c c	-0.17660467
-0.16821447	C C c c	-0.34391585
-0.321106	N C c c	-0.20753208
-0.16436797	c C c c	-0.17660467
-0.16436797	n C c c	-0.17660467
-0.13474484	6 C c c	-0.3532084
-0.30074492	) C c c	-0.23819412
-0.27677795	# C c c	-0.18020217
-0.16436797	Cl C c c	-0.17660467
-0.15714905	[C@@H] C c c	-0.18827505
-0.16755097	[C@H] C c c	-0.27402717
-0.20878907	5 C c c	-0.18240066
-0.16436797	F C c c	-0.17660467
-0.3030862	S C c c	-0.17660467
-0.14352868	%10 C c c	-0.18827505
-0.16436797	/ C c c	-0.17660467
-0.1190046	<s> N c c	-0.26083082
-0.38603863	C N c c	-0.30205587
-0.28187582	6 N c c	-0.18020217
-0.34932464	) N c c	-0.18399203
-0.15438865	[C@@H] N c c	-0.18827505
-0.15438865	[C@H] N c c	-0.18827505
-0.17715292	%10 N c c	-0.17660467
-0.17715292	/ N c c	-0.17660467
-0.17715292	\ N c c	-0.17660467
-0.4168277	O c c c	-0.24581797
-0.2633654	= c c c	-0.17660467
-0.42962492	C c c c	-0.47829074
-0.44614267	N c c c	-0.31297532
-0.44743702	c c c c	-0.6331164
-0.5171016	n c c c	-0.22538683
-0.47355178	6 c c c	-0.23488939
-0.47991398	) c c c	-0.3438657
-0.2633654	Cl c c c	-0.17660467
-0.2633654	[C@@H] c c c	-0.17660467
-0.33339894	[C@H] c c c	-0.17728813
-0.44769412	5 c c c	-0.2585072
-0.2633654	7 c c c	-0.17660467
-0.2633654	3 c c c	-0.17660467
-0.5292862	F c c c	-0.17660467
-0.69548243	s c c c	-0.17660467
-0.76242924	[nH] c c c	-0.17660467
-0.3440543	S c c c	-0.18240066
-0.4280603	%10 c c c	-0.18827505
-0.2633654	Br c c c	-0.17660467
-0.62274855	o c c c	-0.17660467
-0.4175721	9 c c c	-0.18827505
-0.2633654	[NH+] c c c	-0.17660467
-0.2633654	/ c c c	-0.17660467
-0.2633654	\ c c c	-0.17660467
-0.2633654	I c c c	-0.17660467
-0.5734895	C n c c	-0.1770146
-0.48425564	c n c c	-0.33218834
-0.49028078	n n c c	-0.18827505
-0.59614766	6 n c c	-0.17660467
-0.32091773	) n c c	-0.30222684
-0.61102855	[nH] n c c	-0.17660467
-0.45959368	o n c c	-0.17660467
-0.14704566	C 6 c c	-0.17711715
-0.14704566	N 6 c c	-0.18827505
-0.25288466	c 6 c c	-0.17990717
-0.13444205	n 6 c c	-0.18435
-0.5514057	O ) c c	-0.18123525
-0.37042606	C ) c c	-0.18046005
-0.24679966	N ) c c	-0.17660467
-0.35865098	6 ) c c	-0.27173194
-0.40892214	) ) c c	-0.40717578
-0.4992038	Cl ) c c	-0.17660467
-0.29673114	5 ) c c	-0.47814715
-0.4992038	7 ) c c	-0.17660467
-0.4992038	F ) c c	-0.17660467
-0.24679966	%10 ) c c	-0.17660467
-0.24679966	[NH2+] ) c c	-0.17660467
-0.01915011	<s> Cl c c	-1.4925585
-0.14010252	) [C@@H] c c	-0.17660467
-0.10705082	C [C@H] c c	-0.18435
-0.12182168	N [C@H] c c	-0.17660467
-0.12182168	) [C@H] c c	-0.17660467
-0.16303676	C 5 c c	-0.18240066
-0.14881396	N 5 c c	-0.17660467
-0.31201565	c 5 c c	-0.21088111
-0.16303676	n 5 c c	-0.17711715
-0.170583	[C@@H] 5 c c	-0.17660467
-0.170583	[C@H] 5 c c	-0.17660467
-0.22296642	N 7 c c	-0.17660467
-0.14010252	[C@H] 3 c c	-0.17660467
-0.019494062	<s> F c c	-1.2511704
-0.21670446	c s c c	-0.23518234
-0.17695905	6 s c c	-0.17660467
-0.23593912	) s c c	-0.17728813
-0.17695905	/ s c c	-0.17660467
-0.49418753	c [nH] c c	-0.1770146
-0.35979387	n [nH] c c	-0.17660467
-0.35979387	6 [nH] c c	-0.17660467
-0.20046432	) [nH] c c	-0.39913687
-0.20482066	5 [nH] c c	-0.17660467
-0.1038203	C S c c	-0.18435
-0.11808174	) S c c	-0.17660467
-0.16449052	C %10 c c	-0.17660467
-0.16449052	c %10 c c	-0.17660467
-0.16449052	n %10 c c	-0.17660467
-0.01861225	<s> Br c c	-0.97892046
-0.38393465	c o c c	-0.17660467
-0.5271951	n o c c	-0.17660467
-0.11808174	C 9 c c	-0.17660467
-0.11808174	c 9 c c	-0.17660467
-0.12278657	C [NH+] c c	-0.18827505
-0.22296642	C / c c	-0.17660467
-0.14010252	C \ c c	-0.17660467
-0.14010252	<s> I c c	-0.17660467
-0.22296642	[nH+] [nH+] c c	-0.17660467
-0.20013006	<s> C n c	-0.39913687
-0.22432843	C C n c	-0.18020217
-0.34610236	) C n c	-0.18123525
-0.19646358	5 C n c	-0.17660467
-0.1385878	O c n c	-0.25619584
-0.20624176	= c n c	-0.17660467
-0.26630452	C c n c	-0.4295068
-0.25321767	N c n c	-0.23488939
-0.32536852	c c n c	-0.4243706
-0.4341835	n c n c	-0.18658854
-0.42915192	6 c n c	-0.17660467
-0.25931215	) c n c	-0.33209234
-0.20624176	Cl c n c	-0.17660467
-0.20624176	5 c n c	-0.17660467
-0.20624176	F c n c	-0.17660467
-0.4502146	s c n c	-0.17660467
-0.4502146	[nH] c n c	-0.17660467
-0.20624176	%10 c n c	-0.17660467
-0.49905786	o c n c	-0.17660467
-0.41144165	C n n c	-0.18435
-0.49190637	c n n c	-0.18144237
-0.39702561	n n n c	-0.18827505
-0.3753408	) n n c	-0.18435
-0.39178523	c 6 n c	-0.17660467
-0.46393892	O ) n c	-0.17660467
-0.33979827	C ) n c	-0.17660467
-0.5027993	6 ) n c	-0.17660467
-0.33979827	) ) n c	-0.18435
-0.20446037	Cl ) n c	-0.17660467
-0.20446037	5 ) n c	-0.17660467
-0.20446037	F ) n c	-0.17660467
-0.14340068	c s n c	-0.17660467
-0.08378939	c [nH] n c	-0.1770146
-0.106157124	) [nH] n c	-0.18827505
-0.12561569	c o n c	-0.18435
-0.83578736	O C 6 c	-0.17660467
-1.23666	C C 6 c	-0.18827505
-0.90312487	c C 6 c	-0.17660467
-0.75795573	C N 6 c	-0.17660467
-0.5989469	c N 6 c	-0.17660467
-0.2997369	) N 6 c	-0.17660467
-0.36347544	N c 6 c	-0.17660467
-0.9257386	c c 6 c	-0.24775147
-1.0735353	n c 6 c	-0.17660467
-0.7991737	c n 6 c	-0.17660467
-0.31010696	) n 6 c	-0.17660467
-0.96057796	= O ) c	-0.2737709
-0.3110835	c O ) c	-0.18240066
-0.94161844	= C ) c	-0.17660467
-0.53940403	c C ) c	-0.1770146
-0.3681272	n C ) c	-0.17660467
-0.89085853	= N ) c	-0.17660467
-0.67705256	C 6 ) c	-0.32314265
-0.7657842	N 6 ) c	-0.17660467
-1.003322	c 6 ) c	-0.17660467
-0.9139876	n 6 ) c	-0.17660467
-0.3402944	o 6 ) c	-0.17660467
-0.93461335	O ) ) c	-0.17660467
-0.805772	C ) ) c	-0.32314265
-0.807546	N ) ) c	-0.1770146
-0.95445246	6 ) ) c	-0.18458176
-1.011382	) ) ) c	-0.2606236
-0.89419514	Cl ) ) c	-0.17660467
-0.99012184	5 ) ) c	-0.18827505
-0.7633381	3 ) ) c	-0.17660467
-0.8833584	F ) ) c	-0.18435
-0.65424585	Br ) ) c	-0.17660467
-0.34356296	[NH+] ) ) c	-0.17660467
-0.6327578	c Cl ) c	-0.18240066
-0.62895757	O 5 ) c	-0.17660467
-0.95904	C 5 ) c	-0.17660467
-0.7607116	c 5 ) c	-0.18240066
-0.8043189	n 5 ) c	-0.17660467
-0.81885576	s 5 ) c	-0.17660467
-0.8084021	[nH] 5 ) c	-0.17660467
-0.314546	S 5 ) c	-0.17660467
-0.77303815	o 5 ) c	-0.17660467
-0.326982	C 7 ) c	-0.17660467
-0.248069	[nH] 7 ) c	-0.17660467
-0.4454459	c F ) c	-0.1770146
-0.46895492	C %10 ) c	-0.18827505
-0.1752406	N %12 ) c	-0.17660467
-0.30082938	c [NH2+] ) c	-0.17660467
-0.91760653	) ) [C@@H] c	-0.17660467
-0.57112235	<s> C [C@H] c	-0.18827505
-0.909309	= C [C@H] c	-0.17660467
-0.71643615	) N [C@H] c	-0.17660467
-0.68672127	O ) [C@H] c	-0.17660467
-0.35116923	O C 5 c	-0.17660467
-1.1551208	C C 5 c	-0.17660467
-0.9165836	N C 5 c	-0.17660467
-0.7644513	C N 5 c	-0.17660467
-0.6453507	) N 5 c	-0.17660467
-0.31937557	O c 5 c	-0.17660467
-0.6286153	c c 5 c	-0.2930632
-0.78574204	n c 5 c	-0.18435
-0.74548155	s c 5 c	-0.17660467
-0.75644195	[nH] c 5 c	-0.17660467
-0.78050804	c n 5 c	-0.18827505
-0.56522447	n n 5 c	-0.18827505
-0.2886143	) n 5 c	-0.17660467
-0.30036384	[C@@H] [C@@H] 5 c	-0.17660467
-0.4479766	C [C@H] 5 c	-0.17728813
-0.6014779	C N 7 c	-0.17660467
-0.15263915	c n 7 c	-0.17660467
-0.27020472	C [C@H] 3 c	-0.17660467
-0.13114123	O c s c	-0.17660467
-0.115084425	C c s c	-0.18827505
-0.12559906	N c s c	-0.17728813
-0.17612414	c c s c	-0.40265343
-0.18518534	) c s c	-0.18591577
-0.13114123	F c s c	-0.17660467
-0.11521492	c 6 s c	-0.17660467
-0.0647268	6 ) s c	-0.18827505
-0.07315792	) ) s c	-0.17660467
-0.07315792	Cl ) s c	-0.17660467
-0.07315792	F ) s c	-0.17660467
-0.11521492	) / s c	-0.17660467
-0.19463953	= c [nH] c	-0.17660467
-0.24312302	C c [nH] c	-0.18164958
-0.19463953	N c [nH] c	-0.17660467
-0.39244393	c c [nH] c	-0.23518234
-0.43147194	n c [nH] c	-0.17660467
-0.2360271	) c [nH] c	-0.1770146
-0.43029514	c n [nH] c	-0.18435
-0.37892896	c 6 [nH] c	-0.17660467
-0.2340313	6 ) [nH] c	-0.18435
-0.1430073	) ) [nH] c	-0.18435
-0.3022436	Cl ) [nH] c	-0.17660467
-0.1637556	5 ) [nH] c	-0.17660467
-0.1637556	F ) [nH] c	-0.17660467
-0.37892896	c 5 [nH] c	-0.17660467
-1.2599244	<s> C S c	-0.17660467
-1.0714839	) C S c	-0.17660467
-1.2185669	) ) S c	-0.17660467
-0.33370814	) C %10 c	-0.17660467
-0.6211892	c c %10 c	-0.17660467
-0.15869424	) n %10 c	-0.17660467
-0.15869424	C [C@@H] %10 c	-0.17660467
-0.18579914	O c o c	-0.17660467
-0.3328643	N c o c	-0.17660467
-0.2248694	c c o c	-0.24775147
-0.4173927	n c o c	-0.17660467
-0.16170557	) c o c	-0.18435
-0.253539	c n o c	-0.18827505
-0.18158713	) n o c	-0.17660467
-0.1448947	6 ) o c	-0.17660467
-0.24246594	) C 9 c	-0.17660467
-0.5768686	c c 9 c	-0.18827505
-0.7477199	C C [NH+] c	-0.17660467
-0.60413796	) C [NH+] c	-0.17660467
-0.9593849	= C / c	-0.17660467
-0.16683948	C n / c	-0.17660467
-0.53168416	= C \ c	-0.18827505
-0.091815524	) c [nH+] c	-0.17660467
-0.091815524	n [nH+] [nH+] c	-0.17660467
-2.6174078	<s> C C n	-0.17660467
-1.2329117	O C C n	-0.18435
-1.1725223	= C C n	-0.17660467
-1.8082638	C C C n	-0.17660467
-1.6008885	N C C n	-0.17660467
-1.5062611	) C C n	-0.17660467
-1.3173249	5 C C n	-0.17660467
-1.4839565	O ) C n	-0.17660467
-1.4707546	6 ) C n	-0.17660467
-1.5061257	) ) C n	-0.18827505
-1.6016729	5 ) C n	-0.17660467
-0.96973103	N 5 C n	-0.17660467
-0.6882172	C O c n	-0.17728813
-0.4745813	c O c n	-0.17660467
-0.6312553	6 O c n	-0.17660467
-0.7210467	) O c n	-0.17660467
-0.58693755	O = c n	-0.17660467
-1.233364	<s> C c n	-0.18435
-0.90605533	O C c n	-0.17660467
-0.6123449	= C c n	-0.17660467
-0.6995691	C C c n	-0.26083082
-0.43965724	N C c n	-0.18266025
-0.7811166	6 C c n	-0.17660467
-0.653205	) C c n	-0.1808047
-0.48773754	# C c n	-0.18435
-0.71662176	5 C c n	-0.17660467
-0.4605746	S C c n	-0.17660467
-0.95045817	<s> N c n	-0.17660467
-0.5379973	C N c n	-0.4201552
-0.7495917	6 N c n	-0.17660467
-0.6446768	) N c n	-0.18435
-1.0054317	O c c n	-0.17660467
-0.8702813	C c c n	-0.44603568
-0.7357711	N c c n	-0.32777762
-0.8870026	c c c n	-0.3657357
-0.9449511	n c c n	-0.18240066
-0.75102097	6 c c n	-0.17728813
-0.806621	) c c n	-0.28633487
-0.74918	[C@H] c c n	-0.17660467
-0.9366297	5 c c n	-0.18435
-0.8753002	s c c n	-0.17660467
-0.94224703	[nH] c c n	-0.17660467
-0.5253442	%10 c c n	-0.18827505
-0.80107474	o c c n	-0.17660467
-0.754744	9 c c n	-0.17660467
-0.7590231	C n c n	-0.18827505
-0.62115157	c n c n	-0.30456808
-0.80870736	n n c n	-0.17660467
-0.90274054	) n c n	-0.18827505
-0.552631	o n c n	-0.17660467
-0.8123997	c 6 c n	-0.17660467
-0.6701898	O ) c n	-0.18240066
-0.7130051	C ) c n	-0.17660467
-0.7603462	6 ) c n	-0.18435
-0.5505027	) ) c n	-0.39060423
-0.76967883	5 ) c n	-0.18435
-0.6086557	7 ) c n	-0.17660467
-0.6086557	F ) c n	-0.17660467
-0.3045845	%12 ) c n	-0.17660467
-1.574292	<s> Cl c n	-0.18827505
-0.9434486	c 5 c n	-0.18827505
-1.8793771	<s> F c n	-0.17660467
-0.7718199	c s c n	-0.17660467
-0.66696894	) s c n	-0.17660467
-0.56327665	c [nH] c n	-0.17711715
-0.9416795	) [nH] c n	-0.17660467
-0.31575036	[C@@H] %10 c n	-0.17660467
-0.6064831	c o c n	-0.17660467
-0.53080624	n o c n	-0.17660467
-0.26418877	) o c n	-0.17660467
-0.6625742	<s> C n n	-0.18827505
-0.6737797	C C n n	-0.17728813
-0.4809006	) C n n	-0.18827505
-0.6737992	C c n n	-0.30222684
-0.65057796	N c n n	-0.18827505
-0.867892	c c n n	-0.23488939
-0.86972106	n c n n	-0.17660467
-0.6518418	6 c n n	-0.17660467
-0.85611844	) c n n	-0.17728813
-0.7674048	o c n n	-0.17660467
-0.45931408	C n n n	-0.18435
-0.6818219	c n n n	-0.18240066
-0.59923613	n n n n	-0.18435
-0.67048824	) n n n	-0.17660467
-0.71177006	C ) n n	-0.17660467
-0.5555833	6 ) n n	-0.18827505
-0.71177006	) ) n n	-0.17660467
-0.3180621	7 ) n n	-0.17660467
-1.4036014	c c 6 n	-0.18435
-1.4199463	= O ) n	-0.18123525
-1.0209978	= C ) n	-0.17660467
-0.68106896	c C ) n	-0.18240066
-1.3701274	C 6 ) n	-0.17660467
-1.3028356	c 6 ) n	-0.17660467
-1.6154739	C ) ) n	-0.17660467
-1.5286621	6 ) ) n	-0.17660467
-1.8411471	) ) ) n	-0.17660467
-0.92839986	c Cl ) n	-0.17660467
-1.1894158	[nH] 5 ) n	-0.17660467
-0.33836174	N 7 ) n	-0.17660467
-1.0693316	c F ) n	-0.17660467
-1.3010212	c c s n	-0.17660467
-0.59976655	C c [nH] n	-0.18827505
-0.73431605	c c [nH] n	-0.18827505
-0.76602536	) c [nH] n	-0.17660467
-0.29395166	5 c [nH] n	-0.17660467
-0.66944796	6 ) [nH] n	-0.17660467
-0.5477014	Cl ) [nH] n	-0.17660467
-0.29117045	C c o n	-0.18827505
-0.5754909	N c o n	-0.17660467
-0.9680433	= C O 6	-0.17660467
-1.2016401	C C O 6	-0.18827505
-0.3752837	[C@@H] C O 6	-0.17660467
-0.7651573	[C@H] C O 6	-0.17660467
-1.3472409	C O C 6	-0.17660467
-1.383434	C = C 6	-0.18046005
-1.2247702	O C C 6	-0.18123525
-1.2493917	= C C 6	-0.17660467
-1.3522598	C C C 6	-0.21539447
-1.4253614	N C C 6	-0.17660472
-1.3651108	) C C 6	-0.18240066
-1.1896377	S C C 6	-0.17660467
-0.6448966	%10 C C 6	-0.17660467
-0.3832224	9 C C 6	-0.17660467
-0.78490406	[NH+] C C 6	-0.17660467
-0.78490406	[NH2+] C C 6	-0.17660467
-0.3832224	[N@H+] C C 6	-0.17660467
-1.4778425	C N C 6	-0.18435
-1.5158765	) N C 6	-0.17660467
-1.1332179	c c C 6	-0.17660467
-0.8744362	n c C 6	-0.17660467
-0.7872799	O [C@@H] C 6	-0.17660467
-0.7381573	N [C@@H] C 6	-0.18827505
-0.73022884	O [C@H] C 6	-0.17660467
-1.1343968	C [C@H] C 6	-0.17660467
-0.9473073	N [C@H] C 6	-0.17660467
-0.6046146	[C@@H] [C@H] C 6	-0.17660467
-0.9684434	C = N 6	-0.17660467
-1.1046621	C C N 6	-0.1792652
-0.7428583	N C N 6	-0.18827505
-0.8898146	c C N 6	-0.17660467
-0.9867246	[C@H] C N 6	-0.17660467
-0.9316267	c c N 6	-0.17660467
-1.3035498	O ) N 6	-0.17660467
-1.2964693	N C c 6	-0.17660467
-1.4705899	C N c 6	-0.17660467
-1.5178919	C c c 6	-0.17711715
-1.6305197	c c c 6	-0.1797472
-1.2012196	n c c 6	-0.18123525
-1.0347607	) c c 6	-0.2062088
-1.3014851	c n c 6	-0.1829284
-1.2103462	n n c 6	-0.17660467
-1.0649167	) n c 6	-0.18435
-0.2879371	c [nH+] c 6	-0.17660467
-1.2130145	c c n 6	-0.17711715
-0.8910703	n c n 6	-0.18435
-1.3514566	) c n 6	-0.17660467
-1.2294636	c n n 6	-0.17660467
-0.91097355	O ) n 6	-0.17660467
-0.5736041	O C [C@@H] 6	-0.17660467
-1.0429816	C C [C@@H] 6	-0.17660467
-0.68929404	N C [C@@H] 6	-0.17660467
-0.77201366	) C [C@@H] 6	-0.17660467
-0.5850882	O [C@@H] [C@@H] 6	-0.17660467
-0.9517189	N C [C@H] 6	-0.17660467
-0.6447141	O ) [nH] 6	-0.17660467
-0.19620924	c c S 6	-0.17660467
-1.1062495	c c o 6	-0.17660467
-0.39004937	/ C / 6	-0.17660467
-0.028232738	C = O )	-0.43993312
-0.03399079	c = O )	-0.2769189
-0.10806743	6 = O )	-0.18435
-0.060587753	) = O )	-0.17660472
-0.060587753	4 = O )	-0.17660467
-0.08419551	5 = O )	-0.18827505
-0.060587753	3 = O )	-0.17660467
-0.018554434	S = O )	-0.4780446
-0.05369593	%10 = O )	-0.18827505
-0.060587753	[S@] = O )	-0.17660467
-0.05369593	[S@@] = O )	-0.17660467
-0.060587753	P = O )	-0.17660467
-0.05369593	[N+] = O )	-0.18435
-0.060587753	%12 = O )	-0.17660467
-0.060587753	%11 = O )	-0.17660467
-0.060587753	%15 = O )	-0.17660467
-0.78948706	= C O )	-0.17660467
-0.9596036	C C O )	-0.1770146
-0.49649936	6 C O )	-0.17660467
-0.75451773	) C O )	-0.18435
-0.6411386	[C@H] C O )	-0.17660467
-0.15441792	6 N O )	-0.17660467
-0.35705394	c c O )	-0.39913687
-0.46615815	) c O )	-0.17660467
-0.22763027	C 6 O )	-0.18827505
-0.5810996	c 6 O )	-0.17660467
-0.5665254	O ) O )	-0.18240066
-0.7101876	6 ) O )	-0.17660467
-0.49039853	) ) O )	-0.28633487
-0.5469312	5 ) O )	-0.17660467
-0.5646144	F ) O )	-0.17660467
-0.27284163	[O] ) O )	-0.17660467
-0.44855443	C [C@H] O )	-0.17660467
-0.44855443	) [C@H] O )	-0.17660467
-0.15441792	C S O )	-0.17660467
-0.24035211	c %10 O )	-0.17660467
-0.15441792	C \ O )	-0.17660467
-0.15441792	) B O )	-0.17660467
-0.7300618	c O C )	-0.18827505
-0.8724502	6 O C )	-0.17660467
-1.0245136	) O C )	-0.17728813
-0.9411631	C = C )	-0.18164958
-0.33809417	c = C )	-0.17660467
-0.33809417	) = C )	-0.17660467
-0.33809417	3 = C )	-0.17660467
-0.28660098	S = C )	-0.18827505
-1.3402288	O C C )	-0.17660467
-1.2087519	= C C )	-0.17660467
-1.2322621	C C C )	-0.22538683
-1.3777283	N C C )	-0.17660467
-0.85213715	c C C )	-0.18827505
-1.1820034	6 C C )	-0.17660467
-1.153144	) C C )	-0.27402717
-1.044956	[C@@H] C C )	-0.17660467
-0.978338	[C@H] C C )	-0.18827505
-1.1537012	5 C C )	-0.17660467
-0.7695027	[NH2+] C C )	-0.17660467
-1.1190262	C N C )	-0.39913687
-1.1524744	) N C )	-0.18827505
-0.5567279	c c C )	-0.35337937
-0.716435	n c C )	-0.17660467
-0.6223494	) c C )	-0.18827505
-0.32511982	7 c C )	-0.17660467
-0.31327567	6 n C )	-0.17660467
-0.6624041	C 6 C )	-0.17711715
-0.69858193	N 6 C )	-0.18827505
-0.94040066	c 6 C )	-0.18827505
-0.89387953	O ) C )	-0.27402717
-0.48749113	C ) C )	-0.47814715
-0.9562312	N ) C )	-0.17660467
-1.0159769	6 ) C )	-0.17711715
-1.2126498	) ) C )	-0.17711715
-1.0036609	5 ) C )	-0.30222684
-0.87940735	F ) C )	-0.17660467
-0.39192697	6 [C@H] C )	-0.17660467
-0.9931097	c 5 C )	-0.17728813
-0.8605913	n 5 C )	-0.18827505
-0.38276014	C 7 C )	-0.17660467
-0.19106305	N 7 C )	-0.18827505
-0.6960605	C 3 C )	-0.17660467
-0.5175145	C [NH+] C )	-0.17728813
-0.724132	) / C )	-0.18827505
-0.46754524	C [C@@] C )	-0.17660467
-0.5326512	C = N )	-0.18020217
-0.29797217	) = N )	-0.17660467
-1.031584	N C N )	-0.17660467
-1.0261445	6 C N )	-0.17660467
-1.3752446	) C N )	-0.17660467
-0.81983316	c 6 N )	-0.18827505
-0.7226979	[C@@H] 6 N )	-0.17660467
-0.8744314	O ) N )	-0.17660467
-0.70785475	N ) N )	-0.17660467
-0.71153724	6 ) N )	-0.18827505
-0.9410756	) ) N )	-0.17728813
-0.8110057	5 ) N )	-0.17660467
-0.3216145	[NH2+] ) N )	-0.17660467
-0.35520768	C # N )	-0.30222684
-0.68038785	c 5 N )	-0.17660467
-0.33176142	C O 6 )	-0.17728813
-0.6207422	O C 6 )	-0.17660467
-0.6561057	= C 6 )	-0.17660467
-0.44415036	C C 6 )	-0.3559711
-0.60486686	N C 6 )	-0.18123525
-0.5001033	c C 6 )	-0.18240066
-0.24289033	[C@@H] C 6 )	-0.18435
-0.18482828	[C@H] C 6 )	-0.18591577
-0.2887848	= N 6 )	-0.17660467
-0.51770735	C N 6 )	-0.17711715
-0.57740045	c N 6 )	-0.17660467
-1.0333071	c c 6 )	-0.18024176
-0.896244	n c 6 )	-0.18827505
-0.56340957	c n 6 )	-0.18448904
-0.501645	n n 6 )	-0.17660467
-0.17204407	c o 6 )	-0.17660467
-0.5607526	= O ) )	-0.3910436
-0.5017958	C O ) )	-0.18240066
-0.25622177	6 O ) )	-0.18123525
-0.3820326	) O ) )	-0.25780162
-0.30013615	%10 O ) )	-0.17660467
-0.20835242	O C ) )	-0.18435
-0.4330648	= C ) )	-0.18435
-0.60405844	C C ) )	-0.18046005
-0.47049823	N C ) )	-0.17660467
-0.2825776	6 C ) )	-0.18198326
-0.22703503	) C ) )	-0.30349287
-0.18924049	5 C ) )	-0.18435
-0.37959215	7 C ) )	-0.17660467
-0.21858181	3 C ) )	-0.17660467
-0.21858181	/ C ) )	-0.17660467
-0.26773146	C N ) )	-0.18827505
-0.16905963	6 N ) )	-0.18435
-0.08298631	) N ) )	-0.33179942
-0.19451629	# N ) )	-0.17660467
-0.19451629	5 N ) )	-0.17660467
-0.31969464	O 6 ) )	-0.17660467
-0.73872364	C 6 ) )	-0.22051248
-0.49548534	N 6 ) )	-0.18827505
-0.837435	c 6 ) )	-0.18565442
-0.69890517	n 6 ) )	-0.18046005
-0.5244724	O ) ) )	-0.27666086
-0.43949032	C ) ) )	-0.3562934
-0.44197845	N ) ) )	-0.26655036
-0.6211441	6 ) ) )	-0.33933017
-0.5091023	) ) ) )	-0.45795393
-0.46251884	Cl ) ) )	-0.2737709
-0.28642258	4 ) ) )	-0.17660467
-0.27184942	5 ) ) )	-0.4818347
-0.48170447	7 ) ) )	-0.17660467
-0.62672126	3 ) ) )	-0.17660467
-0.55418694	F ) ) )	-0.17887118
-0.28642258	S ) ) )	-0.17660467
-0.28642258	%10 ) ) )	-0.17660467
-0.47683474	Br ) ) )	-0.17728813
-0.28642258	9 ) ) )	-0.17660467
-0.48170447	[O-] ) ) )	-0.17660467
-0.28642258	[NH2+] ) ) )	-0.17660467
-0.28642258	[NH3+] ) ) )	-0.17660467
-0.28642258	I ) ) )	-0.17660467
-0.17066562	C Cl ) )	-0.18435
-0.15565135	6 Cl ) )	-0.18123525
-0.17066562	) Cl ) )	-0.17686085
-0.1786431	%10 Cl ) )	-0.17660467
-0.1786431	9 Cl ) )	-0.17660467
-0.4467437	C 4 ) )	-0.18827505
-0.5789104	O 5 ) )	-0.17660467
-0.47781548	C 5 ) )	-0.32314265
-0.27481627	N 5 ) )	-0.18435
-0.64820343	c 5 ) )	-0.17711715
-0.5909651	n 5 ) )	-0.18827505
-0.743627	s 5 ) )	-0.17660467
-0.5437225	[nH] 5 ) )	-0.1770146
-0.5512651	o 5 ) )	-0.18827505
-0.289561	[S] 5 ) )	-0.17660467
-0.6139805	C 7 ) )	-0.17660467
-0.15773587	C 3 ) )	-0.17660467
-0.26614738	6 F ) )	-0.17660467
-0.3479446	) F ) )	-0.21266486
-0.26614738	5 F ) )	-0.17660467
-0.26614738	9 F ) )	-0.17660467
-0.15773587	) S ) )	-0.17660467
-0.62229705	C %10 ) )	-0.17660467
-0.1367731	C Br ) )	-0.17660467
-0.1367731	6 Br ) )	-0.17660467
-0.13095525	) Br ) )	-0.1770146
-0.15773587	C 9 ) )	-0.17660467
-0.15773587	# [NH+] ) )	-0.17660467
-0.15773587	) [O-] ) )	-0.17660467
-0.27760926	6 [NH2+] ) )	-0.17660467
-0.24439944	) [NH3+] ) )	-0.17660467
-0.15773587	[nH] 8 ) )	-0.17660467
-0.15773587	%10 I ) )	-0.17660467
-0.17404991	C C Cl )	-0.17660467
-0.31646827	) C Cl )	-0.17660467
-0.31646827	5 C Cl )	-0.17660467
-0.054994747	c c Cl )	-0.18020217
-0.100031495	5 c Cl )	-0.17660467
-0.1356968	C 6 Cl )	-0.18827505
-0.29160744	c 6 Cl )	-0.18827505
-0.37138778	6 ) Cl )	-0.18827505
-0.29949448	) ) Cl )	-0.39913687
-0.34427974	5 ) Cl )	-0.17728813
-0.10392815	c %10 Cl )	-0.18827505
-0.118206576	c 9 Cl )	-0.17660467
-0.45853168	C C 4 )	-0.17660467
-0.22358674	N C 4 )	-0.17660467
-0.22358674	[NH2+] C 4 )	-0.17660467
-0.2327365	C N 4 )	-0.17660467
-0.34630463	C O 5 )	-0.18827505
-0.17560607	c O 5 )	-0.17660467
-0.17560607	[C@H] O 5 )	-0.17660467
-0.570581	= C 5 )	-0.17660467
-0.380145	C C 5 )	-0.28633487
-0.49579945	N C 5 )	-0.18240066
-0.31662947	) C 5 )	-0.18827505
-0.2387633	[C@@H] C 5 )	-0.17660467
-0.20602277	[C@H] C 5 )	-0.18827505
-0.2387633	S C 5 )	-0.17660467
-0.27392417	= N 5 )	-0.17660467
-0.64621454	C N 5 )	-0.17660467
-0.5489682	) N 5 )	-0.17660467
-0.65078664	c c 5 )	-0.3049002
-0.7735276	n c 5 )	-0.18591577
-0.79164076	s c 5 )	-0.17660467
-0.496568	c n 5 )	-0.2585072
-0.5670528	n n 5 )	-0.18435
-0.49168104	c s 5 )	-0.18240066
-0.36099282	c [nH] 5 )	-0.18240066
-0.45204234	n [nH] 5 )	-0.17660467
-0.20736296	) [nH] 5 )	-0.17660467
-0.15158834	C S 5 )	-0.17660467
-0.37992918	c o 5 )	-0.1853279
-0.3904047	n o 5 )	-0.17660467
-0.15158834	= [S] 5 )	-0.17660467
-0.29405057	C C 7 )	-0.17728813
-0.22874573	c C 7 )	-0.17660467
-0.22874573	[C@H] C 7 )	-0.17660467
-0.29317364	c N 7 )	-0.17660467
-0.15298682	c [nH] 7 )	-0.17660467
-0.66986406	C C 3 )	-0.18827505
-0.04970273	O C F )	-0.18827505
-0.05604823	= C F )	-0.17660467
-0.04970273	C C F )	-0.17660467
-0.05604823	6 C F )	-0.17660467
-0.103144035	) C F )	-0.1808047
-0.05604823	5 C F )	-0.17660467
-0.05604823	F C F )	-0.17660467
-0.028154237	c c F )	-0.23819412
-0.060624838	n c F )	-0.17660467
-0.058260918	) c F )	-0.17728813
-0.060624838	5 c F )	-0.17660467
-0.35644194	c 6 F )	-0.18827505
-0.27952614	6 ) F )	-0.17728813
-0.35591903	) ) F )	-0.25619584
-0.30565268	5 ) F )	-0.18827505
-0.22445159	F ) F )	-0.17711715
-0.09465348	C 5 F )	-0.17660467
-0.09465348	C %10 F )	-0.17660467
-0.09465348	c 9 F )	-0.17660467
-0.89300054	O ) S )	-0.17660467
-0.872233	C C %10 )	-0.17660467
-0.34176177	[C@@H] C %10 )	-0.17660467
-0.2304797	# C Br )	-0.17660467
-0.12810133	c 6 Br )	-0.18827505
-0.3849844	6 ) Br )	-0.17660467
-0.3849844	) ) Br )	-0.17660467
-0.3849844	5 ) Br )	-0.17660467
-0.2762893	C C 9 )	-0.17660467
-0.17497964	C # [NH+] )	-0.17660467
-0.30654687	O ) [O-] )	-0.18827505
-0.14564152	c N %12 )	-0.17660467
-0.09131292	6 N [O] )	-0.18827505
-0.12923978	C = [NH2+] )	-0.17660467
-0.12923978	n c [NH2+] )	-0.17660467
-0.12923978	c 6 [NH2+] )	-0.17660467
-0.09286083	[C@H] C [NH3+] )	-0.17660467
-0.09286083	6 ) [NH3+] )	-0.17660467
-0.103643	5 [nH] 8 )	-0.17660467
-0.14564152	C %10 I )	-0.17660467
-2.1900415	<s> O C #	-0.17660467
-2.4659362	<s> C C #	-0.18827505
-1.8824751	C C C #	-0.17660467
-1.4765426	N C C #	-0.18827505
-1.7237504	) C C #	-0.17660467
-1.360835	5 C C #	-0.17660467
-1.2173097	c c C #	-0.18435
-1.3447981	c 6 C #	-0.17660467
-1.5308809	O ) C #	-0.17660467
-1.5163331	6 ) C #	-0.17660467
-1.2804285	) ) C #	-0.17728813
-1.432752	c 5 C #	-0.17660467
-0.81537396	C %10 C #	-0.17660467
-0.12506032	<s> Br C #	-0.97892046
-2.0583112	) C C Cl	-0.17660467
-1.7462702	O ) C Cl	-0.17660467
-1.237976	c 5 C Cl	-0.18435
-1.7663484	C c c Cl	-0.17660467
-1.5297934	N c c Cl	-0.17660467
-1.3010689	c c c Cl	-0.39913687
-1.2960938	6 c c Cl	-0.17660467
-1.0974174	5 c c Cl	-0.17728813
-1.3024381	c 5 c Cl	-0.17660467
-0.9749394	= C 6 Cl	-0.17660467
-1.1180911	N C 6 Cl	-0.17660467
-1.3719673	c c 6 Cl	-0.17660467
-1.2140098	n c 6 Cl	-0.17660467
-1.7022723	= O ) Cl	-0.17660467
-1.3997695	c 6 ) Cl	-0.17660467
-1.1985238	n 6 ) Cl	-0.17660467
-1.2965243	C ) ) Cl	-0.18435
-1.2530146	N ) ) Cl	-0.17660467
-1.2151885	6 ) ) Cl	-0.18435
-1.4802706	) ) ) Cl	-0.17711715
-1.2677372	Cl ) ) Cl	-0.17660467
-1.2569296	F ) ) Cl	-0.17660467
-1.1821563	c 5 ) Cl	-0.17660467
-1.0473269	n 5 ) Cl	-0.17660467
-1.0961661	s 5 ) Cl	-0.17660467
-1.0018588	o 5 ) Cl	-0.17660467
-0.72364014	[nH] c 5 Cl	-0.18827505
-0.5872789	c c %10 Cl	-0.17660467
-0.49338913	) c %10 Cl	-0.17660467
-0.88179237	c c 9 Cl	-0.17660467
-0.109210834	) N . Cl	-0.17660467
-1.9412553	C C C 4	-0.18240066
-1.6756963	C N C 4	-0.18827505
-1.7422078	O ) C 4	-0.17660467
-0.6838726	C [NH2+] C 4	-0.17660467
-1.9319566	C C N 4	-0.17660467
-1.3566341	O ) N 4	-0.17660467
-0.91381717	) C [C@@H] 4	-0.17660467
-0.39313254	[NH2+] C [C@@H] 4	-0.17660467
-1.3084669	C C O [C@@H]	-0.18827505
-0.39881957	c C O [C@@H]	-0.17660467
-1.2262142	6 ) O [C@@H]	-0.17660467
-1.0335338	<s> O C [C@@H]	-0.74155957
-1.4816867	C O C [C@@H]	-0.17660467
-1.0728377	O = C [C@@H]	-0.17660467
-1.5009515	C = C [C@@H]	-0.17660467
-2.5376368	<s> C C [C@@H]	-0.17660467
-1.129499	= C C [C@@H]	-0.17660467
-1.4024748	C C C [C@@H]	-0.18435
-1.5145113	N C C [C@@H]	-0.17660467
-1.2937173	6 C C [C@@H]	-0.17660467
-1.4381948	) C C [C@@H]	-0.17660467
-1.1227368	[C@@H] C C [C@@H]	-0.17660467
-1.2638531	[C@H] C C [C@@H]	-0.17660467
-1.5395535	C N C [C@@H]	-0.17660467
-1.2768222	) N C [C@@H]	-0.18827505
-1.3244143	c 6 C [C@@H]	-0.17660467
-1.5088507	O ) C [C@@H]	-0.17660467
-1.450843	) ) C [C@@H]	-0.17728813
-1.0235893	F ) C [C@@H]	-0.17660467
-1.2260716	C [C@@H] C [C@@H]	-0.17660467
-1.2972205	C [C@H] C [C@@H]	-0.17660467
-1.0636722	N [C@H] C [C@@H]	-0.17660467
-0.32373816	) [NH2+] C [C@@H]	-0.17660467
-1.277849	= C N [C@@H]	-0.17660467
-1.5078334	C C N [C@@H]	-0.17728813
-1.2503555	O ) N [C@@H]	-0.17660467
-1.3154781	) ) N [C@@H]	-0.18827505
-2.2000926	c c c [C@@H]	-0.17660467
-1.6031556	c c 6 [C@@H]	-0.17660467
-1.7394902	= O ) [C@@H]	-0.17660467
-1.532847	c 6 ) [C@@H]	-0.17660467
-1.6620252	6 ) ) [C@@H]	-0.17660467
-2.0073774	) ) ) [C@@H]	-0.17660467
-0.6818624	C O [C@@H] [C@@H]	-0.17660467
-1.016071	<s> C [C@@H] [C@@H]	-0.17660467
-0.9440005	C C [C@@H] [C@@H]	-0.18435
-0.3203903	<s> N [C@@H] [C@@H]	-0.17660467
-0.19671783	N [C@] [C@H] [C@@H]	-0.17660467
-1.4335682	c c 5 [C@@H]	-0.18827505
-1.5860116	C C O [C@H]	-0.17660467
-1.1939849	6 ) O [C@H]	-0.17660467
-0.30651107	O [C@H] O [C@H]	-0.17660467
-0.30651107	N [C@H] O [C@H]	-0.17660467
-1.4506745	<s> O C [C@H]	-0.39913687
-1.4816867	C O C [C@H]	-0.17660467
-1.0728377	O = C [C@H]	-0.17660467
-1.3570557	C = C [C@H]	-0.17660467
-1.2510968	C C C [C@H]	-0.17719041
-1.6502167	N C C [C@H]	-0.17660467
-1.3975503	6 C C [C@H]	-0.17660467
-1.5437931	) C C [C@H]	-0.18827505
-1.0949148	[C@H] C C [C@H]	-0.17660467
-1.4596102	C N C [C@H]	-0.18240066
-1.4876034	) N C [C@H]	-0.17660467
-1.4808596	) ) C [C@H]	-0.17728813
-1.6696999	5 ) C [C@H]	-0.17660467
-2.4439206	<s> Cl C [C@H]	-0.17660467
-1.2260716	C [C@@H] C [C@H]	-0.17660467
-0.4020503	[C@H] [C@H] C [C@H]	-0.17660467
-1.4095188	c 5 C [C@H]	-0.17660467
-1.7290424	<s> C N [C@H]	-0.17728813
-1.2234231	= C N [C@H]	-0.17660467
-1.2699119	C C N [C@H]	-0.30222684
-1.2250918	O ) N [C@H]	-0.17660467
-1.2943133	) ) N [C@H]	-0.17660467
-0.84857714	) [C@@H] N [C@H]	-0.17660467
-1.6031556	c c 6 [C@H]	-0.17660467
-1.7394902	= O ) [C@H]	-0.17660467
-1.532847	c 6 ) [C@H]	-0.17660467
-1.6620252	6 ) ) [C@H]	-0.17660467
-1.7723753	) ) ) [C@H]	-0.18827505
-0.61903423	= C [C@@H] [C@H]	-0.17660467
-1.162778	C C [C@@H] [C@H]	-0.17660467
-0.74959415	N C [C@@H] [C@H]	-0.17660467
-0.63734657	c 6 [C@@H] [C@H]	-0.17660467
-0.35004756	N [C@@H] [C@@H] [C@H]	-0.17660467
-0.7639676	C N [C@H] [C@H]	-0.17660467
-1.6891755	c c 5 [C@H]	-0.17660467
-0.109210834	[C@@H] N [C@] [C@H]	-0.17660467
-0.76011044	O C O 5	-0.18435
-1.1820498	C C O 5	-0.18827505
-0.37046286	N C O 5	-0.17660467
-1.0909094	) C O 5	-0.17660467
-1.1191442	c c O 5	-0.17660467
-0.61483806	C [C@H] O 5	-0.17660467
-1.5777515	C O C 5	-0.17660467
-1.3604716	C = C 5	-0.18123525
-1.0850453	N = C 5	-0.17660467
-1.4968064	O C C 5	-0.17660467
-1.1514785	= C C 5	-0.18240066
-1.5773467	C C C 5	-0.17949302
-1.4032292	N C C 5	-0.18435
-1.6059691	) C C 5	-0.17660467
-1.294038	[C@H] C C 5	-0.17660467
-0.99838257	S C C 5	-0.17660467
-0.8175558	= N C 5	-0.17660467
-1.121712	C N C 5	-0.1770146
-1.4315511	) N C 5	-0.17660467
-1.2057478	c c C 5	-0.17660467
-1.5592084	O ) C 5	-0.17660467
-1.6739295	5 ) C 5	-0.17660467
-1.229013	C [C@@H] C 5	-0.17660467
-1.3004897	C [C@H] C 5	-0.17660467
-0.6561776	[C@@H] [C@H] C 5	-0.17660467
-1.1044694	C S C 5	-0.17660467
-0.3208187	C O N 5	-0.17660467
-0.9474728	C = N 5	-0.17660467
-1.2537149	C C N 5	-0.18827505
-1.4077901	) C N 5	-0.17660467
-0.820878	5 C N 5	-0.17660467
-0.912115	c c N 5	-0.17660467
-1.2682571	O ) N 5	-0.17660467
-1.0021995	C O c 5	-0.18827505
-1.4159484	C N c 5	-0.17660467
-1.5053117	C c c 5	-0.17660467
-1.3012848	N c c 5	-0.17660467
-1.2009149	c c c 5	-0.17711715
-0.66769606	n c c 5	-0.2769189
-1.2925928	) c c 5	-0.17660467
-0.39078736	s c c 5	-0.18506101
-0.308558	[nH] c c 5	-0.23668562
-0.64769506	o c c 5	-0.18591577
-0.3713844	[nH+] c c 5	-0.17660467
-0.9351683	c n c 5	-0.1792652
-0.81858027	n n c 5	-0.18240066
-0.36233294	s n c 5	-0.17660467
-0.55730784	[nH] n c 5	-0.18591577
