\data\
ngram 1=28
ngram 2=110
ngram 3=223
ngram 4=328
ngram 5=415
ngram 6=487

\1-grams:
-2.0014648	<unk>	0
0	<s>	-0.88504547
-1.0547868	</s>	0
-0.8741848	C	-0.47168526
-1.8663751	S	-0.6067875
-1.2858001	=	-0.5376661
-1.2858001	O	-0.35329756
-0.9733443	)	-0.507278
-1.215558	N	-0.36575535
-0.93771565	c	-0.4914333
-1.610625	6	-0.20864728
-1.811891	[nH]	-0.14806256
-1.215558	5	-0.45061374
-1.4736259	F	-0.41272733
-1.8663751	n	-0.31948116
-1.8663751	#	-0.6067875
-1.811891	s	-0.14806256
-1.811891	3	-0.14806256
-1.8663751	o	-0.14806256
-1.8663751	[C@H]	-0.14806256
-1.610625	Br	-0.14806256
-1.811891	.	-0.14806256
-1.4736259	Cl	-0.20864728
-1.811891	7	-0.14806256
-1.811891	[N+]	-0.14806256
-1.811891	[O-]	-0.14806256
-1.8663751	[C@@H]	-0.14806256
-1.811891	%10	-0.14806256

\2-grams:
-1.2619803	C </s>	0
-0.8024575	O </s>	0
-0.74804354	N </s>	0
-0.761854	6 </s>	0
-0.46553847	5 </s>	0
-0.44095078	F </s>	0
-0.8699708	Br </s>	0
-0.53527457	Cl </s>	0
-0.6837621	7 </s>	0
-0.45398566	[O-] </s>	0
-0.7954194	<s> C	-0.54763955
-0.6769598	C C	-0.62925655
-0.88828266	S C	-0.142233
-0.54531837	= C	-0.142233
-0.58322877	O C	-0.17113432
-0.872768	) C	-0.5680683
-0.51999825	N C	-0.5194194
-1.2723937	c C	-0.142233
-0.9717956	6 C	-0.142233
-1.0008684	F C	-0.142233
-0.16149765	# C	-0.142233
-0.6207837	[C@H] C	-0.142233
-0.77668947	Br C	-0.142233
-0.88344574	Cl C	-0.142233
-0.6207837	[C@@H] C	-0.142233
-1.5295511	C S	-0.2020969
-1.9194503	) S	-0.142233
-1.0219941	C =	-0.6018707
-0.17443354	S =	-0.2354376
-1.3276213	O =	-0.142233
-1.6213956	) =	-0.142233
-1.3505627	5 =	-0.142233
-0.4871643	[N+] =	-0.142233
-1.2321059	<s> O	-0.77581
-1.2220367	C O	-0.18633972
-0.3537992	= O	-0.77581
-1.1591038	) O	-0.18633972
-1.5683246	c O	-0.142233
-1.251008	6 O	-0.142233
-1.0180513	C )	-0.50624686
-0.67522556	O )	-0.142233
-0.6314039	) )	-0.55243605
-1.1775795	N )	-0.142233
-0.73450863	6 )	-0.31124616
-0.77736944	5 )	-0.2020969
-0.5557284	F )	-0.2020969
-0.43830085	3 )	-0.142233
-0.83022374	Br )	-0.142233
-0.94341826	Cl )	-0.142233
-0.65746504	7 )	-0.142233
-0.43830085	%10 )	-0.142233
-1.3503479	<s> N	-0.18633972
-1.2003665	C N	-0.67089003
-1.2695215	= N	-0.142233
-1.0736779	) N	-0.3662396
-1.3292146	N N	-0.142233
-1.2095273	6 N	-0.142233
-0.9533082	# N	-0.142233
-0.93352103	C c	-0.92193806
-1.1235471	O c	-0.142233
-0.7388817	) c	-0.7615194
-0.8201408	N c	-0.6789
-0.38780057	c c	-0.85489446
-1.0201602	6 c	-0.142233
-0.4306659	[nH] c	-0.142233
-0.6577431	5 c	-0.2354376
-0.41621754	n c	-0.142233
-0.64489055	s c	-0.142233
-0.64489055	o c	-0.142233
-0.8116361	Br c	-0.142233
-0.92249364	Cl c	-0.142233
-1.368339	C 6	-0.2020969
-1.1065967	c 6	-0.17715277
-1.2226148	n 6	-0.142233
-1.8155608	c [nH]	-0.142233
-1.2588855	C 5	-0.142233
-1.2919154	O 5	-0.142233
-1.5235821	c 5	-0.142233
-1.1117094	n 5	-0.142233
-0.7264579	s 5	-0.142233
-0.7264579	o 5	-0.142233
-0.7264579	[C@H] 5	-0.142233
-2.0577123	<s> F	-0.142233
-1.1960517	) F	-0.2020969
-1.6745818	c F	-0.142233
-1.3481604	6 F	-0.142233
-0.89753383	c n	-0.42596874
-1.262278	n n	-0.142233
-1.3271039	C #	-0.2354376
-1.5768435	N #	-0.142233
-1.2536203	c s	-0.2354376
-1.9882916	C 3	-0.142233
-1.8325437	c o	-0.142233
-1.262278	n o	-0.142233
-2.0150423	C [C@H]	-0.142233
-1.9194503	) [C@H]	-0.142233
-1.6065515	<s> Br	-0.2020969
-1.8747877	C Br	-0.142233
-1.8116256	) Br	-0.142233
-1.5641912	N .	-0.142233
-0.20982994	<s> Cl	-1.7000893
-1.784886	C Cl	-0.142233
-1.3107982	) Cl	-0.6789
-0.50475526	. Cl	-0.142233
-1.9882916	C 7	-0.142233
-1.4735034	6 [N+]	-0.142233
-1.8995165	) [O-]	-0.142233
-2.0150423	C [C@@H]	-0.142233
-0.81214803	[C@@H] [C@@H]	-0.142233
-1.9882916	C %10	-0.142233

\3-grams:
-1.0786539	O C </s>	0
-0.6996467	) C </s>	0
-0.96159375	6 C </s>	0
-1.0847919	= O </s>	0
-0.7633798	) O </s>	0
-0.40576074	6 O </s>	0
-0.95166373	) N </s>	0
-0.38931614	# N </s>	0
-0.6951909	C 6 </s>	0
-0.7016386	c 6 </s>	0
-0.5778158	n 6 </s>	0
-0.41299278	C 5 </s>	0
-0.2790035	O 5 </s>	0
-0.46874234	c 5 </s>	0
-0.41299278	s 5 </s>	0
-0.2790035	o 5 </s>	0
-0.2954433	) F </s>	0
-0.3971316	6 F </s>	0
-0.4242254	) Br </s>	0
-0.31032592	C Cl </s>	0
-0.10690968	) Cl </s>	0
-0.31032592	. Cl </s>	0
-0.5392212	C 7 </s>	0
-0.27354622	) [O-] </s>	0
-0.492547	<s> C C	-0.11572482
-0.57758003	C C C	-0.086938255
-0.3656064	S C C	-0.11572482
-0.6547096	= C C	-0.11572482
-0.55072325	O C C	-0.22443144
-0.71183634	) C C	-0.1945995
-0.80515224	N C C	-0.17162931
-0.6547096	6 C C	-0.11572482
-0.6113114	# C C	-0.11572482
-0.3656064	[C@H] C C	-0.11572482
-0.3656064	Cl C C	-0.11572482
-0.7586898	C S C	-0.11572482
-0.7547958	C = C	-0.11572482
-0.31460986	O = C	-0.11572482
-1.0017226	<s> O C	-0.11572482
-0.42109197	C O C	-0.11572482
-0.42109197	) O C	-0.11572482
-0.3302704	c O C	-0.11572482
-1.0103835	C ) C	-0.11572482
-0.86486125	O ) C	-0.11572482
-0.65273774	) ) C	-0.08190332
-0.8263532	6 ) C	-0.11572482
-0.6504116	5 ) C	-0.22443144
-0.57437557	<s> N C	-0.11572482
-0.14777587	C N C	-0.06369716
-0.30953267	) N C	-0.078661665
-0.30370098	N N C	-0.11572482
-0.30370098	6 N C	-0.11572482
-1.758608	c c C	-0.11572482
-1.0048294	c 6 C	-0.11572482
-0.45443633	<s> F C	-0.11572482
-0.21455058	C # C	-0.11572482
-0.11003774	N # C	-0.11572482
-0.34499952	) [C@H] C	-0.11572482
-0.4156749	<s> Br C	-0.29105014
-0.010545351	<s> Cl C	-1.1912637
-0.34499952	[C@@H] [C@@H] C	-0.11572482
-1.4715893	<s> C S	-0.11572482
-1.8050749	C C S	-0.11572482
-1.0404254	= C S	-0.11572482
-1.7779922	) ) S	-0.11572482
-0.8426553	C C =	-0.078661665
-0.95605433	O C =	-0.11572482
-1.183389	) C =	-0.29105014
-0.243144	N C =	-0.27744982
-0.45868006	F C =	-0.11572482
-0.45868006	[C@@H] C =	-0.11572482
-0.15539749	C S =	-0.29105014
-0.11827462	) S =	-0.11572482
-0.10543068	<s> O =	-0.18053983
-1.2431322	O ) =	-0.11572482
-0.7649987	C 5 =	-0.11572482
-0.28901348	6 [N+] =	-0.11572482
-1.3727968	<s> C O	-0.11572482
-1.6418585	C C O	-0.11572482
-1.0605396	O C O	-0.11572482
-1.5299838	) C O	-0.11572482
-0.14200036	C = O	-0.27744982
-0.17006955	S = O	-0.29105014
-0.22300158	) = O	-0.11572482
-0.22300158	5 = O	-0.11572482
-0.22300158	[N+] = O	-0.11572482
-1.2270554	) ) O	-0.11572482
-1.2091166	6 ) O	-0.11572482
-1.4472094	) c O	-0.11572482
-1.1854919	c 6 O	-0.11572482
-1.5050958	C C )	-0.11572482
-0.95376575	O C )	-0.11572482
-0.7872405	) C )	-0.055601086
-0.45790052	c C )	-0.11572482
-0.85711753	6 C )	-0.11572482
-0.0904582	= O )	-0.22443144
-0.6832716	) O )	-0.11572482
-0.18747894	C ) )	-0.1945995
-0.6812999	O ) )	-0.11572482
-0.35569623	) ) )	-0.363604
-0.39533642	6 ) )	-0.17076775
-0.3708841	F ) )	-0.29105014
-0.34902507	3 ) )	-0.11572482
-0.34902507	Br ) )	-0.11572482
-0.34902507	Cl ) )	-0.11572482
-0.34902507	7 ) )	-0.11572482
-0.48523584	= N )	-0.11572482
-0.4037274	C 6 )	-0.11572482
-0.6855982	c 6 )	-0.15902914
-0.5647003	n 6 )	-0.11572482
-0.67074525	c 5 )	-0.11572482
-0.39835733	n 5 )	-0.11572482
-0.5850664	s 5 )	-0.11572482
-0.5722777	) F )	-0.11572482
-0.31899017	c F )	-0.11572482
-0.46838737	6 F )	-0.11572482
-0.26601434	C 3 )	-0.11572482
-0.41360763	C Br )	-0.11572482
-1.0283511	) Cl )	-0.11572482
-0.52543527	C 7 )	-0.11572482
-0.26601434	C %10 )	-0.11572482
-0.43079707	<s> C N	-0.18053983
-0.8660014	C C N	-0.06986984
-0.93833697	= C N	-0.11572482
-1.2448932	) C N	-0.29105014
-1.3155464	C = N	-0.11572482
-0.99687123	O ) N	-0.11572482
-1.197168	) ) N	-0.22443144
-0.46838665	N ) N	-0.11572482
-1.1602399	6 ) N	-0.11572482
-1.2590654	) N N	-0.11572482
-1.1612858	c 6 N	-0.11572482
-0.5622595	C # N	-0.29105014
-1.2334847	<s> C c	-0.11572482
-0.93012184	C C c	-0.055601086
-0.81300586	= C c	-0.11572482
-0.77265996	) C c	-0.29105014
-1.1786636	N C c	-0.11572482
-0.7518142	# C c	-0.11572482
-0.92514527	C O c	-0.11572482
-0.9479824	C ) c	-0.11572482
-0.7660277	O ) c	-0.11572482
-1.0410241	) ) c	-0.29105014
-0.9317147	6 ) c	-0.11572482
-0.5950786	5 ) c	-0.11572482
-0.682668	F ) c	-0.11572482
-0.3864044	%10 ) c	-0.11572482
-0.773816	<s> N c	-0.11572482
-0.765035	C N c	-0.29105014
-0.7702502	) N c	-0.22443144
-0.0508935	C c c	-0.28442276
-0.24080265	O c c	-0.11572482
-0.077965036	) c c	-0.33393416
-0.09340444	N c c	-0.22443144
-0.42662492	c c c	-0.26959762
-0.24080265	6 c c	-0.11572482
-0.24080265	[nH] c c	-0.11572482
-0.18270946	5 c c	-0.11572482
-0.4378048	n c c	-0.11572482
-0.24080265	s c c	-0.11572482
-0.24080265	o c c	-0.11572482
-0.24080265	Br c c	-0.11572482
-1.0389813	c 6 c	-0.11572482
-0.26229686	c [nH] c	-0.11572482
-0.5993047	c 5 c	-0.11572482
-0.3587467	[C@H] 5 c	-0.11572482
-0.20122612	c n c	-0.1318634
-0.25517008	n n c	-0.11572482
-0.46728685	c s c	-0.29105014
-0.3540494	n o c	-0.11572482
-0.7212911	<s> Br c	-0.11572482
-2.0441144	<s> Cl c	-0.11572482
-0.8814191	C C 6	-0.055601086
-1.3567429	N C 6	-0.11572482
-0.82506377	c c 6	-0.1489256
-0.898921	n c 6	-0.11572482
-1.2413132	c n 6	-0.11572482
-1.9168565	c c [nH]	-0.11572482
-1.6642371	C C 5	-0.11572482
-1.5498401	) C 5	-0.11572482
-0.9868836	C O 5	-0.11572482
-0.97003436	c c 5	-0.11572482
-1.1944662	c n 5	-0.11572482
-0.4970108	c s 5	-0.22443144
-0.3823887	c o 5	-0.11572482
-0.3823887	C [C@H] 5	-0.11572482
-1.5066279	) ) F	-0.11572482
-1.2289732	6 ) F	-0.11572482
-1.483512	c c F	-0.29105014
-1.2383711	c 6 F	-0.11572482
-1.2592342	C c n	-0.11572482
-1.2760816	) c n	-0.11572482
-0.9184952	c c n	-0.1945995
-0.7929857	n c n	-0.11572482
-0.43117738	Cl c n	-0.11572482
-1.2564127	c n n	-0.11572482
-1.7036741	C C #	-0.11572482
-1.5845426	) C #	-0.11572482
-0.98398674	6 C #	-0.11572482
-0.50415677	Br C #	-0.11572482
-0.644946	<s> N #	-0.29105014
-1.0888381	N c s	-0.11572482
-0.8342707	c c s	-0.29105014
-0.958558	n c s	-0.11572482
-1.953119	C C 3	-0.11572482
-1.9198037	c c o	-0.11572482
-1.2564127	c n o	-0.11572482
-1.958774	C C [C@H]	-0.11572482
-1.3136052	O ) [C@H]	-0.11572482
-0.9883925	# C Br	-0.11572482
-1.2499893	5 ) Br	-0.11572482
-1.3311741	) N .	-0.11572482
-1.7511549	) C Cl	-0.11572482
-1.5686291	) ) Cl	-0.11572482
-1.28564	6 ) Cl	-0.11572482
-1.1121342	5 ) Cl	-0.11572482
-0.29695868	N . Cl	-0.11572482
-1.5441262	C C 7	-0.11572482
-1.2985932	c 6 [N+]	-0.11572482
-1.3099769	O ) [O-]	-0.11572482
-1.5508873	<s> C [C@@H]	-0.11572482
-0.4085403	C [C@@H] [C@@H]	-0.11572482
-1.953119	C C %10	-0.11572482

\4-grams:
-0.7426172	) O C </s>	0
-0.7394097	O ) C </s>	0
-0.7030257	) ) C </s>	0
-0.63648105	6 ) C </s>	0
-0.351945	5 ) C </s>	0
-0.84718883	c 6 C </s>	0
-0.527333	5 = O </s>	0
-0.677635	) ) O </s>	0
-0.27174196	c 6 O </s>	0
-0.84131587	O ) N </s>	0
-0.1566858	C # N </s>	0
-0.624174	C C 6 </s>	0
-0.7667175	c c 6 </s>	0
-0.56986547	n c 6 </s>	0
-0.49556297	c n 6 </s>	0
-0.27579644	) C 5 </s>	0
-0.19593748	C O 5 </s>	0
-0.47068787	c c 5 </s>	0
-0.51085436	c s 5 </s>	0
-0.19593748	c o 5 </s>	0
-0.2967437	) ) F </s>	0
-0.20626666	6 ) F </s>	0
-0.37267232	c 6 F </s>	0
-0.28203478	5 ) Br </s>	0
-0.21549156	) C Cl </s>	0
-0.07944177	) ) Cl </s>	0
-0.14516307	6 ) Cl </s>	0
-0.07944177	5 ) Cl </s>	0
-0.21549156	N . Cl </s>	0
-0.47070307	C C 7 </s>	0
-0.19247662	O ) [O-] </s>	0
-0.55191433	<s> C C C	-0.115768746
-0.61217725	C C C C	-0.116616875
-0.35997185	= C C C	-0.115768746
-0.31574568	O C C C	-0.115768746
-0.38387877	) C C C	-0.071478985
-0.5735735	N C C C	-0.09750735
-0.35997185	[C@H] C C C	-0.115768746
-0.24869335	C S C C	-0.115768746
-0.54270315	C = C C	-0.115768746
-0.34729922	<s> O C C	-0.115768746
-0.47819397	C O C C	-0.115768746
-0.74962014	O ) C C	-0.115768746
-0.73979557	) ) C C	-0.115768746
-0.7126932	5 ) C C	-0.115768746
-0.7287267	C N C C	-0.09750735
-0.6929858	) N C C	-0.08865675
-0.64180976	c 6 C C	-0.115768746
-0.51649415	C # C C	-0.115768746
-0.24869335	) [C@H] C C	-0.115768746
-0.016209746	<s> Cl C C	-1.2855135
-0.4348016	C C S C	-0.115768746
-0.71327055	C C = C	-0.115768746
-0.43338245	F C = C	-0.115768746
-0.18051755	<s> O = C	-0.1410764
-0.28030178	<s> C O C	-0.115768746
-0.28030178	C C O C	-0.115768746
-0.43356544	) ) O C	-0.115768746
-0.28030178	6 ) O C	-0.115768746
-0.22766474	) c O C	-0.115768746
-0.5104403	C C ) C	-0.115768746
-0.72137487	= O ) C	-0.115768746
-0.69766474	C ) ) C	-0.115768746
-0.7503045	) ) ) C	-0.07998293
-0.74989533	6 ) ) C	-0.115768746
-0.3932482	7 ) ) C	-0.115768746
-0.7161562	C 6 ) C	-0.115768746
-0.86378694	c 6 ) C	-0.115768746
-0.39226624	c 5 ) C	-0.115768746
-0.63860947	s 5 ) C	-0.115768746
-0.09168663	<s> C N C	-0.1410764
-0.15741435	C C N C	-0.09305954
-0.17908426	= C N C	-0.115768746
-0.06933715	) C N C	-0.071478985
-0.36241603	O ) N C	-0.115768746
-0.2089945	) ) N C	-0.071478985
-0.21500294	6 ) N C	-0.115768746
-0.21139999	) N N C	-0.115768746
-0.21139999	c 6 N C	-0.115768746
-1.6199505	c c c C	-0.115768746
-1.0473127	c c 6 C	-0.115768746
-0.154061	C C # C	-0.115768746
-0.154061	Br C # C	-0.115768746
-0.05281713	<s> N # C	-0.071478985
-0.23651423	O ) [C@H] C	-0.115768746
-0.23651423	C [C@@H] [C@@H] C	-0.115768746
-1.4973499	N C C S	-0.115768746
-0.7287204	C = C S	-0.115768746
-1.0635505	6 ) ) S	-0.071478985
-0.7257722	<s> C C =	-0.115768746
-0.8677612	C C C =	-0.115768746
-0.8231597	) C C =	-0.115768746
-0.46347225	Cl C C =	-0.115768746
-0.69524044	C O C =	-0.115768746
-1.1217439	) ) C =	-0.115768746
-0.89213294	6 ) C =	-0.115768746
-0.17290713	<s> N C =	-0.115768746
-0.26371863	C N C =	-0.14985096
-0.2811432	) N C =	-0.115768746
-0.17290713	N N C =	-0.115768746
-0.17290713	6 N C =	-0.115768746
-0.30072135	<s> F C =	-0.115768746
-0.30072135	[C@@H] [C@@H] C =	-0.115768746
-0.11375531	<s> C S =	-0.115768746
-0.11375531	= C S =	-0.115768746
-0.0875845	) ) S =	-0.115768746
-1.2213718	= O ) =	-0.115768746
-0.43708366	C C 5 =	-0.115768746
-0.2022441	c 6 [N+] =	-0.115768746
-1.4361682	N C C O	-0.115768746
-0.7361293	) O C O	-0.115768746
-1.2852572	O ) C O	-0.115768746
-0.17150535	C C = O	-0.14985096
-0.10438684	O C = O	-0.115768746
-0.066861115	) C = O	-0.071478985
-0.069166645	N C = O	-0.37169972
-0.10438684	[C@@H] C = O	-0.115768746
-0.07871875	C S = O	-0.071478985
-0.12391493	) S = O	-0.115768746
-0.1596751	O ) = O	-0.115768746
-0.1596751	C 5 = O	-0.115768746
-0.1596751	6 [N+] = O	-0.115768746
-1.3452641	) ) ) O	-0.115768746
-1.2365386	6 ) ) O	-0.115768746
-1.1177183	c 6 ) O	-0.115768746
-0.84068584	5 ) c O	-0.115768746
-1.1818181	c c 6 O	-0.115768746
-1.3734914	N C C )	-0.115768746
-0.49602988	c O C )	-0.115768746
-0.4449612	C ) C )	-0.115768746
-0.8117026	O ) C )	-0.115768746
-0.8056861	) ) C )	-0.115768746
-0.30030605	c c C )	-0.115768746
-0.78269386	c 6 C )	-0.115768746
-0.04540002	C = O )	-0.17317225
-0.04392703	S = O )	-0.071478985
-0.06754846	) = O )	-0.115768746
-0.06754846	[N+] = O )	-0.115768746
-0.6255657	) ) O )	-0.115768746
-0.13583216	O C ) )	-0.115768746
-0.16018078	) C ) )	-0.08574622
-0.13583216	6 C ) )	-0.115768746
-0.40505865	) O ) )	-0.115768746
-0.2791505	C ) ) )	-0.08574622
-0.2428657	O ) ) )	-0.115768746
-0.1954773	) ) ) )	-0.39571702
-0.42867723	6 ) ) )	-0.071478985
-0.14634262	F ) ) )	-0.071478985
-0.2428657	3 ) ) )	-0.115768746
-0.2428657	Br ) ) )	-0.115768746
-0.2428657	Cl ) ) )	-0.115768746
-0.4131337	C 6 ) )	-0.115768746
-0.37824664	c 6 ) )	-0.102647014
-0.26584572	n 6 ) )	-0.115768746
-0.25177443	) F ) )	-0.115768746
-0.25177443	6 F ) )	-0.115768746
-0.23891197	C 3 ) )	-0.115768746
-0.23891197	C Br ) )	-0.115768746
-0.23891197	) Cl ) )	-0.115768746
-0.23891197	C 7 ) )	-0.115768746
-0.31465983	C = N )	-0.115768746
-0.3900235	C C 6 )	-0.071478985
-0.27059668	N C 6 )	-0.115768746
-0.7802287	c c 6 )	-0.115768746
-0.5607205	n c 6 )	-0.115768746
-0.48720324	c n 6 )	-0.115768746
-0.6171237	c c 5 )	-0.115768746
-0.26756072	c n 5 )	-0.115768746
-0.318175	c s 5 )	-0.09750735
-0.4920442	) ) F )	-0.115768746
-0.1344073	c c F )	-0.071478985
-0.42307484	c 6 F )	-0.115768746
-0.18767399	C C 3 )	-0.115768746
-0.27613974	# C Br )	-0.115768746
-0.72416836	6 ) Cl )	-0.115768746
-0.461634	C C 7 )	-0.115768746
-0.18767399	C C %10 )	-0.115768746
-0.7392844	<s> C C N	-0.115768746
-0.8564344	C C C N	-0.14985096
-0.74353284	N C C N	-0.071478985
-0.4708064	# C C N	-0.115768746
-0.6877073	O = C N	-0.115768746
-1.137694	O ) C N	-0.115768746
-1.1650386	) ) C N	-0.115768746
-1.059838	C C = N	-0.115768746
-0.77313274	= O ) N	-0.08574622
-1.3280264	) ) ) N	-0.115768746
-0.9281322	6 ) ) N	-0.071478985
-0.30586302	= N ) N	-0.115768746
-1.0895864	c 6 ) N	-0.115768746
-0.99710184	O ) N N	-0.115768746
-0.8848881	c c 6 N	-0.071478985
-0.35279343	) C # N	-0.115768746
-0.35279343	6 C # N	-0.115768746
-0.94255596	C C C c	-0.115768746
-0.87446314	) C C c	-0.115768746
-0.99835944	N C C c	-0.115768746
-0.6293154	O = C c	-0.115768746
-0.79984814	O ) C c	-0.115768746
-0.76308286	) ) C c	-0.08574622
-0.6834474	6 ) C c	-0.115768746
-0.9910712	) N C c	-0.115768746
-0.43229038	N # C c	-0.115768746
-0.48820126	) C O c	-0.115768746
-0.49447808	c C ) c	-0.115768746
-0.67623353	= O ) c	-0.071478985
-0.93327785	C ) ) c	-0.115768746
-1.1001831	6 ) ) c	-0.115768746
-0.7756617	C 6 ) c	-0.115768746
-0.36800638	n 5 ) c	-0.115768746
-0.5967017	s 5 ) c	-0.115768746
-0.40561292	c F ) c	-0.115768746
-0.2607447	C %10 ) c	-0.115768746
-0.68882	C C N c	-0.115768746
-0.60457873	= C N c	-0.115768746
-0.7246795	O ) N c	-0.115768746
-0.74665034	) ) N c	-0.115768746
-0.03844315	<s> C c c	-0.115768746
-0.044452883	C C c c	-0.09305954
-0.03844315	= C c c	-0.115768746
-0.15537639	) C c c	-0.115768746
-0.03844315	N C c c	-0.115768746
-0.03844315	# C c c	-0.115768746
-0.17137988	C O c c	-0.115768746
-0.05843392	C ) c c	-0.115768746
-0.05843392	O ) c c	-0.115768746
-0.038140018	) ) c c	-0.071478985
-0.120817564	6 ) c c	-0.115768746
-0.120817564	5 ) c c	-0.115768746
-0.05843392	F ) c c	-0.115768746
-0.05843392	%10 ) c c	-0.115768746
-0.069687545	<s> N c c	-0.115768746
-0.04527876	C N c c	-0.071478985
-0.093338616	) N c c	-0.071478985
-0.27526096	C c c c	-0.26291475
-0.28335816	O c c c	-0.115768746
-0.18173616	) c c c	-0.29270813
-0.26049647	N c c c	-0.071478985
-0.27059132	c c c c	-0.2513926
-0.28335816	6 c c c	-0.115768746
-0.43792173	5 c c c	-0.115768746
-0.43792173	n c c c	-0.115768746
-0.28335816	Br c c c	-0.115768746
-0.17137988	c 6 c c	-0.115768746
-0.17137988	c [nH] c c	-0.115768746
-0.13258229	c 5 c c	-0.115768746
-0.13258229	[C@H] 5 c c	-0.115768746
-0.48221833	c n c c	-0.115768746
-0.106658965	c s c c	-0.115768746
-0.17137988	n o c c	-0.115768746
-0.17137988	<s> Br c c	-0.115768746
-0.8348342	c c 6 c	-0.071478985
-0.18529253	c c [nH] c	-0.115768746
-0.56749225	c c 5 c	-0.115768746
-0.24466537	C [C@H] 5 c	-0.115768746
-0.14513527	) c n c	-0.115768746
-0.18967283	c c n c	-0.115768746
-0.14513527	n c n c	-0.115768746
-0.14513527	Cl c n c	-0.115768746
-0.18070647	c n n c	-0.115768746
-0.30528316	N c s c	-0.115768746
-0.37816402	c c s c	-0.071478985
-0.24189204	c n o c	-0.115768746
-0.9011775	C C C 6	-0.115768746
-0.47550273	S C C 6	-0.115768746
-0.8059226	O C C 6	-0.115768746
-0.9595283	N C C 6	-0.115768746
-1.1463181	C N C 6	-0.115768746
-0.995213	C c c 6	-0.115768746
-1.020753	) c c 6	-0.115768746
-0.84935886	c c c 6	-0.09750735
-0.7153893	n c c 6	-0.115768746
-0.59184587	c n c 6	-0.115768746
-1.0216795	c c n 6	-0.115768746
-0.98310673	C c c [nH]	-0.071478985
-1.4469861	C C C 5	-0.115768746
-1.2938043	O ) C 5	-0.115768746
-0.5046287	O C O 5	-0.115768746
-0.5003146	[nH] c c 5	-0.115768746
-0.70106024	s c c 5	-0.115768746
-0.5003146	o c c 5	-0.115768746
-1.0030277	c c n 5	-0.115768746
-0.39030382	c c s 5	-0.08574622
-0.32071054	n c s 5	-0.115768746
-0.25843677	c c o 5	-0.115768746
-0.25843677	C C [C@H] 5	-0.115768746
-1.4087981	6 ) ) F	-0.115768746
-1.1287615	c 6 ) F	-0.115768746
-1.3849365	) c c F	-0.115768746
-0.98659074	5 c c F	-0.115768746
-1.2183481	c c 6 F	-0.115768746
-0.5648663	) C c n	-0.115768746
-0.8026422	6 ) c n	-0.115768746
-0.8241122	N c c n	-0.115768746
-1.058581	c c c n	-0.071478985
-0.6790605	s c c n	-0.115768746
-0.80167866	c n c n	-0.115768746
-0.28585976	<s> Cl c n	-0.115768746
-0.7974911	C c n n	-0.115768746
-1.4610345	N C C #	-0.115768746
-1.3683474	) ) C #	-0.115768746
-0.8602307	c 6 C #	-0.115768746
-0.18800607	<s> Br C #	-0.071478985
-0.8976238	) N c s	-0.115768746
-1.0022724	C c c s	-0.115768746
-1.0298935	c c c s	-0.115768746
-0.7208449	5 c c s	-0.115768746
-0.7208449	n c c s	-0.115768746
-0.49730432	n n c s	-0.115768746
-1.5668287	C C C 3	-0.115768746
-1.6760195	c c c o	-0.115768746
-0.7974911	C c n o	-0.115768746
-1.5687225	C C C [C@H]	-0.115768746
-1.2599382	= O ) [C@H]	-0.115768746
-0.70853704	C # C Br	-0.115768746
-0.993275	s 5 ) Br	-0.115768746
-0.56919354	N ) N .	-0.115768746
-1.3682858	O ) C Cl	-0.115768746
-1.4410995	6 ) ) Cl	-0.115768746
-1.1590385	c 6 ) Cl	-0.115768746
-0.92938995	s 5 ) Cl	-0.115768746
-0.20721148	) N . Cl	-0.115768746
-1.3832241	C C C 7	-0.115768746
-1.3924695	N C C 7	-0.115768746
-1.2582355	c c 6 [N+]	-0.115768746
-1.2580221	= O ) [O-]	-0.115768746
-0.27330378	<s> C [C@@H] [C@@H]	-0.115768746
-0.61537385	6 C C %10	-0.115768746

\5-grams:
-0.42881775	) ) O C </s>	0
-0.77255315	= O ) C </s>	0
-0.41366878	C ) ) C </s>	0
-0.6468242	) ) ) C </s>	0
-0.7194759	6 ) ) C </s>	0
-0.5317902	c 6 ) C </s>	0
-0.24061304	c 5 ) C </s>	0
-0.3394851	s 5 ) C </s>	0
-0.7762379	c c 6 C </s>	0
-0.3358734	C 5 = O </s>	0
-0.4035013	) ) ) O </s>	0
-0.19130458	c c 6 O </s>	0
-0.77244127	= O ) N </s>	0
-0.114638336	) C # N </s>	0
-0.114638336	6 C # N </s>	0
-0.5243406	C C C 6 </s>	0
-0.38091743	S C C 6 </s>	0
-0.5243406	O C C 6 </s>	0
-0.4376253	) c c 6 </s>	0
-0.7771452	c c c 6 </s>	0
-0.60542405	n c c 6 </s>	0
-0.49048236	c n c 6 </s>	0
-0.44163087	c c n 6 </s>	0
-0.19388087	O ) C 5 </s>	0
-0.14155065	O C O 5 </s>	0
-0.30702895	s c c 5 </s>	0
-0.4799607	c c s 5 </s>	0
-0.14155065	c c o 5 </s>	0
-0.29774287	6 ) ) F </s>	0
-0.14850453	c 6 ) F </s>	0
-0.3548184	c c 6 F </s>	0
-0.19782762	s 5 ) Br </s>	0
-0.15466914	O ) C Cl </s>	0
-0.05950852	6 ) ) Cl </s>	0
-0.17694278	c 6 ) Cl </s>	0
-0.05950852	s 5 ) Cl </s>	0
-0.15466914	) N . Cl </s>	0
-0.30703694	C C C 7 </s>	0
-0.13920863	= O ) [O-] </s>	0
-0.4780359	C C C C C	-0.49080464
-0.44498587	) C C C C	-0.15905793
-0.5920513	N C C C C	-0.5104275
-0.2453533	C = C C C	-0.15905793
-0.21879229	<s> O C C C	-0.15905793
-0.31225732	C O C C C	-0.15905793
-0.3630286	) ) C C C	-0.15905793
-0.25925836	5 ) C C C	-0.15905793
-0.56230175	C N C C C	-0.15905793
-0.6055367	) N C C C	-0.45412445
-0.2453533	) [C@H] C C C	-0.15905793
-0.17649351	C C S C C	-0.15905793
-0.3433816	F C = C C	-0.15905793
-0.31095722	C C O C C	-0.25481957
-0.7809773	= O ) C C	-0.15905793
-0.67338645	) ) ) C C	-0.30630752
-0.5760445	s 5 ) C C	-0.15905793
-0.4512227	<s> C N C C	-0.25481957
-0.6447158	C C N C C	-1.0387013
-0.42359978	= C N C C	-0.15905793
-0.5649137	O ) N C C	-0.69993764
-0.60575765	) ) N C C	-0.25481957
-0.40969095	6 ) N C C	-0.15905793
-0.6321772	c c 6 C C	-0.15905793
-0.33049697	Br C # C C	-0.3119931
-0.17649351	O ) [C@H] C C	-0.15905793
-0.28780165	N C C S C	-0.15905793
-0.5763672	) C C = C	-0.22756322
-0.2870261	<s> F C = C	-0.15905793
-0.1967333	N C C O C	-0.22756322
-0.3987349	6 ) ) O C	-0.15905793
-0.1967333	c 6 ) O C	-0.15905793
-0.16273716	5 ) c O C	-0.15905793
-0.32746458	N C C ) C	-0.15905793
-0.80179864	C = O ) C	-0.20633462
-0.65072966	) = O ) C	-0.22756322
-0.6150038	) C ) ) C	-0.15905793
-0.6072419	C ) ) ) C	-0.15905793
-1.0328339	) ) ) ) C	-0.3079244
-0.7374328	C 6 ) ) C	-0.6798609
-0.7598073	c 6 ) ) C	-0.19885194
-0.5964546	n 6 ) ) C	-0.15905793
-0.2646203	C 7 ) ) C	-0.15905793
-0.4187875	N C 6 ) C	-0.15905793
-0.84218276	c c 6 ) C	-0.15905793
-0.2640607	c c 5 ) C	-0.15905793
-0.6120647	c s 5 ) C	-0.15905793
-0.1053053	C C C N C	-0.25481957
-0.12953663	N C C N C	-1.148382
-0.11514479	# C C N C	-0.3119931
-0.20470394	O = C N C	-0.15905793
-0.052092567	O ) C N C	-0.15905793
-0.052092567	) ) C N C	-0.15905793
-0.39050892	= O ) N C	-1.0726613
-0.22884844	) ) ) N C	-0.3119931
-0.17005897	6 ) ) N C	-0.15905793
-0.15434366	c 6 ) N C	-0.15905793
-0.15194027	O ) N N C	-0.15905793
-0.1719233	c c 6 N C	-0.3119931
-1.4176284	) c c c C	-0.15905793
-0.9914205	c c c 6 C	-0.21394849
-0.112811595	N C C # C	-0.15905793
-0.12686692	<s> Br C # C	-0.3119931
-0.16855432	= O ) [C@H] C	-0.15905793
-0.16855432	<s> C [C@@H] [C@@H] C	-0.15905793
-1.3067924	) N C C S	-0.15905793
-0.42359737	C C = C S	-0.22756322
-0.94702876	C 6 ) ) S	-0.75044197
-0.9929747	c 6 ) ) S	-0.22756322
-0.47126216	<s> C C C =	-0.15905793
-0.6343308	) ) C C =	-0.2093975
-0.015020318	<s> Cl C C =	-1.3632258
-0.41058907	<s> C O C =	-0.15905793
-1.0137937	6 ) ) C =	-0.7046845
-0.6671682	c 6 ) C =	-0.15905793
-0.34463608	<s> C N C =	-0.15905793
-0.30253953	C C N C =	-0.3119931
-0.21188381	) C N C =	-0.3119931
-0.28410313	) ) N C =	-0.22756322
-0.12585285	) N N C =	-0.15905793
-0.12585285	c 6 N C =	-0.3119931
-0.20952475	C [C@@H] [C@@H] C =	-0.15905793
-0.08434433	C = C S =	-0.22756322
-0.07310217	6 ) ) S =	-0.8643853
-0.69313306	S = O ) =	-0.98089087
-0.2890463	C C C 5 =	-0.15905793
-0.14580286	c c 6 [N+] =	-0.15905793
-1.2202811	) N C C O	-0.22756322
-0.42639354	6 ) O C O	-0.15905793
-1.1613635	= O ) C O	-0.15905793
-0.12488883	<s> C C = O	-0.15905793
-0.19853568	) C C = O	-0.15905793
-0.12488883	Cl C C = O	-1.3632258
-0.07761747	C O C = O	-0.15905793
-0.05026838	) ) C = O	-0.7046845
-0.05026838	6 ) C = O	-0.15905793
-0.051967032	<s> N C = O	-0.15905793
-0.04782027	C N C = O	-0.44941196
-0.051967032	) N C = O	-0.22756322
-0.051967032	N N C = O	-0.15905793
-0.051967032	6 N C = O	-0.3119931
-0.07761747	[C@@H] [C@@H] C = O	-0.15905793
-0.05897943	<s> C S = O	-0.15905793
-0.05897943	= C S = O	-0.22756322
-0.0915928	) ) S = O	-0.8643853
-0.11671467	= O ) = O	-0.98089087
-0.11671467	C C 5 = O	-0.15905793
-0.11671467	c 6 [N+] = O	-0.15905793
-1.4041922	) ) ) ) O	-0.15905793
-1.1011511	c 6 ) ) O	-0.15905793
-1.0113842	c c 6 ) O	-0.15905793
-0.46275753	n 5 ) c O	-0.15905793
-1.1194042	c c c 6 O	-0.15905793
-1.2373052	) N C C )	-0.15905793
-0.32016164	) c O C )	-0.15905793
-0.2933198	C C ) C )	-0.15905793
-0.83142805	= O ) C )	-0.3119931
-0.7990849	6 ) ) C )	-0.15905793
-0.20926684	c c c C )	-0.15905793
-0.733209	c c 6 C )	-0.15905793
-0.031654377	C C = O )	-1.3839104
-0.034343425	O C = O )	-0.15905793
-0.038197365	) C = O )	-0.27332067
-0.018714504	N C = O )	-0.43376398
-0.034343425	[C@@H] C = O )	-0.15905793
-0.03696813	C S = O )	-0.35250196
-0.033243004	) S = O )	-0.8643853
-0.050775062	O ) = O )	-0.50376964
-0.050775062	6 [N+] = O )	-0.15905793
-0.52518713	6 ) ) O )	-0.15905793
-0.10003302	c O C ) )	-0.15905793
-0.117065474	C ) C ) )	-0.15905793
-0.117065474	O ) C ) )	-0.3119931
-0.117065474	) ) C ) )	-0.15905793
-0.10003302	c 6 C ) )	-0.15905793
-0.27130866	) ) O ) )	-0.15905793
-0.27344224	) C ) ) )	-0.25481957
-0.19600545	6 C ) ) )	-0.15905793
-0.17270431	) O ) ) )	-0.15905793
-0.22088748	C ) ) ) )	-0.15905793
-0.14123957	O ) ) ) )	-0.15905793
-0.10211788	) ) ) ) )	-0.73571867
-0.1595399	6 ) ) ) )	-0.44941196
-0.1595399	F ) ) ) )	-0.3119931
-0.14123957	3 ) ) ) )	-0.15905793
-0.14123957	Br ) ) ) )	-0.15905793
-0.14123957	Cl ) ) ) )	-0.15905793
-0.47851557	C 6 ) ) )	-0.15905793
-0.4716218	c 6 ) ) )	-0.35250196
-0.10742052	) F ) ) )	-0.15905793
-0.10742052	6 F ) ) )	-0.15905793
-0.17270431	C 3 ) ) )	-0.15905793
-0.17270431	C Br ) ) )	-0.15905793
-0.17270431	) Cl ) ) )	-0.15905793
-0.3941451	C C 6 ) )	-0.7194304
-0.44416243	c c 6 ) )	-0.32048172
-0.25601137	n c 6 ) )	-0.3119931
-0.18754241	c n 6 ) )	-0.15905793
-0.17848964	) ) F ) )	-0.15905793
-0.17848964	c 6 F ) )	-0.15905793
-0.17012346	C C 3 ) )	-0.15905793
-0.17012346	# C Br ) )	-0.15905793
-0.17012346	6 ) Cl ) )	-0.15905793
-0.17012346	C C 7 ) )	-0.15905793
-0.21812662	C C = N )	-0.15905793
-0.36750627	C C C 6 )	-0.38548875
-0.36750627	O C C 6 )	-0.15905793
-0.2627805	N C C 6 )	-1.1654153
-0.19057529	C N C 6 )	-0.15905793
-0.80711424	c c c 6 )	-0.5784996
-0.48462537	c n c 6 )	-0.3119931
-0.43595758	c c n 6 )	-0.3119931
-0.37781885	o c c 5 )	-0.15905793
-0.1886386	c c n 5 )	-0.15905793
-0.3047817	c c s 5 )	-0.21394849
-0.22027926	n c s 5 )	-0.15905793
-0.4392472	6 ) ) F )	-0.15905793
-0.099027455	) c c F )	-0.15905793
-0.099027455	5 c c F )	-0.15905793
-0.39129224	c c 6 F )	-0.15905793
-0.13594864	C C C 3 )	-0.15905793
-0.1940986	C # C Br )	-0.15905793
-0.58242416	c 6 ) Cl )	-0.15905793
-0.3022476	N C C 7 )	-0.15905793
-0.13594864	6 C C %10 )	-0.15905793
-0.46774852	= C C C N	-0.15905793
-0.6505135	O C C C N	-0.15905793
-0.8013781	N C C C N	-0.15905793
-0.71897274	C N C C N	-0.3119931
-0.7681061	) N C C N	-1.1121699
-0.3070912	C # C C N	-0.3119931
-0.43511617	<s> O = C N	-0.25481957
-1.0703921	= O ) C N	-0.15905793
-1.0391368	6 ) ) C N	-0.15905793
-0.5218136	C C C = N	-0.15905793
-0.5218609	C = O ) N	-1.0052775
-0.6837155	) = O ) N	-0.2093975
-1.3961695	) ) ) ) N	-0.30630752
-0.8626944	C 6 ) ) N	-0.15905793
-0.6832261	n 6 ) ) N	-0.15905793
-0.21271014	C = N ) N	-0.15905793
-0.9942972	c c 6 ) N	-0.15905793
-0.9149522	= O ) N N	-0.15905793
-0.8943657	c c c 6 N	-0.15905793
-0.6638472	n c c 6 N	-0.15905793
-0.24111575	) ) C # N	-0.15905793
-0.24111575	c 6 C # N	-0.15905793
-0.8601621	N C C C c	-0.15905793
-0.4733115	O ) C C c	-0.15905793
-0.9500283	) N C C c	-0.35250196
-0.6417412	<s> O = C c	-0.15905793
-0.82189995	= O ) C c	-0.15905793
-0.7205011	) ) ) C c	-0.15905793
-0.76656216	6 ) ) C c	-0.65353197
-0.43631682	7 ) ) C c	-0.15905793
-0.4058603	C 6 ) C c	-0.15905793
-0.7095438	O ) N C c	-0.35250196
-0.33231306	<s> N # C c	-0.3119931
-0.3161441	O ) C O c	-0.15905793
-0.3193681	c c C ) c	-0.15905793
-0.6401825	C = O ) c	-0.5285932
-0.62081504	) = O ) c	-0.75044197
-0.49037203	O C ) ) c	-0.15905793
-0.9681096	C 6 ) ) c	-0.3119931
-0.6614148	C C 6 ) c	-0.15905793
-0.25006214	c n 5 ) c	-0.15905793
-0.60379416	c s 5 ) c	-0.15905793
-0.31415847	c c F ) c	-0.3119931
-0.1842728	C C %10 ) c	-0.15905793
-0.4080242	<s> C C N c	-0.15905793
-0.5123082	O = C N c	-0.3119931
-0.712805	= O ) N c	-0.45243552
-0.59470576	) ) ) N c	-0.15905793
-0.03363595	C C C c c	-0.15905793
-0.03363595	) C C c c	-0.15905793
-0.03363595	N C C c c	-0.2093975
-0.029137865	O = C c c	-0.15905793
-0.11372746	O ) C c c	-0.15905793
-0.17061596	) ) C c c	-0.5146662
-0.029137865	) N C c c	-0.35250196
-0.029137865	N # C c c	-0.3119931
-0.12480253	) C O c c	-0.15905793
-0.044039316	c C ) c c	-0.15905793
-0.049044225	= O ) c c	-0.81145746
-0.02891057	C ) ) c c	-0.15905793
-0.02891057	6 ) ) c c	-0.3119931
-0.1567805	C 6 ) c c	-0.15905793
-0.08938812	s 5 ) c c	-0.15905793
-0.044039316	c F ) c c	-0.15905793
-0.044039316	C %10 ) c c	-0.15905793
-0.03425286	C C N c c	-0.15905793
-0.03425286	= C N c c	-0.3119931
-0.13379452	O ) N c c	-0.5285932
-0.06963214	) ) N c c	-0.15905793
-0.19354112	<s> C c c c	-0.15905793
-0.2974745	C C c c c	-0.3119931
-0.19354112	= C c c c	-0.15905793
-0.31478322	) C c c c	-0.59554
-0.19354112	N C c c c	-0.35250196
-0.19354112	# C c c c	-0.3119931
-0.1986622	C O c c c	-0.15905793
-0.13190213	C ) c c c	-0.15905793
-0.20685752	O ) c c c	-0.7834288
-0.14877273	) ) c c c	-0.25481957
-0.13190213	6 ) c c c	-0.15905793
-0.13190213	5 ) c c c	-0.15905793
-0.20685752	F ) c c c	-0.15905793
-0.13190213	%10 ) c c c	-0.15905793
-0.20945589	C N c c c	-0.22756322
-0.20945589	) N c c c	-0.59554
-0.15272094	C c c c c	-0.65353197
-0.19057187	O c c c c	-0.15905793
-0.15246308	) c c c c	-0.5832475
-0.21704751	N c c c c	-0.56042373
-0.25260296	c c c c c	-1.1891903
-0.19057187	6 c c c c	-0.22756322
-0.19057187	n c c c c	-0.15905793
-0.19057187	Br c c c c	-0.15905793
-0.1986622	c 6 c c c	-0.22756322
-0.4018102	c 5 c c c	-0.15905793
-0.44678226	c n c c c	-0.15905793
-0.1986622	<s> Br c c c	-0.15905793
-0.1406095	c c 6 c c	-0.22756322
-0.12480253	c c [nH] c c	-0.3119931
-0.09773805	c c 5 c c	-0.15905793
-0.09773805	C [C@H] 5 c c	-0.15905793
-0.31305	) c n c c	-0.15905793
-0.48102027	c c n c c	-0.22756322
-0.31305	Cl c n c c	-0.15905793
-0.079252675	N c s c c	-0.15905793
-0.088689044	c c s c c	-0.22756322
-0.12480253	c n o c c	-0.15905793
-0.46087143	C c c 6 c	-0.15905793
-0.8530737	c c c 6 c	-0.3119931
-0.15156646	C c c [nH] c	-0.3119931
-0.35520473	[nH] c c 5 c	-0.3119931
-0.17387639	C C [C@H] 5 c	-0.15905793
-0.106574625	6 ) c n c	-0.15905793
-0.13730687	N c c n c	-0.15905793
-0.20484108	c c c n c	-0.25939372
-0.106574625	c n c n c	-0.15905793
-0.106574625	<s> Cl c n c	-0.15905793
-0.13119861	C c n n c	-0.15905793
-0.21235162	) N c s c	-0.15905793
-0.25596362	C c c s c	-0.3119931
-0.25596362	5 c c s c	-0.15905793
-0.1720695	C c n o c	-0.15905793
-0.8339529	C C C C 6	-0.4036545
-0.3095525	C S C C 6	-0.15905793
-0.62569726	C O C C 6	-0.15905793
-0.8713035	C N C C 6	-1.1654153
-0.9350727	C C N C 6	-0.15905793
-0.85354346	C C c c 6	-0.15905793
-0.7211917	F ) c c 6	-0.15905793
-0.9754196	) c c c 6	-0.15905793
-0.68967974	c c c c 6	-0.59512544
-0.64682364	c n c c 6	-0.25481957
-0.56215924	c c n c 6	-0.3119931
-0.36647704	n c n c 6	-0.15905793
-0.80528635	c c c n 6	-0.25481957
-0.8464511	C C c c [nH]	-0.15905793
-0.80234104	) C c c [nH]	-0.15905793
-1.1783947	C C C C 5	-0.15905793
-1.1662651	= O ) C 5	-0.22756322
-0.3245338	) O C O 5	-0.15905793
-0.32234553	c [nH] c c 5	-0.3119931
-0.5695007	c s c c 5	-0.22756322
-0.32234553	n o c c 5	-0.15905793
-0.5085488	s c c n 5	-0.15905793
-0.26294065	c c c s 5	-0.29451
-0.26294065	n c c s 5	-0.15905793
-0.22182776	n n c s 5	-0.15905793
-0.1827889	c c c o 5	-0.15905793
-0.1827889	C C C [C@H] 5	-0.15905793
-1.192274	c 6 ) ) F	-0.15905793
-1.0179726	c c 6 ) F	-0.15905793
-0.82807094	O ) c c F	-0.15905793
-0.7077434	c 5 c c F	-0.15905793
-1.1443505	c c c 6 F	-0.25481957
-0.5206332	) ) C c n	-0.15905793
-0.353969	6 ) C c n	-0.15905793
-0.6240349	C 6 ) c n	-0.15905793
-0.45737064	<s> N c c n	-0.15905793
-1.0406858	C c c c n	-0.22756322
-1.1598002	c c c c n	-0.3119931
-0.5215343	5 c c c n	-0.15905793
-0.5569164	c s c c n	-0.15905793
-0.7012917	c c n c n	-0.15905793
-0.62141186	) C c n n	-0.15905793
-1.2873214	) N C C #	-0.15905793
-1.1438754	6 ) ) C #	-0.15905793
-0.7846776	c c 6 C #	-0.15905793
-0.66966516	O ) N c s	-0.15905793
-0.81191784	) C c c s	-0.3119931
-1.1393049	c c c c s	-0.59554
-0.42059252	[C@H] 5 c c s	-0.15905793
-0.65038455	c n c c s	-0.15905793
-0.3208123	c n n c s	-0.15905793
-1.1645669	N C C C 3	-0.15905793
-1.56195	c c c c o	-0.15905793
-0.62141186	) C c n o	-0.15905793
-0.594016	[C@H] C C C [C@H]	-0.15905793
-1.2197696	C = O ) [C@H]	-0.15905793
-0.4158288	C C # C Br	-0.15905793
-0.89300764	c s 5 ) Br	-0.15905793
-0.35600322	= N ) N .	-0.15905793
-1.2072241	= O ) C Cl	-0.15905793
-1.2074645	c 6 ) ) Cl	-0.15905793
-1.0356872	c c 6 ) Cl	-0.15905793
-0.8514168	c s 5 ) Cl	-0.3119931
-0.1491379	N ) N . Cl	-0.15905793
-0.8277066	O C C C 7	-0.15905793
-1.101493	C N C C 7	-0.15905793
-1.1708176	c c c 6 [N+]	-0.15905793
-0.5586461	[N+] = O ) [O-]	-0.15905793
-0.37704545	c 6 C C %10	-0.15905793

\6-grams:
-0.24797721	6 ) ) O C </s>
-0.643335	C = O ) C </s>
-0.24098557	) C ) ) C </s>
-0.50907207	C ) ) ) C </s>
-0.5893916	) ) ) ) C </s>
-0.4372361	c 6 ) ) C </s>
-0.44719943	c c 6 ) C </s>
-0.1517643	c c 5 ) C </s>
-0.32732615	c s 5 ) C </s>
-0.5124786	c c c 6 C </s>
-0.20300493	C C 5 = O </s>
-0.23621927	) ) ) ) O </s>
-0.12321794	c c c 6 O </s>
-1.6417489	C = O ) N </s>
-0.38705432	) = O ) N </s>
-0.07616185	) ) C # N </s>
-0.07616185	c 6 C # N </s>
-0.59519863	C C C C 6 </s>
-0.2254201	C S C C 6 </s>
-0.4429329	C O C C 6 </s>
-0.2519818	F ) c c 6 </s>
-0.56999445	) c c c 6 </s>
-0.82966864	c c c c 6 </s>
-0.31911764	c n c c 6 </s>
-0.2750888	n c n c 6 </s>
-0.51800466	c c c n 6 </s>
-0.10415195	= O ) C 5 </s>
-0.093044624	) O C O 5 </s>
-0.15498888	c s c c 5 </s>
-0.46486413	c c c s 5 </s>
-0.093044624	c c c o 5 </s>
-0.2987483	c 6 ) ) F </s>
-0.097343326	c c 6 ) F </s>
-0.23112664	c c c 6 F </s>
-0.12707248	c s 5 ) Br </s>
-0.10113211	= O ) C Cl </s>
-0.04037746	c 6 ) ) Cl </s>
-0.21137202	c c 6 ) Cl </s>
-0.027995894	c s 5 ) Cl </s>
-0.10113211	N ) N . Cl </s>
-0.18804218	O C C C 7 </s>
-0.09159092	[N+] = O ) [O-] </s>
-0.6602141	C C C C C C
-0.41571602	) C C C C C
-0.121688984	N C C C C C
-0.25529456	) ) C C C C
-0.25529456	5 ) C C C C
-0.48055574	C N C C C C
-0.17372723	) N C C C C
-0.15443648	F C = C C C
-0.42806605	C C O C C C
-0.5599468	) ) ) C C C
-0.16220146	s 5 ) C C C
-0.5941673	<s> C N C C C
-0.3039783	= C N C C C
-0.6710743	O ) N C C C
-0.32001102	6 ) N C C C
-0.15443648	O ) [C@H] C C C
-0.11437818	N C C S C C
-0.20682234	<s> F C = C C
-0.15662365	N C C O C C
-0.87409186	C = O ) C C
-0.5222798	C ) ) ) C C
-0.37464195	) ) ) ) C C
-0.47189724	c s 5 ) C C
-0.3300607	C C C N C C
-0.024547951	N C C N C C
-0.2455838	O = C N C C
-0.052810464	= O ) N C C
-0.4235635	) ) ) N C C
-0.4878533	6 ) ) N C C
-0.2391279	c 6 ) N C C
-0.6906832	c c c 6 C C
-0.13062698	<s> Br C # C C
-0.11437818	= O ) [C@H] C C
-0.17779592	) N C C S C
-0.32822317	) ) C C = C
-0.105523415	) N C C O C
-0.36637047	c 6 ) ) O C
-0.12642752	c c 6 ) O C
-0.106059395	n 5 ) c O C
-0.19869108	) N C C ) C
-0.6851445	) C = O ) C
-0.30677527	N C = O ) C
-0.8475978	O ) = O ) C
-0.32338852	C ) C ) ) C
-0.6205006	) C ) ) ) C
-0.3206229	6 C ) ) ) C
-0.70517933	) ) ) ) ) C
-0.27900878	C C 6 ) ) C
-0.5257502	c c 6 ) ) C
-0.4829119	c n 6 ) ) C
-0.1651664	C C 7 ) ) C
-0.24336264	C N C 6 ) C
-1.0729024	c c c 6 ) C
-0.16485769	o c c 5 ) C
-0.67652464	c c s 5 ) C
-0.32234505	n c s 5 ) C
-0.07021634	= C C C N C
-0.07021634	O C C C N C
-0.07021634	N C C C N C
-0.05835681	C N C C N C
-0.008738258	) N C C N C
-0.052343015	C # C C N C
-0.34742522	<s> O = C N C
-0.035443187	= O ) C N C
-0.035443187	6 ) ) C N C
-0.08372008	C = O ) N C
-0.48424605	) = O ) N C
-0.13291933	) ) ) ) N C
-0.11050002	C 6 ) ) N C
-0.11050002	n 6 ) ) N C
-0.10093262	c c 6 ) N C
-0.099457495	= O ) N N C
-0.11162602	c c c 6 N C
-0.11162602	n c c 6 N C
-1.5728601	O ) c c c C
-0.64965516	) c c c 6 C
-1.0888561	c c c c 6 C
-0.07500178	) N C C # C
-0.10958987	C = O ) [C@H] C
-1.746749	O ) N C C S
-0.1998896	) C C = C S
-0.54237574	C C 6 ) ) S
-0.8855283	c c 6 ) ) S
-0.25231436	) ) ) C C =
-0.35148406	C 6 ) ) C =
-0.5192243	c c 6 ) C =
-0.12183104	# C C N C =
-0.13529779	O ) C N C =
-0.13529779	) ) C N C =
-0.29269508	) ) ) N C =
-0.2892242	6 ) ) N C =
-0.083244346	O ) N N C =
-0.05682855	c c 6 N C =
-0.13392508	<s> C [C@@H] [C@@H] C =
-0.047946345	C C = C S =
-0.012119775	C 6 ) ) S =
-0.041788336	c 6 ) ) S =
-0.18982954	C S = O ) =
-0.05009863	) S = O ) =
-0.17846532	C C C C 5 =
-0.095676355	c c c 6 [N+] =
-1.409065	O ) N C C O
-0.8673849	) ) N C C O
-0.24686721	c 6 ) O C O
-1.1334095	C = O ) C O
-0.33015552	) ) C C = O
-0.0047283503	<s> Cl C C = O
-0.052307244	<s> C O C = O
-0.009472077	6 ) ) C = O
-0.03422516	c 6 ) C = O
-0.03258782	<s> C N C = O
-0.022657255	C C N C = O
-0.022657255	) C N C = O
-0.030016642	) ) N C = O
-0.035359442	) N N C = O
-0.024560224	c 6 N C = O
-0.052307244	C [C@@H] [C@@H] C = O
-0.03395048	C = C S = O
-0.011433745	6 ) ) S = O
-0.010828939	S = O ) = O
-0.07747824	C C C 5 = O
-0.07747824	c c 6 [N+] = O
-0.7431133	C ) ) ) ) O
-0.97385603	c c 6 ) ) O
-1.4017544	c c c 6 ) O
-0.263166	c n 5 ) c O
-1.569235	c c c c 6 O
-1.707194	O ) N C C )
-0.19491161	5 ) c O C )
-0.18075702	N C C ) C )
-0.71182936	C = O ) C )
-0.7909959	c 6 ) ) C )
-0.13377479	) c c c C )
-0.75877243	c c c 6 C )
-0.021699471	<s> C C = O )
-0.021699471	) C C = O )
-0.0013247397	Cl C C = O )
-0.023519807	C O C = O )
-0.007278199	) ) C = O )
-0.026122378	6 ) C = O )
-0.012889172	<s> N C = O )
-0.006557167	C N C = O )
-0.0109843025	) N C = O )
-0.012889172	N N C = O )
-0.0090232855	6 N C = O )
-0.023519807	[C@@H] [C@@H] C = O )
-0.025293086	<s> C S = O )
-0.021509055	= C S = O )
-0.0043953685	) ) S = O )
-0.0050365776	= O ) = O )
-0.03456363	c 6 [N+] = O )
-0.4434193	c 6 ) ) O )
-0.066837266	) c O C ) )
-0.07770042	C C ) C ) )
-0.053152334	= O ) C ) )
-0.07770042	6 ) ) C ) )
-0.066837266	c c 6 C ) )
-0.16884181	6 ) ) O ) )
-0.11225942	O ) C ) ) )
-0.17000885	) ) C ) ) )
-0.12599814	c 6 C ) ) )
-0.11209717	) ) O ) ) )
-0.17001279	) C ) ) ) )
-0.0928517	) O ) ) ) )
-0.15404144	C ) ) ) ) )
-0.068175256	O ) ) ) ) )
-0.17378578	) ) ) ) ) )
-0.03359864	6 ) ) ) ) )
-0.04679931	F ) ) ) ) )
-0.068175256	3 ) ) ) ) )
-0.068175256	Br ) ) ) ) )
-0.068175256	Cl ) ) ) ) )
-0.10411102	C 6 ) ) ) )
-0.06375658	c 6 ) ) ) )
-0.10411102	) F ) ) ) )
-0.10411102	6 F ) ) ) )
-0.0928517	C 3 ) ) ) )
-0.0928517	C Br ) ) ) )
-0.0928517	) Cl ) ) ) )
-1.1349711	C C 6 ) ) )
-0.6387901	c c 6 ) ) )
-0.16938132	n c 6 ) ) )
-0.07156789	) ) F ) ) )
-0.07156789	c 6 F ) ) )
-0.11209717	C C 3 ) ) )
-0.11209717	# C Br ) ) )
-0.11209717	6 ) Cl ) ) )
-0.15282634	C C C 6 ) )
-0.018070715	N C C 6 ) )
-0.1574	c c c 6 ) )
-0.10631766	c n c 6 ) )
-0.081429794	c c n 6 ) )
-0.1155766	6 ) ) F ) )
-0.1155766	c c 6 F ) )
-0.11053902	C C C 3 ) )
-0.11053902	C # C Br ) )
-0.11053902	c 6 ) Cl ) )
-0.11053902	N C C 7 ) )
-0.13891546	C C C = N )
-0.19473566	C C C C 6 )
-0.34601775	C O C C 6 )
-0.013684085	C N C C 6 )
-0.12278554	C C N C 6 )
-0.2634488	c c c c 6 )
-0.17250672	c c n c 6 )
-0.26324403	c c c n 6 )
-0.22391559	n o c c 5 )
-0.12163579	s c c n 5 )
-0.24470024	c c c s 5 )
-0.18685184	n c c s 5 )
-0.1401578	n n c s 5 )
-0.39200464	c 6 ) ) F )
-0.06619111	O ) c c F )
-0.06619111	c 5 c c F )
-0.48398367	c c c 6 F )
-0.08956252	N C C C 3 )
-0.12487189	C C # C Br )
-0.47536573	c c 6 ) Cl )
-0.18551083	C N C C 7 )
-0.08956252	c 6 C C %10 )
-0.26534438	C = C C C N
-0.33563897	<s> O C C C N
-1.047691	) N C C C N
-0.348855	<s> C N C C N
-0.227274	O ) N C C N
-0.123289585	Br C # C C N
-1.0780823	C = O ) C N
-0.9239262	c 6 ) ) C N
-0.28804317	<s> C C C = N
-0.01273166	C C = O ) N
-0.41724318	) C = O ) N
-0.70737046	N C = O ) N
-0.2880623	[C@@H] C = O ) N
-0.7083288	O ) = O ) N
-0.9261456	) ) ) ) ) N
-1.4428926	C C 6 ) ) N
-0.5270694	c n 6 ) ) N
-0.1357779	C C = N ) N
-1.390598	c c c 6 ) N
-1.7411325	C = O ) N N
-1.397246	c c c c 6 N
-0.6520491	c n c c 6 N
-0.15204833	6 ) ) C # N
-0.15204833	c c 6 C # N
-0.6037932	C N C C C c
-0.2677558	= O ) C C c
-1.3066183	O ) N C C c
-0.39357796	) ) N C C c
-0.90527654	C = O ) C c
-0.8617797	) ) ) ) C c
-0.3959201	C 6 ) ) C c
-0.25138968	C 7 ) ) C c
-0.23733038	N C 6 ) C c
-1.158309	= O ) N C c
-0.19281936	= O ) C O c
-0.1944991	c c c C ) c
-0.33214244	O C = O ) c
-0.61191404	) C = O ) c
-0.77017874	N C = O ) c
-0.252745	O ) = O ) c
-0.27504224	c O C ) ) c
-1.2708714	C C 6 ) ) c
-0.8511694	C C C 6 ) c
-0.33926904	O C C 6 ) c
-0.15707833	c c n 5 ) c
-0.6706464	c c s 5 ) c
-0.19178186	) c c F ) c
-0.19178186	5 c c F ) c
-0.1190363	6 C C %10 ) c
-0.2902267	<s> O = C N c
-0.9079481	C = O ) N c
-0.7283152	) ) ) ) N c
-0.023041254	N C C C c c
-0.023041254	O ) C C c c
-0.014617748	) N C C c c
-0.019992651	<s> O = C c c
-0.075583614	= O ) C c c
-0.032518208	6 ) ) C c c
-0.11083662	7 ) ) C c c
-0.012699967	O ) N C c c
-0.013961738	<s> N # C c c
-0.08258388	O ) C O c c
-0.030053064	c c C ) c c
-0.013952783	C = O ) c c
-0.008317743	) = O ) c c
-0.019838313	O C ) ) c c
-0.013854718	C 6 ) ) c c
-0.19615255	C C 6 ) c c
-0.05997002	c s 5 ) c c
-0.020913588	c c F ) c c
-0.030053064	C C %10 ) c c
-0.023458572	<s> C C N c c
-0.016362343	O = C N c c
-0.06416947	= O ) N c c
-0.04706761	) ) ) N c c
-0.18297495	) C C c c c
-0.20961232	N C C c c c
-0.12454221	O = C c c c
-0.13757606	) ) C c c c
-0.07556553	) N C c c c
-0.08371066	N # C c c c
-0.12756397	) C O c c c
-0.08703674	c C ) c c c
-0.035108436	= O ) c c c
-0.09750861	C ) ) c c c
-0.06621432	6 ) ) c c c
-0.08703674	C 6 ) c c c
-0.08703674	s 5 ) c c c
-0.23362896	c F ) c c c
-0.08703674	C %10 ) c c c
-0.13388498	C C N c c c
-0.08966752	= C N c c c
-0.05221796	O ) N c c c
-0.13388498	) ) N c c c
-0.22240978	C C c c c c
-0.09993699	= C c c c c
-0.03397097	) C c c c c
-0.061315253	N C c c c c
-0.06780166	# C c c c c
-0.12278351	C O c c c c
-0.03113961	O ) c c c c
-0.1348193	) ) c c c c
-0.09977866	6 ) c c c c
-0.09977866	5 ) c c c c
-0.09977866	F ) c c c c
-0.09977866	%10 ) c c c c
-0.11515542	C N c c c c
-0.04567059	) N c c c c
-0.08323174	C c c c c c
-0.15849859	O c c c c c
-0.15051417	) c c c c c
-0.11004931	N c c c c c
-0.3040857	c c c c c c
-0.15849859	Br c c c c c
-0.102555156	c 6 c c c c
-0.12278351	c n c c c c
-0.12278351	<s> Br c c c c
-0.106448226	c c 6 c c c
-0.36834705	c c 5 c c c
-0.25609842	Cl c n c c c
-0.09246082	C c c 6 c c
-0.06290495	c c c 6 c c
-0.056391418	C c c [nH] c c
-0.04491392	[nH] c c 5 c c
-0.06536178	C C [C@H] 5 c c
-0.19120169	6 ) c n c c
-0.37007833	c c c n c c
-0.19120169	<s> Cl c n c c
-0.053376112	) N c s c c
-0.04098434	C c c s c c
-0.05951692	5 c c s c c
-0.08258388	C c n o c c
-0.2623391	C C c c 6 c
-1.21288	c c c c 6 c
-0.0992278	C C c c [nH] c
-0.0992278	) C c c [nH] c
-0.13808113	c [nH] c c 5 c
-0.11280358	C C C [C@H] 5 c
-0.07102769	C 6 ) c n c
-0.09040831	<s> N c c n c
-0.109396145	C c c c n c
-0.2514736	c c c c n c
-0.07102769	c c n c n c
-0.0865967	) C c n n c
-0.13556966	O ) N c s c
-0.106301196	) C c c s c
-0.16037154	[C@H] 5 c c s c
-0.11171423	) C c n o c
-0.2124567	C C C C C 6
-0.5935353	) C C C C 6
-0.18936649	C C S C C 6
-0.32485306	C C O C C 6
-0.04121147	C C N C C 6
-0.7777944	C C C N C 6
-0.3938264	C C C c c 6
-0.54502827	c F ) c c 6
-0.4201737	C ) c c c 6
-0.79297405	) ) c c c 6
-0.98051476	) c c c c 6
-0.32463136	c c c c c 6
-0.2766796	6 c c c c 6
-0.34840065	n c c c c 6
-0.26649487	c c n c c 6
-0.44879237	c c c n c 6
-0.21836135	c n c n c 6
-0.47812173	c c c c n 6
-0.38171843	5 c c c n 6
-0.7835713	N C C c c [nH]
-0.3809465	O ) C c c [nH]
-1.2305772	N C C C C 5
-0.34850526	) = O ) C 5
-0.19717802	6 ) O C O 5
-0.12810238	c c [nH] c c 5
-0.2461049	c c s c c 5
-0.19604504	c n o c c 5
-0.28262553	c s c c n 5
-0.053183988	c c c c s 5
-0.16423938	c n c c s 5
-0.14104989	c n n c s 5
-0.11815034	c c c c o 5
-0.11815034	[C@H] C C C [C@H] 5
-1.004207	c c 6 ) ) F
-1.406015	c c c 6 ) F
-1.3757155	= O ) c c F
-0.53876144	c c 5 c c F
-1.311516	c c c c 6 F
-0.28756502	) ) ) C c n
-0.21215016	C 6 ) C c n
-0.49741676	C C 6 ) c n
-0.4320335	<s> C c c c n
-0.5219741	C C c c c n
-0.9152896	N c c c c n
-1.7185336	c c c c c n
-0.28793007	c 5 c c c n
-0.3019106	N c s c c n
-0.3520364	N c c n c n
-0.3256479	6 ) C c n n
-1.7359407	O ) N C C #
-0.4480038	n 6 ) ) C #
-0.7914238	c c c 6 C #
-0.923355	= O ) N c s
-0.7931102	) ) C c c s
-1.0334684	C c c c c s
-0.8856579	) c c c c s
-0.24419732	C [C@H] 5 c c s
-0.33559564	) c n c c s
-0.19524959	C c n n c s
-1.2355639	) N C C C 3
-1.6479813	) c c c c o
-0.3256479	) ) C c n o
-0.3158368	) [C@H] C C C [C@H]
-1.3209233	N C = O ) [C@H]
-0.24199045	N C C # C Br
-0.8554133	c c s 5 ) Br
-0.21316645	C = N ) N .
-1.1595571	C = O ) C Cl
-1.3001932	c c 6 ) ) Cl
-1.1493587	c c c 6 ) Cl
-0.5360884	c c s 5 ) Cl
-0.09773357	= N ) N . Cl
-0.38746917	C O C C C 7
-1.730507	C C N C C 7
-1.6053997	c c c c 6 [N+]
-0.30257642	6 [N+] = O ) [O-]
-0.22353917	c c 6 C C %10

\end\
