\data\
ngram 1=65
ngram 2=725
ngram 3=3522
ngram 4=11604
ngram 5=29780
ngram 6=63968

\1-grams:
-2.7828565	<unk>	0
0	<s>	-4.3161283
-1.4179318	</s>	0
-1.2507936	C	-0.9989169
-1.373266	O	-0.6809723
-1.2615988	c	-0.7953905
-1.5659751	6	-0.5544062
-1.6645681	%10	-0.46508935
-1.4025271	=	-0.8079722
-1.4504842	)	-0.83019197
-1.7923262	s	-0.47321674
-1.523972	5	-0.59922594
-1.4504842	n	-0.6839276
-1.5659751	Cl	-0.7240737
-2.034567	[O-]	-0.40353513
-1.6931591	[N+]	-0.58763826
-1.9741118	%14	-0.29993397
-1.4504842	S	-0.6399222
-1.6124798	Br	-0.74345416
-1.5659751	F	-0.74693656
-1.523972	/	-0.46153
-1.8737762	o	-0.4722507
-1.2957274	N	-0.77508914
-2.292687	#	-0.27913383
-1.8737762	\	-0.3429919
-1.7923262	P	-0.5415813
-1.7923262	7	-0.4756073
-1.8311446	I	-0.6195337
-1.8311446	8	-0.41943526
-1.8737762	3	-0.3429868
-1.7237661	[nH]	-0.44662264
-1.7566947	9	-0.46415788
-1.8737762	%11	-0.35517222
-2.034567	[n+]	-0.41156977
-2.1048205	%13	-0.27913383
-2.6310883	[S-]	-0.31393993
-1.7923262	B	-0.523116
-2.1048205	%12	-0.26095968
-1.5044018	[C@@H]	-0.59581196
-1.544466	[C@H]	-0.60215217
-1.7923262	4	-0.46067405
-1.8311446	[C@@]	-0.4541505
-2.292687	[N-]	-0.28140318
-2.5188417	[S+]	-0.31393993
-1.7923262	[C@]	-0.4266161
-2.5188417	[C-]	-0.31393993
-2.429729	[I]	-0.29325563
-2.6310883	%17	-0.31393993
-2.6310883	%19	-0.31393993
-2.6310883	%23	-0.31393993
-2.5188417	%15	-0.31393993
-2.6310883	[O]	-0.31393993
-2.5188417	%21	-0.26099187
-2.6310883	%18	-0.31393993
-2.6310883	%22	-0.31393993
-2.5188417	%28	-0.23675697
-2.6310883	[P@]	-0.31393993
-2.6310883	[P@@]	-0.31393993
-2.6310883	[B-]	-0.31393993
-2.6310883	%20	-0.31393993
-2.6310883	[S@]	-0.31393993
-2.6310883	[S@@]	-0.31393993
-2.6310883	%33	-0.31393993
-2.6310883	%16	-0.31393993
-2.5188417	%35	-0.27363607

\2-grams:
-1.5352693	C </s>	0
-1.0933316	O </s>	0
-1.0287795	6 </s>	0
-0.844423	%10 </s>	0
-0.92784506	5 </s>	0
-0.49942094	Cl </s>	0
-0.58259773	[O-] </s>	0
-1.1637436	%14 </s>	0
-1.0861722	S </s>	0
-0.45258442	Br </s>	0
-0.52228385	F </s>	0
-1.1115756	N </s>	0
-0.99710524	7 </s>	0
-0.43901938	I </s>	0
-0.84995437	8 </s>	0
-1.1440653	3 </s>	0
-0.89967626	9 </s>	0
-1.0511094	%11 </s>	0
-0.90796614	%13 </s>	0
-0.27312192	[S-] </s>	0
-0.92973393	%12 </s>	0
-1.1992192	4 </s>	0
-0.91040546	[N-] </s>	0
-0.72104317	[C-] </s>	0
-0.55930656	%15 </s>	0
-0.27312192	%18 </s>	0
-0.27312192	%20 </s>	0
-0.27312192	%16 </s>	0
-0.32764718	<s> C	-4.0297847
-1.1955835	C C	-0.9789088
-0.84206206	O C	-0.71151596
-1.426667	c C	-0.45699266
-1.0426121	6 C	-0.4870362
-0.98686594	%10 C	-0.41747907
-0.76311	= C	-0.4284803
-1.1241068	) C	-0.76973814
-1.0847918	5 C	-0.5584936
-1.3232805	n C	-0.38112497
-1.6107439	Cl C	-0.26172632
-1.2296968	[O-] C	-0.26172632
-0.7883072	[N+] C	-0.34203
-0.763944	%14 C	-0.28488863
-0.8527112	S C	-0.5451284
-1.6120942	Br C	-0.26172632
-1.6336067	F C	-0.26172632
-0.685464	/ C	-0.41912493
-0.91720146	N C	-0.6890165
-0.626077	# C	-0.2648913
-1.1497397	\ C	-0.30155095
-0.86944544	P C	-0.46696872
-0.8572205	7 C	-0.38423464
-1.4203725	I C	-0.26172632
-0.9036503	8 C	-0.39540324
-0.8339395	3 C	-0.38773894
-0.99207515	9 C	-0.39191306
-1.0140691	%11 C	-0.27393857
-1.1894588	[n+] C	-0.26172632
-0.8760389	%13 C	-0.26172632
-1.2452408	B C	-0.26084757
-0.89485157	%12 C	-0.26026273
-0.8460651	[C@@H] C	-0.675294
-0.8305608	[C@H] C	-0.6221112
-0.7658428	4 C	-0.41029495
-0.7571628	[C@@] C	-0.41070333
-0.5458171	[S+] C	-0.26172632
-0.6537161	[C@] C	-0.39704457
-0.5458171	%15 C	-0.26172632
-0.3441038	%28 C	-0.25953278
-0.7998224	%35 C	-0.26172632
-0.5458152	<s> O	-3.861277
-1.3375778	C O	-0.7090812
-1.6562953	O O	-0.2781438
-1.6622941	c O	-0.39330518
-1.1030909	6 O	-0.44825092
-1.5616173	%10 O	-0.26026273
-0.50150937	= O	-1.0910966
-1.2893289	) O	-0.54635614
-1.1504066	5 O	-0.5186153
-1.8084295	n O	-0.25953278
-1.1508049	%14 O	-0.25953278
-1.8635843	S O	-0.26172632
-1.507279	/ O	-0.29048568
-1.4772598	N O	-0.386375
-1.3367033	\ O	-0.27548948
-1.2066314	P O	-0.2801759
-1.4255432	7 O	-0.27293447
-1.5515099	8 O	-0.26172632
-1.4213909	3 O	-0.25953278
-1.2869301	9 O	-0.27492237
-1.042277	%11 O	-0.2768407
-0.29219398	B O	-0.7100068
-1.2401439	%12 O	-0.26172632
-1.0957303	[C@@H] O	-0.46190682
-1.1438231	[C@H] O	-0.44235116
-1.1894865	4 O	-0.326642
-1.1810818	[C@@] O	-0.27749175
-1.3592894	[C@] O	-0.27492237
-0.8232935	[I] O	-0.26172632
-0.5180156	%21 O	-0.25953278
-0.6332578	%35 O	-0.25953278
-2.6794932	<s> c	-2.1579764
-1.2564459	C c	-0.92705995
-0.99857557	O c	-0.6101857
-0.8701107	c c	-0.9520776
-1.1774406	6 c	-0.4088405
-1.1437031	%10 c	-0.35188302
-1.2683758	= c	-0.33740997
-1.1252869	) c	-0.74282473
-0.5105028	s c	-0.53577983
-1.181856	5 c	-0.38331527
-0.698009	n c	-0.6463794
-1.6153829	Cl c	-0.26172632
-1.2337297	[O-] c	-0.26172632
-1.504386	[N+] c	-0.26172632
-1.2386854	%14 c	-0.26172632
-0.8536901	S c	-0.6662472
-1.6165437	Br c	-0.26172632
-1.6382458	F c	-0.26172632
-1.0352477	/ c	-0.34489113
-0.5089055	o c	-0.46696872
-1.1427177	N c	-0.70691824
-1.1535956	\ c	-0.326642
-0.771715	P c	-0.5339155
-0.9738539	7 c	-0.3950439
-1.4241761	I c	-0.26172632
-1.2632345	8 c	-0.29087746
-1.243667	3 c	-0.27343622
-0.62023056	[nH] c	-0.52870005
-1.2524852	9 c	-0.28754014
-1.3108	%11 c	-0.25953278
-0.40672117	[n+] c	-0.3136436
-1.0514551	%13 c	-0.26172632
-1.2484115	B c	-0.26084757
-1.0652236	%12 c	-0.25953278
-1.1632953	[C@@H] c	-0.49116182
-1.1696354	[C@H] c	-0.49612102
-1.048917	4 c	-0.35188302
-1.3059713	[C@@] c	-0.26026273
-1.4357505	[C@] c	-0.25953278
-0.40873688	[I] c	-0.30104616
-1.5273995	C 6	-0.62954813
-1.3379111	O 6	-0.6020762
-1.4030287	c 6	-0.44122213
-1.3279929	%10 6	-0.2768407
-1.6301763	s 6	-0.26172632
-1.3818936	n 6	-0.36471853
-1.757985	S 6	-0.2801759
-1.3135235	/ 6	-0.2692178
-1.4186194	o 6	-0.25953278
-1.4099816	N 6	-0.5078913
-1.5544474	\ 6	-0.2611769
-1.5925645	P 6	-0.26172632
-1.2455393	[nH] 6	-0.36799297
-1.6563071	9 6	-0.26026273
-1.272315	[n+] 6	-0.26172632
-1.4860874	B 6	-0.26172632
-1.1610465	[C@@H] 6	-0.43821868
-1.2163109	[C@H] 6	-0.47916645
-1.0893428	[C@@] 6	-0.2781438
-1.2420527	[C@] 6	-0.36314306
-1.7952975	C %10	-0.47577074
-1.7507521	O %10	-0.30104616
-1.6612393	c %10	-0.3803669
-1.5138749	s %10	-0.26026273
-1.4908148	n %10	-0.35035247
-1.3858951	%14 %10	-0.26172632
-2.048186	S %10	-0.26172632
-1.7687579	/ %10	-0.26062816
-1.4403307	o %10	-0.26026273
-2.0211427	N %10	-0.270875
-1.4357477	\ %10	-0.26172632
-1.4484153	[nH] %10	-0.25953278
-1.6289386	[C@@H] %10	-0.26084757
-1.798256	[C@H] %10	-0.29087746
-1.7368387	[C@@] %10	-0.26172632
-1.7446507	[C@] %10	-0.26172632
-1.2555195	C =	-0.9770049
-1.9573163	O =	-0.26172632
-1.3817166	c =	-0.64634657
-1.3339143	6 =	-0.42789575
-1.176337	%10 =	-0.46696872
-1.9545783	) =	-0.29087746
-1.5589639	s =	-0.26172632
-1.4227829	5 =	-0.36314306
-0.37140328	[N+] =	-0.627672
-0.97844374	%14 =	-0.26026273
-0.7193174	S =	-0.8647765
-1.1583587	N =	-0.64338124
-0.47210085	P =	-0.64305997
-1.2778348	7 =	-0.33483267
-1.3118435	8 =	-0.30104616
-1.4359844	3 =	-0.25953278
-1.2949702	9 =	-0.3354837
-1.2211634	%11 =	-0.30104616
-1.0923281	%13 =	-0.25953278
-1.10938	%12 =	-0.26172632
-1.3637266	4 =	-0.30104616
-0.90786344	[N-] =	-0.26172632
-0.27257702	%17 =	-0.26172632
-0.27257702	%23 =	-0.26172632
-0.7138823	%21 =	-0.26172632
-0.27257702	[P@] =	-0.26172632
-0.27257702	[P@@] =	-0.26172632
-0.27257702	[S@] =	-0.26172632
-0.27257702	[S@@] =	-0.26172632
-1.313795	C )	-0.6909629
-0.908931	O )	-0.53909266
-0.9967336	6 )	-0.53350943
-0.8970542	%10 )	-0.42064682
-1.0447892	) )	-0.86199063
-0.9613183	5 )	-0.6599706
-0.40097982	Cl )	-0.49965197
-0.7236754	[O-] )	-0.2599706
-1.1725887	%14 )	-0.26172632
-1.1813343	S )	-0.3657037
-0.4202301	Br )	-0.48276952
-0.36843216	F )	-0.5977196
-1.0123078	N )	-0.5459463
-0.93601006	7 )	-0.42465183
-0.50083923	I )	-0.4188298
-0.78655064	8 )	-0.39523414
-1.3161056	3 )	-0.27749175
-0.85328126	9 )	-0.4304603
-0.83415174	%11 )	-0.31091323
-1.2565093	%13 )	-0.26172632
-1.1222448	%12 )	-0.25953278
-1.082692	4 )	-0.32973891
-0.9155345	[N-] )	-0.26172632
-0.724113	[C-] )	-0.26172632
-0.27421388	%22 )	-0.26172632
-0.27421388	%33 )	-0.26172632
-4.8766847	<s> s	-0.48808178
-1.1069567	c s	-0.7614051
-1.9519018	6 s	-0.26084757
-1.4362662	) s	-0.5640517
-1.7050624	s s	-0.26172632
-2.0856767	5 s	-0.26172632
-1.1978118	n s	-0.48268348
-1.8203112	/ s	-0.26026273
-1.7733142	\ s	-0.26172632
-1.8633857	7 s	-0.26172632
-1.4731677	[nH] s	-0.29087746
-1.8749183	9 s	-0.26172632
-1.5478065	C 5	-0.6555126
-1.3325073	O 5	-0.63683826
-1.3630817	c 5	-0.562176
-0.97519875	s 5	-0.47713745
-1.235034	n 5	-0.4252664
-1.6040003	[N+] 5	-0.26172632
-1.245265	S 5	-0.55092365
-1.1410868	/ 5	-0.31365556
-0.88932157	o 5	-0.47713745
-1.2876508	N 5	-0.5578431
-0.87610114	\ 5	-0.33397922
-1.6277133	7 5	-0.26026273
-1.5095053	8 5	-0.26172632
-1.0165421	[nH] 5	-0.522895
-1.4916706	9 5	-0.30104616
-1.2637068	[n+] 5	-0.26172632
-1.2798713	%13 5	-0.26172632
-1.4752231	B 5	-0.26172632
-1.2595555	[C@@H] 5	-0.45201036
-1.2658956	[C@H] 5	-0.39994627
-0.9862826	[C@@] 5	-0.5339155
-1.0142721	[C@] 5	-0.5339155
-3.6248994	<s> n	-1.3117701
-1.4505429	C n	-0.68766624
-1.9233052	O n	-0.25953278
-0.9795031	c n	-0.8756675
-1.274612	6 n	-0.4323937
-1.6007333	%10 n	-0.26026273
-1.2678555	) n	-0.66596663
-0.96765286	s n	-0.37417197
-1.276841	5 n	-0.4322091
-0.7638374	n n	-0.6540587
-1.9168489	S n	-0.26172632
-1.5419018	/ n	-0.27749175
-0.88310623	o n	-0.3877875
-1.7984667	N n	-0.36799297
-1.499578	\ n	-0.26172632
-1.5949689	7 n	-0.26026273
-1.4809796	8 n	-0.26172632
-1.4588373	3 n	-0.26026273
-1.1023467	[nH] n	-0.3787409
-1.6036848	9 n	-0.26026273
-1.5117251	%11 n	-0.26172632
-1.246986	[n+] n	-0.26172632
-1.8190446	[C@@H] n	-0.2599706
-1.5750103	[C@H] n	-0.29087746
-1.3783454	4 n	-0.28396177
-0.27421388	[B-] n	-0.26172632
-1.3871673	<s> Cl	-3.2461247
-1.5520673	C Cl	-0.92083496
-1.6439927	c Cl	-0.669023
-1.5683554	6 Cl	-0.30104616
-1.652858	%10 Cl	-0.26026273
-1.3087215	) Cl	-0.9542587
-1.7322817	5 Cl	-0.28396177
-2.0098817	n Cl	-0.26172632
-1.3576295	%14 Cl	-0.26172632
-1.9908056	S Cl	-0.26172632
-1.7226802	/ Cl	-0.25953278
-1.5544474	\ Cl	-0.26026273
-1.5925645	P Cl	-0.26172632
-1.759759	7 Cl	-0.26172632
-1.5085014	3 Cl	-0.26026273
-1.6563071	9 Cl	-0.26026273
-1.5665898	%11 Cl	-0.26172632
-1.9716707	[C@@H] Cl	-0.26172632
-1.9780109	[C@H] Cl	-0.26172632
-1.7009773	4 Cl	-0.26172632
-2.1701517	<s> [O-]	-2.691191
-2.1764634	6 [O-]	-0.26172632
-1.6755338	) [O-]	-0.5642876
-2.1888137	5 [O-]	-0.26172632
-1.5170815	[N+] [O-]	-0.26172632
-1.8625623	\ [O-]	-0.26172632
-1.1329983	[n+] [O-]	-0.25953278
-2.1142726	C [N+]	-0.32535446
-2.1544514	O [N+]	-0.26172632
-2.2163317	c [N+]	-0.25953278
-1.9091915	6 [N+]	-0.26026273
-1.7016504	%10 [N+]	-0.25953278
-1.4512327	= [N+]	-0.2809414
-1.5789967	) [N+]	-0.54016113
-1.7750044	5 [N+]	-0.30104616
-1.3490683	[O-] [N+]	-0.26172632
-1.7810841	/ [N+]	-0.25953278
-2.1662934	N [N+]	-0.26026273
-0.88362694	# [N+]	-0.26172632
-1.7274218	\ [N+]	-0.26172632
-1.7056234	9 [N+]	-0.25953278
-1.6182818	%11 [N+]	-0.26172632
-2.2942042	C %14	-0.26084757
-2.18179	c %14	-0.26062816
-2.0215623	/ %14	-0.26172632
-1.8431851	\ %14	-0.26172632
-1.863518	[nH] %14	-0.26172632
-2.1886826	[C@@H] %14	-0.26172632
-2.1950228	[C@H] %14	-0.26172632
-1.8400718	[C@@] %14	-0.26172632
-2.2513413	<s> S	-2.7581484
-1.3941022	C S	-0.6737025
-1.5025426	O S	-0.45626718
-1.6849189	c S	-0.37878188
-1.4287237	6 S	-0.36148703
-1.4629158	%10 S	-0.2781438
-1.04396	= S	-0.3774685
-1.3304727	) S	-0.5443437
-1.3487282	5 S	-0.39488244
-1.6861422	Cl S	-0.26172632
-1.2945163	[O-] S	-0.26172632
-1.7132057	S S	-0.27548948
-1.6841569	Br S	-0.26172632
-1.709005	F S	-0.26172632
-1.5419018	/ S	-0.27393857
-1.0705265	N S	-0.5880518
-1.3672752	\ S	-0.26026273
-1.1707737	7 S	-0.31919372
-1.4809796	8 S	-0.25953278
-1.3161056	3 S	-0.29087746
-1.3073165	9 S	-0.3877875
-1.394003	%11 S	-0.26026273
-1.706749	[C@@H] S	-0.26084757
-1.5750103	[C@H] S	-0.29087746
-1.2058312	4 S	-0.3327793
-0.7289978	[N-] S	-0.25953278
-1.5706428	<s> Br	-3.1375077
-1.5563704	C Br	-0.90310615
-1.8090202	c Br	-0.522895
-1.5809067	6 Br	-0.36314306
-1.7882941	%10 Br	-0.26172632
-1.4656988	) Br	-0.7781674
-1.7488699	5 Br	-0.28396177
-2.018549	S Br	-0.26172632
-1.7451082	/ Br	-0.26026273
-1.5743939	\ Br	-0.25953278
-1.5011537	7 Br	-0.29087746
-1.540037	8 Br	-0.26026273
-1.363663	3 Br	-0.29087746
-1.7910235	9 Br	-0.26172632
-1.4498489	%11 Br	-0.25953278
-1.9076179	[C@@H] Br	-0.25953278
-1.9139581	[C@H] Br	-0.25953278
-1.722328	4 Br	-0.26172632
-1.5006748	<s> F	-3.207708
-1.4215207	C F	-0.97005296
-1.7137226	c F	-0.6020762
-1.4565035	6 F	-0.36799297
-1.7637827	%10 F	-0.26172632
-1.3087215	) F	-0.97005296
-1.4602675	5 F	-0.42598492
-1.9908056	S F	-0.26172632
-1.7226802	/ F	-0.26026273
-1.6603014	\ F	-0.26172632
-1.759759	7 F	-0.26172632
-1.6514981	8 F	-0.26172632
-1.5085014	3 F	-0.26026273
-1.6563071	9 F	-0.26026273
-1.4351999	%11 F	-0.26172632
-1.2920411	%13 F	-0.26172632
-1.9716707	[C@@H] F	-0.26172632
-1.8900645	[C@H] F	-0.25953278
-1.4091474	4 F	-0.29087746
-1.6931694	[C@@] F	-0.26172632
-1.5002412	C /	-0.5260792
-1.6041036	O /	-0.40435085
-1.4783139	c /	-0.30161688
-1.8233491	6 /	-0.26026273
-1.7405812	%10 /	-0.26172632
-1.4554685	) /	-0.41685745
-1.4760976	s /	-0.25953278
-1.5641241	5 /	-0.30104616
-1.585901	n /	-0.26084757
-1.7086737	Cl /	-0.26172632
-1.6040003	[N+] /	-0.26172632
-1.7425399	S /	-0.28488863
-1.7055798	Br /	-0.26172632
-1.7315366	F /	-0.26172632
-1.5053015	N /	-0.4137922
-1.4990368	I /	-0.26172632
-1.601696	3 /	-0.26172632
-1.5708313	[nH] /	-0.26172632
-1.7429283	9 /	-0.26172632
-1.4752231	B /	-0.26172632
-1.7388405	[C@@H] /	-0.30104616
-1.8674172	[C@H] /	-0.25953278
-5.642933	<s> o	-0.25953278
-1.1286507	c o	-0.9243324
-2.107048	6 o	-0.26172632
-1.9030746	%10 o	-0.26172632
-1.486912	) o	-0.52034193
-2.1240447	5 o	-0.26172632
-1.4128536	n o	-0.36314306
-1.8485806	/ o	-0.26026273
-1.806846	\ o	-0.26172632
-1.6789144	[nH] o	-0.26026273
-0.90833586	<s> N	-3.514087
-1.3298088	C N	-0.7064411
-1.6236011	O N	-0.29747805
-1.5774925	c N	-0.40012413
-1.1850508	6 N	-0.40493274
-1.2594334	%10 N	-0.30907208
-0.7652763	= N	-0.49636063
-1.2791051	) N	-0.611599
-1.1378039	5 N	-0.53974974
-1.763015	n N	-0.26026273
-1.6296052	Cl N	-0.26172632
-1.5194812	[N+] N	-0.26172632
-1.2545797	%14 N	-0.26172632
-1.641466	S N	-0.26026273
-1.6301724	Br N	-0.26172632
-1.6524681	F N	-0.26172632
-1.0420346	/ N	-0.40108123
-1.4114279	N N	-0.47129765
-0.9994081	# N	-0.26172632
-1.3026491	\ N	-0.29087746
-1.3612432	P N	-0.26026273
-1.3946409	7 N	-0.2936272
-1.4357907	I N	-0.26172632
-1.2759613	8 N	-0.25953278
-1.0016265	3 N	-0.34724993
-1.1571183	9 N	-0.3327793
-1.3273362	%11 N	-0.26026273
-1.1980747	%13 N	-0.26172632
-1.4013971	B N	-0.26172632
-1.076828	%12 N	-0.25953278
-1.276505	[C@@H] N	-0.41063
-1.1314896	[C@H] N	-0.43760195
-0.9652784	4 N	-0.4283258
-1.1623268	[C@@] N	-0.27343622
-0.54992324	[S+] N	-0.26172632
-1.1801097	[C@] N	-0.2809414
-0.26824185	[O] N	-0.26172632
-1.4895226	C #	-0.9552583
-1.0811402	[N+] #	-0.29087746
-2.5305376	N #	-0.26172632
-0.7593959	[C-] #	-0.26172632
-1.923974	C \	-0.4150676
-2.1535618	c \	-0.26138818
-1.8394016	) \	-0.2794328
-1.555254	s \	-0.25953278
-2.159945	n \	-0.26172632
-2.1515903	S \	-0.26172632
-2.0896018	N \	-0.2611769
-1.6789144	[nH] \	-0.26172632
-1.8266869	[C@] \	-0.26172632
-0.2830498	%19 \	-0.26172632
-1.7270668	C P	-0.63586265
-1.5620481	O P	-0.4323937
-1.9519018	6 P	-0.26062816
-1.4592092	= P	-0.27749175
-2.1171453	) P	-0.2952064
-2.0856767	5 P	-0.26172632
-1.7707176	Cl P	-0.26172632
-1.8259252	S P	-0.30104616
-1.8203112	/ P	-0.25953278
-1.8974351	N P	-0.36406988
-1.9883701	[C@@H] P	-0.25953278
-1.8376243	[C@H] P	-0.30104616
-1.5968033	C 7	-0.5291619
-1.5620481	O 7	-0.42598492
-1.6791991	c 7	-0.3790851
-1.9948978	n 7	-0.26026273
-1.8259252	S 7	-0.2599706
-1.6567444	/ 7	-0.2609939
-1.6820639	N 7	-0.36574784
-1.4664758	\ 7	-0.26026273
-1.8050598	[nH] 7	-0.26172632
-1.8312842	[C@@H] 7	-0.26109844
-1.5372063	[C@H] 7	-0.3052411
-1.6535759	[C@] 7	-0.26026273
-2.2983325	<s> I	-2.7112548
-1.8635726	C I	-0.6020762
-1.8545991	c I	-0.522895
-1.9671259	6 I	-0.25953278
-1.8869553	%10 I	-0.26172632
-1.7375147	) I	-0.47713745
-1.9792095	5 I	-0.25953278
-1.96077	/ I	-0.26172632
-1.878267	7 I	-0.26172632
-1.7548728	8 I	-0.26172632
-1.8906233	9 I	-0.26172632
-1.6598043	C 8	-0.51002777
-2.1181316	O 8	-0.26026273
-1.8545991	c 8	-0.3136436
-1.7154007	s 8	-0.26172632
-1.8314507	n 8	-0.26172632
-2.0045586	S 8	-0.26172632
-1.8342159	/ 8	-0.25953278
-1.9054481	N 8	-0.31919372
-1.8189534	[nH] 8	-0.26172632
-2.003419	[C@@H] 8	-0.26172632
-2.1297972	[C@H] 8	-0.26172632
-1.696591	C 3	-0.5391549
-1.6689327	O 3	-0.42598492
-2.018655	S 3	-0.25953278
-1.9801039	/ 3	-0.26172632
-1.6918437	N 3	-0.34144247
-1.806846	\ 3	-0.26172632
-1.4424136	[C@@H] 3	-0.3774685
-1.5476472	[C@H] 3	-0.357749
-1.253947	[C@@] 3	-0.36406988
-1.6742649	[C@] 3	-0.26026273
-5.247099	<s> [nH]	-0.42598492
-1.1235198	c [nH]	-0.6857328
-1.7754141	6 [nH]	-0.2809414
-1.3909144	) [nH]	-0.51192003
-1.3315212	s [nH]	-0.29087746
-1.9381098	5 [nH]	-0.26062816
-1.1939178	n [nH]	-0.4964805
-1.9074517	/ [nH]	-0.26172632
-1.4516075	o [nH]	-0.26026273
-1.7421869	\ [nH]	-0.26172632
-1.8350704	7 [nH]	-0.26172632
-1.7176129	8 [nH]	-0.26172632
-1.6398208	[nH] [nH]	-0.2599706
-1.845116	9 [nH]	-0.26172632
-1.7633117	C 9	-0.4927965
-1.9399061	O 9	-0.26026273
-1.5546064	c 9	-0.4099616
-1.6949644	s 9	-0.26172632
-1.254648	n 9	-0.40951818
-1.6383007	S 9	-0.2801759
-1.8068379	/ 9	-0.26062816
-1.4573575	o 9	-0.25953278
-2.0540247	N 9	-0.2691106
-1.2727666	[nH] 9	-0.36799297
-2.0848494	[C@@H] 9	-0.26172632
-2.0911896	[C@H] 9	-0.26172632
-1.7837347	[C@] 9	-0.26172632
-2.155206	C %11	-0.30414826
-2.2541761	O %11	-0.26172632
-1.9834415	c %11	-0.26090243
-2.159945	n %11	-0.26172632
-2.1515903	S %11	-0.26172632
-2.3628478	N %11	-0.26172632
-1.806846	\ %11	-0.26172632
-1.6789144	[nH] %11	-0.26172632
-2.0190082	[C@@H] %11	-0.26172632
-2.0253484	[C@H] %11	-0.26026273
-2.752155	C [n+]	-0.26172632
-2.0120738	c [n+]	-0.2768407
-2.1764634	6 [n+]	-0.26172632
-1.8581568	) [n+]	-0.3478882
-2.2173529	n [n+]	-0.26172632
-1.3935435	[O-] [n+]	-0.26172632
-1.6806986	o [n+]	-0.26172632
-2.7874925	C %13	-0.26172632
-2.3884614	c %13	-0.26172632
-2.0754795	n %13	-0.26172632
-2.4671717	N %13	-0.26172632
-1.8959898	[nH] %13	-0.26172632
-2.2383347	[C@@H] %13	-0.26172632
-2.655535	) [S-]	-0.26172632
-1.8105553	C B	-0.66509986
-1.7798425	O B	-0.27908048
-2.3648427	c B	-0.26172632
-1.9519018	6 B	-0.25953278
-1.5891933	) B	-0.7270149
-2.0856767	5 B	-0.26172632
-1.9422604	/ B	-0.26172632
-1.7733142	\ B	-0.26172632
-1.5850165	3 B	-0.25953278
-1.5324855	B B	-0.26172632
-2.1037242	[C@@H] B	-0.26172632
-2.1100645	[C@H] B	-0.26172632
-2.7874925	C %12	-0.26172632
-2.354631	O %12	-0.26172632
-2.2119815	c %12	-0.26172632
-1.7182679	\ %12	-0.26172632
-2.2383347	[C@@H] %12	-0.26172632
-2.2446747	[C@H] %12	-0.26172632
-1.4167913	C [C@@H]	-0.7069164
-1.4439269	O [C@@H]	-0.44766054
-2.1054504	c [C@@H]	-0.2609939
-1.356104	6 [C@@H]	-0.3354837
-1.6260141	%10 [C@@H]	-0.25953278
-1.5529208	) [C@@H]	-0.41500625
-1.4474099	5 [C@@H]	-0.36406988
-1.9733939	n [C@@H]	-0.26172632
-1.7029303	Cl [C@@H]	-0.26172632
-1.8636585	S [C@@H]	-0.26062816
-1.7001241	Br [C@@H]	-0.26172632
-1.7257932	F [C@@H]	-0.26172632
-1.7782137	/ [C@@H]	-0.26172632
-1.4022971	N [C@@H]	-0.44803557
-1.6245037	\ [C@@H]	-0.26172632
-1.7264946	7 [C@@H]	-0.26172632
-1.4829597	3 [C@@H]	-0.25953278
-1.2026415	[C@@H] [C@@H]	-0.4000219
-1.1174926	[C@H] [C@@H]	-0.4650226
-1.670799	4 [C@@H]	-0.26172632
-1.3851691	[C@@] [C@@H]	-0.26172632
-1.4024003	[C@] [C@@H]	-0.26084757
-0.83763844	%35 [C@@H]	-0.26172632
-1.4016072	C [C@H]	-0.7052948
-1.4509242	O [C@H]	-0.36721957
-2.130631	c [C@H]	-0.26109844
-1.7107284	6 [C@H]	-0.27548948
-1.6437244	%10 [C@H]	-0.26172632
-1.5057027	) [C@H]	-0.45188457
-1.3658863	5 [C@H]	-0.38662797
-1.7144941	Cl [C@H]	-0.26172632
-1.9775715	S [C@H]	-0.26172632
-1.7111048	Br [C@H]	-0.26172632
-1.737357	F [C@H]	-0.26172632
-1.803793	/ [C@H]	-0.26172632
-1.407405	N [C@H]	-0.45453835
-1.648038	\ [C@H]	-0.26172632
-1.4825006	7 [C@H]	-0.26026273
-1.6413952	8 [C@H]	-0.26172632
-1.6127025	3 [C@H]	-0.26172632
-1.0753471	[C@@H] [C@H]	-0.42930493
-1.2138541	[C@H] [C@H]	-0.40755552
-1.2142606	[C@@] [C@H]	-0.27343622
-1.2381539	[C@] [C@H]	-0.33613575
-1.6258918	C 4	-0.54568154
-2.1020424	O 4	-0.26026273
-2.2664905	c 4	-0.25953278
-1.9519018	6 4	-0.26109844
-1.8259252	S 4	-0.2599706
-1.9422604	/ 4	-0.26172632
-1.8974351	N 4	-0.2691106
-1.7733142	\ 4	-0.26172632
-1.530866	[C@@H] 4	-0.31091323
-1.6619409	[C@H] 4	-0.2768407
-1.7853951	[C@@] 4	-0.26172632
-1.4696708	[C@] 4	-0.30104616
-1.599183	C [C@@]	-0.50429463
-1.663145	O [C@@]	-0.43101665
-2.3876595	c [C@@]	-0.26172632
-1.9671259	6 [C@@]	-0.26172632
-1.9564388	) [C@@]	-0.30198407
-1.9792095	5 [C@@]	-0.26172632
-2.0774162	N [C@@]	-0.2809414
-1.5360552	[C@@H] [C@@]	-0.28754014
-2.1297972	[C@H] [C@@]	-0.26172632
-1.7984326	[C@@] [C@@]	-0.26172632
-1.6637973	[C@] [C@@]	-0.26026273
-2.621978	<s> [N-]	-2.914888
-2.868173	C [N-]	-0.26172632
-2.0148282	%10 [N-]	-0.26172632
-2.1212049	= [N-]	-0.26172632
-2.9403467	C [S+]	-0.26172632
-2.584978	N [S+]	-0.26172632
-1.5695415	C [C@]	-0.49436402
-1.6574333	O [C@]	-0.27749175
-1.9519018	6 [C@]	-0.26026273
-1.6550469	) [C@]	-0.36181265
-1.9422604	/ [C@]	-0.26172632
-2.065563	N [C@]	-0.28488863
-1.7267785	3 [C@]	-0.26172632
-1.8749183	9 [C@]	-0.26172632
-1.6556007	[C@@H] [C@]	-0.27270174
-1.4404187	[C@H] [C@]	-0.2612379
-1.7853951	[C@@] [C@]	-0.26172632
-1.7975854	[C@] [C@]	-0.26172632
-4.3795033	<s> [C-]	-1.1856527
-1.1242853	# [C-]	-0.26172632
-2.274235	O [I]	-0.26026273
-2.133705	= [I]	-0.26172632
-1.8581805	F [I]	-0.26172632
-2.6762593	c %17	-0.26172632
-2.1767752	/ %19	-0.26172632
-2.9673412	C %23	-0.26172632
-2.4668524	O %15	-0.26172632
-1.9573921	[C@] %15	-0.26172632
-5.954372	<s> [O]	-0.26172632
-2.7743247	C %21	-0.26026273
-2.3481262	[C@H] %21	-0.26172632
-2.9673412	C %18	-0.26172632
-2.9673412	C %22	-0.26172632
-2.9403467	C %28	-0.26172632
-2.341786	[C@@H] %28	-0.26172632
-2.604755	N [P@]	-0.26172632
-2.604755	N [P@@]	-0.26172632
-2.324334	5 [B-]	-0.26172632
-2.9673412	C %20	-0.26172632
-2.7925599	C [S@]	-0.25953278
-2.7925599	C [S@@]	-0.25953278
-2.9673412	C %33	-0.26172632
-2.4855423	O %16	-0.26172632
-2.7743247	C %35	-0.26172632
-2.1644757	[C@H] %35	-0.26172632

\3-grams:
-1.5504637	C C </s>	0
-1.1583841	O C </s>	0
-1.1232666	6 C </s>	0
-0.9540866	%10 C </s>	0
-1.5629687	= C </s>	0
-1.1725093	) C </s>	0
-1.215353	5 C </s>	0
-1.1535681	S C </s>	0
-1.5991927	/ C </s>	0
-1.496072	N C </s>	0
-1.4781786	# C </s>	0
-1.4952598	\ C </s>	0
-1.1365976	7 C </s>	0
-1.4172956	3 C </s>	0
-1.0459882	9 C </s>	0
-1.1817101	%11 C </s>	0
-1.3570877	4 C </s>	0
-1.1043801	C O </s>	0
-0.96990234	O O </s>	0
-0.76076627	6 O </s>	0
-0.7116254	%10 O </s>	0
-0.5371152	= O </s>	0
-0.92487174	) O </s>	0
-0.70704865	5 O </s>	0
-0.93442005	/ O </s>	0
-1.1305773	N O </s>	0
-1.0028155	\ O </s>	0
-0.84467345	7 O </s>	0
-0.70989656	8 O </s>	0
-0.8088378	9 O </s>	0
-0.76656055	%11 O </s>	0
-0.86014664	4 O </s>	0
-0.92840445	C 6 </s>	0
-0.8285637	O 6 </s>	0
-1.1273625	c 6 </s>	0
-0.7495607	%10 6 </s>	0
-0.55666494	s 6 </s>	0
-0.8525913	n 6 </s>	0
-0.9047062	S 6 </s>	0
-0.8027271	/ 6 </s>	0
-0.5584311	o 6 </s>	0
-0.8692658	N 6 </s>	0
-0.4009268	[nH] 6 </s>	0
-0.45430815	9 6 </s>	0
-0.76234764	C %10 </s>	0
-0.49275643	O %10 </s>	0
-1.0318459	c %10 </s>	0
-0.42194313	s %10 </s>	0
-0.52695644	n %10 </s>	0
-0.51621926	%14 %10 </s>	0
-0.42194313	o %10 </s>	0
-0.8000321	N %10 </s>	0
-0.6397934	\ %10 </s>	0
-0.5176319	[nH] %10 </s>	0
-0.8881947	C 5 </s>	0
-0.658449	O 5 </s>	0
-1.1436822	c 5 </s>	0
-0.49874818	s 5 </s>	0
-0.7965985	n 5 </s>	0
-0.89633095	S 5 </s>	0
-0.707218	/ 5 </s>	0
-0.3683009	o 5 </s>	0
-0.7601769	N 5 </s>	0
-0.8599315	\ 5 </s>	0
-0.43799388	7 5 </s>	0
-0.5361835	8 5 </s>	0
-0.3138765	[nH] 5 </s>	0
-0.50997937	9 5 </s>	0
-0.28628403	%13 5 </s>	0
-0.47108492	C Cl </s>	0
-0.38899055	6 Cl </s>	0
-0.32438806	%10 Cl </s>	0
-0.30264246	) Cl </s>	0
-0.33284393	5 Cl </s>	0
-0.20345284	%14 Cl </s>	0
-0.20345284	S Cl </s>	0
-0.39888233	/ Cl </s>	0
-0.48840213	\ Cl </s>	0
-0.32438806	3 Cl </s>	0
-0.48840213	9 Cl </s>	0
-0.20345284	%11 Cl </s>	0
-0.39832973	4 Cl </s>	0
-0.43246597	6 [O-] </s>	0
-0.3183969	) [O-] </s>	0
-0.2249351	5 [O-] </s>	0
-0.43246597	[N+] [O-] </s>	0
-0.2249351	\ [O-] </s>	0
-0.89229167	C %14 </s>	0
-0.30964237	[nH] %14 </s>	0
-1.1884431	C S </s>	0
-1.0525726	6 S </s>	0
-0.9670483	%10 S </s>	0
-0.69668597	= S </s>	0
-0.9839173	) S </s>	0
-1.0657117	5 S </s>	0
-1.0271785	/ S </s>	0
-1.0727026	7 S </s>	0
-0.9062117	9 S </s>	0
-0.7079295	%11 S </s>	0
-1.0789654	4 S </s>	0
-0.4478318	C Br </s>	0
-0.24448457	6 Br </s>	0
-0.3773941	%10 Br </s>	0
-0.27489907	) Br </s>	0
-0.31566262	5 Br </s>	0
-0.18997067	S Br </s>	0
-0.3066054	/ Br </s>	0
-0.37781706	\ Br </s>	0
-0.2552852	7 Br </s>	0
-0.3066054	8 Br </s>	0
-0.2552852	3 Br </s>	0
-0.3773941	9 Br </s>	0
-0.37781706	%11 Br </s>	0
-0.18997067	4 Br </s>	0
-0.8035814	C F </s>	0
-0.31345874	6 F </s>	0
-0.40809777	%10 F </s>	0
-0.3200125	) F </s>	0
-0.3714507	5 F </s>	0
-0.33264032	/ F </s>	0
-0.40809777	\ F </s>	0
-0.40809777	7 F </s>	0
-0.2096638	8 F </s>	0
-0.5004942	3 F </s>	0
-0.5004942	9 F </s>	0
-0.40809777	%11 F </s>	0
-0.27673125	4 F </s>	0
-1.2670815	C N </s>	0
-1.0975269	O N </s>	0
-0.86142105	6 N </s>	0
-0.6085351	%10 N </s>	0
-1.4095424	= N </s>	0
-0.98466665	) N </s>	0
-0.8213337	5 N </s>	0
-0.71396005	%14 N </s>	0
-1.2899759	/ N </s>	0
-0.96072906	N N </s>	0
-0.5708059	# N </s>	0
-1.1117845	\ N </s>	0
-0.755215	7 N </s>	0
-0.5727038	8 N </s>	0
-0.9100731	3 N </s>	0
-0.54370815	9 N </s>	0
-0.46547952	%11 N </s>	0
-0.3076671	%12 N </s>	0
-0.5813939	4 N </s>	0
-0.8161081	C 7 </s>	0
-0.6473229	O 7 </s>	0
-1.1812639	c 7 </s>	0
-0.83608407	S 7 </s>	0
-0.8839404	/ 7 </s>	0
-0.62768143	N 7 </s>	0
-0.6877295	\ 7 </s>	0
-0.19884154	C I </s>	0
-0.371482	6 I </s>	0
-0.37109682	%10 I </s>	0
-0.2922679	) I </s>	0
-0.371482	5 I </s>	0
-0.18587022	/ I </s>	0
-0.37109682	7 I </s>	0
-0.37109682	8 I </s>	0
-0.18587022	9 I </s>	0
-0.59630895	C 8 </s>	0
-0.6411791	O 8 </s>	0
-0.9595507	c 8 </s>	0
-0.5176346	s 8 </s>	0
-0.7750716	n 8 </s>	0
-0.8021282	N 8 </s>	0
-0.5176346	[nH] 8 </s>	0
-0.7347075	C 3 </s>	0
-0.33308983	O 3 </s>	0
-0.31038052	S 3 </s>	0
-0.700343	N 3 </s>	0
-0.6351024	C 9 </s>	0
-0.6574341	O 9 </s>	0
-1.0127953	c 9 </s>	0
-0.5297665	s 9 </s>	0
-0.6496132	n 9 </s>	0
-0.84914625	S 9 </s>	0
-0.53129387	o 9 </s>	0
-0.8632546	N 9 </s>	0
-0.5714022	[nH] 9 </s>	0
-0.860485	C %11 </s>	0
-1.1132755	c %11 </s>	0
-0.6999725	N %11 </s>	0
-0.5607009	[nH] %11 </s>	0
-0.84437233	c %13 </s>	0
-0.66047716	n %13 </s>	0
-0.28374997	[nH] %13 </s>	0
-0.1281447	) [S-] </s>	0
-0.66710037	C %12 </s>	0
-0.28651962	O %12 </s>	0
-0.85452837	c %12 </s>	0
-0.8220394	C 4 </s>	0
-0.47543928	O 4 </s>	0
-0.90216583	S 4 </s>	0
-0.9862135	N 4 </s>	0
-0.5322486	= [N-] </s>	0
-0.48100352	# [C-] </s>	0
-0.21922502	O %15 </s>	0
-0.1281447	C %18 </s>	0
-0.1281447	C %20 </s>	0
-0.1281447	O %16 </s>	0
-0.24520616	<s> C C	-3.634199
-1.1732756	C C C	-0.95976985
-0.91335803	O C C	-0.62258065
-0.9763819	c C C	-0.3727835
-1.1091021	6 C C	-0.45167303
-0.8154573	%10 C C	-0.328425
-0.93117565	= C C	-0.33688253
-1.1591288	) C C	-0.70628154
-1.0618669	5 C C	-0.51580197
-0.7636178	n C C	-0.33158126
-1.186652	Cl C C	-0.2282697
-0.70847106	[N+] C C	-0.24927619
-0.47744057	%14 C C	-0.28408116
-0.8625973	S C C	-0.5205163
-1.1994267	Br C C	-0.2282697
-1.1724982	F C C	-0.2282697
-1.3212925	/ C C	-0.2610245
-0.9069532	N C C	-0.661559
-1.1596366	# C C	-0.25946182
-1.048048	\ C C	-0.26190287
-0.21817856	P C C	-0.34007028
-0.8662339	7 C C	-0.30280823
-1.0387259	I C C	-0.2282697
-0.6573934	8 C C	-0.26757982
-0.9786016	3 C C	-0.31944937
-0.77863973	9 C C	-0.2875933
-1.0746107	%11 C C	-0.2282697
-0.31200013	[n+] C C	-0.2282697
-0.73102707	%13 C C	-0.2282697
-0.66774976	B C C	-0.24659413
-0.94777614	[C@@H] C C	-0.5837351
-0.91977394	[C@H] C C	-0.5393092
-0.8405905	4 C C	-0.30699384
-0.9891199	[C@@] C C	-0.27942073
-0.31200013	[S+] C C	-0.2282697
-0.83040684	[C@] C C	-0.28671977
-0.31200013	%35 C C	-0.2282697
-0.37640783	<s> O C	-3.5152988
-0.7574172	C O C	-0.6462154
-0.53742903	O O C	-0.24659413
-0.6481449	c O C	-0.33933914
-0.77039057	6 O C	-0.3406896
-0.81121594	%10 O C	-0.2282697
-0.8039652	) O C	-0.51440996
-0.7346861	5 O C	-0.37210965
-0.27459306	S O C	-0.2282697
-0.7017976	/ O C	-0.2552795
-0.5099021	N O C	-0.31588435
-0.5787357	\ O C	-0.24286687
-0.48747945	P O C	-0.25287822
-0.6136622	7 O C	-0.24659413
-0.6389852	8 O C	-0.2282697
-0.5170186	3 O C	-0.2403997
-0.8762587	9 O C	-0.2282697
-0.5370881	%11 O C	-0.24286687
-0.4143189	B O C	-0.49133795
-0.27459306	%12 O C	-0.2282697
-0.65454876	[C@@H] O C	-0.3631871
-0.6394609	[C@H] O C	-0.34376228
-0.46143338	4 O C	-0.25447762
-0.85201937	[C@@] O C	-0.2282697
-0.7238756	[C@] O C	-0.24659413
-0.27459306	[I] O C	-0.2282697
-1.2078612	c c C	-0.634643
-1.3259237	6 c C	-0.25790772
-1.2646302	%10 c C	-0.2282697
-1.1645794	) c C	-0.5437802
-1.324177	5 c C	-0.2565012
-1.3571783	n c C	-0.40715128
-1.554971	o c C	-0.2282697
-1.1468523	7 c C	-0.26572594
-1.410484	[nH] c C	-0.25942796
-1.1573676	9 c C	-0.2282697
-0.8619004	C 6 C	-0.4796446
-1.1335922	c 6 C	-0.34579772
-0.58133906	%10 6 C	-0.27664575
-1.0037221	n 6 C	-0.2650917
-0.94677263	/ 6 C	-0.24286687
-0.7837905	N 6 C	-0.40312365
-0.97361684	\ 6 C	-0.2282697
-0.54813427	[C@@H] 6 C	-0.36510953
-0.64491904	[C@H] 6 C	-0.3139059
-0.5815769	[C@@] 6 C	-0.24286687
-0.34107077	[C@] 6 C	-0.34007028
-0.79733366	C %10 C	-0.361417
-0.9182581	c %10 C	-0.28840765
-0.83562857	n %10 C	-0.2552795
-0.7702686	/ %10 C	-0.2282697
-0.86316913	N %10 C	-0.25605467
-0.6262092	[C@@H] %10 C	-0.2282697
-0.36879158	[C@H] %10 C	-0.2282697
-0.58044404	C = C	-0.60736006
-0.7698538	O = C	-0.2282697
-1.0424919	c = C	-0.2282697
-0.7840459	6 = C	-0.24451947
-0.8718801	%10 = C	-0.2282697
-0.82462937	5 = C	-0.2282697
-1.042632	[N+] = C	-0.24659413
-1.433332	S = C	-0.2282697
-0.4725757	N = C	-0.49962604
-1.1911428	P = C	-0.2282697
-0.71607286	7 = C	-0.2282697
-0.26377285	3 = C	-0.2282697
-0.716343	9 = C	-0.2282697
-0.49381804	%12 = C	-0.2282697
-0.80258083	C ) C	-0.6348584
-0.85067046	O ) C	-0.46535128
-1.0062327	6 ) C	-0.5382277
-0.8506954	%10 ) C	-0.29483867
-1.1142304	) ) C	-0.7973746
-1.0404031	5 ) C	-0.7001125
-0.71033144	Cl ) C	-0.31985274
-0.65512764	[O-] ) C	-0.2282697
-1.0558574	S ) C	-0.25238073
-0.9232853	Br ) C	-0.26850972
-0.731322	F ) C	-0.3416981
-0.7377475	N ) C	-0.48553753
-0.8145527	7 ) C	-0.28266206
-1.2148315	I ) C	-0.2282697
-0.9263404	8 ) C	-0.23382606
-0.98160243	3 ) C	-0.2282697
-0.8055911	9 ) C	-0.32037866
-0.9957073	%11 ) C	-0.25287822
-0.3064753	%13 ) C	-0.2282697
-0.88165414	4 ) C	-0.25913635
-0.84410286	C 5 C	-0.45371208
-1.150027	c 5 C	-0.4873134
-0.9184949	n 5 C	-0.3356427
-0.90907305	/ 5 C	-0.26140103
-0.6674015	N 5 C	-0.44467258
-0.9155556	\ 5 C	-0.26572594
-0.5965478	[C@@H] 5 C	-0.3406896
-0.649884	[C@H] 5 C	-0.32475194
-0.17592303	[C@@] 5 C	-0.3501823
-0.17592303	[C@] 5 C	-0.3748324
-1.0449083	c n C	-0.55657893
-1.3959476	6 n C	-0.2282697
-0.98107326	) n C	-0.5086149
-1.3547225	5 n C	-0.2282697
-1.6091708	n n C	-0.24659413
-1.3174044	[nH] n C	-0.2282697
-0.30830684	<s> Cl C	-2.6850612
-3.0773027	<s> [O-] C	-0.4090199
-0.67092425	C [N+] C	-0.27664575
-0.79398125	= [N+] C	-0.2282697
-1.0121907	) [N+] C	-0.2282697
-0.61979246	[O-] [N+] C	-0.2282697
-0.6192484	N [N+] C	-0.2282697
-0.6940513	# [N+] C	-0.2282697
-0.8207958	c %14 C	-0.2282697
-0.49406344	/ %14 C	-0.2282697
-0.2620923	\ %14 C	-0.2282697
-0.2620923	[C@@] %14 C	-0.2282697
-0.27729994	<s> S C	-2.141388
-0.7432357	C S C	-0.5650363
-0.720643	c S C	-0.29523343
-0.6816686	6 S C	-0.28883925
-0.85808647	%10 S C	-0.2282697
-1.0504346	= S C	-0.2282697
-0.8064468	) S C	-0.46237504
-0.6912037	5 S C	-0.32863826
-0.6426077	Cl S C	-0.2282697
-0.72837746	S S C	-0.2373353
-0.75776756	/ S C	-0.25287822
-1.212988	N S C	-0.25287822
-0.6438769	\ S C	-0.24659413
-0.80331016	7 S C	-0.2282697
-0.7328113	3 S C	-0.2282697
-0.5901712	[C@@H] S C	-0.2282697
-0.34982714	[C@H] S C	-0.2282697
-0.6670671	4 S C	-0.26303214
-0.35509244	<s> Br C	-2.4720478
-0.36454004	<s> F C	-2.5278606
-0.49128765	C / C	-0.4846027
-0.6055648	O / C	-0.28408116
-0.77407265	c / C	-0.26944163
-0.38381547	6 / C	-0.25287822
-0.24751419	%10 / C	-0.2282697
-0.42134753	) / C	-0.32212606
-0.4520233	5 / C	-0.28408116
-0.24751419	Cl / C	-0.2282697
-0.39032435	S / C	-0.27664575
-0.24751419	Br / C	-0.2282697
-0.24751419	F / C	-0.2282697
-0.48205033	N / C	-0.40701705
-0.24751419	I / C	-0.2282697
-0.24751419	3 / C	-0.2282697
-0.24751419	9 / C	-0.2282697
-0.24751419	B / C	-0.2282697
-0.2195577	[C@@H] / C	-0.28408116
-0.24920666	[C@H] / C	-0.26572594
-0.24705723	<s> N C	-3.2936609
-0.8071188	C N C	-0.689286
-0.8887945	O N C	-0.26486132
-0.74349093	c N C	-0.3817154
-0.810306	6 N C	-0.33616704
-1.0127283	%10 N C	-0.2282697
-0.90001154	= N C	-0.33277145
-0.9420617	) N C	-0.5259037
-0.6563279	5 N C	-0.40739998
-0.43608248	n N C	-0.25287822
-0.5337965	Cl N C	-0.2282697
-0.66331536	%14 N C	-0.2282697
-0.43608248	S N C	-0.2282697
-0.28493986	Br N C	-0.2282697
-0.9346556	/ N C	-0.2681995
-0.8296701	N N C	-0.3639001
-0.72830355	\ N C	-0.25287822
-0.43608248	P N C	-0.26572594
-0.7035308	7 N C	-0.26944163
-0.28493986	I N C	-0.2282697
-0.53535867	8 N C	-0.25287822
-0.84578216	3 N C	-0.27606773
-0.68562245	9 N C	-0.27664575
-0.64892143	[C@@H] N C	-0.3473572
-0.70563	[C@H] N C	-0.33072925
-0.55522496	4 N C	-0.26486132
-0.6361182	[C@@] N C	-0.24286687
-0.8575918	[C@] N C	-0.2282697
-0.28493986	[O] N C	-0.2282697
-0.38002157	C # C	-0.53407645
-0.6303532	[N+] # C	-0.2282697
-0.23498939	N # C	-0.2282697
-1.3831668	C \ C	-0.2282697
-0.8164076	) \ C	-0.24959339
-1.0204407	N \ C	-0.2282697
-0.30855367	%19 \ C	-0.2282697
-1.0581305	C P C	-0.2282697
-0.7275126	6 P C	-0.2282697
-0.866594	= P C	-0.2282697
-0.87579334	) P C	-0.2282697
-0.6481824	Cl P C	-0.2282697
-0.7850753	C 7 C	-0.33229828
-1.0869352	c 7 C	-0.2282697
-0.643633	n 7 C	-0.2282697
-0.6456492	/ 7 C	-0.2282697
-0.75638056	N 7 C	-0.2579718
-0.6454027	\ 7 C	-0.2282697
-0.68891275	[C@@H] 7 C	-0.2282697
-0.5831864	[C@H] 7 C	-0.23864597
-0.643633	[C@] 7 C	-0.2282697
-0.16763584	<s> I C	-2.2441528
-1.1700524	C 8 C	-0.24659413
-0.8464086	c 8 C	-0.2282697
-0.7989862	n 8 C	-0.2282697
-0.8243833	N 8 C	-0.24659413
-0.7411432	[C@@H] 8 C	-0.2282697
-0.5306913	[C@H] 8 C	-0.2282697
-0.7763583	C 3 C	-0.3538047
-0.4627356	N 3 C	-0.2681995
-0.27337974	\ 3 C	-0.2282697
-0.4419354	[C@@H] 3 C	-0.25305808
-0.60462403	[C@H] 3 C	-0.2799172
-0.31870306	[C@@] 3 C	-0.26226556
-0.41974568	[C@] 3 C	-0.24659413
-0.8674632	C 9 C	-0.35860145
-0.8990646	c 9 C	-0.27695084
-0.78339154	n 9 C	-0.31751606
-0.5515735	/ 9 C	-0.2282697
-0.906527	N 9 C	-0.24927619
-0.29380876	[C@@H] 9 C	-0.2282697
-0.77236044	[C@H] 9 C	-0.2282697
-0.9817435	C %11 C	-0.24927619
-1.0894723	c %11 C	-0.2282697
-0.5539121	[C@@H] %11 C	-0.2282697
-0.45212454	[C@H] %11 C	-0.26572594
-1.0283542	) [n+] C	-0.2282697
-0.8289842	c %13 C	-0.2282697
-0.52413	N %13 C	-0.2282697
-0.2794632	[C@@H] %13 C	-0.2282697
-1.3009173	C B C	-0.2282697
-0.837766	O B C	-0.2552795
-0.8381223	c %12 C	-0.2282697
-0.5286349	[C@@H] %12 C	-0.2282697
-0.2820221	[C@H] %12 C	-0.2282697
-0.746178	C [C@@H] C	-0.69604665
-0.69116384	O [C@@H] C	-0.3613344
-0.6418595	c [C@@H] C	-0.2403997
-0.545784	6 [C@@H] C	-0.25287822
-0.27713326	%10 [C@@H] C	-0.26572594
-0.7973179	) [C@@H] C	-0.3364769
-0.45184204	5 [C@@H] C	-0.3087896
-0.51664084	Cl [C@@H] C	-0.2282697
-0.5183399	S [C@@H] C	-0.24659413
-0.6403538	Br [C@@H] C	-0.22826965
-0.27518392	F [C@@H] C	-0.2282697
-0.71855694	/ [C@@H] C	-0.2282697
-0.58646715	N [C@@H] C	-0.41425273
-0.27518392	7 [C@@H] C	-0.2282697
-0.27713326	3 [C@@H] C	-0.2282697
-0.8125728	[C@@H] [C@@H] C	-0.30950743
-0.8517268	[C@H] [C@@H] C	-0.33048746
-0.27518392	4 [C@@H] C	-0.2282697
-0.58816904	[C@] [C@@H] C	-0.26572594
-0.76074195	C [C@H] C	-0.65076834
-0.71671677	O [C@H] C	-0.38660905
-0.67880213	c [C@H] C	-0.25287822
-0.71941984	6 [C@H] C	-0.2282697
-0.5126131	%10 [C@H] C	-0.2282697
-0.72970843	) [C@H] C	-0.36353666
-0.5077269	5 [C@H] C	-0.24974146
-0.2728694	Cl [C@H] C	-0.2282697
-0.6350068	S [C@H] C	-0.2282697
-0.5126131	Br [C@H] C	-0.2282697
-0.2728694	F [C@H] C	-0.2282697
-0.2728694	/ [C@H] C	-0.2282697
-0.62418276	N [C@H] C	-0.41104093
-0.5126131	\ [C@H] C	-0.2282697
-0.41902852	7 [C@H] C	-0.2282697
-0.5126131	3 [C@H] C	-0.2282697
-0.78830475	[C@@H] [C@H] C	-0.33481276
-0.8096182	[C@H] [C@H] C	-0.3005417
-0.61016434	[C@@] [C@H] C	-0.28408116
-0.9041182	[C@] [C@H] C	-0.2282697
-0.6531058	C 4 C	-0.3969447
-0.6526336	6 4 C	-0.2282697
-0.4946209	/ 4 C	-0.2282697
-0.6826556	N 4 C	-0.24959339
-0.26241902	\ 4 C	-0.2282697
-0.58107686	[C@@H] 4 C	-0.24659413
-0.70380414	[C@H] 4 C	-0.25942796
-0.4946209	[C@@] 4 C	-0.2282697
-0.23229186	[C@] 4 C	-0.25287822
-0.42366615	C [C@@] C	-0.4738084
-0.24807101	O [C@@] C	-0.25942796
-0.49205858	6 [C@@] C	-0.2282697
-0.5753747	) [C@@] C	-0.30975997
-0.680054	5 [C@@] C	-0.2282697
-0.4664702	N [C@@] C	-0.25407717
-0.59024996	[C@@H] [C@@] C	-0.25287822
-0.680054	[C@H] [C@@] C	-0.2282697
-0.40232807	[C@] [C@@] C	-0.2282697
-0.2158112	N [S+] C	-0.2282697
-0.4225913	C [C@] C	-0.44050455
-0.47957262	O [C@] C	-0.2579718
-0.3748763	6 [C@] C	-0.2282697
-0.44225618	) [C@] C	-0.28221485
-0.24098673	/ [C@] C	-0.2282697
-0.38174683	N [C@] C	-0.25178447
-0.24098673	3 [C@] C	-0.2282697
-0.24098673	9 [C@] C	-0.2282697
-0.57110673	[C@@H] [C@] C	-0.2282697
-0.6544262	[C@H] [C@] C	-0.26572594
-0.5648335	[C@@] [C@] C	-0.2282697
-0.45865247	[C@] [C@] C	-0.2282697
-0.2158112	[C@] %15 C	-0.2282697
-0.1546053	C %28 C	-0.2282697
-0.1546053	[C@@H] %28 C	-0.2282697
-0.5043087	C %35 C	-0.2282697
-0.68617386	<s> C O	-3.4641895
-1.2978771	C C O	-0.7419392
-1.3260882	O C O	-0.33335045
-1.1322889	c C O	-0.43312994
-1.1991334	6 C O	-0.33184767
-1.3636761	%10 C O	-0.24286687
-1.3505636	= C O	-0.28541774
-1.2597904	) C O	-0.55101717
-1.2409402	5 C O	-0.43312994
-1.2471792	n C O	-0.26572594
-1.2569994	Cl C O	-0.2282697
-1.7591631	S C O	-0.2282697
-1.2720597	Br C O	-0.2282697
-1.2404038	F C O	-0.2282697
-1.5007418	/ C O	-0.25287822
-1.5138148	N C O	-0.3351463
-1.372781	# C O	-0.2282697
-1.3940071	\ C O	-0.2282697
-1.5226583	7 C O	-0.2282697
-1.0875704	I C O	-0.2282697
-1.345443	3 C O	-0.26486132
-1.1836298	9 C O	-0.24286687
-1.1679542	[C@@H] C O	-0.44431308
-1.0601814	[C@H] C O	-0.43182978
-1.1413476	4 C O	-0.25287822
-1.1342441	[C@@] C O	-0.26944163
-1.415467	[C@] C O	-0.25287822
-5.0377593	<s> O O	-0.2282697
-2.1535475	C O O	-0.2282697
-1.8136256	) O O	-0.24659413
-1.1656048	[C@] O O	-0.2282697
-1.3366541	c c O	-0.66257125
-1.7368575	6 c O	-0.2282697
-1.2787164	) c O	-0.5766853
-1.7297012	5 c O	-0.2282697
-1.5607656	n c O	-0.40774432
-1.431175	7 c O	-0.2282697
-1.025644	C 6 O	-0.42122394
-1.3372626	c 6 O	-0.26361609
-1.1546218	n 6 O	-0.25287822
-1.1263124	/ 6 O	-0.2282697
-1.2860364	N 6 O	-0.2282697
-0.30468532	B 6 O	-0.2282697
-0.95043826	[C@@H] 6 O	-0.2681995
-0.7284311	[C@H] 6 O	-0.3501823
-0.9737473	[C@@] 6 O	-0.2282697
-0.7348627	[C@] 6 O	-0.2282697
-1.4663833	C %10 O	-0.25287822
-1.174016	c %10 O	-0.3180384
-0.4786785	C = O	-1.1187137
-0.39931774	c = O	-0.84835255
-0.37918282	6 = O	-0.5473226
-0.16060323	%10 = O	-0.4090199
-0.27058727	) = O	-0.26944163
-0.20403011	s = O	-0.2282697
-0.3683139	5 = O	-0.4601724
-0.14681126	[N+] = O	-0.92090327
-0.3251534	%14 = O	-0.26572594
-0.15193987	S = O	-1.1871711
-0.7476894	N = O	-0.51247966
-0.26447237	P = O	-0.8069599
-0.33887523	7 = O	-0.4090199
-0.18205266	8 = O	-0.26572594
-0.33908218	9 = O	-0.35582697
-0.18205266	%11 = O	-0.26572594
-0.20535083	%13 = O	-0.2282697
-0.18205266	4 = O	-0.26572594
-0.20403011	%17 = O	-0.2282697
-0.20403011	%23 = O	-0.2282697
-0.20403011	%21 = O	-0.2282697
-0.20403011	[P@] = O	-0.2282697
-0.20403011	[P@@] = O	-0.2282697
-0.20403011	[S@] = O	-0.2282697
-0.20403011	[S@@] = O	-0.2282697
-0.9272967	C ) O	-0.44632
-1.1115645	O ) O	-0.30612466
-1.2550967	6 ) O	-0.3164501
-1.3768239	%10 ) O	-0.2579718
-1.2547742	) ) O	-0.5890937
-1.2222836	5 ) O	-0.54624915
-1.5502477	Cl ) O	-0.2282697
-1.4101207	S ) O	-0.2282697
-1.4432094	F ) O	-0.2282697
-1.5458478	N ) O	-0.25287822
-1.2885814	7 ) O	-0.2403997
-1.1331211	8 ) O	-0.2282697
-1.3490074	9 ) O	-0.25287822
-1.2317685	4 ) O	-0.23864597
-1.190117	C 5 O	-0.35630882
-1.3839116	c 5 O	-0.3532363
-1.3042016	n 5 O	-0.2282697
-1.2255013	/ 5 O	-0.2282697
-1.3701082	N 5 O	-0.25287822
-1.0821497	\ 5 O	-0.26572594
-0.30860627	B 5 O	-0.2282697
-1.1151733	[C@@H] 5 O	-0.25178447
-1.1409805	[C@H] 5 O	-0.25605467
-2.1158793	c n O	-0.26572594
-2.0037377	) n O	-0.2282697
-0.6601437	C %14 O	-0.26572594
-0.30863765	[C@H] %14 O	-0.2282697
-1.444707	= S O	-0.2282697
-1.7954333	C / O	-0.2282697
-1.5226727	) / O	-0.2282697
-1.4872152	N / O	-0.2282697
-2.3773503	<s> N O	-1.556582
-1.6075515	C N O	-0.36448982
-1.4274457	O N O	-0.2282697
-1.2412281	c N O	-0.28408116
-1.6217237	6 N O	-0.2282697
-1.4629791	= N O	-0.25287822
-1.4391857	) N O	-0.31873232
-1.4709865	/ N O	-0.2282697
-1.4968169	C \ O	-0.2282697
-1.2289927	) \ O	-0.2282697
-1.0871316	N \ O	-0.2282697
-0.9471765	O P O	-0.2282697
-1.0111604	= P O	-0.2282697
-0.99007434	N P O	-0.2282697
-1.2832973	C 7 O	-0.26226556
-1.0693636	[C@@H] 7 O	-0.2282697
-1.056517	[C@H] 7 O	-0.24286687
-1.6330148	C 8 O	-0.2282697
-1.7065134	C 3 O	-0.2282697
-1.3930613	[C@H] 3 O	-0.2282697
-1.365834	C 9 O	-0.24659413
-1.3103079	c 9 O	-0.26572594
-0.84945554	[C@H] 9 O	-0.2282697
-0.31793585	[C@] 9 O	-0.2282697
-0.99451494	C %11 O	-0.2282697
-1.1076655	c %11 O	-0.2282697
-0.5591248	[C@@H] %11 O	-0.2282697
-0.69743913	[C@H] %11 O	-0.2282697
-0.086890474	C B O	-0.60399157
-0.4159474	O B O	-0.26944163
-0.13552164	c B O	-0.2282697
-0.13632774	6 B O	-0.25287822
-0.041827895	) B O	-0.5473226
-0.13552164	5 B O	-0.2282697
-0.13552164	/ B O	-0.2282697
-0.13552164	\ B O	-0.2282697
-0.13632774	3 B O	-0.25287822
-0.13552164	B B O	-0.2282697
-0.13552164	[C@@H] B O	-0.2282697
-0.13552164	[C@H] B O	-0.2282697
-0.9709136	c %12 O	-0.2282697
-0.9838813	C [C@@H] O	-0.59396416
-0.900182	O [C@@H] O	-0.337412
-0.9229158	c [C@@H] O	-0.2282697
-1.0301963	6 [C@@H] O	-0.26572594
-0.86805093	) [C@@H] O	-0.4010065
-1.140204	5 [C@@H] O	-0.2282697
-0.30403948	n [C@@H] O	-0.2282697
-0.8036056	S [C@@H] O	-0.2282697
-0.8039129	/ [C@@H] O	-0.2282697
-0.99404943	[C@@H] [C@@H] O	-0.2794191
-0.8546773	[C@H] [C@@H] O	-0.3826393
-0.9906228	C [C@H] O	-0.5907331
-0.9902984	O [C@H] O	-0.26226556
-0.9828629	c [C@H] O	-0.2282697
-1.0238378	6 [C@H] O	-0.2282697
-0.8692617	) [C@H] O	-0.37297776
-1.0280368	5 [C@H] O	-0.26572594
-0.72082376	S [C@H] O	-0.2282697
-0.30808392	8 [C@H] O	-0.2282697
-1.020676	[C@@H] [C@H] O	-0.30980688
-0.9019856	[C@H] [C@H] O	-0.39836785
-1.4345945	C 4 O	-0.24927619
-0.9995819	6 4 O	-0.2282697
-1.1943289	[C@@H] 4 O	-0.2282697
-1.0068328	[C@H] 4 O	-0.25287822
-1.006939	C [C@@] O	-0.2552795
-1.0501636	O [C@@] O	-0.2282697
-1.1856755	) [C@@] O	-0.2282697
-0.8261334	5 [C@@] O	-0.2282697
-0.9344911	C [C@] O	-0.2552795
-0.8192644	O [C@] O	-0.2282697
-1.1430783	) [C@] O	-0.26572594
-0.6319404	O [I] O	-0.2282697
-0.49825948	C %21 O	-0.2282697
-0.20852229	[C@H] %21 O	-0.2282697
-0.45139614	C %35 O	-0.2282697
-0.45139614	[C@H] %35 O	-0.2282697
-1.1738921	<s> C c	-3.2871616
-1.2739729	C C c	-0.8416869
-1.0718834	O C c	-0.57975245
-1.5103263	c C c	-0.26572594
-1.2401369	6 C c	-0.4010065
-1.1935079	%10 C c	-0.28408116
-1.1542295	= C c	-0.361221
-1.2192614	) C c	-0.6594654
-1.1664768	5 C c	-0.49527785
-1.0678333	n C c	-0.2681995
-1.2182243	Cl C c	-0.2282697
-1.1220506	[N+] C c	-0.2282697
-0.93632096	S C c	-0.5616434
-1.2319776	Br C c	-0.2282697
-1.2030216	F C c	-0.2282697
-1.3511962	/ C c	-0.27565533
-1.1248372	N C c	-0.61982787
-1.0564998	# C c	-0.26696098
-1.0687249	\ C c	-0.25287822
-1.02528	P C c	-0.2282697
-1.076498	7 C c	-0.3351463
-1.0609463	I C c	-0.2282697
-1.3238671	8 C c	-0.2282697
-1.1768544	3 C c	-0.34007028
-1.2959466	9 C c	-0.26572594
-0.887876	%11 C c	-0.26572594
-0.91751564	B C c	-0.2282697
-1.3065051	[C@@H] C c	-0.4585602
-1.3387977	[C@H] C c	-0.38797083
-1.3861568	4 C c	-0.24659413
-1.5006006	[C@@] C c	-0.2282697
-1.3746657	[C@] C c	-0.26572594
-1.7240632	<s> O c	-2.5777628
-0.90519816	C O c	-0.5874301
-0.92980903	O O c	-0.2282697
-1.0788	c O c	-0.25287822
-0.9933949	6 O c	-0.35582697
-0.8842526	%10 O c	-0.2282697
-0.981829	) O c	-0.60664856
-0.9644813	5 O c	-0.36635163
-0.75349706	/ O c	-0.28408116
-1.2090892	N O c	-0.2282697
-0.95946586	\ O c	-0.2282697
-0.6933869	P O c	-0.26572594
-0.8139274	7 O c	-0.26572594
-0.55264384	3 O c	-0.26572594
-0.7409531	%11 O c	-0.26572594
-1.0887787	[C@@H] O c	-0.28408116
-1.2938656	[C@H] O c	-0.2282697
-1.0106184	4 O c	-0.2282697
-0.048263982	<s> c c	-2.092967
-0.5684438	C c c	-0.8264539
-0.28534654	O c c	-0.42285395
-0.9950574	c c c	-0.95526564
-0.7123926	6 c c	-0.4342063
-0.4538878	%10 c c	-0.28328916
-0.79044545	= c c	-0.29317716
-0.8400962	) c c	-0.67449147
-0.4913227	s c c	-0.4682217
-0.7119939	5 c c	-0.48863617
-0.8061761	n c c	-0.5376432
-0.7842409	Cl c c	-0.2282697
-0.27863678	[N+] c c	-0.2282697
-0.27863678	%14 c c	-0.2282697
-0.35953903	S c c	-0.4306497
-0.7842409	Br c c	-0.2282697
-0.7282097	F c c	-0.2282697
-0.6713559	/ c c	-0.2908221
-0.4823391	o c c	-0.4289464
-0.51102304	N c c	-0.53329283
-0.46679592	\ c c	-0.25203663
-0.16601922	P c c	-0.58511114
-0.40005234	7 c c	-0.34588397
-0.7842409	I c c	-0.2282697
-0.35257804	8 c c	-0.26088902
-0.62246203	3 c c	-0.2666519
-0.63010657	[nH] c c	-0.41866654
-0.62666273	9 c c	-0.24959339
-0.28061938	%11 c c	-0.25287822
-0.53346086	[n+] c c	-0.24451947
-0.5226794	%13 c c	-0.2282697
-0.5953122	B c c	-0.23429237
-0.28061938	%12 c c	-0.2282697
-0.4151765	[C@@H] c c	-0.37748426
-0.4527717	[C@H] c c	-0.3449697
-0.4538878	4 c c	-0.33860922
-0.42715272	[C@@] c c	-0.26572594
-0.28061938	[C@] c c	-0.26572594
-0.2460746	[I] c c	-0.26944163
-1.0901603	C 6 c	-0.4610746
-0.91044754	c 6 c	-0.4184651
-0.7728861	n 6 c	-0.30839178
-0.9999036	/ 6 c	-0.25287822
-0.89722234	N 6 c	-0.37141
-0.8271331	\ 6 c	-0.24659413
-0.9683311	[C@@H] 6 c	-0.33057162
-0.83253145	[C@H] 6 c	-0.4305573
-1.3097148	C %10 c	-0.26572594
-1.198923	c %10 c	-0.25178447
-1.036019	n %10 c	-0.26572594
-0.8165153	/ %10 c	-0.2282697
-1.0988383	N %10 c	-0.2282697
-1.3592441	C = c	-0.26303214
-0.9790381	O = c	-0.2282697
-1.421923	[N+] = c	-0.2282697
-1.6846089	S = c	-0.2282697
-1.1440077	N = c	-0.25314108
-1.012495	C ) c	-0.4320563
-0.9710792	O ) c	-0.35970017
-0.96849287	6 ) c	-0.5561543
-0.93572795	%10 ) c	-0.40701705
-1.1570789	) ) c	-0.7507895
-1.1074332	5 ) c	-0.64191127
-1.1993363	Cl ) c	-0.23864597
-0.8803708	[O-] ) c	-0.2282697
-0.5729381	%14 ) c	-0.2282697
-1.0562915	S ) c	-0.25447762
-1.4330833	Br ) c	-0.2282697
-1.2411932	F ) c	-0.24156465
-0.8179019	N ) c	-0.43295565
-0.7237587	7 ) c	-0.3147485
-1.2153856	I ) c	-0.2282697
-1.080457	8 ) c	-0.25287822
-0.77445704	3 ) c	-0.26572594
-1.003298	9 ) c	-0.35582697
-0.8423205	%11 ) c	-0.28408116
-0.88196987	4 ) c	-0.3087896
-0.17859562	<s> s c	-0.58511114
-0.34174576	c s c	-0.8731507
-0.45687082	6 s c	-0.24927619
-0.34716147	) s c	-0.5473226
-0.40310118	s s c	-0.2282697
-0.40310118	5 s c	-0.2282697
-0.26539135	n s c	-0.46531463
-0.32842267	/ s c	-0.25287822
-0.2064931	\ s c	-0.2282697
-0.40310118	7 s c	-0.2282697
-0.2732725	[nH] s c	-0.24659413
-0.2064931	9 s c	-0.2282697
-1.1288624	C 5 c	-0.43474564
-0.9941219	c 5 c	-0.4683798
-0.85357326	n 5 c	-0.32217282
-0.93821687	/ 5 c	-0.26944163
-1.0845283	N 5 c	-0.32059416
-1.0943347	\ 5 c	-0.26572594
-0.74858356	[C@@H] 5 c	-0.4058825
-1.0011969	[C@H] 5 c	-0.33057162
-0.14689228	<s> n c	-1.3750399
-0.41596365	C n c	-0.58720404
-0.4746908	O n c	-0.25287822
-0.69099313	c n c	-0.8215817
-0.45709357	6 n c	-0.33220124
-0.38721958	%10 n c	-0.2282697
-0.6217715	) n c	-0.6265032
-0.5058938	s n c	-0.34007028
-0.40052465	5 n c	-0.35876697
-0.5196056	n n c	-0.58724046
-0.24999033	S n c	-0.2282697
-0.4947184	/ n c	-0.2282697
-0.3644367	o n c	-0.36046103
-0.35354552	N n c	-0.27219832
-0.47361642	\ n c	-0.2282697
-0.5849584	7 n c	-0.2403997
-0.47361642	8 n c	-0.2282697
-0.58341813	3 n c	-0.2282697
-0.51919615	[nH] n c	-0.32102397
-0.38721958	9 n c	-0.2282697
-0.24999033	%11 n c	-0.2282697
-0.53744304	[C@@H] n c	-0.2282697
-0.5374538	[C@H] n c	-0.2681995
-0.5463976	4 n c	-0.26572594
-0.24999033	[B-] n c	-0.2282697
-0.351756	<s> Cl c	-3.0815794
-3.2603824	<s> [O-] c	-0.28408116
-0.8850724	# [N+] c	-0.2282697
-1.0542719	c %14 c	-0.2282697
-0.5281126	<s> S c	-2.0414772
-0.86185867	C S c	-0.5772677
-0.975085	c S c	-0.25287822
-0.94365	6 S c	-0.26572594
-0.85860854	%10 S c	-0.2282697
-1.0510814	= S c	-0.2282697
-0.8594711	) S c	-0.46531463
-0.96120155	5 S c	-0.26572594
-0.6429378	Cl S c	-0.2282697
-0.58206654	S S c	-0.26944163
-0.5185829	Br S c	-0.2282697
-0.6429378	F S c	-0.2282697
-0.9036805	/ S c	-0.2282697
-1.108849	N S c	-0.25287822
-0.8171254	\ S c	-0.2282697
-0.80372876	7 S c	-0.26572594
-0.77638537	[C@@H] S c	-0.2282697
-0.80948347	4 S c	-0.26572594
-0.28420728	<s> Br c	-2.9656842
-0.28520188	<s> F c	-3.2458377
-1.4657952	C / c	-0.2282697
-0.9536616	c / c	-0.2282697
-1.272334	) / c	-0.2282697
-0.30051583	s / c	-0.25287822
-0.63729435	n / c	-0.26572594
-0.29833844	[N+] / c	-0.2282697
-1.250771	N / c	-0.2282697
-0.55785155	[nH] / c	-0.2282697
-0.2073956	<s> o c	-0.26572594
-0.32509392	c o c	-0.74502003
-0.5486169	6 o c	-0.2282697
-0.20605834	%10 o c	-0.2282697
-0.43851346	) o c	-0.452159
-0.4024177	5 o c	-0.2282697
-0.4652133	n o c	-0.26303214
-0.32784516	/ o c	-0.26572594
-0.20605834	\ o c	-0.2282697
-0.49345484	[nH] o c	-0.2282697
-0.72301364	<s> N c	-3.189085
-1.0247339	C N c	-0.62002254
-0.9809843	O N c	-0.26944163
-0.9906202	c N c	-0.35582697
-1.0561997	6 N c	-0.32059416
-1.1363479	%10 N c	-0.2282697
-1.0250888	= N c	-0.40774432
-1.1073977	) N c	-0.53246087
-1.0352466	5 N c	-0.36635163
-1.0142436	/ N c	-0.28408116
-1.076516	N N c	-0.3104269
-0.79088223	\ N c	-0.26944163
-1.2292391	3 N c	-0.2282697
-0.30799547	B N c	-0.2282697
-1.2441927	[C@@H] N c	-0.26572594
-1.2900862	[C@H] N c	-0.26572594
-1.2439218	4 N c	-0.2282697
-1.385701	C \ c	-0.2282697
-1.1350204	c \ c	-0.2282697
-1.1443976	) \ c	-0.2282697
-1.0220057	N \ c	-0.2282697
-1.020654	C P c	-0.26572594
-0.6861685	6 P c	-0.2282697
-0.51772434	= P c	-0.26944163
-0.52285993	) P c	-0.28408116
-0.49633396	5 P c	-0.2282697
-0.6135571	Cl P c	-0.2282697
-1.1403306	C 7 c	-0.36635163
-0.47645676	c 7 c	-0.3866302
-0.44582522	n 7 c	-0.2282697
-0.87396413	/ 7 c	-0.2282697
-0.8736455	\ 7 c	-0.2282697
-0.91052073	[C@@H] 7 c	-0.2282697
-0.9143505	[C@H] 7 c	-0.26572594
-0.49854082	<s> I c	-2.0244439
-1.5022881	C 8 c	-0.2282697
-0.5955593	c 8 c	-0.4090199
-0.9194299	n 8 c	-0.2282697
-1.1899935	C 3 c	-0.25786763
-1.0761964	[C@@H] 3 c	-0.26572594
-0.8051556	[C@H] 3 c	-0.34007028
-0.1457431	<s> [nH] c	-0.26944163
-0.44495404	c [nH] c	-0.695829
-0.42531765	6 [nH] c	-0.25035366
-0.5380887	) [nH] c	-0.6394688
-0.30300847	s [nH] c	-0.24659413
-0.4479416	5 [nH] c	-0.2373353
-0.4134567	n [nH] c	-0.42378664
-0.23368216	/ [nH] c	-0.2282697
-0.3649309	o [nH] c	-0.2282697
-0.23368216	\ [nH] c	-0.2282697
-0.44666	7 [nH] c	-0.2282697
-0.5062469	[nH] [nH] c	-0.24927619
-0.23368216	9 [nH] c	-0.2282697
-1.5045949	C 9 c	-0.2282697
-0.89440465	c 9 c	-0.39617032
-0.7060197	n 9 c	-0.4455329
-1.0030545	N 9 c	-0.26572594
-1.2588483	c %11 c	-0.2282697
-0.31930336	\ %11 c	-0.2282697
-0.17574328	C [n+] c	-0.2282697
-0.37518513	c [n+] c	-0.2579718
-0.17574328	6 [n+] c	-0.2282697
-0.2731902	) [n+] c	-0.26088902
-0.17574328	n [n+] c	-0.2282697
-0.17574328	[O-] [n+] c	-0.2282697
-0.90636724	c %13 c	-0.2282697
-0.7000568	n %13 c	-0.2282697
-1.3016945	C B c	-0.2282697
-1.0048326	O B c	-0.24286687
-0.91171134	c %12 c	-0.2282697
-0.5631653	\ %12 c	-0.2282697
-1.1346437	C [C@@H] c	-0.57038784
-0.9146491	O [C@@H] c	-0.5059299
-0.9014764	6 [C@@H] c	-0.28408116
-1.2126049	) [C@@H] c	-0.28408116
-1.1712652	5 [C@@H] c	-0.2282697
-0.5785582	Cl [C@@H] c	-0.2282697
-1.0272512	N [C@@H] c	-0.3384388
-1.0142201	[C@@H] [C@@H] c	-0.26757982
-1.3778358	[C@H] [C@@H] c	-0.24659413
-1.0956136	C [C@H] c	-0.57038784
-0.99792	O [C@H] c	-0.36635163
-0.6509385	6 [C@H] c	-0.25287822
-1.071187	) [C@H] c	-0.4090199
-1.2210413	5 [C@H] c	-0.2282697
-1.021413	N [C@H] c	-0.310535
-1.1295906	[C@@H] [C@H] c	-0.35582697
-1.2884796	[C@H] [C@H] c	-0.2282697
-1.0565785	[C@] [C@H] c	-0.2282697
-1.2514507	C 4 c	-0.2681995
-0.3018815	c 4 c	-0.24659413
-0.9307343	N 4 c	-0.24286687
-0.9668359	[C@@H] 4 c	-0.26572594
-0.9527273	[C@H] 4 c	-0.26572594
-1.050953	) [C@@] c	-0.26572594
-0.99427396	N [C@@] c	-0.2282697
-1.1203868	[C@@H] [C@@] c	-0.2282697
-1.3709581	) [C@] c	-0.2282697
-0.96037	N [C@] c	-0.2282697
-0.2888671	O [I] c	-0.26572594
-0.17639045	= [I] c	-0.2282697
-0.17639045	F [I] c	-0.2282697
-1.4712642	C C 6	-0.60053694
-1.3562082	O C 6	-0.4082809
-1.6595364	c C 6	-0.24659413
-1.6414665	6 C 6	-0.25786763
-1.6786813	= C 6	-0.24927619
-1.5883813	) C 6	-0.35943714
-1.4357924	5 C 6	-0.34787717
-1.5057825	n C 6	-0.2282697
-1.4911736	S C 6	-0.29952046
-1.7355878	/ C 6	-0.2282697
-1.3824425	N C 6	-0.5386527
-1.6327101	7 C 6	-0.2282697
-1.2080947	8 C 6	-0.26572594
-1.696825	3 C 6	-0.2282697
-1.294209	[C@@H] C 6	-0.56191903
-1.2660866	[C@H] C 6	-0.5314409
-1.1733513	[C@@] C 6	-0.26944163
-1.3445271	[C@] C 6	-0.26944163
-1.3776937	C O 6	-0.5473226
-1.2117374	c O 6	-0.26572594
-1.5496624	) O 6	-0.27664575
-1.5519176	5 O 6	-0.2282697
-1.4040412	N O 6	-0.2282697
-1.5155636	B O 6	-0.2282697
-1.2025086	[C@@H] O 6	-0.28408116
-1.1872554	[C@H] O 6	-0.28408116
-1.0510672	[C@@] O 6	-0.2282697
-1.4705243	C c 6	-0.34301454
-1.6380224	O c 6	-0.2282697
-1.4406396	c c 6	-0.4724555
-1.2662568	= c 6	-0.26572594
-1.7724218	) c 6	-0.2558432
-1.5016114	n c 6	-0.3386661
-1.6895798	S c 6	-0.2282697
-1.4254116	/ c 6	-0.2282697
-1.197284	o c 6	-0.2552795
-1.6175823	N c 6	-0.25287822
-1.2365748	[nH] c 6	-0.28794315
-1.2193214	[n+] c 6	-0.2282697
-1.5484364	C %10 6	-0.2282697
-0.8626123	[C@H] %10 6	-0.2282697
-0.32024533	[C@@] %10 6	-0.2282697
-0.32024533	[C@] %10 6	-0.2282697
-1.6962491	c s 6	-0.25287822
-1.7720562	C n 6	-0.2282697
-1.3381933	c n 6	-0.44952035
-1.657653	) n 6	-0.25287822
-1.3163328	n n 6	-0.26944163
-1.3406297	[nH] n 6	-0.2282697
-1.108889	[C@H] n 6	-0.2282697
-1.3716669	C S 6	-0.37632912
-1.2623862	c S 6	-0.25287822
-1.1310396	N S 6	-0.4090199
-0.89822286	C / 6	-0.39101672
-1.1980671	c / 6	-0.24659413
-0.93117005	n / 6	-0.2282697
-0.93652135	S / 6	-0.2282697
-1.4054878	N / 6	-0.2282697
-1.8486135	c o 6	-0.2282697
-1.5175695	) o 6	-0.2282697
-1.2451046	C N 6	-0.5725781
-1.2181736	O N 6	-0.26572594
-1.377297	c N 6	-0.25287822
-1.5736798	= N 6	-0.25287822
-1.5275804	) N 6	-0.3100886
-1.1386513	N N 6	-0.26757982
-1.1972044	[C@@H] N 6	-0.25786763
-0.9530058	[C@H] N 6	-0.42277375
-1.1486044	[C@@] N 6	-0.2282697
-1.0185715	[C@] N 6	-0.2282697
-0.6698828	C \ 6	-0.38797083
-1.3001636	c \ 6	-0.2282697
-1.2619694	O P 6	-0.2282697
-1.4494656	c [nH] 6	-0.27664575
-1.2875848	) [nH] 6	-0.27664575
-1.2149757	n [nH] 6	-0.25287822
-0.9145241	[nH] [nH] 6	-0.2282697
-1.6902207	C 9 6	-0.2282697
-1.5054898	n 9 6	-0.2282697
-0.8047307	c [n+] 6	-0.26572594
-1.2840731	O B 6	-0.2282697
-1.178026	C [C@@H] 6	-0.38108927
-1.3044052	O [C@@H] 6	-0.25287822
-0.9458444	c [C@@H] 6	-0.2282697
-1.1702733	5 [C@@H] 6	-0.2282697
-0.82092977	S [C@@H] 6	-0.2282697
-0.9142714	N [C@@H] 6	-0.42277375
-1.1602528	[C@@H] [C@@H] 6	-0.2579718
-0.93744314	[C@H] [C@@H] 6	-0.3191866
-0.72432774	[C@@] [C@@H] 6	-0.2282697
-0.8914981	[C@] [C@@H] 6	-0.2282697
-1.1030327	C [C@H] 6	-0.44511846
-1.4086874	O [C@H] 6	-0.2282697
-1.0088893	c [C@H] 6	-0.2282697
-1.4880015	) [C@H] 6	-0.2282697
-1.0326017	N [C@H] 6	-0.35582697
-1.1448745	[C@@H] [C@H] 6	-0.31751606
-1.0304829	[C@H] [C@H] 6	-0.26572594
-0.87828004	[C@@] [C@H] 6	-0.26572594
-0.46784145	[C@] [C@H] 6	-0.24659413
-1.3421444	C [C@@] 6	-0.24659413
-0.30347085	c [C@@] 6	-0.2282697
-0.56722605	6 [C@@] 6	-0.2282697
-1.1370038	) [C@@] 6	-0.2282697
-0.8021178	[C@H] [C@@] 6	-0.2282697
-1.4112097	C [C@] 6	-0.25287822
-1.2880062	) [C@] 6	-0.2282697
-1.1201565	[C@@H] [C@] 6	-0.2282697
-1.0878985	[C@H] [C@] 6	-0.2282697
-1.9979942	C C %10	-0.37238917
-1.9679295	O C %10	-0.25605467
-1.9432131	c C %10	-0.2282697
-1.7356938	6 C %10	-0.25287822
-1.9606864	= C %10	-0.2282697
-2.3535423	) C %10	-0.2282697
-2.0517216	S C %10	-0.2282697
-1.9848785	N C %10	-0.26303214
-1.9852918	[C@H] C %10	-0.2282697
-1.7830305	[C@] C %10	-0.2282697
-2.2090738	C O %10	-0.2282697
-1.7390791	6 O %10	-0.2282697
-2.0169392	) O %10	-0.2282697
-0.91402173	9 O %10	-0.26572594
-1.6481392	c c %10	-0.3634372
-1.5517688	6 c %10	-0.2403997
-2.162209	) c %10	-0.2282697
-1.8355728	n c %10	-0.23794647
-1.6472055	o c %10	-0.2282697
-1.8285762	[nH] c %10	-0.2282697
-1.2861365	[n+] c %10	-0.2282697
-1.5889422	) s %10	-0.2282697
-0.61424285	7 s %10	-0.2282697
-1.7027038	c n %10	-0.32222632
-1.4613495	6 n %10	-0.2282697
-1.8687098	) n %10	-0.2282697
-1.5142517	n n %10	-0.26088902
-1.0306839	7 n %10	-0.2282697
-0.32316983	[C@@H] %14 %10	-0.2282697
-2.2366278	C S %10	-0.2282697
-1.732812	C / %10	-0.2282697
-0.93106455	c / %10	-0.26944163
-0.8760891	6 o %10	-0.2282697
-1.5256704	) o %10	-0.2282697
-1.8289721	C N %10	-0.27201834
-1.766909	c N %10	-0.2282697
-2.2233138	) N %10	-0.2282697
-1.5490761	C \ %10	-0.2282697
-1.2604035	c \ %10	-0.2282697
-0.60837936	[nH] \ %10	-0.2282697
-1.6650611	c [nH] %10	-0.26572594
-1.5030034	) [nH] %10	-0.26572594
-0.6093975	7 [nH] %10	-0.2282697
-1.960551	C [C@@H] %10	-0.2282697
-1.6786846	O [C@@H] %10	-0.2282697
-1.6788346	N [C@@H] %10	-0.2282697
-1.6589966	[C@@H] [C@@H] %10	-0.2282697
-2.0235267	C [C@H] %10	-0.2282697
-1.7041212	O [C@H] %10	-0.2282697
-1.7323614	N [C@H] %10	-0.2282697
-1.8013965	C [C@@] %10	-0.2282697
-1.5814337	C [C@] %10	-0.26572594
-1.6738497	<s> C =	-3.2886388
-1.2445517	C C =	-0.9623763
-1.0463828	O C =	-0.6542663
-1.1130638	c C =	-0.3966973
-1.311647	6 C =	-0.3697005
-0.91637516	%10 C =	-0.5059299
-1.3171822	= C =	-0.26944163
-1.1679653	) C =	-0.69900125
-1.221403	5 C =	-0.4601724
-1.377306	n C =	-0.2282697
-1.2177597	Cl C =	-0.2282697
-0.31602514	[O-] C =	-0.2282697
-0.92321	%14 C =	-0.2282697
-1.0592126	S C =	-0.5473226
-1.2314981	Br C =	-0.2282697
-1.2025731	F C =	-0.2282697
-0.5544494	/ C =	-0.71540046
-0.89644074	N C =	-0.9530879
-1.0684243	\ C =	-0.25786763
-1.0762452	7 C =	-0.4090199
-1.0606228	I C =	-0.2282697
-0.66396624	8 C =	-0.4090199
-0.99273974	3 C =	-0.51247966
-0.87976605	9 C =	-0.40701705
-1.0977676	%11 C =	-0.2282697
-0.7416707	%13 C =	-0.2282697
-0.91728264	B C =	-0.2282697
-0.4809521	%12 C =	-0.26572594
-1.077559	[C@@H] C =	-0.64510524
-1.015075	[C@H] C =	-0.6773591
-1.0102173	4 C =	-0.42277375
-1.4999691	[C@@] C =	-0.2282697
-1.2550033	[C@] C =	-0.26944163
-0.26857683	<s> O =	-3.9743104
-1.4981271	c c =	-0.5474495
-1.4466417	6 c =	-0.24659413
-1.2503633	%10 c =	-0.2282697
-1.1599219	) c =	-0.6361763
-0.70901465	s c =	-0.4090199
-1.4398407	5 c =	-0.26572594
-1.1128564	n c =	-0.65837723
-0.89460915	/ c =	-0.26944163
-1.0109802	o c =	-0.35582697
-1.3466903	7 c =	-0.2282697
-0.8205033	[nH] c =	-0.68202114
-1.1444234	9 c =	-0.2282697
-1.014408	C 6 =	-0.48076573
-1.2404749	c 6 =	-0.36448982
-0.56173253	S 6 =	-0.28408116
-1.2420748	/ 6 =	-0.2282697
-1.0862694	\ 6 =	-0.2282697
-0.32056168	P 6 =	-0.2282697
-0.8318551	C %10 =	-0.4455329
-0.89362764	c %10 =	-0.58511114
-0.31059408	S %10 =	-0.2282697
-0.5825346	/ %10 =	-0.26572594
-0.7273467	\ %10 =	-0.2282697
-2.0781925	O ) =	-0.2282697
-2.3222084	) ) =	-0.26572594
-1.9947276	N ) =	-0.2282697
-1.6030602	) s =	-0.2282697
-0.9967883	C 5 =	-0.56151223
-1.302539	c 5 =	-0.4305573
-0.45053372	S 5 =	-0.6520579
-1.165375	/ 5 =	-0.24659413
-1.3700334	\ 5 =	-0.2282697
-0.36825275	C [N+] =	-0.36635163
-0.16406927	O [N+] =	-0.2282697
-0.16507992	c [N+] =	-0.26572594
-0.2729168	6 [N+] =	-0.26572594
-0.16507992	%10 [N+] =	-0.26572594
-0.3254364	= [N+] =	-0.24659413
-0.1344804	) [N+] =	-0.6520579
-0.14714663	5 [N+] =	-0.28408116
-0.41609943	[O-] [N+] =	-0.2282697
-0.16507992	/ [N+] =	-0.26572594
-0.2729168	N [N+] =	-0.26572594
-0.16406927	\ [N+] =	-0.2282697
-0.16507992	9 [N+] =	-0.26572594
-0.16406927	%11 [N+] =	-0.2282697
-0.82925195	C %14 =	-0.2282697
-0.94215524	c %14 =	-0.2282697
-0.54692477	/ %14 =	-0.2282697
-0.7583687	<s> S =	-2.1338487
-0.66317946	C S =	-0.92090327
-0.24660793	O S =	-0.58511114
-0.984622	c S =	-0.2282697
-0.5392403	6 S =	-0.4455329
-0.5018549	%10 S =	-0.28408116
-0.8538558	= S =	-0.25287822
-0.6161958	) S =	-0.72380376
-0.46649888	5 S =	-0.51247966
-0.59287906	Cl S =	-0.2282697
-0.2540663	[O-] S =	-0.2282697
-0.8019402	S S =	-0.2282697
-0.4804593	Br S =	-0.2282697
-0.59287906	F S =	-0.2282697
-0.57147986	/ S =	-0.28408116
-0.24936365	N S =	-0.98960096
-0.5938517	\ S =	-0.26572594
-0.46658403	7 S =	-0.4090199
-0.25581807	8 S =	-0.26572594
-0.32542005	3 S =	-0.28408116
-0.23795569	9 S =	-0.36635163
-0.392839	%11 S =	-0.26572594
-0.70951813	[C@@H] S =	-0.2282697
-0.47018299	4 S =	-0.4090199
-0.25581807	[N-] S =	-0.26572594
-2.817987	<s> N =	-1.3166103
-1.16713	C N =	-0.58511114
-0.8278451	O N =	-0.36635163
-1.3877292	c N =	-0.2282697
-1.2003152	6 N =	-0.26226556
-1.1438429	%10 N =	-0.2282697
-1.5326879	= N =	-0.2282697
-1.2122606	) N =	-0.42947713
-1.0387219	5 N =	-0.27565533
-0.30922756	[N+] N =	-0.2282697
-0.49075055	/ N =	-0.47564012
-0.8113117	N N =	-0.57047164
-1.135111	\ N =	-0.2282697
-0.7234933	P N =	-0.2282697
-1.2377503	3 N =	-0.2282697
-1.3811222	[C@@H] N =	-0.2282697
-1.2980331	[C@H] N =	-0.25287822
-0.13416013	C P =	-0.72380376
-0.2406329	O P =	-0.48076573
-0.38724148	6 P =	-0.26572594
-0.41434273	) P =	-0.26088902
-0.3862696	5 P =	-0.2282697
-0.47436613	Cl P =	-0.2282697
-0.17482266	S P =	-0.28408116
-0.19696839	/ P =	-0.26572594
-0.24987742	N P =	-0.2681995
-0.19696839	[C@@H] P =	-0.26572594
-0.17482266	[C@H] P =	-0.28408116
-1.0488225	C 7 =	-0.465009
-1.3385996	c 7 =	-0.2282697
-0.67999196	S 7 =	-0.26572594
-0.981474	/ 7 =	-0.2282697
-1.5276561	C 8 =	-0.2282697
-0.5968544	S 8 =	-0.2282697
-0.32175684	/ 8 =	-0.26572594
-1.7145835	C 3 =	-0.2282697
-0.32541686	/ 3 =	-0.2282697
-0.9235615	C 9 =	-0.4455329
-1.0603006	c 9 =	-0.40701705
-0.55813587	S 9 =	-0.28408116
-0.8508343	/ 9 =	-0.2282697
-1.0651691	C %11 =	-0.26572594
-1.0496867	c %11 =	-0.26572594
-0.3137815	S %11 =	-0.2282697
-0.30373755	C %13 =	-0.2282697
-0.9219307	c %13 =	-0.2282697
-0.7134781	C %12 =	-0.2282697
-0.92815745	c %12 =	-0.2282697
-1.0770195	C 4 =	-0.5059299
-0.6909407	S 4 =	-0.26572594
-0.60204506	/ 4 =	-0.2282697
-0.0004632693	<s> [N-] =	-2.897923
-0.12793101	c %17 =	-0.2282697
-0.12793101	C %23 =	-0.2282697
-0.39142492	C %21 =	-0.26572594
-0.12793101	N [P@] =	-0.2282697
-0.12793101	N [P@@] =	-0.2282697
-0.12868498	C [S@] =	-0.26572594
-0.12868498	C [S@@] =	-0.26572594
-1.3117833	C C )	-0.7846254
-1.0787624	O C )	-1.0110799
-0.899882	c C )	-0.5165407
-1.0036966	6 C )	-0.5107464
-0.9260328	%10 C )	-0.3351463
-1.3412727	= C )	-0.26243553
-1.1517209	) C )	-0.66340494
-1.0834152	5 C )	-0.43766114
-0.68258506	n C )	-0.47195
-0.5230627	[N+] C )	-0.4090199
-0.9365804	%14 C )	-0.2282697
-1.0692179	S C )	-0.7612024
-1.3774288	/ C )	-0.28408116
-1.1617934	N C )	-0.6346773
-1.3586094	# C )	-0.2282697
-0.9193635	\ C )	-0.36635163
-1.2469528	7 C )	-0.26088902
-0.9877074	8 C )	-0.26944163
-1.0051085	3 C )	-0.3026499
-1.0095775	9 C )	-0.27664575
-0.7155437	%11 C )	-0.26944163
-0.7509116	%13 C )	-0.2282697
-1.465626	[C@@H] C )	-0.25518605
-1.2886505	[C@H] C )	-0.34787717
-0.9329169	4 C )	-0.3191866
-1.0148553	[C@@] C )	-0.40701705
-1.2774042	[C@] C )	-0.24659413
-0.31947002	%15 C )	-0.2282697
-0.32186645	%28 C )	-0.26572594
-0.9549703	C O )	-0.57909495
-0.5781499	c O )	-0.43611282
-0.78952557	6 O )	-0.40621853
-0.66216195	%10 O )	-0.26572594
-0.19034876	= O )	-0.5404736
-0.91753364	) O )	-0.58961874
-0.6793537	5 O )	-0.39617032
-0.28590888	n O )	-0.2282697
-0.28590888	%14 O )	-0.26572594
-0.7254145	/ O )	-0.26944163
-0.7843565	N O )	-0.35582697
-0.7499042	\ O )	-0.26572594
-0.78052884	7 O )	-0.25287822
-0.66077566	8 O )	-0.2282697
-0.596892	9 O )	-0.24659413
-0.36773342	B O )	-0.8069599
-0.6686689	[C@@H] O )	-0.41716748
-0.6537295	[C@H] O )	-0.41482395
-0.9648633	4 O )	-0.2282697
-0.55378425	[C@@] O )	-0.26088902
-0.596892	[C@] O )	-0.2579718
-0.28590888	%21 O )	-0.26572594
-0.28590888	%35 O )	-0.26572594
-0.76927257	C 6 )	-0.49251026
-0.18695809	O 6 )	-0.3476364
-1.1125096	c 6 )	-0.25757557
-0.7404142	%10 6 )	-0.26572594
-0.55056953	s 6 )	-0.2282697
-0.84312356	n 6 )	-0.2604622
-0.69290763	S 6 )	-0.24286687
-1.0627955	/ 6 )	-0.2282697
-0.5522803	o 6 )	-0.24286687
-0.6415717	N 6 )	-0.4160966
-0.951562	\ 6 )	-0.2282697
-0.5892687	[nH] 6 )	-0.25029516
-0.6856793	9 6 )	-0.2282697
-0.7096076	C %10 )	-0.34456903
-0.50392646	O %10 )	-0.25287822
-0.8841489	c %10 )	-0.26453152
-0.656608	s %10 )	-0.2282697
-0.8052785	n %10 )	-0.24156465
-0.52915275	%14 %10 )	-0.2282697
-0.656608	o %10 )	-0.2282697
-0.6897313	N %10 )	-0.24659413
-0.53067476	[nH] %10 )	-0.2282697
-0.7499239	C ) )	-0.669252
-0.7193261	O ) )	-0.5222827
-0.8860231	6 ) )	-0.5357142
-0.6541485	%10 ) )	-0.4610746
-1.0299802	) ) )	-0.8296755
-1.0249782	5 ) )	-0.5877586
-0.64605147	Cl ) )	-0.41820174
-0.6391804	[O-] ) )	-0.25035366
-0.55957574	%14 ) )	-0.2282697
-0.5534579	S ) )	-0.39402223
-0.5038126	Br ) )	-0.45383146
-0.5745181	F ) )	-0.4366517
-0.57819396	N ) )	-0.5914173
-0.7107582	7 ) )	-0.37871832
-0.3693209	I ) )	-0.34513566
-0.44389233	8 ) )	-0.37337133
-0.5818546	3 ) )	-0.26088905
-0.6059607	9 ) )	-0.4383568
-0.6523557	%11 ) )	-0.26944163
-0.30147317	%12 ) )	-0.25287822
-0.85895336	4 ) )	-0.32222632
-0.2992862	[N-] ) )	-0.2282697
-0.2992862	[C-] ) )	-0.2282697
-0.2992862	%22 ) )	-0.2282697
-0.2992862	%33 ) )	-0.2282697
-0.7672484	C 5 )	-0.5405769
-0.2202931	O 5 )	-0.3416981
-1.1067731	c 5 )	-0.2915609
-0.3712717	s 5 )	-0.27658927
-0.8056364	n 5 )	-0.2886352
-0.5058491	S 5 )	-0.2686959
-0.8650962	/ 5 )	-0.25287822
-0.5027646	o 5 )	-0.2560203
-0.6525392	N 5 )	-0.41407955
-0.6106356	\ 5 )	-0.3191866
-0.67588896	7 5 )	-0.2282697
-0.5433992	8 5 )	-0.2282697
-0.5485221	[nH] 5 )	-0.26475883
-0.5161774	9 5 )	-0.27664575
-0.20227161	C Cl )	-0.68730366
-0.060063854	c Cl )	-0.44429076
-0.34813404	6 Cl )	-0.25287822
-0.43293732	%10 Cl )	-0.2282697
-0.32784596	) Cl )	-0.6003853
-0.41283607	5 Cl )	-0.24659413
-0.17388864	n Cl )	-0.2282697
-0.3531535	/ Cl )	-0.25287822
-0.28561756	\ Cl )	-0.25287822
-0.17388864	P Cl )	-0.2282697
-0.17388864	7 Cl )	-0.2282697
-0.43293732	3 Cl )	-0.2282697
-0.28561756	9 Cl )	-0.2282697
-0.17388864	[C@@H] Cl )	-0.2282697
-0.17388864	[C@H] Cl )	-0.2282697
-0.35287455	4 Cl )	-0.2282697
-0.4818308	6 [O-] )	-0.2282697
-0.43213394	) [O-] )	-0.4455329
-0.4818308	[N+] [O-] )	-0.2282697
-0.2566394	[n+] [O-] )	-0.26572594
-0.89486957	C %14 )	-0.2282697
-1.0293777	c %14 )	-0.2282697
-1.1044772	C S )	-0.57047164
-0.5777714	c S )	-0.4177218
-1.0884207	6 S )	-0.26572594
-1.0027092	%10 S )	-0.2282697
-0.58343375	= S )	-0.25999674
-1.0036405	) S )	-0.51247966
-1.0998601	5 S )	-0.26572594
-0.95227975	\ S )	-0.2282697
-1.1143658	7 S )	-0.2282697
-0.21467084	C Br )	-0.614753
-0.08937384	c Br )	-0.3995599
-0.5021991	6 Br )	-0.25287822
-0.36220002	%10 Br )	-0.2282697
-0.37218043	) Br )	-0.43474564
-0.42301783	5 Br )	-0.24659413
-0.44421363	/ Br )	-0.2282697
-0.36253276	\ Br )	-0.25287822
-0.5119464	7 Br )	-0.2282697
-0.44421363	8 Br )	-0.2282697
-0.5119464	3 Br )	-0.2282697
-0.36220002	9 Br )	-0.2282697
-0.36253276	%11 Br )	-0.26572594
-0.18117301	[C@@H] Br )	-0.26572594
-0.18117301	[C@H] Br )	-0.26572594
-0.089520946	C F )	-0.75664514
-0.067001	c F )	-0.4601724
-0.40037033	6 F )	-0.26088902
-0.3366224	%10 F )	-0.2282697
-0.30777094	) F )	-0.66340494
-0.32509586	5 F )	-0.2681995
-0.16305809	S F )	-0.2282697
-0.41340354	/ F )	-0.2282697
-0.3366224	\ F )	-0.2282697
-0.3366224	7 F )	-0.2282697
-0.27161363	3 F )	-0.2403997
-0.27161363	9 F )	-0.2282697
-0.3366224	%11 F )	-0.2282697
-0.16305809	%13 F )	-0.2282697
-0.16305809	[C@@H] F )	-0.2282697
-0.16406126	[C@H] F )	-0.26572594
-0.47849053	4 F )	-0.2282697
-0.16305809	[C@@] F )	-0.2282697
-1.002523	C N )	-0.71398914
-1.0462447	O N )	-0.26572594
-0.6979861	c N )	-0.48589817
-0.91508096	6 N )	-0.40701705
-0.91119397	%10 N )	-0.26572594
-0.87233377	= N )	-0.27715826
-0.9647649	) N )	-0.61185986
-0.73237056	5 N )	-0.44429076
-0.6898039	n N )	-0.2282697
-0.9714838	/ N )	-0.25287822
-0.934891	N N )	-0.42277375
-0.55357736	# N )	-0.2282697
-0.7575651	\ N )	-0.25287822
-1.0429318	7 N )	-0.2282697
-0.60278726	3 N )	-0.2794191
-0.8691838	9 N )	-0.26572594
-0.6898039	%11 N )	-0.2282697
-0.29598182	%13 N )	-0.2282697
-0.73772526	[C@@H] N )	-0.41716748
-0.7945513	[C@H] N )	-0.41716748
-0.86563605	4 N )	-0.26944163
-0.8188376	[C@@] N )	-0.26572594
-0.29598182	[S+] N )	-0.2282697
-0.52155876	[C@] N )	-0.28408116
-0.68530023	C 7 )	-0.41082534
-0.3178924	O 7 )	-0.27349767
-1.1412839	c 7 )	-0.2282697
-0.6132703	S 7 )	-0.2282697
-0.8570715	/ 7 )	-0.2282697
-0.6157752	N 7 )	-0.2601732
-0.8567371	\ 7 )	-0.2282697
-0.28729585	[nH] 7 )	-0.2282697
-0.54175603	C I )	-0.34007028
-0.09980071	c I )	-0.40774432
-0.39950073	6 I )	-0.26572594
-0.39894423	%10 I )	-0.2282697
-0.4168173	) I )	-0.36635163
-0.39950073	5 I )	-0.26572594
-0.39894423	7 I )	-0.2282697
-0.39894423	8 I )	-0.2282697
-0.44737	C 8 )	-0.43778273
-0.40927717	O 8 )	-0.26572594
-0.918846	c 8 )	-0.2282697
-0.50058925	s 8 )	-0.2282697
-0.74471	n 8 )	-0.2282697
-0.50058925	S 8 )	-0.2282697
-0.4836039	N 8 )	-0.25287822
-0.50058925	[nH] 8 )	-0.2282697
-0.8571215	C 3 )	-0.480295
-0.6869418	O 3 )	-0.26944163
-0.9137396	N 3 )	-0.26572594
-0.6843656	C 9 )	-0.36057928
-0.42376745	O 9 )	-0.25287822
-0.98875415	c 9 )	-0.27271208
-0.51847935	s 9 )	-0.2282697
-1.0017941	n 9 )	-0.23631854
-0.6507242	S 9 )	-0.26572594
-0.7210433	/ 9 )	-0.2282697
-0.5199109	o 9 )	-0.26572594
-0.71935326	N 9 )	-0.26088902
-0.37962422	[nH] 9 )	-0.26088902
-0.64020014	C %11 )	-0.2579718
-0.27341172	O %11 )	-0.2282697
-0.86462545	c %11 )	-0.2282697
-0.27341172	n %11 )	-0.2282697
-0.63625634	N %11 )	-0.2282697
-0.51355547	[nH] %11 )	-0.2282697
-0.59067214	N %13 )	-0.2282697
-0.71627545	C %12 )	-0.2282697
-0.57246995	\ %12 )	-0.2282697
-0.6627226	C 4 )	-0.49638543
-0.707127	O 4 )	-0.2282697
-0.9587086	6 4 )	-0.2282697
-0.6470914	S 4 )	-0.2282697
-0.94426346	N 4 )	-0.24286687
-0.5334186	= [N-] )	-0.2282697
-0.48196808	# [C-] )	-0.2282697
-0.1285724	C %22 )	-0.2282697
-0.1285724	C %33 )	-0.2282697
-1.5404522	<s> c s	-1.3121098
-0.7867114	C c s	-0.97462535
-1.1985984	O c s	-0.27664575
-1.1473422	c c s	-0.8978305
-1.1999494	6 c s	-0.27664575
-1.0179695	= c s	-0.26088902
-1.0845227	) c s	-0.60102075
-1.1920918	5 c s	-0.27664575
-1.1802313	n c s	-0.465009
-0.8751198	Cl c s	-0.2282697
-1.249239	S c s	-0.2681995
-0.8751198	Br c s	-0.2282697
-0.8070221	F c s	-0.2282697
-0.9976157	/ c s	-0.26944163
-1.0124687	N c s	-0.5059299
-1.0597816	\ c s	-0.2282697
-0.8751198	I c s	-0.2282697
-1.0364838	3 c s	-0.2282697
-1.5013981	[nH] c s	-0.2282697
-1.042816	9 c s	-0.2282697
-0.8748376	B c s	-0.2282697
-1.1796345	[C@@H] c s	-0.26572594
-1.1688598	[C@H] c s	-0.26572594
-1.1397436	4 c s	-0.2282697
-1.479975	c 6 s	-0.32059416
-1.4163314	/ 6 s	-0.2282697
-1.9445218	C ) s	-0.2282697
-1.6817685	O ) s	-0.24659413
-1.3741449	6 ) s	-0.37141
-1.5464748	) ) s	-0.42429402
-1.5122955	5 ) s	-0.5059299
-1.6289041	Cl ) s	-0.2282697
-1.4875607	S ) s	-0.2282697
-1.6147001	Br ) s	-0.2282697
-1.6151065	N ) s	-0.24286687
-1.5237427	7 ) s	-0.2282697
-1.3344944	I ) s	-0.2282697
-1.7103482	c s s	-0.2282697
-1.812248	c 5 s	-0.27664575
-1.1414663	<s> n s	-0.8069599
-1.5275494	C n s	-0.26572594
-1.0650798	c n s	-0.6633566
-1.3366463	6 n s	-0.2282697
-1.1029094	) n s	-0.37632912
-1.3004485	5 n s	-0.2282697
-1.4259335	n n s	-0.26944163
-0.9017751	[C@@H] n s	-0.2282697
-1.0504291	[C@H] n s	-0.2282697
-1.5649183	c / s	-0.2282697
-1.6216456	) / s	-0.2282697
-1.3560498	c \ s	-0.2282697
-1.2750999	c 7 s	-0.2282697
-1.6733087	c [nH] s	-0.26572594
-1.0312593	6 [nH] s	-0.2282697
-1.3522111	) [nH] s	-0.26944163
-1.8571717	c 9 s	-0.2282697
-1.5239601	C C 5	-0.5997043
-1.5457124	O C 5	-0.36800805
-1.6690757	c C 5	-0.24151936
-1.6499956	6 C 5	-0.26303214
-1.5679077	= C 5	-0.2597347
-1.4799682	) C 5	-0.43659884
-1.819765	5 C 5	-0.26572594
-1.5137413	n C 5	-0.2282697
-1.4964324	S C 5	-0.25605467
-1.7480296	/ C 5	-0.2282697
-1.2215434	N C 5	-0.6032336
-1.3162272	7 C 5	-0.26088902
-1.3599725	[C@@H] C 5	-0.4177218
-1.4931592	[C@H] C 5	-0.39313823
-1.6808356	4 C 5	-0.2282697
-1.0516776	[C@@] C 5	-0.34007028
-0.8742668	[C@] C 5	-0.57047164
-1.2676277	C O 5	-0.71004987
-1.3940969	c O 5	-0.2282697
-1.395297	6 O 5	-0.25287822
-1.4148755	) O 5	-0.3510279
-1.2218431	N O 5	-0.25287822
-1.2011365	[C@@H] O 5	-0.28408116
-1.1858696	[C@H] O 5	-0.28408116
-0.81507945	[C@@] O 5	-0.26572594
-0.8627735	[C@] O 5	-0.26572594
-1.4647809	C c 5	-0.36057928
-1.6207345	O c 5	-0.2282697
-1.3830345	c c 5	-0.5650132
-1.4198096	= c 5	-0.2282697
-1.8639641	) c 5	-0.23631854
-1.0179211	s c 5	-0.2680445
-1.2863386	n c 5	-0.47507945
-1.4059432	/ c 5	-0.2282697
-1.1884837	o c 5	-0.25790772
-1.6043206	N c 5	-0.26572594
-1.016987	[nH] c 5	-0.31372014
-0.9878159	[n+] c 5	-0.24659413
-0.75774676	[C@@] c 5	-0.2282697
-1.3455676	c s 5	-0.28408116
-0.9029297	) s 5	-0.35582697
-0.9098063	n s 5	-0.28408116
-0.679795	/ s 5	-0.2282697
-0.77637327	[nH] s 5	-0.2282697
-1.6918555	C n 5	-0.2282697
-1.1368694	c n 5	-0.49558353
-1.4647031	) n 5	-0.27201834
-0.973115	s n 5	-0.26572594
-1.0797577	n n 5	-0.37988442
-1.020513	/ n 5	-0.2282697
-0.75985384	o n 5	-0.28408116
-0.92779374	[nH] n 5	-0.27201834
-1.0531878	= [N+] 5	-0.2282697
-1.293753	C S 5	-0.4759667
-0.9213513	O S 5	-0.26572594
-1.1480063	c S 5	-0.25287822
-1.4908053	) S 5	-0.26572594
-1.0939442	/ S 5	-0.2282697
-1.249131	N S 5	-0.25287822
-0.9146785	[C@@H] S 5	-0.2282697
-0.8469251	[C@H] S 5	-0.2282697
-0.9261521	C / 5	-0.3866302
-1.1036131	O / 5	-0.2282697
-0.9943807	c / 5	-0.24659413
-0.885517	n / 5	-0.2282697
-0.8926975	S / 5	-0.2282697
-1.162626	N / 5	-0.2601732
-0.5753253	[nH] / 5	-0.2282697
-1.3253732	c o 5	-0.28408116
-0.9938036	) o 5	-0.27664575
-0.8830808	n o 5	-0.26572594
-0.6541518	/ o 5	-0.2282697
-0.4308906	[nH] o 5	-0.2282697
-1.1901616	C N 5	-0.6100589
-1.3319087	O N 5	-0.2282697
-1.4706316	c N 5	-0.2282697
-1.5076112	6 N 5	-0.2282697
-1.3951943	= N 5	-0.26944163
-1.3106753	) N 5	-0.38032097
-1.3866701	/ N 5	-0.2282697
-1.113818	N N 5	-0.31873232
-1.1715051	7 N 5	-0.2282697
-0.99706227	[C@@H] N 5	-0.3336473
-0.93535745	[C@H] N 5	-0.37632912
-0.89468056	[C@@] N 5	-0.26572594
-0.98951936	[C@] N 5	-0.2282697
-0.6516464	C \ 5	-0.337412
-0.84748536	c \ 5	-0.25287822
-0.2814625	s \ 5	-0.26572594
-0.2794718	n \ 5	-0.2282697
-0.2794718	S \ 5	-0.2282697
-0.73196995	N \ 5	-0.24286687
-0.5241451	[nH] \ 5	-0.2282697
-0.2794718	[C@] \ 5	-0.2282697
-1.6631796	C 7 5	-0.25287822
-1.3326617	[C@H] 7 5	-0.2282697
-0.96874434	n 8 5	-0.2282697
-1.22113	N 8 5	-0.2282697
-1.3599283	c [nH] 5	-0.28408116
-1.3004631	) [nH] 5	-0.25287822
-0.7893349	s [nH] 5	-0.2282697
-0.82466537	n [nH] 5	-0.3510279
-0.6909066	o [nH] 5	-0.2282697
-0.63292205	[nH] [nH] 5	-0.25287822
-1.67271	c 9 5	-0.2282697
-1.4536202	n 9 5	-0.2282697
-1.2826192	N 9 5	-0.2282697
-0.3165357	o [n+] 5	-0.2282697
-0.7456594	n %13 5	-0.2282697
-1.2804545	O B 5	-0.2282697
-1.2473552	C [C@@H] 5	-0.43905762
-1.2125958	O [C@@H] 5	-0.2681995
-0.9763311	c [C@@H] 5	-0.2282697
-1.4991775	) [C@@H] 5	-0.2282697
-1.2127157	N [C@@H] 5	-0.27664575
-1.1967673	[C@@H] [C@@H] 5	-0.24659413
-0.9558811	[C@H] [C@@H] 5	-0.4067169
-0.9182951	[C@] [C@@H] 5	-0.2282697
-1.2482522	C [C@H] 5	-0.4077405
-1.1795787	O [C@H] 5	-0.2552795
-1.0251209	c [C@H] 5	-0.2282697
-1.5201048	) [C@H] 5	-0.2282697
-0.9243174	N [C@H] 5	-0.3336473
-0.9649277	[C@@H] [C@H] 5	-0.3612365
-1.4712926	[C@H] [C@H] 5	-0.2282697
-0.8898977	[C@@] [C@H] 5	-0.25287822
-1.0561436	C [C@@] 5	-0.36635163
-0.8877724	N [C@@] 5	-0.2282697
-0.657764	[C@@H] [C@@] 5	-0.28408116
-0.77044016	[C@H] [C@@] 5	-0.2282697
-0.2931698	[C@@] [C@@] 5	-0.2282697
-0.6828501	[C@] [C@@] 5	-0.2282697
-1.0564085	C [C@] 5	-0.36635163
-0.9365127	O [C@] 5	-0.2282697
-0.85157156	N [C@] 5	-0.2282697
-0.8488807	[C@@H] [C@] 5	-0.26572594
-0.98581815	[C@H] [C@] 5	-0.2282697
-0.5539506	[C@] [C@] 5	-0.2282697
-1.7495799	<s> C n	-2.9134486
-1.378572	C C n	-0.6740078
-1.6065474	O C n	-0.5059299
-1.621461	c C n	-0.2579718
-1.7113456	6 C n	-0.2579718
-1.5770204	%10 C n	-0.2282697
-1.5272964	= C n	-0.27664575
-1.5149858	) C n	-0.57767576
-1.4173707	5 C n	-0.5059299
-1.3047568	Cl C n	-0.2282697
-1.7288771	S C n	-0.25287822
-1.321602	Br C n	-0.2282697
-1.2862726	F C n	-0.2282697
-1.5597473	/ C n	-0.26572594
-1.8438312	N C n	-0.25287822
-1.4357461	# C n	-0.2282697
-1.4546129	\ C n	-0.2282697
-1.5905869	7 C n	-0.2282697
-1.5186073	3 C n	-0.26572594
-1.9753183	[C@@H] C n	-0.2282697
-1.8245072	[C@H] C n	-0.26572594
-4.0969176	<s> O n	-0.6198733
-1.9463933	C O n	-0.26944163
-1.2386291	<s> c n	-1.1291792
-0.7369934	C c n	-0.87725425
-0.80113137	O c n	-0.3639321
-1.1159701	c c n	-0.78645456
-0.7394534	6 c n	-0.4569663
-0.91505784	%10 c n	-0.26572594
-0.8291323	= c n	-0.26486132
-0.946503	) c n	-0.77586
-0.9436116	s c n	-0.34007028
-0.85662574	5 c n	-0.4075166
-0.807087	n c n	-0.6204748
-0.8300049	Cl c n	-0.2282697
-0.56446004	S c n	-0.5207208
-0.8300049	Br c n	-0.2282697
-0.76817083	F c n	-0.2282697
-0.9484578	/ c n	-0.2565012
-0.81690305	o c n	-0.36046103
-0.57505	N c n	-0.562209
-0.8256926	\ c n	-0.24659413
-1.0208005	P c n	-0.2282697
-1.1517887	7 c n	-0.2282697
-0.8300049	I c n	-0.2282697
-0.7777624	8 c n	-0.2282697
-0.8073617	3 c n	-0.2601732
-0.8765274	[nH] c n	-0.35322973
-0.65611315	9 c n	-0.26944163
-0.8770963	[n+] c n	-0.2282697
-0.82966375	B c n	-0.2282697
-0.8312919	[C@@H] c n	-0.3336473
-0.6060095	[C@H] c n	-0.4601724
-0.91505784	4 c n	-0.2403997
-1.768496	C 6 n	-0.2282697
-1.0230987	c 6 n	-0.4270495
-1.0812032	n 6 n	-0.2681995
-1.215251	/ 6 n	-0.2282697
-1.0670129	\ 6 n	-0.2282697
-1.462688	[C@@H] 6 n	-0.2282697
-1.4711547	[C@H] 6 n	-0.2282697
-1.5165709	c %10 n	-0.26572594
-0.7835553	\ %10 n	-0.2282697
-1.4874909	C ) n	-0.3002351
-1.4862037	O ) n	-0.25631317
-1.1847594	6 ) n	-0.43903917
-1.4975197	%10 ) n	-0.2282697
-1.311733	) ) n	-0.6622771
-1.2181758	5 ) n	-0.58511114
-1.5377257	Cl ) n	-0.2282697
-1.2473794	S ) n	-0.24927619
-1.5230132	Br ) n	-0.2282697
-1.5980155	F ) n	-0.2282697
-1.4153187	N ) n	-0.24836795
-1.2803932	7 ) n	-0.25287822
-1.2765018	I ) n	-0.2282697
-1.4819773	9 ) n	-0.2282697
-1.369902	4 ) n	-0.2282697
-0.8312586	<s> s n	-0.26572594
-0.50403243	c s n	-0.8212003
-0.8250223	6 s n	-0.2282697
-0.69362736	) s n	-0.51247966
-0.9076568	n s n	-0.26944163
-1.7797489	C 5 n	-0.2282697
-1.0503707	c 5 n	-0.4455329
-1.3672779	n 5 n	-0.26572594
-1.293955	/ 5 n	-0.2282697
-1.3041035	\ 5 n	-0.2282697
-1.464979	[C@@H] 5 n	-0.2282697
-1.3232068	[C@H] 5 n	-0.25287822
-1.2747575	<s> n n	-0.51247966
-0.4443811	C n n	-1.0110799
-0.49526435	O n n	-0.26572594
-0.74155366	c n n	-0.78052795
-0.6222414	6 n n	-0.42437023
-0.609981	%10 n n	-0.2282697
-0.6608855	) n n	-0.6375409
-0.5228003	s n n	-0.27664575
-0.67626363	5 n n	-0.36635163
-0.5286834	n n n	-0.6216242
-0.65865254	/ n n	-0.25287822
-0.9363135	o n n	-0.2282697
-0.5404372	N n n	-0.26944163
-0.4940321	\ n n	-0.2282697
-0.6116185	7 n n	-0.25287822
-0.4940321	8 n n	-0.2282697
-0.40393797	3 n n	-0.26572594
-0.6415545	[nH] n n	-0.32025748
-0.609981	9 n n	-0.2282697
-0.56127954	[C@@H] n n	-0.25287822
-0.5596109	[C@H] n n	-0.25287822
-0.40939322	4 n n	-0.26572594
-1.4527937	= S n	-0.2282697
-1.8151141	C / n	-0.2282697
-1.5360813	) / n	-0.2282697
-1.4996462	N / n	-0.2282697
-0.3880665	c o n	-0.81076854
-0.7332939	6 o n	-0.2282697
-0.50817406	) o n	-0.57767576
-0.52583975	5 o n	-0.2282697
-0.57665604	n o n	-0.36635163
-2.9243777	<s> N n	-1.3924206
-1.9626112	C N n	-0.27664575
-1.9116274	= N n	-0.2282697
-1.9528891	) N n	-0.25287822
-1.5797676	C \ n	-0.2282697
-1.2826809	c \ n	-0.2282697
-1.8258157	C 7 n	-0.2282697
-1.047857	c 7 n	-0.26226556
-1.6053647	C 8 n	-0.2282697
-1.0094814	c 8 n	-0.26572594
-1.7269769	C 3 n	-0.2282697
-1.4080658	[C@H] 3 n	-0.2282697
-0.50872004	c [nH] n	-0.7760609
-0.93251115	6 [nH] n	-0.2282697
-0.6193954	) [nH] n	-0.57767576
-0.8054485	5 [nH] n	-0.2282697
-0.7170243	n [nH] n	-0.27349767
-1.5687445	c 9 n	-0.26572594
-1.4903604	n 9 n	-0.2282697
-1.3451504	c %11 n	-0.2282697
-1.0453725	) [n+] n	-0.2282697
-2.0308197	C [C@@H] n	-0.25287822
-1.7862097	) [C@@H] n	-0.2282697
-1.9362707	C [C@H] n	-0.2282697
-1.5038418	) [C@H] n	-0.25287822
-1.7263875	[C@@H] [C@H] n	-0.2282697
-1.6385949	[C@H] [C@H] n	-0.2282697
-1.5189356	C 4 n	-0.25287822
-1.2775006	[C@@H] 4 n	-0.2282697
-0.8885079	[C@H] 4 n	-0.26944163
-0.1285724	5 [B-] n	-0.2282697
-1.5820488	C C Cl	-0.84835255
-1.739794	O C Cl	-0.35582697
-1.3783507	c C Cl	-0.4090199
-1.7687504	6 C Cl	-0.25287822
-1.6915362	= C Cl	-0.26572594
-1.593096	) C Cl	-0.58511114
-1.7001001	5 C Cl	-0.26944163
-1.341708	Cl C Cl	-0.2282697
-1.9098977	S C Cl	-0.2282697
-1.606527	/ C Cl	-0.25287822
-2.1037414	N C Cl	-0.2282697
-1.3132442	\ C Cl	-0.25287822
-1.6455132	7 C Cl	-0.2282697
-1.4224688	3 C Cl	-0.27664575
-1.5930893	9 C Cl	-0.2282697
-1.5243679	[C@@H] C Cl	-0.5059299
-1.7553256	[C@H] C Cl	-0.28408116
-1.2737424	c c Cl	-1.1686877
-1.5464673	6 c Cl	-0.26572594
-1.3204327	%10 c Cl	-0.2282697
-1.3343072	) c Cl	-0.71004987
-1.5446392	5 c Cl	-0.26572594
-1.4665223	n c Cl	-0.58511114
-1.3204327	4 c Cl	-0.2282697
-1.8116808	C 6 Cl	-0.25287822
-1.4105833	c 6 Cl	-0.3510279
-1.5261967	n 6 Cl	-0.2282697
-1.603143	[C@@H] 6 Cl	-0.2282697
-1.698756	C %10 Cl	-0.2282697
-1.533761	c %10 Cl	-0.26572594
-1.7504689	C ) Cl	-0.25287822
-1.7135373	O ) Cl	-0.2282697
-1.432934	6 ) Cl	-0.3510279
-1.3857214	%10 ) Cl	-0.26572594
-1.3177027	) ) Cl	-0.8676577
-1.3982805	5 ) Cl	-0.58511114
-0.7951082	Cl ) Cl	-0.5059299
-1.4210482	S ) Cl	-0.2282697
-1.3927629	Br ) Cl	-0.2282697
-1.4500892	F ) Cl	-0.25287822
-1.6790638	N ) Cl	-0.2282697
-1.3571593	9 ) Cl	-0.26572594
-1.0541607	%11 ) Cl	-0.25287822
-1.3936269	4 ) Cl	-0.2282697
-1.3753196	C 5 Cl	-0.42277375
-1.446378	c 5 Cl	-0.5059299
-1.6842797	[C@H] 5 Cl	-0.2282697
-2.3858473	c n Cl	-0.2282697
-0.864703	c %14 Cl	-0.26572594
-1.2076347	S S Cl	-0.2282697
-1.9067426	C / Cl	-0.2282697
-1.5958911	) / Cl	-0.2282697
-1.6042868	C \ Cl	-0.2282697
-1.3055885	) \ Cl	-0.2282697
-1.2619694	O P Cl	-0.2282697
-1.900952	C 7 Cl	-0.2282697
-1.2438301	C 3 Cl	-0.36635163
-1.364732	[C@@H] 3 Cl	-0.2282697
-1.6902207	C 9 Cl	-0.2282697
-1.5869112	c 9 Cl	-0.26572594
-1.3648512	c %11 Cl	-0.2282697
-1.8347086	) [C@@H] Cl	-0.2282697
-1.8310246	) [C@H] Cl	-0.2282697
-1.6192682	C 4 Cl	-0.25287822
-0.34076363	[n+] 6 [O-]	-0.2282697
-2.0860586	C ) [O-]	-0.2282697
-1.78715	O ) [O-]	-0.25287822
-1.9889636	6 ) [O-]	-0.2282697
-1.713781	%10 ) [O-]	-0.2282697
-1.8099304	) ) [O-]	-0.42277375
-2.1216128	5 ) [O-]	-0.2282697
-1.8871009	N ) [O-]	-0.2282697
-0.34086093	[n+] 5 [O-]	-0.2282697
-1.016971	C [N+] [O-]	-0.26572594
-0.88672096	# [N+] [O-]	-0.2282697
-1.3764452	) \ [O-]	-0.2282697
-0.77610826	c [n+] [O-]	-0.26572594
-1.0100684	) [n+] [O-]	-0.2282697
-5.5877233	<s> C [N+]	-0.2282697
-1.889788	C C [N+]	-0.40774432
-2.1056914	= C [N+]	-0.2282697
-2.327776	) C [N+]	-0.24286687
-1.9551193	3 C [N+]	-0.2282697
-1.7886686	5 O [N+]	-0.2282697
-1.8648548	c c [N+]	-0.6520579
-1.9650015	) c [N+]	-0.28408116
-2.1269977	C 6 [N+]	-0.2282697
-1.6594548	c 6 [N+]	-0.26944163
-1.7162558	C %10 [N+]	-0.2282697
-1.7366542	c %10 [N+]	-0.2282697
-1.8693385	C = [N+]	-0.25287822
-1.6271629	c = [N+]	-0.2282697
-0.78833055	N = [N+]	-0.6216242
-0.32605314	[N-] = [N+]	-0.2282697
-2.0327854	C ) [N+]	-0.2282697
-1.8940523	O ) [N+]	-0.2282697
-1.8006967	6 ) [N+]	-0.26572594
-1.6711273	%10 ) [N+]	-0.2282697
-1.422561	) ) [N+]	-0.6916191
-1.5452201	5 ) [N+]	-0.5059299
-1.6436462	9 ) [N+]	-0.2282697
-1.5265458	4 ) [N+]	-0.2282697
-2.0639427	C 5 [N+]	-0.2282697
-1.5762469	c 5 [N+]	-0.4090199
-1.6990327	[C@H] 5 [N+]	-0.2282697
-0.00553792	<s> [O-] [N+]	-3.098982
-1.9323455	C / [N+]	-0.2282697
-1.6118078	) / [N+]	-0.2282697
-2.0403478	C N [N+]	-0.25287822
-2.2742536	) N [N+]	-0.2282697
-1.5430797	C # [N+]	-0.2282697
-0.28050688	[C-] # [N+]	-0.2282697
-1.6706442	C \ [N+]	-0.2282697
-1.7067372	C 9 [N+]	-0.2282697
-1.7860074	c 9 [N+]	-0.2282697
-1.3819802	c %11 [N+]	-0.2282697
-2.6564798	C C %14	-0.25287822
-1.8275473	%10 C %14	-0.2282697
-2.163184	= C %14	-0.2282697
-2.498327	N C %14	-0.2282697
-2.3693073	c c %14	-0.2403997
-2.3559942	n c %14	-0.2282697
-1.7611238	o c %14	-0.2282697
-1.3578292	c / %14	-0.2282697
-1.369791	c \ %14	-0.2282697
-1.838633	) [nH] %14	-0.2282697
-2.3507288	C [C@@H] %14	-0.2282697
-1.8218772	[C@H] [C@H] %14	-0.2282697
-1.8361292	C [C@@] %14	-0.2282697
-1.725122	<s> C S	-2.621588
-1.3366951	C C S	-0.7565044
-1.9054704	O C S	-0.24659413
-1.2294254	c C S	-0.34456903
-1.4549606	6 C S	-0.30902013
-1.547226	%10 C S	-0.2282697
-1.3714168	= C S	-0.29428974
-1.3327315	) C S	-0.50496006
-1.3211254	5 C S	-0.34107742
-1.2817913	Cl C S	-0.2282697
-1.1633402	[N+] C S	-0.2282697
-1.6974353	S C S	-0.25287822
-1.2977529	Br C S	-0.2282697
-1.2642403	F C S	-0.2282697
-1.5311822	/ C S	-0.25287822
-1.6061122	N C S	-0.3314896
-1.2476935	# C S	-0.24659413
-1.4252452	\ C S	-0.2282697
-1.5575277	7 C S	-0.2282697
-1.3681259	3 C S	-0.26226556
-1.5155213	9 C S	-0.2282697
-1.2226206	[C@@H] C S	-0.51247966
-1.3742487	[C@H] C S	-0.35630882
-1.5929618	4 C S	-0.2282697
-3.4752336	<s> O S	-1.50593
-1.1610407	C O S	-0.781325
-1.255279	c O S	-0.26572594
-1.4574616	6 O S	-0.26572594
-1.1904992	) O S	-0.465009
-1.2691233	N O S	-0.26572594
-1.7535732	c c S	-0.38433146
-1.5588124	6 c S	-0.2282697
-1.8704606	) c S	-0.28408116
-1.557687	5 c S	-0.25287822
-1.2753077	n c S	-0.5656994
-1.6425121	[nH] c S	-0.26572594
-1.4685537	C 6 S	-0.30980688
-1.3709807	c 6 S	-0.27132973
-1.0588334	N 6 S	-0.4090199
-1.5425282	[C@@H] 6 S	-0.2282697
-1.5447242	[C@H] 6 S	-0.2282697
-1.4642038	c %10 S	-0.25605467
-1.224695	N %10 S	-0.2282697
-0.96091104	[C@@H] %10 S	-0.2282697
-0.8374388	C = S	-0.8434729
-0.9034144	O = S	-0.2282697
-0.61164504	c = S	-0.71004987
-1.0281571	6 = S	-0.26572594
-0.9425513	5 = S	-0.26572594
-0.8938535	N = S	-0.58511114
-0.5677347	P = S	-0.58511114
-1.0073569	9 = S	-0.2282697
-1.315945	C ) S	-0.44429076
-1.6247499	O ) S	-0.23864597
-1.3447666	6 ) S	-0.33958486
-1.2577589	%10 ) S	-0.24659413
-1.2597843	) ) S	-0.68673253
-1.2804148	5 ) S	-0.5549289
-1.4330504	S ) S	-0.2282697
-1.5664895	N ) S	-0.24286687
-1.4718565	7 ) S	-0.2282697
-1.342641	8 ) S	-0.2282697
-1.2204075	9 ) S	-0.28408116
-1.2583202	%11 ) S	-0.2282697
-1.405871	4 ) S	-0.2282697
-1.3192394	C 5 S	-0.27219832
-1.3667402	c 5 S	-0.36852697
-1.257354	n 5 S	-0.28408116
-1.1163148	N 5 S	-0.4090199
-1.5026522	[C@@H] 5 S	-0.2282697
-1.506541	[C@H] 5 S	-0.2282697
-1.2411616	<s> Cl S	-2.4609053
-3.4420462	<s> [O-] S	-0.26572594
-1.4650123	C S S	-0.35181957
-1.4553647	6 S S	-0.2282697
-1.2995528	) S S	-0.26944163
-3.7090068	<s> Br S	-0.26572594
-1.383323	<s> F S	-2.259861
-1.8151141	C / S	-0.2282697
-1.5360813	) / S	-0.2282697
-1.4996462	N / S	-0.2282697
-1.9152759	<s> N S	-2.5561225
-1.1174872	C N S	-0.5302024
-1.0770077	O N S	-0.26572594
-1.3265495	c N S	-0.2282697
-1.031581	6 N S	-0.36635163
-0.9329164	%10 N S	-0.26572594
-0.9415306	= N S	-0.38021824
-1.1861106	) N S	-0.4585602
-1.0179024	5 N S	-0.36635163
-0.5640743	Cl N S	-0.2282697
-0.7046281	%14 N S	-0.2282697
-0.7042827	S N S	-0.2282697
-0.3017509	F N S	-0.2282697
-1.2649306	/ N S	-0.2282697
-1.1908778	N N S	-0.26944163
-0.74568206	7 N S	-0.28408116
-0.898072	3 N S	-0.28408116
-1.0717437	9 N S	-0.2282697
-1.2072669	[C@@H] N S	-0.26572594
-1.2515867	[C@H] N S	-0.26572594
-1.2084329	4 N S	-0.2282697
-1.5135474	C \ S	-0.2282697
-1.2412701	) \ S	-0.2282697
-1.0963355	N \ S	-0.2282697
-1.4596038	C 7 S	-0.2403997
-1.2838621	c 7 S	-0.2282697
-1.0075232	N 7 S	-0.26572594
-0.992865	[C@@H] 7 S	-0.2282697
-1.1659817	[C@H] 7 S	-0.2282697
-1.6053647	C 8 S	-0.2282697
-1.2139124	N 8 S	-0.2282697
-1.6447418	C 3 S	-0.2282697
-1.2973456	[C@@H] 3 S	-0.2282697
-1.346654	[C@H] 3 S	-0.2282697
-1.5352464	C 9 S	-0.2282697
-1.1722922	c 9 S	-0.36635163
-1.0189503	N 9 S	-0.26572594
-0.85345477	[C@H] 9 S	-0.2282697
-1.2973479	c %11 S	-0.2282697
-0.7620203	N %11 S	-0.2282697
-2.1520972	C [C@@H] S	-0.2282697
-1.3722225	) [C@@H] S	-0.2282697
-1.6004084	[C@H] [C@@H] S	-0.26572594
-2.07407	C [C@H] S	-0.2282697
-1.6134068	O [C@H] S	-0.2282697
-1.6895299	) [C@H] S	-0.2282697
-1.6521863	N [C@H] S	-0.2282697
-1.3157442	C 4 S	-0.26226556
-0.9883812	N 4 S	-0.26572594
-0.8614649	[C@@H] 4 S	-0.25287822
-1.0124373	[C@H] 4 S	-0.2282697
-0.2558651	C [N-] S	-0.2282697
-0.2558651	%10 [N-] S	-0.2282697
-1.6145525	C C Br	-0.84835255
-2.1131766	O C Br	-0.2282697
-1.673008	c C Br	-0.26572594
-1.7710541	6 C Br	-0.25287822
-1.6937428	= C Br	-0.26572594
-1.5339043	) C Br	-0.6198733
-1.8241712	5 C Br	-0.25287822
-1.9126884	S C Br	-0.2282697
-1.3615901	Br C Br	-0.2282697
-1.3230006	F C Br	-0.2282697
-1.60838	/ C Br	-0.25287822
-1.4881045	# C Br	-0.2282697
-1.5047433	\ C Br	-0.2282697
-1.5660985	3 C Br	-0.26572594
-1.5950023	9 C Br	-0.2282697
-1.6384689	[C@@H] C Br	-0.4090199
-1.8810778	[C@H] C Br	-0.26572594
-1.390954	c c Br	-1.0622324
-1.5915089	6 c Br	-0.26572594
-1.3466467	) c Br	-0.71004987
-1.5923505	5 c Br	-0.26572594
-1.8800163	n c Br	-0.28408116
-1.3818096	C 6 Br	-0.4090199
-1.5695099	c 6 Br	-0.28408116
-1.4027399	[C@@H] 6 Br	-0.26572594
-1.6042569	[C@H] 6 Br	-0.2282697
-1.5722572	c %10 Br	-0.26572594
-1.5447911	C ) Br	-0.27664575
-1.8229282	O ) Br	-0.2282697
-1.6283363	6 ) Br	-0.28408116
-1.4499584	%10 ) Br	-0.26572594
-1.3039361	) ) Br	-0.8861411
-1.435233	5 ) Br	-0.58511114
-0.8765307	Br ) Br	-0.4090199
-1.4155805	9 ) Br	-0.25287822
-1.3092971	%11 ) Br	-0.2282697
-1.4759221	4 ) Br	-0.2282697
-1.3769039	C 5 Br	-0.3510279
-1.3530067	c 5 Br	-0.58511114
-1.6901208	[C@H] 5 Br	-0.2282697
-1.2099891	S S Br	-0.2282697
-1.9168034	C / Br	-0.2282697
-1.602188	) / Br	-0.2282697
-1.6127775	C \ Br	-0.2282697
-1.3114034	) \ Br	-0.2282697
-1.6184243	C 7 Br	-0.25287822
-1.0864464	[C@@H] 7 Br	-0.2282697
-1.2972622	[C@H] 7 Br	-0.2282697
-1.6287023	C 8 Br	-0.2282697
-0.8895971	[C@@H] 8 Br	-0.2282697
-1.6734095	C 3 Br	-0.2282697
-1.3158226	[C@@H] 3 Br	-0.2282697
-1.3683951	[C@H] 3 Br	-0.2282697
-1.627127	c 9 Br	-0.25287822
-1.3380944	C %11 Br	-0.2282697
-1.3209839	c %11 Br	-0.2282697
-2.25051	C [C@@H] Br	-0.2282697
-1.7570168	[C@@H] [C@@H] Br	-0.2282697
-1.8725082	[C@@H] [C@H] Br	-0.2282697
-1.7608768	[C@H] [C@H] Br	-0.2282697
-1.1246393	6 4 Br	-0.2282697
-1.3571392	C C F	-0.9830511
-1.392277	O C F	-0.71004987
-1.6061996	c C F	-0.26572594
-1.2855209	6 C F	-0.48076573
-1.2414933	%10 C F	-0.28408116
-1.7189802	= C F	-0.2282697
-1.2707714	) C F	-0.8069599
-1.2581644	5 C F	-0.57047164
-1.4607652	n C F	-0.2282697
-1.2703828	S C F	-0.58511114
-1.2751615	F C F	-0.2282697
-1.545288	/ C F	-0.26572594
-2.004893	N C F	-0.2282697
-1.4397404	\ C F	-0.2282697
-0.99564636	7 C F	-0.5059299
-1.378498	3 C F	-0.28408116
-1.5300136	9 C F	-0.2282697
-1.1520846	%11 C F	-0.2282697
-1.3403369	[C@@H] C F	-0.6520579
-1.380351	[C@H] C F	-0.58511114
-1.3247783	4 C F	-0.26944163
-1.4595498	[C@@] C F	-0.26572594
-1.4537065	[C@] C F	-0.26572594
-1.2966405	c c F	-1.1493826
-1.7599223	6 c F	-0.2282697
-1.2314343	) c F	-0.8069599
-1.566375	5 c F	-0.26572594
-1.992727	n c F	-0.26572594
-1.3342514	4 c F	-0.2282697
-1.4755307	C 6 F	-0.36635163
-1.5214643	c 6 F	-0.27664575
-1.2912681	/ 6 F	-0.2282697
-1.5554688	[C@@H] 6 F	-0.2282697
-1.556545	[C@H] 6 F	-0.2282697
-1.565917	c %10 F	-0.25287822
-1.7504689	C ) F	-0.26572594
-1.7135373	O ) F	-0.2282697
-1.432934	6 ) F	-0.3510279
-1.3857214	%10 ) F	-0.25287822
-1.3177027	) ) F	-0.9038699
-1.3329006	5 ) F	-0.58511114
-1.4064534	Cl ) F	-0.25287822
-1.3927629	Br ) F	-0.26572594
-0.63760406	F ) F	-0.71004987
-1.460391	7 ) F	-0.2282697
-1.0809587	I ) F	-0.2282697
-1.5063486	9 ) F	-0.2282697
-1.249184	%11 ) F	-0.2282697
-1.3936269	4 ) F	-0.2282697
-1.6204262	C 5 F	-0.26944163
-1.7597314	c 5 F	-0.25287822
-1.5552282	[C@@H] 5 F	-0.2282697
-1.566871	[C@H] 5 F	-0.2282697
-1.1261125	[C@] 5 F	-0.2282697
-1.7216324	) S F	-0.26572594
-1.9067426	C / F	-0.2282697
-1.3640994	) / F	-0.25287822
-0.89661545	) \ F	-0.26944163
-1.5267693	C 7 F	-0.26944163
-1.6676563	C 8 F	-0.2282697
-0.94031906	C 3 F	-0.57047164
-1.0513432	[C@@] 3 F	-0.2282697
-1.6902207	C 9 F	-0.2282697
-1.5869112	c 9 F	-0.26572594
-1.3324136	C %11 F	-0.2282697
-1.3149532	c %11 F	-0.2282697
-0.9855624	c %13 F	-0.2282697
-2.2770615	C [C@@H] F	-0.2282697
-2.2421129	C [C@H] F	-0.2282697
-1.8642781	[C@@H] [C@H] F	-0.2282697
-1.6917846	C 4 F	-0.2282697
-1.0653487	6 4 F	-0.2282697
-1.2891779	[C@@H] 4 F	-0.2282697
-1.3721879	) [C@@] F	-0.2282697
-2.6652822	<s> C /	-2.2260892
-1.4455619	C C /	-0.5611687
-1.6198163	O C /	-0.40701705
-1.7737118	c C /	-0.2282697
-1.6297522	6 C /	-0.28408116
-1.1413198	= C /	-0.32429555
-1.829599	) C /	-0.32222632
-1.7945259	5 C /	-0.26572594
-1.4948347	n C /	-0.2282697
-1.3235313	Cl C /	-0.2282697
-1.6327505	S C /	-0.26088902
-1.341136	Br C /	-0.2282697
-1.3042485	F C /	-0.2282697
-1.0843176	/ C /	-0.33860922
-1.4893043	N C /	-0.34007028
-1.285846	# C /	-0.25287822
-2.009862	[C@@H] C /	-0.2282697
-1.851872	[C@H] C /	-0.2282697
-1.6550678	4 C /	-0.2282697
-2.182998	<s> O /	-2.490007
-1.8587266	C O /	-0.2579718
-1.5001193	c O /	-0.2282697
-1.6531768	) O /	-0.26572594
-1.2969924	/ O /	-0.2282697
-1.6241663	c c /	-0.4443202
-1.279805	%10 c /	-0.2282697
-1.2900962	= c /	-0.24286687
-1.926199	) c /	-0.26572594
-1.6060975	s c /	-0.2282697
-1.6311039	5 c /	-0.2282697
-1.8758552	n c /	-0.24659413
-1.2664557	/ c /	-0.2282697
-1.5778913	o c /	-0.2282697
-1.7394038	[nH] c /	-0.2282697
-2.0916944	C 6 /	-0.2282697
-1.7986054	c 6 /	-0.25287822
-1.7537998	c %10 /	-0.2282697
-1.4281659	C ) /	-0.5059299
-1.5658766	O ) /	-0.26944163
-1.6239516	6 ) /	-0.26944163
-1.3029572	) ) /	-0.49169454
-1.3627053	5 ) /	-0.6520579
-1.6382678	Cl ) /	-0.2282697
-1.4967648	S ) /	-0.2282697
-1.6241224	Br ) /	-0.2282697
-1.6232487	N ) /	-0.26572594
-1.47099	4 ) /	-0.2282697
-1.2972987	c s /	-0.4090199
-1.4245646	n s /	-0.2282697
-1.9605609	C 5 /	-0.2282697
-1.4181781	c 5 /	-0.4455329
-1.4773284	n 5 /	-0.26572594
-1.7176583	N 5 /	-0.2282697
-1.8630071	C n /	-0.2282697
-2.2029893	c n /	-0.2282697
-1.9150925	) n /	-0.2282697
-1.4073995	[nH] n /	-0.2282697
-2.3264434	<s> Cl /	-1.8112813
-1.0531878	= [N+] /	-0.2282697
-1.5953863	C S /	-0.3351463
-1.4954984	) S /	-0.28408116
-1.2224215	/ S /	-0.2282697
-1.4812459	<s> Br /	-2.4687726
-2.6242187	<s> F /	-1.40902
-2.9521797	<s> N /	-1.3632624
-1.6148181	C N /	-0.35477763
-1.4398263	O N /	-0.2282697
-1.6368926	6 N /	-0.2282697
-1.0120467	= N /	-0.35322973
-1.3572301	) N /	-0.4455329
-1.6709943	N N /	-0.2282697
-1.2699535	\ N /	-0.2282697
-2.9894204	<s> I /	-0.4090199
-1.7976539	C 3 /	-0.2282697
-1.8953829	c [nH] /	-0.2282697
-1.521167	n [nH] /	-0.2282697
-1.8030751	c 9 /	-0.2282697
-1.2804545	O B /	-0.2282697
-2.0035262	C [C@@H] /	-0.26572594
-1.7195021	N [C@@H] /	-0.2282697
-1.7025311	[C@@H] [C@@H] /	-0.2282697
-1.7268031	O [C@H] /	-0.2282697
-1.856201	[C@@H] [C@H] /	-0.2282697
-2.0760012	<s> c o	-0.57767576
-0.8872949	C c o	-0.9683279
-1.3496087	O c o	-0.25287822
-1.2290642	c c o	-0.7959645
-0.9784156	6 c o	-0.4090199
-1.1537707	= c o	-0.26572594
-1.1241719	) c o	-0.62058866
-0.9778495	5 c o	-0.4601724
-1.4048579	n c o	-0.38264212
-0.8819651	Cl c o	-0.2282697
-0.306852	[O-] c o	-0.2282697
-1.255618	S c o	-0.27664575
-0.8819651	Br c o	-0.2282697
-0.8128672	F c o	-0.2282697
-1.1382976	/ c o	-0.25287822
-1.0158247	N c o	-0.5059299
-1.0688229	\ c o	-0.2282697
-0.8819651	I c o	-0.2282697
-0.85514426	3 c o	-0.25287822
-0.8816924	B c o	-0.2282697
-0.861263	[C@@H] c o	-0.4090199
-1.0215572	[C@H] c o	-0.28408116
-1.1500134	4 c o	-0.2282697
-1.8764205	c 6 o	-0.24286687
-1.8162947	c %10 o	-0.2282697
-1.9771016	C ) o	-0.2282697
-1.7067909	O ) o	-0.2373353
-1.3864468	6 ) o	-0.38479984
-1.5550246	) ) o	-0.58511114
-1.8869631	5 ) o	-0.26572594
-1.6531432	Cl ) o	-0.2282697
-1.5113792	S ) o	-0.2282697
-1.6390934	Br ) o	-0.2282697
-1.6361362	N ) o	-0.2282697
-1.5463125	7 ) o	-0.2282697
-2.2196753	c 5 o	-0.2282697
-1.7873865	C n o	-0.2282697
-0.9938775	c n o	-0.7922366
-1.2271829	6 n o	-0.25287822
-1.1333673	) n o	-0.46531463
-1.3881418	5 n o	-0.2282697
-0.3244099	[n+] n o	-0.2282697
-1.5725754	c / o	-0.2282697
-1.6283301	) / o	-0.2282697
-1.362866	c \ o	-0.2282697
-1.7304822	c [nH] o	-0.2282697
-1.7764676	) [nH] o	-0.2282697
-1.156121	<s> C N	-3.063484
-1.2515979	C C N	-0.7365759
-1.4941475	O C N	-0.27104437
-1.1305863	c C N	-0.37141
-1.141078	6 C N	-0.34080583
-1.5110724	%10 C N	-0.2282697
-1.1745884	= C N	-0.33179328
-1.2029488	) C N	-0.5774136
-1.2392094	5 C N	-0.35234526
-1.2534498	Cl C N	-0.2282697
-1.558723	S C N	-0.26226556
-1.2683853	Br C N	-0.2282697
-1.2369868	F C N	-0.2282697
-1.4964154	/ C N	-0.25605467
-1.583601	N C N	-0.2649942
-1.3681862	# C N	-0.2282697
-1.2367651	\ C N	-0.2282697
-1.2525535	7 C N	-0.24286687
-1.3568048	8 C N	-0.2282697
-1.3421865	3 C N	-0.27872247
-1.4798548	9 C N	-0.2282697
-0.93482006	B C N	-0.2282697
-1.0199965	[C@@H] C N	-0.49011603
-1.1380757	[C@H] C N	-0.4216923
-1.1394123	4 C N	-0.3093085
-1.1323419	[C@@] C N	-0.32222632
-1.2832385	[C@] C N	-0.26944163
-2.563502	<s> O N	-1.9234127
-1.5003817	C O N	-0.3441057
-1.6906526	6 O N	-0.2282697
-1.2053891	) O N	-0.45655492
-1.3781037	c c N	-0.5704318
-1.5246316	6 c N	-0.24659413
-1.3055192	%10 c N	-0.2282697
-1.3925723	) c N	-0.480295
-1.5216109	5 c N	-0.24659413
-1.3195924	n c N	-0.41845834
-1.6109654	[nH] c N	-0.24659413
-1.3917083	C 6 N	-0.26190287
-1.2780678	c 6 N	-0.282047
-1.1925448	n 6 N	-0.25287822
-1.1709172	/ 6 N	-0.2282697
-1.4685739	N 6 N	-0.2282697
-1.0344654	\ 6 N	-0.2282697
-0.97003376	[C@@H] 6 N	-0.26486132
-0.9548574	[C@H] 6 N	-0.29317716
-1.3625932	C %10 N	-0.2282697
-1.1052631	c %10 N	-0.27480656
-1.2617338	n %10 N	-0.2282697
-0.9535624	N %10 N	-0.2282697
-0.7552011	C = N	-0.6303323
-0.7710568	O = N	-0.2282697
-0.7123466	c = N	-0.32714212
-0.6368283	6 = N	-0.23631854
-0.6967371	) = N	-0.2282697
-0.7002618	5 = N	-0.24659413
-1.1830363	[N+] = N	-0.2282697
-0.6105349	%14 = N	-0.2282697
-0.73234546	S = N	-0.5086149
-1.1264436	N = N	-0.24659413
-1.1924618	P = N	-0.2282697
-0.71697074	7 = N	-0.2282697
-0.8668641	9 = N	-0.2282697
-0.49445477	%12 = N	-0.2282697
-1.1228063	C ) N	-0.36560592
-1.2598592	O ) N	-0.26934847
-1.1874526	6 ) N	-0.39331266
-1.2405934	%10 ) N	-0.26572594
-1.2007856	) ) N	-0.66882926
-1.1758666	5 ) N	-0.5353927
-1.544318	Cl ) N	-0.2282697
-1.2519675	S ) N	-0.234844
-1.4197781	N ) N	-0.25219432
-1.4443439	7 ) N	-0.2282697
-1.3206366	8 ) N	-0.2282697
-1.0342261	3 ) N	-0.2282697
-1.2049776	9 ) N	-0.25287822
-1.3765262	4 ) N	-0.2282697
-1.2664913	C 5 N	-0.35051098
-1.2260109	c 5 N	-0.4539674
-1.297411	n 5 N	-0.25287822
-1.2181805	/ 5 N	-0.2282697
-1.3642776	N 5 N	-0.25287822
-1.2299422	\ 5 N	-0.2282697
-0.9510777	[C@@H] 5 N	-0.25942796
-0.98918647	[C@H] 5 N	-0.26226556
-1.0657142	[C@@] 5 N	-0.2282697
-1.9349828	c n N	-0.25287822
-1.7756296	) n N	-0.26572594
-3.8809938	<s> Cl N	-0.26572594
-0.88702786	# [N+] N	-0.2282697
-0.8446594	c %14 N	-0.2282697
-1.7502793	C S N	-0.28408116
-1.8355882	) S N	-0.2282697
-0.7868096	F S N	-0.2282697
-4.0862923	<s> Br N	-0.26572594
-4.3809786	<s> F N	-0.2282697
-1.1008794	C / N	-0.36046103
-0.37194538	O / N	-0.5059299
-1.1870459	c / N	-0.2282697
-0.69737893	6 / N	-0.2282697
-0.8704245	) / N	-0.2918458
-0.5295968	5 / N	-0.28408116
-0.85289574	n / N	-0.2282697
-0.7119702	N / N	-0.36046103
-1.317922	<s> N N	-2.5565705
-1.4422427	C N N	-0.35658643
-1.2251022	c N N	-0.26088902
-1.4355085	6 N N	-0.2282697
-1.2460141	%10 N N	-0.2282697
-1.2835883	= N N	-0.26088902
-1.1077248	) N N	-0.5204432
-1.4330145	5 N N	-0.2282697
-1.4440179	/ N N	-0.2282697
-0.3049765	C # N	-0.9530879
-1.4775554	C \ N	-0.2282697
-1.2147037	) \ N	-0.2282697
-1.0763384	N \ N	-0.2282697
