\data\
ngram 1=42
ngram 2=235
ngram 3=662
ngram 4=1362
ngram 5=2278
ngram 6=3225

\1-grams:
-2.0562787	<unk>	0
0	<s>	-1.866122
-1.2229474	</s>	0
-1.289563	N	-0.40174428
-1.9920287	#	-0.26980746
-0.95502055	C	-0.6485397
-1.0273762	c	-0.6251677
-1.521994	6	-0.37265274
-1.1389774	)	-0.51161027
-1.289563	=	-0.5023279
-1.3271408	O	-0.48471105
-1.5882816	n	-0.3863565
-1.9920287	3	-0.25985023
-1.6665418	F	-0.38634685
-2.0562787	7	-0.25985023
-1.6665418	[C@@H]	-0.30303195
-1.5882816	[C@H]	-0.38634685
-1.3271408	5	-0.50858885
-1.9920287	4	-0.24532989
-1.6665418	Cl	-0.3797424
-1.7620738	%10	-0.25565183
-1.9920287	[S@]	-0.24532989
-1.464497	S	-0.48394138
-1.7620738	[nH]	-0.3541519
-1.9920287	s	-0.26980746
-1.9920287	o	-0.25985023
-1.9920287	9	-0.26980746
-1.9203572	[NH+]	-0.24532989
-1.9920287	[N+]	-0.2825838
-1.9203572	[O-]	-0.24532989
-2.0562787	Br	-0.25985023
-1.9920287	[C-]	-0.2825838
-1.9203572	[CH-]	-0.24532989
-2.0562787	/	-0.26996836
-1.9203572	[N@@H+]	-0.24532989
-2.0562787	[NH3+]	-0.26980746
-1.9203572	[S@@]	-0.24532989
-1.9920287	\	-0.24532989
-1.9203572	8	-0.24532989
-2.0562787	[NH2+]	-0.26980746
-1.9203572	I	-0.24532989
-1.9203572	[C@@]	-0.24532989

\2-grams:
-1.2408503	N </s>	0
-1.5213345	C </s>	0
-1.0252934	6 </s>	0
-0.9025886	O </s>	0
-0.9236644	3 </s>	0
-0.88313615	F </s>	0
-0.9236644	7 </s>	0
-0.7127203	5 </s>	0
-0.84797525	4 </s>	0
-0.5634437	Cl </s>	0
-1.2770617	S </s>	0
-0.45466176	9 </s>	0
-0.6023926	[O-] </s>	0
-0.9236644	Br </s>	0
-0.3319888	[CH-] </s>	0
-0.85762227	<s> N	-1.0571079
-1.520502	N N	-0.22658223
-0.76588297	# N	-0.22658223
-1.086788	C N	-0.42348185
-1.755373	c N	-0.22658223
-1.315704	6 N	-0.25132465
-1.1793052	) N	-0.33383653
-1.2245355	= N	-0.25132465
-1.0688523	[C@@H] N	-0.22658223
-1.3461387	[C@H] N	-0.22658223
-1.5593928	5 N	-0.22658223
-1.0021688	/ N	-0.22658223
-0.6108854	\ N	-0.22658223
-1.8586388	N #	-0.22658223
-1.722363	C #	-0.3109403
-0.547978	<s> C	-1.2237285
-0.7182506	N C	-0.36616424
-0.42197978	# C	-0.25644687
-0.846953	C C	-0.48917976
-1.1559782	c C	-0.25082126
-0.7656143	6 C	-0.21580136
-0.8878607	) C	-0.3713642
-0.8304952	= C	-0.24235635
-0.848107	O C	-0.28713322
-0.9692019	n C	-0.22658223
-0.598093	3 C	-0.25132465
-1.0291032	F C	-0.22658223
-0.8318337	7 C	-0.22658223
-0.6769988	[C@@H] C	-0.24770257
-0.4557245	[C@H] C	-0.24574053
-0.80814534	5 C	-0.3006839
-1.0485593	Cl C	-0.22658223
-0.90932494	%10 C	-0.22658223
-0.95868564	S C	-0.25132465
-0.30572495	[NH+] C	-0.22658223
-0.8318337	Br C	-0.22658223
-0.27069923	[C-] C	-0.26424536
-0.51327586	/ C	-0.21403027
-0.30572495	[N@@H+] C	-0.22658223
-0.6915434	[NH3+] C	-0.22658223
-0.42197978	[NH2+] C	-0.22658223
-0.30572495	[C@@] C	-0.22658223
-0.8566369	N c	-0.3221531
-0.97935784	C c	-0.60950285
-0.53641766	c c	-0.5546183
-0.9634678	6 c	-0.2956931
-0.9924717	) c	-0.35922736
-1.3084815	= c	-0.22658223
-0.7783293	O c	-0.4206318
-0.5734511	n c	-0.27472815
-0.86033964	3 c	-0.22658223
-1.0628551	F c	-0.22658223
-0.6145064	7 c	-0.22658223
-1.1325133	[C@@H] c	-0.22658223
-1.2037793	[C@H] c	-0.22658223
-0.9092474	5 c	-0.36263984
-1.0844873	Cl c	-0.22658223
-0.7240559	%10 c	-0.22658223
-1.1937677	S c	-0.22658223
-0.47915375	[nH] c	-0.31044176
-0.43260285	s c	-0.25644687
-0.86033964	o c	-0.22658223
-0.86033964	Br c	-0.22658223
-0.912375	/ c	-0.22658223
-0.31430432	I c	-0.22658223
-1.3408403	N 6	-0.26424536
-1.3610109	C 6	-0.28761512
-1.4183763	c 6	-0.25132465
-1.1299802	n 6	-0.25132465
-1.3774219	[C@@H] 6	-0.22658223
-1.4397777	[C@H] 6	-0.22658223
-1.3074616	[nH] 6	-0.22658223
-0.98783225	o 6	-0.22658223
-0.9667861	N )	-0.2956931
-0.9996157	C )	-0.4900935
-0.8943786	6 )	-0.27910164
-0.7326277	) )	-0.4729681
-0.6571135	O )	-0.29006478
-0.8988232	3 )	-0.22658223
-0.3800582	F )	-0.22924186
-0.8988232	7 )	-0.22658223
-0.7039387	5 )	-0.3810901
-0.82631767	4 )	-0.22658223
-0.5550619	Cl )	-0.2181741
-0.99156916	%10 )	-0.22658223
-1.2439269	S )	-0.22658223
-0.589957	[O-] )	-0.22658223
-0.63593596	Br )	-0.26424536
-0.4462578	[NH3+] )	-0.22658223
-0.32527244	8 )	-0.22658223
-0.73784995	[NH2+] )	-0.22658223
-1.2671491	N =	-0.24500567
-1.020865	C =	-0.6429266
-1.2541068	c =	-0.39012155
-1.315704	6 =	-0.26424536
-1.6849668	) =	-0.22658223
-1.5244119	O =	-0.22658223
-1.2518646	5 =	-0.20992564
-0.8630379	4 =	-0.22658223
-1.0450332	%10 =	-0.22658223
-0.6108854	[S@] =	-0.22658223
-0.28774962	S =	-0.63589436
-0.29663277	[N+] =	-0.26424536
-0.6108854	[S@@] =	-0.22658223
-0.42022455	<s> O	-1.71125
-1.2669238	C O	-0.39694932
-1.5272995	c O	-0.25132465
-1.2135891	6 O	-0.25644687
-1.3727051	) O	-0.2650122
-0.3508139	= O	-0.6458189
-0.99258363	[C@H] O	-0.25132465
-1.5806801	5 O	-0.22658223
-0.87076974	4 O	-0.22658223
-1.0565637	%10 O	-0.22658223
-0.7717135	9 O	-0.22658223
-0.61519486	\ O	-0.22658223
-1.9130397	C n	-0.26424536
-0.82491565	c n	-0.45329404
-1.6396049	6 n	-0.22658223
-1.1577017	) n	-0.3963522
-0.9428935	n n	-0.22329159
-1.0403149	[nH] n	-0.26424536
-0.997825	o n	-0.22658223
-2.2853036	C 3	-0.22658223
-1.2416227	[C@H] 3	-0.22658223
-1.4916205	<s> F	-0.8789324
-1.8299513	C F	-0.20992564
-1.9786782	c F	-0.22658223
-1.6751962	6 F	-0.22658223
-1.6327149	) F	-0.20992564
-1.1330265	%10 F	-0.22658223
-1.5981799	N 7	-0.25132465
-2.3124933	C 7	-0.22658223
-1.6657217	n 7	-0.22658223
-1.5187552	N [C@@H]	-0.22658223
-1.5495112	C [C@@H]	-0.21651183
-1.6751962	6 [C@@H]	-0.22658223
-1.6327149	) [C@@H]	-0.23013204
-1.6960006	O [C@@H]	-0.22658223
-1.1517252	[C@@H] [C@@H]	-0.22658223
-1.3572074	N [C@H]	-0.25132465
-1.2516797	C [C@H]	-0.29643872
-1.6396049	6 [C@H]	-0.22658223
-1.7283047	) [C@H]	-0.26424536
-1.2725612	O [C@H]	-0.24500567
-0.9766614	[C@@H] [C@H]	-0.22658223
-1.7063055	5 [C@H]	-0.22658223
-1.2809209	N 5	-0.2586608
-1.3908101	C 5	-0.2552063
-1.0985626	c 5	-0.29023835
-1.3525145	O 5	-0.22658223
-1.0908349	n 5	-0.22924186
-1.2975122	[C@@H] 5	-0.22658223
-1.1397365	[C@H] 5	-0.22658223
-0.61519486	[S@] 5	-0.22658223
-0.9976246	[nH] 5	-0.25132465
-0.7717135	s 5	-0.22658223
-0.6631304	o 5	-0.25132465
-0.61519486	[S@@] 5	-0.22658223
-1.722363	C 4	-0.21651183
-1.4942684	[C@@H] 4	-0.22658223
-0.829618	<s> Cl	-1.5251961
-1.9484221	C Cl	-0.26424536
-1.7678655	c Cl	-0.26424536
-1.4472153	6 Cl	-0.25132465
-1.6327149	) Cl	-0.20992564
-1.7364651	5 Cl	-0.22658223
-2.1686766	C %10	-0.22658223
-1.7943248	c %10	-0.22658223
-1.6005417	n %10	-0.22658223
-1.4487754	[C@@H] %10	-0.22658223
-1.507493	[C@H] %10	-0.22658223
-1.857475	) [S@]	-0.26424536
-1.6416678	= [S@]	-0.22658223
-2.7902162	<s> S	-0.26424536
-1.3250679	N S	-0.20992564
-1.5074753	C S	-0.29707882
-1.5761337	6 S	-0.22658223
-1.4149612	) S	-0.21651183
-1.5169686	= S	-0.22658223
-1.395462	O S	-0.26424536
-1.4377823	5 S	-0.26424536
-1.0440227	/ S	-0.22658223
-1.220871	c [nH]	-0.36716837
-1.7139667	6 [nH]	-0.22658223
-1.3520504	) [nH]	-0.28512087
-1.6005417	n [nH]	-0.22658223
-1.7688764	5 [nH]	-0.22658223
-1.6788193	c s	-0.26424536
-1.857475	) s	-0.26424536
-1.475606	c o	-0.28761512
-1.6542994	n o	-0.22658223
-2.1073987	c 9	-0.22658223
-1.3928539	[nH] 9	-0.22658223
-1.8978989	C [NH+]	-0.20992564
-1.7876348	6 [N+]	-0.22658223
-1.857475	) [N+]	-0.26424536
-2.0681477	) [O-]	-0.22658223
-2.2575035	<s> Br	-0.39012155
-1.8037461	6 Br	-0.22658223
-1.8711779	) Br	-0.25132465
-2.2853036	C [C-]	-0.22658223
-2.0977201	) [C-]	-0.22658223
-2.0681477	) [CH-]	-0.22658223
-1.8764161	N /	-0.22658223
-1.7296336	C /	-0.22962317
-1.7129657	) /	-0.20992564
-2.252209	C [N@@H+]	-0.22658223
-3.1937077	<s> [NH3+]	-0.22658223
-2.3124933	C [NH3+]	-0.22658223
-2.1218314	) [NH3+]	-0.22658223
-1.6308641	= [S@@]	-0.22658223
-2.2853036	C \	-0.22658223
-2.0977201	) \	-0.22658223
-1.3842628	[nH] 8	-0.22658223
-2.076059	C [NH2+]	-0.26424536
-2.1218314	) [NH2+]	-0.22658223
-1.650134	= [NH2+]	-0.22658223
-3.1648784	<s> I	-0.22658223
-2.252209	C [C@@]	-0.22658223

\3-grams:
-0.6246339	# N </s>	0
-1.4687923	C N </s>	0
-0.9053574	) N </s>	0
-1.681571	C C </s>	0
-1.3246487	6 C </s>	0
-1.067486	) C </s>	0
-1.2442797	O C </s>	0
-0.97622675	C 6 </s>	0
-1.0415566	c 6 </s>	0
-0.91850257	n 6 </s>	0
-0.33489218	[nH] 6 </s>	0
-1.1578314	C O </s>	0
-0.82143617	) O </s>	0
-1.0069555	= O </s>	0
-0.31805655	4 O </s>	0
-0.5566983	9 O </s>	0
-0.68559396	C 3 </s>	0
-0.55140644	6 F </s>	0
-0.56485385	) F </s>	0
-0.5622393	C 7 </s>	0
-0.6251753	N 5 </s>	0
-0.6914578	C 5 </s>	0
-0.6953002	c 5 </s>	0
-0.49722898	O 5 </s>	0
-0.78222454	n 5 </s>	0
-0.6123741	[nH] 5 </s>	0
-0.49722898	s 5 </s>	0
-0.6123741	o 5 </s>	0
-0.7759802	C 4 </s>	0
-0.4241169	C Cl </s>	0
-0.5395656	6 Cl </s>	0
-0.44350255	) Cl </s>	0
-0.2451356	5 Cl </s>	0
-0.9454061	) S </s>	0
-0.3855415	c 9 </s>	0
-0.21124068	[nH] 9 </s>	0
-0.4540593	) [O-] </s>	0
-0.43097037	) Br </s>	0
-0.16568446	) [CH-] </s>	0
-1.9786664	<s> N N	-0.19403923
-0.782285	C # N	-0.19855003
-0.86187196	<s> C N	-1.0263809
-1.2934893	N C N	-0.19855003
-0.97917306	C C N	-0.40736547
-0.91143507	c C N	-0.19553764
-1.1031609	6 C N	-0.19855003
-0.96807975	) C N	-0.32705596
-0.98146313	= C N	-0.19493765
-0.7349448	n C N	-0.19855003
-0.45620772	3 C N	-0.19855003
-0.75320035	[C@@H] C N	-0.19855003
-1.0358231	[C@H] C N	-0.19403923
-1.0508281	5 C N	-0.19855003
-1.7382901	c c N	-0.1962888
-1.2981374	C 6 N	-0.19855003
-1.3561745	c 6 N	-0.19855003
-0.9946163	N ) N	-0.19855003
-1.1986723	6 ) N	-0.1962888
-1.1362303	) ) N	-0.23607787
-1.2935274	O ) N	-0.19855003
-1.1975578	5 ) N	-0.20893356
-0.35088068	[NH2+] ) N	-0.19855003
-1.2505921	C = N	-0.19553764
-0.6222528	) = N	-0.19855003
-0.69428104	) [C@@H] N	-0.19403923
-0.5953367	[C@@H] [C@@H] N	-0.19855003
-0.89530015	O [C@H] N	-0.19855003
-1.3080318	C 5 N	-0.19855003
-0.6518644	C / N	-0.19553764
-0.2581449	) \ N	-0.19855003
-0.154417	<s> N #	-1.6544075
-1.2434462	<s> C #	-0.91142064
-1.571603	C C #	-0.3373894
-1.5492507	) C #	-0.19403923
-0.379082	Br C #	-0.19855003
-0.74026394	<s> N C	-0.7565187
-0.28395584	N N C	-0.19855003
-0.4205275	C N C	-0.3556564
-0.6037202	c N C	-0.19855003
-0.3860243	6 N C	-0.19553764
-0.7295064	) N C	-0.23943973
-0.6148262	= N C	-0.19855003
-0.4992192	[C@@H] N C	-0.19855003
-0.19988899	N # C	-0.19855003
-0.21116689	C # C	-0.30584356
-0.26335967	<s> C C	-1.1401336
-0.65594196	N C C	-0.2516334
-0.5831343	# C C	-0.19674006
-0.84250444	C C C	-0.4039932
-0.65136904	c C C	-0.20256513
-0.772933	6 C C	-0.19754359
-0.73065823	) C C	-0.31823874
-0.8962205	= C C	-0.19674006
-0.66431344	O C C	-0.26493993
-0.8585867	[C@@H] C C	-0.19855003
-0.859255	[C@H] C C	-0.19516255
-0.8804083	5 C C	-0.19741791
-0.6577252	Cl C C	-0.19855003
-0.6670572	S C C	-0.19855003
-0.5410967	[NH+] C C	-0.19855003
-0.30898237	[N@@H+] C C	-0.19855003
-0.30898237	[NH3+] C C	-0.19855003
-0.6577252	[NH2+] C C	-0.19855003
-0.5410967	[C@@] C C	-0.19855003
-1.2510494	c c C	-0.19894746
-1.1185284	) c C	-0.1962888
-1.0600381	n c C	-0.19855003
-0.6113768	7 c C	-0.19855003
-1.053706	5 c C	-0.19855003
-0.61031914	N 6 C	-0.19553764
-0.94358563	C 6 C	-0.19855003
-0.8723818	c 6 C	-0.19608378
-0.78535366	n 6 C	-0.19855003
-0.5156075	[C@@H] 6 C	-0.19855003
-0.29386526	[C@H] 6 C	-0.19855003
-0.87522984	N ) C	-0.19855003
-0.5237791	C ) C	-0.40673208
-0.982895	6 ) C	-0.19883054
-0.75691646	) ) C	-0.33850497
-0.80697346	O ) C	-0.22559828
-0.89558613	F ) C	-0.19855003
-0.73632276	5 ) C	-0.30008623
-0.5527076	4 ) C	-0.19855003
-0.5527076	%10 ) C	-0.19855003
-0.5527076	[NH3+] ) C	-0.19855003
-0.505922	N = C	-0.19855003
-0.42886952	C = C	-0.27404925
-0.89305776	c = C	-0.19855003
-0.65133345	O = C	-0.19855003
-0.714204	<s> O C	-0.8560358
-0.5198332	C O C	-0.31985694
-0.6355019	c O C	-0.19855003
-0.79613775	6 O C	-0.19855003
-0.74087125	) O C	-0.20110245
-1.2768993	c n C	-0.19855003
-0.57354856	6 n C	-0.19855003
-1.113666	) n C	-0.19855003
-0.5447944	C 3 C	-0.19855003
-0.45224065	[C@H] 3 C	-0.19855003
-0.20422085	<s> F C	-0.7866205
-0.41291386	N 7 C	-0.19403923
-0.48397952	N [C@@H] C	-0.19855003
-0.61479133	C [C@@H] C	-0.1962888
-0.50101155	) [C@@H] C	-0.19553764
-0.48397952	O [C@@H] C	-0.19855003
-0.30087048	N [C@H] C	-0.19855003
-0.3775329	C [C@H] C	-0.20371076
-0.21160051	6 [C@H] C	-0.19855003
-0.18952274	) [C@H] C	-0.19855003
-0.36947703	O [C@H] C	-0.19855003
-0.50941116	[C@@H] [C@H] C	-0.19855003
-0.21160051	5 [C@H] C	-0.19855003
-0.66560256	N 5 C	-0.19855003
-0.91972667	C 5 C	-0.19855003
-0.7396779	c 5 C	-0.19970453
-0.84598887	n 5 C	-0.19855003
-0.30205697	[C@@H] 5 C	-0.19855003
-0.529344	[C@H] 5 C	-0.19855003
-0.17183524	<s> Cl C	-1.4372858
-0.31909043	[C@H] %10 C	-0.19855003
-0.28764027	<s> S C	-0.19403923
-0.7311352	C S C	-0.19855003
-0.16220063	C [NH+] C	-0.19553764
-0.89368683	<s> Br C	-0.19855003
-0.13983126	C [C-] C	-0.19855003
-0.13983126	) [C-] C	-0.19855003
-0.23022875	N / C	-0.19855003
-0.5072544	C / C	-0.19403923
-0.24226543	) / C	-0.20893356
-0.15486392	C [N@@H+] C	-0.19855003
-0.27798304	<s> [NH3+] C	-0.19855003
-0.1792988	C [NH2+] C	-0.19855003
-0.19988899	) [NH2+] C	-0.19855003
-0.15486392	C [C@@] C	-0.19855003
-1.6554117	<s> N c	-0.19553764
-0.82997936	C N c	-0.28002778
-0.9749733	) N c	-0.19493765
-0.31063238	[C@H] N c	-0.19855003
-0.5439163	/ N c	-0.19855003
-0.31063238	\ N c	-0.19855003
-1.6211655	<s> C c	-0.51348066
-1.0488658	N C c	-0.20391183
-0.61902124	# C c	-0.19403923
-0.9493762	C C c	-0.47928274
-0.83583	6 C c	-0.21245067
-1.0845386	) C c	-0.28601813
-0.9763399	= C c	-0.19553764
-0.8185524	O C c	-0.3373894
-0.7039056	n C c	-0.19855003
-0.7039056	F C c	-0.19855003
-0.93163735	[C@H] C c	-0.19553764
-0.94693434	5 C c	-0.20683692
-0.7039056	Cl C c	-0.19855003
-0.32906553	%10 C c	-0.19855003
-0.36159584	N c c	-0.2604796
-0.25378734	C c c	-0.4581869
-0.51746565	c c c	-0.4601104
-0.29627016	6 c c	-0.25371766
-0.36185405	) c c	-0.38805208
-0.5113292	= c c	-0.19855003
-0.2012578	O c c	-0.32885057
-0.47507972	n c c	-0.2943798
-0.23725554	3 c c	-0.19855003
-0.4250018	F c c	-0.19855003
-0.4250018	7 c c	-0.19855003
-0.23725554	[C@@H] c c	-0.19855003
-0.23725554	[C@H] c c	-0.19855003
-0.23946331	5 c c	-0.23925498
-0.23725554	Cl c c	-0.19855003
-0.4250018	%10 c c	-0.19855003
-0.23725554	S c c	-0.19855003
-0.36791405	[nH] c c	-0.35296494
-0.4641532	s c c	-0.19553764
-0.5113292	o c c	-0.19855003
-0.23725554	Br c c	-0.19855003
-0.23725554	/ c c	-0.19855003
-0.23725554	I c c	-0.19855003
-0.6754496	N 6 c	-0.19403923
-0.9466538	C 6 c	-0.19403923
-1.0045115	c 6 c	-0.1962888
-0.67178804	n 6 c	-0.19403923
-1.1051382	C ) c	-0.19403923
-0.8183185	6 ) c	-0.33038345
-0.9306836	) ) c	-0.32705596
-1.0449915	O ) c	-0.19674006
-0.95533603	F ) c	-0.19855003
-0.85157055	5 ) c	-0.30584356
-0.88833916	Cl ) c	-0.19855003
-0.5789897	%10 ) c	-0.19855003
-0.783382	O = c	-0.19855003
-1.7859071	<s> O c	-0.51348066
-0.6639674	C O c	-0.32885057
-0.79276836	c O c	-0.19855003
-0.5612573	6 O c	-0.19403923
-0.8946364	) O c	-0.19855003
-0.29638237	5 O c	-0.19855003
-0.42804074	C n c	-0.1962888
-0.32794866	c n c	-0.36695403
-0.44161648	6 n c	-0.19855003
-0.27054465	) n c	-0.4257606
-0.54143924	n n c	-0.19493765
-0.22104055	[nH] n c	-0.19403923
-0.24796599	o n c	-0.19855003
-0.5449827	[C@H] 3 c	-0.19855003
-0.5738339	<s> F c	-0.56111604
-0.5659123	N 7 c	-0.19855003
-0.25909588	n 7 c	-0.19855003
-0.95414066	) [C@@H] c	-0.19855003
-0.9925478	C [C@H] c	-0.19403923
-0.8996063	N 5 c	-0.19855003
-0.9899012	C 5 c	-0.19855003
-0.78107977	c 5 c	-0.28601813
-0.6646759	n 5 c	-0.21245067
-0.5584704	[C@H] 5 c	-0.19855003
-0.51991767	<s> Cl c	-1.3263941
-0.28521678	n %10 c	-0.19855003
-0.28521678	[C@@H] %10 c	-0.19855003
-1.0439836	C S c	-0.19855003
-0.25379804	c [nH] c	-0.20499216
-0.397766	6 [nH] c	-0.19855003
-0.31947744	) [nH] c	-0.30584356
-0.21938582	n [nH] c	-0.19855003
-0.397766	5 [nH] c	-0.19855003
-0.36766225	c s c	-0.1962888
-0.18257716	) s c	-0.19855003
-0.4686922	c o c	-0.20391183
-0.23570615	<s> Br c	-0.4342994
-0.8854455	C / c	-0.19855003
-0.1584409	<s> I c	-0.19855003
-1.3484268	C N 6	-0.1962888
-0.78894114	c N 6	-0.19855003
-1.401997	) N 6	-0.19855003
-1.269183	N C 6	-0.1962888
-1.1351757	C C 6	-0.3676023
-1.06947	c C 6	-0.1962888
-1.3443807	= C 6	-0.19855003
-1.3876343	O C 6	-0.19855003
-1.0825369	[C@@H] C 6	-0.19855003
-0.87868214	[C@H] C 6	-0.3373894
-1.3259583	N c 6	-0.19855003
-1.5911093	C c 6	-0.19855003
-1.4480577	c c 6	-0.21945506
-1.1532453	n c 6	-0.1962888
-1.222802	c n 6	-0.19553764
-1.1962855	) n 6	-0.19855003
-1.0481759	n n 6	-0.19855003
-1.1796501	C [C@@H] 6	-0.19855003
-1.3042927	C [C@H] 6	-0.19855003
-1.0776713	) [nH] 6	-0.19855003
-0.98360693	c o 6	-0.19855003
-0.5729708	# N )	-0.19855003
-1.2754685	C N )	-0.19855003
-0.70769966	6 N )	-0.19855003
-0.62218636	) N )	-0.51348066
-0.43843523	= N )	-0.19553764
-1.1071466	N C )	-0.19403923
-1.1405488	C C )	-0.3373894
-0.87667936	c C )	-0.19403923
-0.8445705	6 C )	-0.19553764
-1.0095582	) C )	-0.3373894
-0.98773754	= C )	-0.19855003
-0.9832189	O C )	-0.21245067
-0.7101804	n C )	-0.19855003
-0.33170155	7 C )	-0.19855003
-1.1125861	[C@H] C )	-0.19855003
-1.0084921	5 C )	-0.19403923
-0.5806157	[NH+] C )	-0.19855003
-0.78842556	/ C )	-0.19855003
-0.5806157	[C@@] C )	-0.19855003
-0.6549448	N 6 )	-0.19855003
-0.58064675	C 6 )	-0.2716244
-0.9606564	c 6 )	-0.19801691
-0.65085185	n 6 )	-0.19725645
-0.31677806	o 6 )	-0.19855003
-0.34485835	N ) )	-0.20544471
-0.43489096	C ) )	-0.39450005
-0.7837821	6 ) )	-0.22532481
-0.5616426	) ) )	-0.42837766
-0.64559424	O ) )	-0.27695322
-0.28705454	3 ) )	-0.19855003
-0.6514458	F ) )	-0.19553764
-0.28705454	7 ) )	-0.19855003
-0.6236104	5 ) )	-0.38502482
-0.50431764	4 ) )	-0.19855003
-0.51763445	Cl ) )	-0.20893356
-0.28705454	S ) )	-0.19855003
-0.28705454	[O-] ) )	-0.19855003
-0.25451338	Br ) )	-0.19403923
-0.50431764	[NH3+] ) )	-0.19855003
-0.28705454	8 ) )	-0.19855003
-0.71971464	C O )	-0.20391183
-0.5600281	c O )	-0.19403923
-0.51663476	6 O )	-0.19403923
-0.50157267	) O )	-0.30584356
-0.122847706	= O )	-0.27988535
-0.5867481	[C@H] O )	-0.19855003
-0.26985374	%10 O )	-0.19855003
-0.26985374	\ O )	-0.19855003
-0.67691135	C 3 )	-0.19855003
-0.19358356	C F )	-0.19553764
-0.18450116	c F )	-0.19855003
-0.3461807	6 F )	-0.19855003
-0.34804502	) F )	-0.20499216
-0.18450116	%10 F )	-0.19855003
-0.5556874	C 7 )	-0.19855003
-0.6211963	N 5 )	-0.19403923
-0.53906894	C 5 )	-0.20391183
-0.80657804	c 5 )	-0.20175914
-0.4940352	O 5 )	-0.19855003
-0.63717145	n 5 )	-0.19553764
-0.38224483	[nH] 5 )	-0.1970412
-0.4940352	s 5 )	-0.19855003
-0.38224483	o 5 )	-0.19674006
-0.4940521	C 4 )	-0.19403923
-0.420788	C Cl )	-0.19403923
-0.21652329	c Cl )	-0.1962888
-0.3371991	6 Cl )	-0.19403923
-0.43956068	) Cl )	-0.21245067
-0.5787828	C %10 )	-0.19855003
-0.9357686	) S )	-0.19855003
-0.44877076	) [O-] )	-0.19855003
-0.26460522	6 Br )	-0.19855003
-0.5765224	) Br )	-0.19855003
-0.20837478	C [NH3+] )	-0.19855003
-0.20837478	) [NH3+] )	-0.19855003
-0.16295394	[nH] 8 )	-0.19855003
-0.28816026	= [NH2+] )	-0.19855003
-1.6331435	<s> N =	-0.3373894
-1.3611177	) N =	-0.19855003
-0.6283143	/ N =	-0.19855003
-1.2100607	<s> C =	-0.91142064
-0.6214374	N C =	-0.3994364
-0.89111394	C C =	-0.5599566
-1.09369	c C =	-0.19855003
-1.0603639	6 C =	-0.19855003
-1.018676	) C =	-0.32885057
-0.9936527	O C =	-0.21245067
-0.72368884	3 C =	-0.19855003
-0.7349213	[C@@H] C =	-0.19553764
-0.95225996	[C@H] C =	-0.19553764
-0.5749415	5 C =	-0.45197162
-0.4469633	S C =	-0.19403923
-0.29441702	[C-] C =	-0.19403923
-0.46130192	/ C =	-0.20893356
-1.6933501	c c =	-0.19855003
-1.0179664	6 c =	-0.19855003
-1.1552753	) c =	-0.19403923
-1.0991582	n c =	-0.21245067
-0.88011247	[nH] c =	-0.20893356
-1.0141414	C 6 =	-0.21245067
-1.1865265	c 6 =	-0.19403923
-1.5602027	O ) =	-0.19855003
-0.10993013	<s> O =	-1.6509051
-1.1871707	C 5 =	-0.19855003
-0.35680822	[S@] 5 =	-0.19855003
-0.35680822	[S@@] 5 =	-0.19855003
-0.78366655	C 4 =	-0.19855003
-0.5904797	c %10 =	-0.19855003
-0.22979854	) [S@] =	-0.19403923
-0.15414295	N S =	-0.21245067
-0.24622777	C S =	-0.3373894
-0.14723556	6 S =	-0.19855003
-0.26510447	) S =	-0.21245067
-0.14723556	= S =	-0.19855003
-0.13291483	O S =	-0.19403923
-0.13291483	5 S =	-0.19403923
-0.14723556	/ S =	-0.19855003
-0.15102808	6 [N+] =	-0.19855003
-0.13627788	) [N+] =	-0.19403923
-0.4576212	= [S@@] =	-0.19855003
-0.92532045	<s> C O	-0.8966974
-1.1735826	C C O	-0.20523895
-1.2080148	6 C O	-0.19855003
-1.3647896	) C O	-0.1959667
-1.2900568	= C O	-0.19855003
-1.1588998	O C O	-0.19553764
-1.1175071	[C@H] C O	-0.19855003
-1.3146259	5 C O	-0.19855003
-1.347679	c c O	-0.26008606
-1.4774106	) c O	-0.19855003
-1.4756143	n c O	-0.19855003
-1.2445694	C 6 O	-0.19855003
-1.2905498	c 6 O	-0.19855003
-0.62061197	[C@@H] 6 O	-0.19855003
-1.2942896	6 ) O	-0.19553764
-1.1866084	) ) O	-0.2421911
-1.2238637	O ) O	-0.1962888
-1.5181086	5 ) O	-0.19855003
-0.32114133	C = O	-0.7208169
-0.15084995	c = O	-0.4342994
-0.15587537	6 = O	-0.19553764
-0.32988355	) = O	-0.19855003
-0.18160667	5 = O	-0.21245067
-0.17320462	4 = O	-0.19855003
-0.17320462	%10 = O	-0.19855003
-0.17320462	[S@] = O	-0.19855003
-0.059560627	S = O	-0.6384194
-0.15587537	[N+] = O	-0.19403923
-0.17320462	[S@@] = O	-0.19855003
-0.715502	N [C@H] O	-0.19855003
-1.0826454	C [C@H] O	-0.19855003
-0.79726565	O [C@H] O	-0.19855003
-1.3145512	C 5 O	-0.19855003
-0.3129862	[C@@H] 4 O	-0.19855003
-0.59285736	c %10 O	-0.19855003
-0.51763356	c 9 O	-0.19855003
-0.259276	C \ O	-0.19855003
-1.6084849	C C n	-0.20893356
-1.5957004	) C n	-0.19403923
-0.8141474	N c n	-0.21245067
-0.69298905	C c n	-0.35804376
-0.7965489	c c n	-0.38286552
-0.8431415	6 c n	-0.19855003
-0.9103175	) c n	-0.20893356
-0.64913285	= c n	-0.19855003
-0.9680802	O c n	-0.19855003
-1.0124584	n c n	-0.19855003
-0.5345127	F c n	-0.19855003
-0.5345127	%10 c n	-0.19855003
-0.95790875	[nH] c n	-0.19855003
-0.57636464	s c n	-0.19403923
-0.64913285	o c n	-0.19855003
-1.5258913	c 6 n	-0.19855003
-1.16697	C ) n	-0.19553764
-1.3073356	6 ) n	-0.19855003
-1.4189663	) ) n	-0.19403923
-1.2789981	O ) n	-0.19855003
-1.0369741	F ) n	-0.19855003
-1.3806572	5 ) n	-0.19855003
-0.95925784	Cl ) n	-0.19855003
-0.53764766	C n n	-0.19553764
-1.082229	c n n	-0.19674006
-1.0987401	) n n	-0.19855003
-0.7078076	n n n	-0.20893356
-1.0981004	c [nH] n	-0.19855003
-0.977408	) [nH] n	-0.19855003
-0.98868144	c o n	-0.19855003
-1.9810383	C C 3	-0.1962888
-1.2201232	C [C@H] 3	-0.19855003
-0.86757773	[C@@H] [C@H] 3	-0.19855003
-1.419804	6 C F	-0.19855003
-1.6520138	) C F	-0.19403923
-0.8407915	F C F	-0.19855003
-1.5539647	c c F	-0.3373894
-1.3025334	c 6 F	-0.19553764
-1.3899882	6 ) F	-0.19553764
-1.5786139	) ) F	-0.20499216
-0.8027771	F ) F	-0.20893356
-0.6074034	C %10 F	-0.19855003
-1.4301816	C N 7	-0.19855003
-0.6611003	[C@@H] N 7	-0.19855003
-1.8984071	C C 7	-0.20893356
-1.6447651	c n 7	-0.19855003
-2.2104342	<s> N [C@@H]	-0.19855003
-1.6245037	C N [C@@H]	-0.19855003
-1.3260132	N C [C@@H]	-0.19855003
-1.5254961	C C [C@@H]	-0.19674006
-1.4380201	= C [C@@H]	-0.19855003
-1.4809078	O C [C@@H]	-0.19855003
-0.8174508	[NH2+] C [C@@H]	-0.19855003
-1.540892	c 6 [C@@H]	-0.19855003
-1.6028496	6 ) [C@@H]	-0.19855003
-1.6469805	) ) [C@@H]	-0.19855003
-1.5393485	O ) [C@@H]	-0.19855003
-1.5617645	C O [C@@H]	-0.19855003
-0.61065364	N [C@@H] [C@@H]	-0.19855003
-0.61065364	O [C@@H] [C@@H]	-0.19855003
-1.9314175	<s> N [C@H]	-0.19403923
-1.3546358	C N [C@H]	-0.19403923
-1.4106557	) N [C@H]	-0.19855003
-2.1411202	<s> C [C@H]	-0.19403923
-1.4007449	N C [C@H]	-0.19855003
-1.5343533	C C [C@H]	-0.19553764
-1.3999648	) C [C@H]	-0.19403923
-1.1099116	= C [C@H]	-0.19855003
-1.3242518	O C [C@H]	-0.19855003
-1.047015	[C@@H] C [C@H]	-0.19855003
-1.3060462	5 C [C@H]	-0.19855003
-0.7727633	Cl C [C@H]	-0.19855003
-1.5258913	c 6 [C@H]	-0.19855003
-1.6471586	6 ) [C@H]	-0.19855003
-1.5763689	O ) [C@H]	-0.19855003
-2.633692	<s> O [C@H]	-0.19855003
-1.3897545	C O [C@H]	-0.19855003
-0.4765131	[C@H] O [C@H]	-0.19553764
-0.74694026	C [C@@H] [C@H]	-0.19553764
-0.32870653	6 [C@@H] [C@H]	-0.19855003
-0.57531714	[C@@H] [C@@H] [C@H]	-0.19855003
-1.531103	c 5 [C@H]	-0.19855003
-1.262833	C N 5	-0.19674006
-0.7783707	c N 5	-0.19855003
-1.3689916	) N 5	-0.19855003
-1.4797225	N C 5	-0.19855003
-1.4703774	C C 5	-0.26008606
-1.3016988	c C 5	-0.19855003
-1.6122032	) C 5	-0.19855003
-1.3605415	= C 5	-0.19855003
-1.3623446	[C@H] C 5	-0.19855003
-1.1739749	N c 5	-0.19855003
-1.0281014	c c 5	-0.38286552
-1.0911473	O c 5	-0.19855003
-1.03465	n c 5	-0.19516255
-0.9141124	[nH] c 5	-0.19674006
-0.9015055	s c 5	-0.19855003
-0.73802215	o c 5	-0.19855003
-1.213144	C O 5	-0.19403923
-1.0331618	c O 5	-0.19855003
-0.8379427	c n 5	-0.24685994
-1.1775378	) n 5	-0.19855003
-0.8244746	n n 5	-0.19553764
-1.1471033	C [C@@H] 5	-0.19855003
-0.9028028	C [C@H] 5	-0.21245067
-0.8396903	[C@@H] [C@H] 5	-0.19855003
-0.259276	= [S@] 5	-0.19855003
-0.80089694	c [nH] 5	-0.20499216
-0.9577316	) [nH] 5	-0.19855003
-0.49490958	c s 5	-0.19403923
-0.64596725	c o 5	-0.19403923
-0.27131006	n o 5	-0.19855003
-0.45941308	= [S@@] 5	-0.19855003
-1.623593	N C 4	-0.19855003
-1.9977139	C C 4	-0.19855003
-1.8184282	) C 4	-0.19855003
-0.8334254	[NH2+] C 4	-0.19855003
-1.2210255	C [C@@H] 4	-0.19855003
-1.9237126	) C Cl	-0.19855003
-1.5681548	5 C Cl	-0.19855003
-1.3831494	c c Cl	-0.4342994
-1.1839147	5 c Cl	-0.19855003
-1.3583137	C 6 Cl	-0.19855003
-1.2365454	c 6 Cl	-0.19403923
-1.6028496	6 ) Cl	-0.19855003
-1.5786139	) ) Cl	-0.20893356
-1.1142349	5 ) Cl	-0.20499216
-1.5411962	c 5 Cl	-0.19855003
-1.9600284	C C %10	-0.19855003
-2.0359993	c c %10	-0.19855003
-1.5630904	) c %10	-0.19855003
-1.3570696	) n %10	-0.19855003
-1.2057679	C [C@@H] %10	-0.19855003
-0.92055476	[C@@H] [C@H] %10	-0.19855003
-1.6988628	6 ) [S@]	-0.19855003
-1.9496552	) ) [S@]	-0.19855003
-0.9407867	N = [S@]	-0.19855003
-1.0809705	C N S	-0.3373894
-1.3935075	) N S	-0.19855003
-0.3619293	5 N S	-0.19855003
-1.6239454	<s> C S	-0.45197162
-1.7248546	C C S	-0.19553764
-1.4763641	) C S	-0.21245067
-1.4189053	= C S	-0.19855003
-0.81262296	F C S	-0.19855003
-1.4973603	c 6 S	-0.19855003
-1.3123367	6 ) S	-0.19403923
-1.558345	) ) S	-0.19403923
-1.435799	O ) S	-0.19855003
-1.3518206	5 ) S	-0.19403923
-0.8137497	O = S	-0.19855003
-1.2305588	) O S	-0.19855003
-0.64372987	9 O S	-0.19855003
-1.2067971	c 5 S	-0.19403923
-1.1406238	n 5 S	-0.19855003
-0.9534024	C / S	-0.19855003
-1.2390034	N c [nH]	-0.19855003
-0.9966503	C c [nH]	-0.3373894
-1.1869278	c c [nH]	-0.26842937
-1.1434088	) c [nH]	-0.19553764
-0.7665182	= c [nH]	-0.19855003
-1.3043525	n c [nH]	-0.19855003
-1.3114401	c 6 [nH]	-0.19855003
-1.2851006	6 ) [nH]	-0.19403923
-1.6671934	) ) [nH]	-0.19855003
-1.4008263	O ) [nH]	-0.19855003
-1.5059853	5 ) [nH]	-0.19855003
-1.0238698	Cl ) [nH]	-0.19855003
-1.3706163	c n [nH]	-0.19403923
-1.2828507	c 5 [nH]	-0.19855003
-1.4087836	N c s	-0.19855003
-1.2668296	c c s	-0.3373894
-1.5405624	n c s	-0.19855003
-1.4462445	6 ) s	-0.19403923
-1.9496552	) ) s	-0.19855003
-1.3471068	N c o	-0.19855003
-1.4643699	c c o	-0.19493765
-1.4565207	) c o	-0.19855003
-1.450467	n c o	-0.19855003
-1.6408988	c n o	-0.19855003
-2.1608732	c c 9	-0.19855003
-0.64345497	6 [nH] 9	-0.19855003
-1.8905302	C C [NH+]	-0.19403923
-1.465966	c C [NH+]	-0.19855003
-1.902705	) C [NH+]	-0.19855003
-1.5836983	c 6 [N+]	-0.19855003
-1.7127366	) ) [N+]	-0.19403923
-1.7333757	5 ) [N+]	-0.19855003
-1.6711959	O ) [O-]	-0.19855003
-1.5892781	c 6 Br	-0.19855003
-1.9553046	) ) Br	-0.19855003
-1.7376112	5 ) Br	-0.19855003
-1.6327866	= C [C-]	-0.19855003
-1.7720474	6 ) [C-]	-0.19855003
-1.6711959	O ) [CH-]	-0.19855003
-1.6083624	) N /	-0.19855003
-1.0379789	# C /	-0.19855003
-2.0021431	C C /	-0.19855003
-1.8222702	) C /	-0.19855003
-1.249903	= C /	-0.19855003
-1.6404	6 ) /	-0.19855003
-1.8835984	) ) /	-0.19855003
-1.3195357	O ) /	-0.19403923
-2.2424078	C C [N@@H+]	-0.19855003
-1.6365638	[C@H] C [NH3+]	-0.19855003
-1.7779139	6 ) [NH3+]	-0.19855003
-0.93954945	N = [S@@]	-0.19855003
-1.6327866	= C \	-0.19855003
-2.03415	) ) \	-0.19855003
-0.64253896	5 [nH] 8	-0.19855003
-2.1784933	C C [NH2+]	-0.19855003
-1.9705799	) C [NH2+]	-0.19855003
-1.642655	C ) [NH2+]	-0.19855003
-1.6957616	C = [NH2+]	-0.19855003
-1.9755402	C C [C@@]	-0.19403923

\4-grams:
-0.47662193	C # N </s>	0
-1.331811	) C N </s>	0
-0.58138776	N ) N </s>	0
-0.7673457	6 ) N </s>	0
-0.82512796	) ) N </s>	0
-0.904524	O ) N </s>	0
-1.0623796	# C C </s>	0
-1.51436	) C C </s>	0
-1.2285606	5 C C </s>	0
-1.019261	c 6 C </s>	0
-0.6240405	N ) C </s>	0
-0.4936488	C ) C </s>	0
-1.0152408	6 ) C </s>	0
-1.0643145	) ) C </s>	0
-0.783464	O ) C </s>	0
-0.83629036	5 ) C </s>	0
-0.80029184	6 O C </s>	0
-0.9357952	) O C </s>	0
-0.7987369	N C 6 </s>	0
-0.57792294	C C 6 </s>	0
-1.0291249	c c 6 </s>	0
-0.98423487	n c 6 </s>	0
-0.7055038	c n 6 </s>	0
-0.18063796	) [nH] 6 </s>	0
-1.0145808	) C O </s>	0
-0.73733395	) ) O </s>	0
-0.55883557	O ) O </s>	0
-1.3284365	C = O </s>	0
-0.7327217	6 = O </s>	0
-0.17308551	[C@@H] 4 O </s>	0
-0.44471428	c 9 O </s>	0
-0.6517174	C C 3 </s>	0
-0.37747622	c 6 F </s>	0
-0.5288046	6 ) F </s>	0
-0.3957639	) ) F </s>	0
-0.58488816	F ) F </s>	0
-0.58319396	C C 7 </s>	0
-0.6496035	C N 5 </s>	0
-0.47686556	) N 5 </s>	0
-0.61841226	C C 5 </s>	0
-0.50544345	) C 5 </s>	0
-0.50544345	= C 5 </s>	0
-0.8576224	c c 5 </s>	0
-0.6600152	n c 5 </s>	0
-0.6954929	[nH] c 5 </s>	0
-0.50702435	s c 5 </s>	0
-0.2487968	C O 5 </s>	0
-0.7809738	c n 5 </s>	0
-0.41521493	c [nH] 5 </s>	0
-0.41596302	c s 5 </s>	0
-0.47323754	c o 5 </s>	0
-0.53834194	C C 4 </s>	0
-0.37481	) C Cl </s>	0
-0.37481	5 C Cl </s>	0
-0.4379083	c 6 Cl </s>	0
-0.38565877	6 ) Cl </s>	0
-0.2900725	) ) Cl </s>	0
-0.4332343	5 ) Cl </s>	0
-0.13849999	c 5 Cl </s>	0
-0.5930292	O ) S </s>	0
-0.35259092	c c 9 </s>	0
-0.12138327	6 [nH] 9 </s>	0
-0.3914768	O ) [O-] </s>	0
-0.22068173	) ) Br </s>	0
-0.37866977	5 ) Br </s>	0
-0.0973375	O ) [CH-] </s>	0
-0.5439919	) C # N	-0.1640906
-1.2400354	) N C N	-0.15214983
-0.49301794	<s> C C N	-1.3807962
-1.011162	N C C N	-0.18213871
-0.79626656	C C C N	-0.28742945
-0.67595756	c C C N	-0.19794728
-0.9692343	6 C C N	-0.15214986
-0.77136034	) C C N	-0.28774893
-0.9855329	= C C N	-0.15214983
-0.6967107	O C C N	-0.19975813
-0.94767827	[C@H] C C N	-0.15214983
-0.8050121	5 C C N	-0.1640906
-0.96603745	c c C N	-0.15214983
-0.77014995	) c C N	-0.15214983
-0.77118784	n c C N	-0.15214983
-1.0779836	c 6 C N	-0.15214983
-0.9567087	6 ) C N	-0.17018639
-1.1272873	) ) C N	-0.1911016
-1.079182	O ) C N	-0.15214986
-0.36144328	F ) C N	-0.15214983
-1.1462809	5 ) C N	-0.15214983
-0.7202285	4 ) C N	-0.15214983
-0.7249694	N = C N	-0.15214983
-1.0294039	C = C N	-0.15214983
-0.8555695	O = C N	-0.15214983
-0.3156209	) n C N	-0.15214983
-0.39265305	C 3 C N	-0.15214983
-0.2303528	[C@H] 3 C N	-0.15214983
-0.62922937	) [C@@H] C N	-0.15214983
-0.3199519	O [C@@H] C N	-0.15214983
-0.88047713	) [C@H] C N	-0.15214983
-0.37137917	5 [C@H] C N	-0.15214983
-0.62018526	C 5 C N	-0.15214983
-1.0617659	c 5 C N	-0.15214983
-1.5787432	C c c N	-0.15214983
-1.7317219	c c c N	-0.17018639
-1.722564	) c c N	-0.15214983
-1.2253436	C C 6 N	-0.17018639
-1.1853784	c c 6 N	-0.21252282
-0.72849905	= N ) N	-0.15214983
-1.2097174	c 6 ) N	-0.15214983
-1.0333674	n 6 ) N	-0.15214983
-1.1837932	C ) ) N	-0.15214983
-1.0165939	6 ) ) N	-0.20771621
-1.2970177	) ) ) N	-0.1610745
-1.1749249	O ) ) N	-0.15214983
-1.2168823	5 ) ) N	-0.15214983
-1.3014531	= O ) N	-0.1640906
-0.9930886	n 5 ) N	-0.15214983
-1.033445	s 5 ) N	-0.15214983
-0.9441502	o 5 ) N	-0.15214983
-0.18766128	= [NH2+] ) N	-0.15214983
-1.0560161	N C = N	-0.17018639
-1.2556719	C C = N	-0.17018639
-1.1414446	) C = N	-0.15214983
-0.4755482	O ) = N	-0.15214983
-0.6015413	) ) [C@@H] N	-0.15214983
-0.50660586	O ) [C@@H] N	-0.15214983
-0.27763876	O [C@@H] [C@@H] N	-0.15214983
-0.49303293	[C@H] O [C@H] N	-0.17018639
-0.6683431	= C 5 N	-0.15214983
-0.2940922	# C / N	-0.15214983
-0.2940922	C C / N	-0.15214983
-0.6329197	= C / N	-0.15214983
-0.14489399	) ) \ N	-0.15214983
-2.120783	<s> C C #	-0.17018639
-1.5645646	N C C #	-0.15214983
-1.7536393	C C C #	-0.15214983
-1.2014368	5 C C #	-0.15214983
-1.4039992	6 ) C #	-0.15214983
-1.4181619	) ) C #	-0.20771621
-1.4424192	O ) C #	-0.15214983
-0.1996972	<s> Br C #	-0.15214983
-0.15927538	<s> N N C	-0.17018639
-0.036500186	<s> C N C	-0.7717874
-0.21657819	N C N C	-0.15214983
-0.451016	C C N C	-0.39465547
-0.31669903	c C N C	-0.15214986
-0.3727779	6 C N C	-0.15214986
-0.27939522	) C N C	-0.25114256
-0.4128163	= C N C	-0.15214986
-0.21657819	n C N C	-0.15214983
-0.3727779	3 C N C	-0.15214983
-0.3727779	[C@@H] C N C	-0.15214983
-0.21951981	[C@H] C N C	-0.15214983
-0.3727779	5 C N C	-0.15214983
-0.4702521	c c N C	-0.1640906
-0.20259151	C 6 N C	-0.15214983
-0.35287413	c 6 N C	-0.15214983
-0.52462775	6 ) N C	-0.1610745
-0.5981025	) ) N C	-0.24909355
-0.7854653	O ) N C	-0.15214983
-0.3921329	5 ) N C	-0.23466823
-0.5574218	C = N C	-0.15214983
-0.2495143	) [C@@H] N C	-0.15214983
-0.0035648774	<s> N # C	-1.2958559
-0.02100644	<s> C # C	-0.9336382
-0.084635705	C C # C	-0.35960695
-0.24144778	) C # C	-0.1640906
-0.12134528	Br C # C	-0.15214983
-0.5460266	<s> N C C	-0.1911016
-0.57866514	C N C C	-0.32754266
-0.4904392	c N C C	-0.15214983
-0.5799052	6 N C C	-0.15214983
-0.6645076	) N C C	-0.18846515
-0.4904392	[C@@H] N C C	-0.15214983
-0.5411701	N # C C	-0.15214983
-0.6935427	C # C C	-0.15214986
-1.0863173	<s> C C C	-0.35082552
-0.73079914	N C C C	-0.24531913
-0.6280292	# C C C	-0.1640906
-0.6329139	C C C C	-0.37703592
-0.7441888	c C C C	-0.15214983
-0.76633704	6 C C C	-0.1610745
-0.79759794	) C C C	-0.22383432
-0.78668296	= C C C	-0.15807916
-0.6534037	O C C C	-0.18213871
-0.74047047	[C@H] C C C	-0.1640906
-0.8630133	5 C C C	-0.15214983
-0.3392175	[NH3+] C C C	-0.15214983
-0.69636196	c c C C	-0.15214983
-0.49190265	) c C C	-0.17018639
-0.63261944	n c C C	-0.15214983
-0.2939545	5 c C C	-0.15214983
-0.63857293	N 6 C C	-0.15214983
-0.8515445	c 6 C C	-0.15214983
-0.32447898	[C@H] 6 C C	-0.15214983
-0.5211877	N ) C C	-0.15214983
-0.97372127	C ) C C	-0.15214983
-0.73072034	6 ) C C	-0.16038147
-0.61808443	) ) C C	-0.3107533
-0.765274	O ) C C	-0.15569769
-0.6131953	5 ) C C	-0.16651867
-0.6197616	4 ) C C	-0.15214983
-0.3145837	%10 ) C C	-0.15214983
-0.3145837	[NH3+] ) C C	-0.15214983
-0.5428049	C = C C	-0.23718975
-0.8130956	O = C C	-0.15214983
-0.31481484	<s> O C C	-0.853899
-0.37287992	C O C C	-0.18128806
-0.64042175	c O C C	-0.15214983
-0.5859595	6 O C C	-0.15214983
-0.66474384	) O C C	-0.15214986
-0.74505746	C [C@@H] C C	-0.15214983
-0.6780941	N [C@H] C C	-0.15214983
-0.635296	C [C@H] C C	-0.15807916
-0.7933787	) [C@H] C C	-0.15214983
-0.6867932	N 5 C C	-0.15214983
-0.745033	c 5 C C	-0.1610745
-0.8047575	n 5 C C	-0.15214983
-0.016434198	<s> Cl C C	-1.676625
-0.4952113	C S C C	-0.15214983
-0.51470935	C [NH+] C C	-0.15214983
-0.16894779	C [N@@H+] C C	-0.15214983
-0.16894779	<s> [NH3+] C C	-0.15214983
-0.4912095	C [NH2+] C C	-0.15214983
-0.43701226	C [C@@] C C	-0.15214983
-1.120132	N c c C	-0.15214986
-1.4028457	C c c C	-0.15214983
-1.13658	c c c C	-0.19083892
-1.4631543	) c c C	-0.15214983
-1.20125	5 c c C	-0.15214983
-1.0891787	6 ) c C	-0.15214986
-1.0181916	) ) c C	-0.17018639
-0.83222795	C n c C	-0.15214983
-1.2879859	c n c C	-0.15214983
-0.75093895	6 n c C	-0.15214983
-0.28246236	n 7 c C	-0.15214983
-0.97104955	c 5 c C	-0.15214983
-0.47332793	C N 6 C	-0.15214983
-0.47011843	c N 6 C	-0.15214983
-0.784633	c C 6 C	-0.15214983
-0.9221692	c c 6 C	-0.17755586
-0.88192946	n c 6 C	-0.15214986
-0.7807991	c n 6 C	-0.15214983
-0.4241277	C [C@@H] 6 C	-0.15214983
-0.16195002	C [C@H] 6 C	-0.15214983
-0.48787773	= N ) C	-0.15214983
-0.2581958	N C ) C	-0.1640906
-0.27348024	C C ) C	-0.3886141
-0.50423795	6 C ) C	-0.15214983
-0.5486043	) C ) C	-0.21252282
-0.50607127	= C ) C	-0.15214983
-0.25456646	[C@H] C ) C	-0.15214983
-0.25456646	[NH+] C ) C	-0.15214983
-0.67781746	C 6 ) C	-0.22187579
-1.0579174	c 6 ) C	-0.15214983
-0.92640907	n 6 ) C	-0.15214983
-0.7690182	N ) ) C	-0.15214983
-0.89077514	C ) ) C	-0.16560653
-0.8042955	6 ) ) C	-0.17384765
-0.7734482	) ) ) C	-0.20940223
-0.7404627	O ) ) C	-0.15927482
-0.63244045	3 ) ) C	-0.15214983
-0.5312618	7 ) ) C	-0.15214986
-0.77252686	5 ) ) C	-0.19145207
-0.5312618	[O-] ) ) C	-0.15214983
-0.32081658	8 ) ) C	-0.15214983
-0.6622765	C O ) C	-0.15807916
-0.8224365	) O ) C	-0.15214983
-0.81938493	= O ) C	-0.1842472
-0.33192286	[C@H] O ) C	-0.15214983
-0.69168353	C F ) C	-0.15214983
-0.5111806	C 5 ) C	-0.1640906
-0.72725785	c 5 ) C	-0.15807916
-0.6250773	n 5 ) C	-0.15214986
-0.75021815	[nH] 5 ) C	-0.15214986
-0.77314806	s 5 ) C	-0.15214986
-0.7211307	o 5 ) C	-0.15214983
-0.4445108	C 4 ) C	-0.1610745
-0.44275755	C %10 ) C	-0.15214983
-0.2642045	C [NH3+] ) C	-0.15214983
-0.16519673	<s> N = C	-0.35960695
-0.24840166	/ N = C	-0.15214983
-0.034773294	<s> C = C	-0.6326082
-0.74029523	N C = C	-0.15214983
-0.5556484	C C = C	-0.1640906
-0.37748945	c C = C	-0.15214983
-0.37748945	6 C = C	-0.15214983
-0.57712215	) C = C	-0.17018639
-0.44397247	[C@@H] C = C	-0.15214983
-0.44397247	[C@H] C = C	-0.15214983
-0.73520684	5 C = C	-0.15214983
-0.22285968	[C-] C = C	-0.15214983
-0.28365898	/ C = C	-0.23466823
-0.7675055	[nH] c = C	-0.15214983
-0.011776584	<s> O = C	-1.4958068
-1.1059866	<s> C O C	-0.15214986
-0.5318819	C C O C	-0.15927482
-0.42628962	6 C O C	-0.15214983
-0.6111589	) C O C	-0.15214983
-0.36370945	O C O C	-0.15214983
-0.42628962	[C@H] C O C	-0.15214983
-0.25321847	5 C O C	-0.15214983
-0.5915291	c c O C	-0.19975813
-0.28948507	n c O C	-0.15214983
-0.65064174	c 6 O C	-0.15214986
-0.44856957	6 ) O C	-0.1640906
-0.7850743	) ) O C	-0.15807916
-0.683397	O ) O C	-0.15214983
-1.404918	c c n C	-0.15214983
-0.45287538	c 6 n C	-0.15214983
-0.63414735	6 ) n C	-0.15214983
-0.56343997	C C 3 C	-0.15214983
-0.2288555	[C@@H] [C@H] 3 C	-0.15214983
-0.3684435	C N 7 C	-0.15214983
-0.21354854	[C@@H] N 7 C	-0.15214983
-0.2405975	C N [C@@H] C	-0.15214983
-0.5590823	N C [C@@H] C	-0.15214983
-0.5251056	C C [C@@H] C	-0.15214983
-0.28347313	O C [C@@H] C	-0.15214983
-0.24667722	6 ) [C@@H] C	-0.15214983
-0.49209207	) ) [C@@H] C	-0.15214983
-0.41658127	O ) [C@@H] C	-0.15214983
-0.40762058	C O [C@@H] C	-0.15214983
-0.16731292	C N [C@H] C	-0.15214983
-0.16520904	) N [C@H] C	-0.15214983
-0.29458746	C C [C@H] C	-0.15214983
-0.20169204	) C [C@H] C	-0.1610745
-0.411481	= C [C@H] C	-0.15214983
-0.19904765	O C [C@H] C	-0.15214983
-0.19904765	Cl C [C@H] C	-0.15214983
-0.12156845	c 6 [C@H] C	-0.15214983
-0.11006852	6 ) [C@H] C	-0.15214983
-0.11006852	O ) [C@H] C	-0.15214983
-0.1956482	C O [C@H] C	-0.15214983
-0.40387398	[C@H] O [C@H] C	-0.15214983
-0.35904098	C [C@@H] [C@H] C	-0.15214983
-0.12156845	c 5 [C@H] C	-0.15214983
-0.5506373	C N 5 C	-0.15214983
-0.2978648	c N 5 C	-0.15214983
-0.9711518	C C 5 C	-0.15214983
-1.0320414	c c 5 C	-0.15214986
-0.68556756	n c 5 C	-0.15214986
-0.72318727	[nH] c 5 C	-0.15214983
-0.31675714	o c 5 C	-0.15214983
-0.8158306	c n 5 C	-0.15214983
-0.16575824	C [C@@H] 5 C	-0.15214983
-0.2564538	[C@@H] [C@H] 5 C	-0.15214983
-0.17355394	[C@@H] [C@H] %10 C	-0.15214983
-0.6185164	C C S C	-0.15214983
-0.3146995	F C S C	-0.15214983
-0.096565664	C C [NH+] C	-0.17018639
-0.09544968	c C [NH+] C	-0.15214983
-0.09544968	) C [NH+] C	-0.15214983
-0.08316321	= C [C-] C	-0.15214983
-0.08316321	6 ) [C-] C	-0.15214983
-0.1310536	) N / C	-0.15214983
-0.24886738	) C / C	-0.15214983
-0.53968805	= C / C	-0.15214983
-0.1370762	6 ) / C	-0.15214983
-0.1370762	) ) / C	-0.15214983
-0.13876227	O ) / C	-0.15214983
-0.09145142	C C [N@@H+] C	-0.15214983
-0.104648225	C C [NH2+] C	-0.15214983
-0.104648225	) C [NH2+] C	-0.15214983
-0.115503006	C ) [NH2+] C	-0.15214983
-0.09251549	C C [C@@] C	-0.15214983
-1.6013798	<s> C N c	-0.15214983
-0.6384277	C C N c	-0.30024606
-0.5573505	6 C N c	-0.15214983
-0.8870238	) C N c	-0.1640906
-0.6224145	= C N c	-0.1610745
-0.85734355	) ) N c	-0.20771621
-0.94719607	O ) N c	-0.15214986
-0.16970368	O [C@H] N c	-0.15214983
-0.5163986	C / N c	-0.15214983
-0.16970368	) \ N c	-0.15214983
-1.1144251	C N C c	-0.19975813
-0.9709372	) N C c	-0.1640906
-0.3731442	= N C c	-0.15214983
-0.56143266	N # C c	-0.15214983
-0.258839	C # C c	-0.28689745
-0.72335476	<s> C C c	-1.155487
-0.99294955	N C C c	-0.23466823
-0.8391804	# C C c	-0.15214983
-0.9783792	C C C c	-0.45651698
-0.84072626	) C C c	-0.2648941
-0.9660788	= C C c	-0.15214983
-0.35846046	[C@@H] C C c	-0.15214983
-0.79109883	[C@H] C C c	-0.17018639
-0.9311255	5 C C c	-0.15214983
-0.35846046	[C@@] C C c	-0.15214983
-0.89869094	c 6 C c	-0.15214983
-0.33788323	n 6 C c	-0.15214983
-0.33788323	[C@@H] 6 C c	-0.15214983
-1.1327715	6 ) C c	-0.15214983
-0.97280276	) ) C c	-0.35384423
-1.1657403	O ) C c	-0.15214983
-1.2312262	5 ) C c	-0.15214983
-1.0263526	C = C c	-0.15214983
-0.85313475	O = C c	-0.15214983
-0.60283875	<s> O C c	-0.96166694
-0.99595815	C O C c	-0.15214983
-0.72613865	c O C c	-0.15214983
-0.86535925	) O C c	-0.15214983
-0.30793312	c n C c	-0.15214983
-1.2870774	<s> F C c	-0.15214983
-0.9241236	C [C@H] C c	-0.15214983
-0.8312505	) [C@H] C c	-0.15214983
-0.58911264	O [C@H] C c	-0.15214983
-0.71254456	N 5 C c	-0.15214983
-0.8814098	c 5 C c	-0.1610745
-0.8388686	n 5 C c	-0.15214983
-1.9377427	<s> Cl C c	-0.15214983
-0.1780424	[C@H] %10 C c	-0.15214983
-0.2861215	<s> N c c	-0.17018639
-0.3083729	C N c c	-0.28294727
-0.3749354	) N c c	-0.16288163
-0.19228715	[C@H] N c c	-0.15214983
-0.19228715	/ N c c	-0.15214983
-0.19228715	\ N c c	-0.15214983
-0.06331874	<s> C c c	-0.53569824
-0.32911772	N C c c	-0.1610745
-0.27022392	# C c c	-0.1640906
-0.13329086	C C c c	-0.2848942
-0.1374711	6 C c c	-0.21252282
-0.18799876	) C c c	-0.22421311
-0.22505948	= C c c	-0.15214983
-0.098814234	O C c c	-0.35960695
-0.14276314	n C c c	-0.15214983
-0.14276314	F C c c	-0.15214983
-0.22505948	[C@H] C c c	-0.1640906
-0.2377991	5 C c c	-0.1640906
-0.14276314	Cl C c c	-0.15214983
-0.14276314	%10 C c c	-0.15214983
-0.4385591	N c c c	-0.25592968
-0.3530462	C c c c	-0.4459351
-0.42112276	c c c c	-0.54340184
-0.38781866	6 c c c	-0.2583989
-0.49918377	) c c c	-0.40750763
-0.25240582	= c c c	-0.15214983
-0.2695933	O c c c	-0.28294727
-0.45374876	n c c c	-0.24909355
-0.25240582	3 c c c	-0.15214983
-0.25240582	F c c c	-0.15214983
-0.25240582	7 c c c	-0.15214983
-0.25240582	[C@@H] c c c	-0.15214983
-0.42507964	[C@H] c c c	-0.15214983
-0.44958913	5 c c c	-0.2789394
-0.25240582	Cl c c c	-0.15214986
-0.25240582	S c c c	-0.15214983
-0.727737	[nH] c c c	-0.15214983
-0.5003795	s c c c	-0.15214983
-0.25240582	Br c c c	-0.15214983
-0.25240582	/ c c c	-0.15214983
-0.25240582	I c c c	-0.15214983
-0.16514322	N 6 c c	-0.15214983
-0.16514322	C 6 c c	-0.17018639
-0.29942256	c 6 c c	-0.15927482
-0.16514322	n 6 c c	-0.15214983
-0.19493258	C ) c c	-0.15214983
-0.22315176	6 ) c c	-0.2777849
-0.25852886	) ) c c	-0.29298827
-0.3762907	O ) c c	-0.1610745
-0.19239783	F ) c c	-0.15214986
-0.18905722	5 ) c c	-0.30943283
-0.19239783	Cl ) c c	-0.15214986
-0.19239783	%10 ) c c	-0.15214986
-0.4984621	O = c c	-0.15214983
-0.052416377	<s> O c c	-0.53569824
-0.16107209	C O c c	-0.34588617
-0.116216	c O c c	-0.15214983
-0.11760942	6 O c c	-0.17018639
-0.116216	) O c c	-0.15214983
-0.116216	5 O c c	-0.15214983
-0.40529257	C n c c	-0.1640906
-0.41928512	c n c c	-0.31536064
-0.47582772	6 n c c	-0.15214983
-0.19266011	) n c c	-0.34588617
-0.44621786	n n c c	-0.15214983
-0.23735945	o n c c	-0.15214983
-0.13457963	[C@H] 3 c c	-0.15214983
-0.10360505	<s> F c c	-0.66063696
-0.21834372	N 7 c c	-0.15214983
-0.13457963	) [C@@H] c c	-0.15214983
-0.13622989	C [C@H] c c	-0.1640906
-0.13568158	N 5 c c	-0.15214983
-0.13568158	C 5 c c	-0.15214983
-0.18156861	c 5 c c	-0.1600737
-0.13069335	n 5 c c	-0.23466823
-0.13568158	[C@H] 5 c c	-0.15214983
-0.008708176	<s> Cl c c	-1.3486116
-0.21834372	n %10 c c	-0.15214983
-0.13457963	C S c c	-0.15214983
-0.4163244	c [nH] c c	-0.15214986
-0.34216034	6 [nH] c c	-0.15214983
-0.1910608	) [nH] c c	-0.35960695
-0.34216034	n [nH] c c	-0.15214983
-0.19498444	5 [nH] c c	-0.15214983
-0.39933735	c s c c	-0.15214983
-0.3969803	) s c c	-0.15214983
-0.41331953	c o c c	-0.15214986
-0.07306269	<s> Br c c	-0.45651698
-0.13457963	C / c c	-0.15214983
-0.13457963	<s> I c c	-0.15214983
-0.64571756	C N 6 c	-0.15214983
-0.3005159	) N 6 c	-0.15214983
-1.0633407	C C 6 c	-0.17018639
-0.35801724	O C 6 c	-0.15214983
-0.36695078	N c 6 c	-0.15214983
-0.8803189	c c 6 c	-0.2648941
-0.7057875	c n 6 c	-0.15214983
-0.2995352	) n 6 c	-0.15214983
-0.63756424	c C ) c	-0.17018639
-0.3802521	n C ) c	-0.15214983
-0.5533748	N 6 ) c	-0.15214983
-0.62778044	C 6 ) c	-0.35960695
-0.9285128	c 6 ) c	-0.15214983
-0.8271163	n 6 ) c	-0.15214983
-0.33430374	o 6 ) c	-0.15214983
-0.68755543	C ) ) c	-0.45651698
-0.9115892	6 ) ) c	-0.20771621
-0.97078466	) ) ) c	-0.24199145
-0.9302201	O ) ) c	-0.15214983
-0.7053361	F ) ) c	-0.15214983
-1.1028347	5 ) ) c	-0.15214983
-0.7845194	Cl ) ) c	-0.15214983
-0.37882838	c O ) c	-0.1640906
-0.8259863	= O ) c	-0.34588617
-0.595799	c F ) c	-0.15214983
-0.8263403	C 5 ) c	-0.15214983
-0.90261203	c 5 ) c	-0.15214983
-0.3410038	O 5 ) c	-0.15214983
-0.8222735	[nH] 5 ) c	-0.15214983
-0.8491844	s 5 ) c	-0.15214983
-0.58094317	c Cl ) c	-0.17018639
-0.45547584	C %10 ) c	-0.15214983
-2.0768733	<s> O = c	-0.15214986
-0.065186	<s> C O c	-0.8714903
-0.6975472	C C O c	-0.15214983
-0.6179671	) C O c	-0.15214983
-0.2974203	= C O c	-0.15214983
-0.58418113	O C O c	-0.15214983
-0.88836277	c c O c	-0.15214983
-0.52846175	c 6 O c	-0.15214983
-0.26697153	[C@@H] 6 O c	-0.15214983
-0.87605506	) ) O c	-0.17018639
-0.16312426	C 5 O c	-0.15214983
-0.2832921	C C n c	-0.1640906
-0.37789103	) C n c	-0.15214983
-0.1706881	N c n c	-0.19975813
-0.20611958	C c n c	-0.30580288
-0.23416732	c c n c	-0.3933528
-0.3178765	6 c n c	-0.15214983
-0.23609531	) c n c	-0.23466823
-0.17754264	= c n c	-0.15214983
-0.17754264	O c n c	-0.15214986
-0.3178765	n c n c	-0.15214986
-0.17754264	F c n c	-0.15214983
-0.17754264	%10 c n c	-0.15214983
-0.3178765	[nH] c n c	-0.15214983
-0.3178765	o c n c	-0.15214983
-0.38461265	c 6 n c	-0.15214986
-0.23498005	C ) n c	-0.15214983
-0.28148377	6 ) n c	-0.15214983
-0.1527857	) ) n c	-0.15214983
-0.36523628	O ) n c	-0.15214983
-0.15089777	F ) n c	-0.15214983
-0.15089777	5 ) n c	-0.15214983
-0.15089777	Cl ) n c	-0.15214983
-0.5149148	C n n c	-0.15214983
-0.5915547	c n n c	-0.15214983
-0.32991076	n n n c	-0.1640906
-0.12640013	c [nH] n c	-0.15214983
-0.12640013	) [nH] n c	-0.15214983
-0.1398994	c o n c	-0.15214983
-0.26167262	C [C@H] 3 c	-0.15214983
-0.4491971	C N 7 c	-0.15214983
-0.1453576	c n 7 c	-0.15214983
-0.71519005	) ) [C@@H] c	-0.15214983
-0.3712048	<s> C [C@H] c	-0.17018639
-0.7288248	= C [C@H] c	-0.15214983
-0.81391877	C N 5 c	-0.15214983
-1.0132011	C C 5 c	-0.15214983
-0.50265366	c c 5 c	-0.37403855
-0.32630214	O c 5 c	-0.15214983
-0.8196178	n c 5 c	-0.15214983
-0.74805444	[nH] c 5 c	-0.15214983
-0.79782283	c n 5 c	-0.15214983
-0.29761302	) n 5 c	-0.15214983
-0.5845568	n n 5 c	-0.15214983
-0.25466037	C [C@H] 5 c	-0.23466823
-0.15788768	) n %10 c	-0.15214983
-0.15788768	C [C@@H] %10 c	-0.15214983
-1.0739788	<s> C S c	-0.15214983
-0.14276838	N c [nH] c	-0.15214983
-0.098817684	C c [nH] c	-0.21252282
-0.3511248	c c [nH] c	-0.22187579
-0.22506581	) c [nH] c	-0.15214983
-0.14276838	= c [nH] c	-0.15214983
-0.27053833	n c [nH] c	-0.15214983
-0.35972258	c 6 [nH] c	-0.15214983
-0.17596519	6 ) [nH] c	-0.17018639
-0.17372915	) ) [nH] c	-0.15214983
-0.17372915	5 ) [nH] c	-0.15214983
-0.31261712	Cl ) [nH] c	-0.15214983
-0.12707959	c n [nH] c	-0.15214983
-0.35972258	c 5 [nH] c	-0.15214983
-0.19487734	N c s c	-0.15214983
-0.22746062	c c s c	-0.2789394
-0.10765333	6 ) s c	-0.17018639
-0.10639279	) ) s c	-0.15214983
-0.3994361	N c o c	-0.15214983
-0.44239128	c c o c	-0.15214983
-0.23500936	) c o c	-0.15214983
-0.3994361	n c o c	-0.15214983
-0.75908196	= C / c	-0.15214983
-1.249996	C C N 6	-0.16651867
-0.8213421	c C N 6	-0.15214983
-0.70953673	c c N 6	-0.15214983
-1.1490242	O ) N 6	-0.15214983
-1.44905	C N C 6	-0.15214983
-1.2274826	) N C 6	-0.15214983
-1.2735211	N C C 6	-0.15214983
-1.3690219	C C C 6	-0.15214983
-1.3402048	) C C 6	-0.15214983
-1.0795588	= C C 6	-0.15214983
-1.0562919	O C C 6	-0.15214986
-0.38372773	S C C 6	-0.15214983
-0.38372773	[NH+] C C 6	-0.15214983
-0.38372773	[NH2+] C C 6	-0.15214983
-0.943274	c c C 6	-0.15214986
-0.836595	n c C 6	-0.15214983
-1.362636	C = C 6	-0.15214983
-1.3202362	C O C 6	-0.15214983
-0.37749365	N [C@@H] C 6	-0.15214983
-0.6860927	N [C@H] C 6	-0.15214983
-0.89080656	C [C@H] C 6	-0.15214983
-0.57320505	O [C@H] C 6	-0.15214983
-0.57320505	[C@@H] [C@H] C 6	-0.15214983
-1.256861	C N c 6	-0.15214983
-1.1124552	N C c 6	-0.15214983
-1.4890869	C c c 6	-0.17018639
-1.4944935	c c c 6	-0.2023946
-0.9455634	) c c 6	-0.2327094
-1.1997261	n c c 6	-0.15214983
-1.2373004	c n c 6	-0.16651867
-1.0068834	) n c 6	-0.17018639
-0.9272277	n n c 6	-0.15214983
-1.2283415	c c n 6	-0.1640906
-0.654887	n c n 6	-0.15214983
-0.87935996	O ) n 6	-0.15214983
-0.8851129	c n n 6	-0.15214983
-0.7847038	N C [C@@H] 6	-0.15214983
-0.66779846	N C [C@H] 6	-0.15214983
-0.6263422	O ) [nH] 6	-0.15214983
-0.8548731	c c o 6	-0.15214983
-0.45259824	C # N )	-0.15214983
-1.2553082	) C N )	-0.15214983
-0.51206994	c 6 N )	-0.15214983
-0.4755182	N ) N )	-0.15214983
-0.6132842	6 ) N )	-0.15214983
-0.72900856	) ) N )	-0.17018639
-0.7056082	O ) N )	-0.15214983
-0.6211244	5 ) N )	-0.15214983
-0.2856432	[NH2+] ) N )	-0.15214983
-0.325595	C = N )	-0.1640906
-0.22357842	) = N )	-0.15214983
-0.98234844	C N C )	-0.35960695
-1.1352135	) N C )	-0.15214983
-1.2776546	N C C )	-0.15214983
-1.293624	C C C )	-0.17018639
-1.0397727	c C C )	-0.15214983
-1.0620794	6 C C )	-0.15214983
-1.1679301	) C C )	-0.21252282
-1.0360752	[C@H] C C )	-0.15214983
-0.7429534	c c C )	-0.21252282
-0.7549114	n c C )	-0.15214983
-0.34579685	7 c C )	-0.15214983
-0.47965577	N 6 C )	-0.17018639
-0.33962724	C 6 C )	-0.15214983
-0.80527186	c 6 C )	-0.17018639
-0.4872163	C ) C )	-0.3886141
-0.98180056	6 ) C )	-0.15214983
-1.1542884	) ) C )	-0.23466823
-1.0171949	O ) C )	-0.15214983
-0.81842846	5 ) C )	-0.35960695
-1.0331209	C = C )	-0.1640906
-0.3644637	c = C )	-0.15214983
-0.80262595	c O C )	-0.15214983
-0.7255843	6 O C )	-0.15214983
-0.71136326	) O C )	-0.23466823
-0.30952075	6 n C )	-0.15214983
-0.18154155	N 7 C )	-0.17018639
-0.38113382	6 [C@H] C )	-0.15214983
-1.0338875	c 5 C )	-0.15214983
-0.8681652	n 5 C )	-0.15214983
-0.38971207	C [NH+] C )	-0.17018639
-0.7159234	) / C )	-0.15214983
-0.45624962	C [C@@] C )	-0.15214983
-0.63341594	C N 6 )	-0.15214983
-0.4900077	c N 6 )	-0.15214983
-0.45930102	N C 6 )	-0.15927482
-0.4793392	C C 6 )	-0.37403855
-0.45930102	c C 6 )	-0.1610745
-0.2731111	[C@@H] C 6 )	-0.15214983
-0.17984635	[C@H] C 6 )	-0.1610745
-0.9798881	c c 6 )	-0.16609734
-0.7965532	n c 6 )	-0.17018639
-0.58080345	c n 6 )	-0.1640906
-0.2938107	n n 6 )	-0.15214983
-0.17250536	c o 6 )	-0.15214983
-0.18503283	# N ) )	-0.15214983
-0.18503283	C N ) )	-0.15214983
-0.18503283	6 N ) )	-0.15214983
-0.07987424	) N ) )	-0.40387812
-0.5030525	C C ) )	-0.15214986
-0.32384896	6 C ) )	-0.1610745
-0.24871093	) C ) )	-0.26581034
-0.44991395	= C ) )	-0.15214983
-0.21316256	O C ) )	-0.1640906
-0.22220688	7 C ) )	-0.15214983
-0.22524658	5 C ) )	-0.15214983
-0.22220688	/ C ) )	-0.15214983
-0.5411834	N 6 ) )	-0.15214983
-0.85543466	C 6 ) )	-0.15658924
-0.833656	c 6 ) )	-0.1610745
-0.6831658	n 6 ) )	-0.15807916
-0.43841633	N ) ) )	-0.19145207
-0.37814143	C ) ) )	-0.3886141
-0.5824824	6 ) ) )	-0.25465038
-0.43706867	) ) ) )	-0.3732823
-0.41101497	O ) ) )	-0.34588617
-0.52868795	3 ) ) )	-0.15214983
-0.38181862	F ) ) )	-0.15214983
-0.44712588	7 ) ) )	-0.15214983
-0.2651057	5 ) ) )	-0.602645
-0.26709536	4 ) ) )	-0.15214983
-0.33747342	Cl ) ) )	-0.19145207
-0.26709536	S ) ) )	-0.15214983
-0.44712588	[O-] ) ) )	-0.15214983
-0.27096522	Br ) ) )	-0.17018639
-0.26709536	[NH3+] ) ) )	-0.15214983
-0.47514737	C O ) )	-0.1640906
-0.29671812	6 O ) )	-0.15214983
-0.26443648	) O ) )	-0.17018639
-0.65624756	= O ) )	-0.17018639
-0.2923414	%10 O ) )	-0.15214983
-0.1587545	C 3 ) )	-0.15214986
-0.2939759	6 F ) )	-0.15214983
-0.43027508	) F ) )	-0.21252282
-0.1587545	C 7 ) )	-0.15214983
-0.2903058	N 5 ) )	-0.15214983
-0.5704661	C 5 ) )	-0.17018639
-0.57583946	c 5 ) )	-0.21252282
-0.5658129	n 5 ) )	-0.17018639
-0.5666513	[nH] 5 ) )	-0.1610745
-0.6924526	s 5 ) )	-0.15214983
-0.52964354	o 5 ) )	-0.17018639
-0.4197092	C 4 ) )	-0.17018639
-0.25605345	C Cl ) )	-0.17018639
-0.25605345	6 Cl ) )	-0.1640906
-0.2418099	) Cl ) )	-0.23466823
-0.1587545	) S ) )	-0.15214983
-0.1587545	) [O-] ) )	-0.15214983
-0.14311893	6 Br ) )	-0.15214983
-0.14311893	) Br ) )	-0.15214983
-0.2478396	) [NH3+] ) )	-0.15214983
-0.1587545	[nH] 8 ) )	-0.15214983
-0.6490271	C C O )	-0.21252282
-0.5168778	6 C O )	-0.15214983
-0.64902097	) C O )	-0.1640906
-0.5168778	[C@H] C O )	-0.15214983
-0.4073951	c c O )	-0.35960695
-0.266576	) c O )	-0.15214983
-0.2521199	C 6 O )	-0.15214983
-0.5017152	c 6 O )	-0.15214983
-0.49057016	6 ) O )	-0.15214983
-0.44315276	) ) O )	-0.28689745
-0.53425395	O ) O )	-0.15214983
-0.24687488	5 ) O )	-0.15214983
-0.03389778	C = O )	-0.44477206
-0.04126282	c = O )	-0.31453824
-0.14228874	6 = O )	-0.17018639
-0.07364483	) = O )	-0.15214986
-0.07112403	5 = O )	-0.1640906
-0.07364483	4 = O )	-0.15214983
-0.07364483	%10 = O )	-0.15214983
-0.07364483	[S@] = O )	-0.15214983
-0.025326343	S = O )	-0.45503062
-0.07448357	[N+] = O )	-0.17018639
-0.07364483	[S@@] = O )	-0.15214983
-0.27500448	C [C@H] O )	-0.15214983
-0.15056556	c %10 O )	-0.15214983
-0.15056556	C \ O )	-0.15214983
-0.50297713	C C 3 )	-0.17018639
-0.112204745	6 C F )	-0.15214983
-0.11354358	) C F )	-0.17018639
-0.112204745	F C F )	-0.15214983
-0.075287014	c c F )	-0.21252282
-0.3876664	c 6 F )	-0.15214983
-0.27880868	6 ) F )	-0.17018639
-0.3726307	) ) F )	-0.1640906
-0.24603291	F ) F )	-0.1640906
-0.10741379	C %10 F )	-0.15214983
-0.3352671	C C 7 )	-0.23466823
-0.64692366	C N 5 )	-0.15214983
-0.4750708	) N 5 )	-0.15214983
-0.2597139	N C 5 )	-0.15214983
-0.39917162	C C 5 )	-0.30943283
-0.43600097	) C 5 )	-0.15214983
-0.2597139	[C@H] C 5 )	-0.15214983
-0.58041906	c c 5 )	-0.2692889
-0.72197676	n c 5 )	-0.1610745
-0.54930073	s c 5 )	-0.15214983
-0.24420549	c O 5 )	-0.15214983
-0.46008372	c n 5 )	-0.1640906
-0.4120575	n n 5 )	-0.15214983
-0.39490053	c [nH] 5 )	-0.16236451
-0.20101917	) [nH] 5 )	-0.15214983
-0.41426578	c s 5 )	-0.15658924
-0.35120255	c o 5 )	-0.16756342
-0.20101917	n o 5 )	-0.15214983
-0.2442115	N C 4 )	-0.15214983
-0.41293997	C C 4 )	-0.15214983
-0.2442115	[NH2+] C 4 )	-0.15214983
-0.37292564	) C Cl )	-0.15214983
-0.37292564	5 C Cl )	-0.15214983
-0.06774284	c c Cl )	-0.19975813
-0.124094464	5 c Cl )	-0.15214983
-0.18166028	C 6 Cl )	-0.15214983
-0.32381675	c 6 Cl )	-0.17018639
-0.3834701	6 ) Cl )	-0.15214983
-0.49978715	) ) Cl )	-0.15214983
-0.33835533	5 ) Cl )	-0.23466823
-0.45537725	C C %10 )	-0.15214983
-0.5902971	O ) S )	-0.15214983
-0.3885701	O ) [O-] )	-0.15214983
-0.14803301	c 6 Br )	-0.15214983
-0.45429873	5 ) Br )	-0.15214983
-0.11990572	[C@H] C [NH3+] )	-0.15214983
-0.11990572	6 ) [NH3+] )	-0.15214983
-0.09585847	5 [nH] 8 )	-0.15214983
-0.15927508	C = [NH2+] )	-0.15214983
-1.1341269	O ) N =	-0.15214983
-0.40867388	C / N =	-0.17018639
-0.20693575	<s> N C =	-0.602645
-0.2854246	N N C =	-0.15214983
-0.5656105	C N C =	-0.45503062
-0.4751798	c N C =	-0.15214983
-0.40601727	6 N C =	-0.17018639
-0.51718104	) N C =	-0.28689745
-0.4751798	[C@@H] N C =	-0.15214983
-0.4411437	<s> C C =	-1.4296448
-0.8416147	N C C =	-0.19794728
-0.809466	# C C =	-0.15214983
-0.95285064	C C C =	-0.3886141
-0.89803326	c C C =	-0.15214983
-0.9125559	6 C C =	-0.15214983
-0.9083908	) C C =	-0.2789394
-0.8131841	= C C =	-0.1640906
-0.9286423	O C C =	-0.17018639
-0.7643108	[C@H] C C =	-0.17018639
-0.8947458	5 C C =	-0.15214983
-0.34845203	Cl C C =	-0.15214983
-0.9545618	c c C =	-0.15214983
-0.9175066	c 6 C =	-0.1640906
-0.9871888	6 ) C =	-0.1640906
-0.8716518	) ) C =	-0.4555609
-1.1175172	O ) C =	-0.15214983
-0.9860368	5 ) C =	-0.23466823
-0.7376607	4 ) C =	-0.15214983
-1.5890738	<s> O C =	-0.17018639
-0.8605541	C O C =	-0.23466823
-0.8069536	c O C =	-0.15214983
-0.51845056	C 3 C =	-0.15214983
-0.5267696	C [C@@H] C =	-0.17018639
-0.44662562	) [C@@H] C =	-0.15214983
-0.7145023	N [C@H] C =	-0.15214983
-0.93668723	C [C@H] C =	-0.15214983
-0.84148926	) [C@H] C =	-0.15214983
-0.5364424	N 5 C =	-0.15214983
-0.45354274	C 5 C =	-0.15214983
-0.64192975	c 5 C =	-0.1640906
-0.61645204	n 5 C =	-0.15214983
-0.27132404	[C@@H] 5 C =	-0.15214983
-0.27132404	[C@H] 5 C =	-0.15214983
-0.2299721	<s> S C =	-0.17018639
-0.38757303	C S C =	-0.15214983
-0.16220771	C [C-] C =	-0.15214983
-0.16220771	) [C-] C =	-0.15214983
-0.23226301	N / C =	-0.15214983
-0.23548119	C / C =	-0.15214983
-0.29771063	) / C =	-0.23466823
-1.7158488	c c c =	-0.17018639
-0.8159009	c 6 c =	-0.15214983
-1.1048481	6 ) c =	-0.15214983
-1.1971335	) ) c =	-0.15214983
-1.3160357	c n c =	-0.15214983
-0.7627208	6 n c =	-0.15214983
-1.1768346	) n c =	-0.15214983
-0.8117212	c [nH] c =	-0.15214983
-0.5736527	6 [nH] c =	-0.15214983
-0.85837483	) [nH] c =	-0.15214983
-0.81436837	N C 6 =	-0.15214983
-1.2158669	C C 6 =	-0.15214983
-0.81436837	c C 6 =	-0.15214983
-1.1986808	c c 6 =	-0.17018639
-0.88107985	n c 6 =	-0.17018639
-1.4236804	= O ) =	-0.15214983
-0.64857537	c C 5 =	-0.15214983
-0.19022828	= [S@] 5 =	-0.15214983
-0.19022828	= [S@@] 5 =	-0.15214983
-0.3268755	) C 4 =	-0.15214983
-0.27615345	c c %10 =	-0.15214983
-0.13083677	6 ) [S@] =	-0.15214983
-0.13083677	) ) [S@] =	-0.15214983
-0.06418561	C N S =	-0.35960695
-0.091056846	) N S =	-0.15214983
-0.091056846	5 N S =	-0.15214983
-0.09978042	<s> C S =	-0.53569824
-0.22053304	C C S =	-0.17018639
-0.1339088	) C S =	-0.23466823
-0.13904051	= C S =	-0.15214983
-0.087261625	c 6 S =	-0.15214983
-0.15012373	6 ) S =	-0.17018639
-0.15012373	) ) S =	-0.17018639
-0.15012373	5 ) S =	-0.17018639
-0.087261625	O = S =	-0.15214983
-0.07930668	) O S =	-0.15214983
-0.07930668	9 O S =	-0.15214983
-0.08021605	c 5 S =	-0.17018639
-0.07930668	n 5 S =	-0.15214983
-0.087261625	C / S =	-0.15214983
-0.08934875	c 6 [N+] =	-0.15214983
-0.08211828	) ) [N+] =	-0.17018639
-0.08118525	5 ) [N+] =	-0.15214983
-0.39342546	N = [S@@] =	-0.15214983
-2.1122298	<s> C C O	-0.15214983
-1.2105138	N C C O	-0.1640906
-1.0593286	C C C O	-0.2583989
-1.0558879	c C C O	-0.15214983
-1.0792624	6 C C O	-0.15214983
-1.3694935	) C C O	-0.15214983
-1.0732739	O C C O	-0.17018639
-1.1379027	c 6 C O	-0.15214983
-1.3107096	6 ) C O	-0.15214983
-1.3464712	) ) C O	-0.1640906
-1.1964763	O ) C O	-0.1640906
-0.9753098	O = C O	-0.15214983
-1.0523587	C O C O	-0.15214983
-1.0735462	) O C O	-0.15214983
-1.0287448	C [C@H] C O	-0.15214983
-0.9147592	) [C@H] C O	-0.15214983
-0.9826982	n 5 C O	-0.15214983
-1.0650662	c c c O	-0.27986774
-1.1817181	6 c c O	-0.15214983
-0.95412445	O c c O	-0.15214983
-1.2482301	5 c c O	-0.15214983
-0.8217702	o c c O	-0.15214983
-1.0242798	O ) c O	-0.15214983
-0.94684744	C n c O	-0.15214983
-1.20514	C C 6 O	-0.17018639
-1.3651834	c c 6 O	-0.15214986
-0.47480646	C [C@@H] 6 O	-0.15214983
-1.2694418	c 6 ) O	-0.15214983
-1.0723047	n 6 ) O	-0.15214983
-1.350838	C ) ) O	-0.15214983
-1.1457647	6 ) ) O	-0.15214983
-1.0580944	) ) ) O	-0.17018639
-1.0466038	O ) ) O	-0.1640906
-0.78646743	3 ) ) O	-0.15214983
-1.0065649	C O ) O	-0.15214983
-1.2628263	= O ) O	-0.1610745
-1.2537266	c 5 ) O	-0.15214983
-0.18082449	N C = O	-0.602645
-0.19353756	C C = O	-0.79893965
-0.31365323	c C = O	-0.15214983
-0.31365323	6 C = O	-0.15214983
-0.20834145	) C = O	-0.3886141
-0.16776925	O C = O	-0.23466823
-0.17448144	3 C = O	-0.15214983
-0.26397926	[C@@H] C = O	-0.17018639
-0.26397926	[C@H] C = O	-0.17018639
-0.117483325	5 C = O	-0.53569824
-0.17672925	S C = O	-0.17018639
-0.41251	/ C = O	-0.15214983
-0.089250915	c c = O	-0.15214983
-0.089250915	6 c = O	-0.15214983
-0.09028663	) c = O	-0.17018639
-0.086140886	n c = O	-0.23466823
-0.13853168	[nH] c = O	-0.23466823
-0.08878831	C 6 = O	-0.1640906
-0.09307567	c 6 = O	-0.17018639
-0.31907234	O ) = O	-0.15214983
-0.10587698	C 5 = O	-0.15214983
-0.10587698	[S@] 5 = O	-0.15214983
-0.10587698	[S@@] 5 = O	-0.15214983
-0.10138884	C 4 = O	-0.15214983
-0.10138884	c %10 = O	-0.15214983
-0.10258282	) [S@] = O	-0.17018639
-0.03553999	N S = O	-0.23466823
-0.026378639	C S = O	-0.35960695
-0.036746223	6 S = O	-0.15214983
-0.03553999	) S = O	-0.23466823
-0.036746223	= S = O	-0.15214983
-0.037146755	O S = O	-0.17018639
-0.037146755	5 S = O	-0.17018639
-0.036746223	/ S = O	-0.15214983
-0.09200443	6 [N+] = O	-0.15214983
-0.09307567	) [N+] = O	-0.17018639
-0.10138884	= [S@@] = O	-0.15214983
-0.3156216	<s> N [C@H] O	-0.17018639
-0.37750718	5 C [C@H] O	-0.15214983
-0.32984632	<s> O [C@H] O	-0.15214983
-0.6692832	c C 5 O	-0.15214983
-0.17077929	C [C@@H] 4 O	-0.15214983
-0.27688196	) c %10 O	-0.15214983
-0.42516553	c c 9 O	-0.15214983
-0.14544532	= C \ O	-0.15214983
-1.5845063	N C C n	-0.15214983
-1.651272	) C C n	-0.15214983
-1.2810613	= C C n	-0.15214983
-1.2111139	5 C C n	-0.15214983
-1.424419	6 ) C n	-0.15214983
-1.563806	) ) C n	-0.15214983
-1.5202093	5 ) C n	-0.15214983
-0.65736914	<s> N c n	-0.15214983
-0.8521407	C N c n	-0.17018639
-0.6160788	) N c n	-0.17018639
-0.4945361	N C c n	-0.15214986
-0.5088191	# C c n	-0.1640906
-0.8053905	C C c n	-0.23466823
-0.7796097	) C c n	-0.15214983
-0.599335	= C c n	-0.15214983
-0.7004284	5 C c n	-0.15214983
-0.7952472	N c c n	-0.20771621
-0.936886	C c c n	-0.2648941
-0.84512997	c c c n	-0.30485535
-0.77174807	6 c c n	-0.17018639
-0.70909196	) c c n	-0.33102027
-0.91797966	O c c n	-0.15214983
-0.9827883	n c c n	-0.15214983
-0.54576325	[C@H] c c n	-0.15214983
-0.911282	5 c c n	-0.15214983
-0.32969153	%10 c c n	-0.15214983
-0.9090622	[nH] c c n	-0.15214983
-0.6508279	o c c n	-0.15214983
-0.7374209	c 6 c n	-0.15214983
-0.985825	6 ) c n	-0.15214983
-1.0532001	) ) c n	-0.15214983
-0.87232035	5 ) c n	-0.15214983
-0.57786953	O = c n	-0.15214983
-0.852154	C O c n	-0.17018639
-0.78699833	c n c n	-0.28689745
-0.91719073	<s> F c n	-0.15214983
-0.25819254	[C@@H] %10 c n	-0.15214983
-0.7333335	c [nH] c n	-0.1640906
-0.5841538	c s c n	-0.15214983
-0.45422333	) s c n	-0.15214983
-0.58440137	c o c n	-0.15214983
-1.3767931	c c 6 n	-0.1640906
-0.65031123	c C ) n	-0.15214983
-0.7814353	= C ) n	-0.15214983
-1.277204	c 6 ) n	-0.15214983
-1.4722197	C ) ) n	-0.15214983
-1.6665391	) ) ) n	-0.15214983
-1.2936251	= O ) n	-0.15927482
-0.61689156	c F ) n	-0.15214983
-1.0575064	[nH] 5 ) n	-0.15214983
-0.7914799	c Cl ) n	-0.15214983
-0.56708443	C C n n	-0.15214983
-0.4369364	) C n n	-0.15214983
-0.9651727	C c n n	-0.17018639
-1.047997	c c n n	-0.19975813
-0.6273587	6 c n n	-0.15214983
-0.7617172	C ) n n	-0.15214983
-0.43753836	C n n n	-0.15214983
-0.70340574	c n n n	-0.15214983
-0.6718955	n n n n	-0.15214983
-1.0512607	c c [nH] n	-0.15214983
-0.6017936	Cl ) [nH] n	-0.15214983
-0.6047704	N c o n	-0.15214983
-1.5777326	C C C 3	-0.19665843
-1.5915886	) C C 3	-0.17018639
-0.39247224	[C@@H] C [C@H] 3	-0.15214983
-0.34408528	[C@@H] [C@@H] [C@H] 3	-0.15214983
-1.2397732	c 6 C F	-0.15214983
-1.4475483	6 ) C F	-0.15214983
-1.5869194	) ) C F	-0.17018639
-1.367597	<s> F C F	-0.15214983
-1.6596463	c c c F	-0.17018639
-1.6402596	) c c F	-0.15214983
-1.4304786	n c c F	-0.15214983
-1.3309062	5 c c F	-0.15214983
-1.3737352	c c 6 F	-0.15214983
-1.1102769	n c 6 F	-0.15214983
-1.3241615	c 6 ) F	-0.15214983
-1.1063131	n 6 ) F	-0.15214983
-1.1101555	N ) ) F	-0.15214983
-1.4896615	6 ) ) F	-0.15214983
-1.6152306	) ) ) F	-0.1640906
-0.46775013	C F ) F	-0.17018639
-0.6155459	) F ) F	-0.1640906
-0.3310297	%10 F ) F	-0.15214983
-0.46877944	C C %10 F	-0.15214983
-1.5723946	C C N 7	-0.15214983
-0.6840776	[C@@H] C N 7	-0.15214983
-0.29663795	[C@@H] [C@@H] N 7	-0.15214983
-1.7142203	N C C 7	-0.15214983
-1.724854	C C C 7	-0.1640906
-0.42604786	[N@@H+] C C 7	-0.15214983
-1.3313459	C c n 7	-0.15214983
-1.4773734	C C N [C@@H]	-0.17018639
-1.355961	C N C [C@@H]	-0.15214983
-1.2563004	) N C [C@@H]	-0.15214983
-1.5385464	N C C [C@@H]	-0.15214983
-1.2240839	6 C C [C@@H]	-0.15214983
-1.605296	) C C [C@@H]	-0.15214983
-1.2545348	= C C [C@@H]	-0.15214983
-1.4120871	C = C [C@@H]	-0.15214983
-0.86573964	<s> O C [C@@H]	-0.75754696
-0.33412334	) [NH2+] C [C@@H]	-0.15214983
-1.5287786	c c 6 [C@@H]	-0.15214983
-1.4271097	c 6 ) [C@@H]	-0.15214983
-1.5214773	6 ) ) [C@@H]	-0.15214983
-1.8028389	) ) ) [C@@H]	-0.15214983
-1.5686544	= O ) [C@@H]	-0.15214983
-1.2970741	C C O [C@@H]	-0.15214983
-0.28224757	<s> N [C@@H] [C@@H]	-0.15214983
-0.4702717	C O [C@@H] [C@@H]	-0.15214983
-1.8159302	<s> C N [C@H]	-0.15214983
-1.5297483	C C N [C@H]	-0.15214983
-1.152066	O ) N [C@H]	-0.15214983
-1.2599369	C N C [C@H]	-0.1640906
-1.7309139	C C C [C@H]	-0.15214983
-1.2268721	6 C C [C@H]	-0.15214983
-1.610389	) C C [C@H]	-0.15214983
-1.4694488	) ) C [C@H]	-0.17018639
-1.4268584	5 ) C [C@H]	-0.15214983
-1.217379	C = C [C@H]	-0.15214983
-0.9117285	O = C [C@H]	-0.15214983
-1.3824615	<s> O C [C@H]	-0.35960695
-0.82727724	C [C@@H] C [C@H]	-0.15214983
-1.2091204	c 5 C [C@H]	-0.15214983
-1.9795514	<s> Cl C [C@H]	-0.15214983
-1.5199146	c c 6 [C@H]	-0.15214983
-1.4452997	c 6 ) [C@H]	-0.15214983
-1.5890551	= O ) [C@H]	-0.15214983
-1.2308619	C C O [C@H]	-0.15214983
-0.23788378	N [C@H] O [C@H]	-0.15214983
-0.23788378	O [C@H] O [C@H]	-0.15214983
-0.6276701	N C [C@@H] [C@H]	-0.15214983
-0.72761756	C C [C@@H] [C@H]	-0.15214983
-0.31848234	= C [C@@H] [C@H]	-0.15214983
-0.17788184	c 6 [C@@H] [C@H]	-0.15214983
-0.27144215	N [C@@H] [C@@H] [C@H]	-0.15214983
-1.5277739	c c 5 [C@H]	-0.15214983
-1.2214341	C C N 5	-0.1610745
-1.2495823	) C N 5	-0.15214983
-0.6614843	5 C N 5	-0.15214983
-0.70390195	c c N 5	-0.15214983
-1.1370658	O ) N 5	-0.15214983
-1.4218692	C N C 5	-0.17018639
-1.5058779	N C C 5	-0.15214983
-1.6901368	C C C 5	-0.15214983
-1.2349633	= C C 5	-0.15214983
-1.3679839	O C C 5	-0.15214983
-1.0379643	c c C 5	-0.15214983
-1.4705697	O ) C 5	-0.15214983
-1.371529	C = C 5	-0.15214983
-0.6758166	[C@@H] [C@H] C 5	-0.15214983
-1.182213	C N c 5	-0.15214983
-1.1285014	N c c 5	-0.15214983
-1.3682551	C c c 5	-0.15214983
-1.1604364	c c c 5	-0.1610745
-1.2155443	) c c 5	-0.15214983
-0.73842955	n c c 5	-0.21252282
-0.30706292	[nH] c c 5	-0.236558
-0.5229244	s c c 5	-0.15927482
-0.74076223	o c c 5	-0.15214983
-1.0763121	C O c 5	-0.15214983
-1.0741553	c n c 5	-0.1640906
-0.69235533	n n c 5	-0.1640906
-0.37738678	[nH] n c 5	-0.15214983
-0.82950675	c [nH] c 5	-0.15214983
-0.5839979	n [nH] c 5	-0.15214983
-0.7655576	c s c 5	-0.15214983
-0.7558203	c o c 5	-0.15214983
-1.145583	C C O 5	-0.15214983
-1.0390385	) C O 5	-0.15214983
-1.0377524	c c O 5	-0.15214983
-0.9377501	c c n 5	-0.15927482
-0.74111956	) c n 5	-0.15214983
-0.5600252	[nH] c n 5	-0.15214983
-0.34368762	s c n 5	-0.1640906
-0.5600252	o c n 5	-0.15214983
-0.8735527	O ) n 5	-0.15214983
-0.6209453	c n n 5	-0.1640906
-0.3355752	) n n 5	-0.15214983
-0.9255763	C C [C@@H] 5	-0.15214983
-0.58061916	N C [C@H] 5	-0.15214983
-0.69454587	C C [C@H] 5	-0.15214983
-0.69573224	= C [C@H] 5	-0.15214983
-0.668533	C [C@@H] [C@H] 5	-0.15214983
-0.14544532	N = [S@] 5	-0.15214983
-0.4493756	c c [nH] 5	-0.28689745
-0.6514319	) c [nH] 5	-0.15214983
-0.5473034	n c [nH] 5	-0.15214983
-0.59646034	O ) [nH] 5	-0.15214983
-0.5343081	c c s 5	-0.21252282
-0.24451666	n c s 5	-0.15214983
-0.54004645	c c o 5	-0.1640906
-0.4860974	n c o 5	-0.15214983
-0.1512655	c n o 5	-0.15214983
-0.39440304	N = [S@@] 5	-0.15214983
-1.4719058	C N C 4	-0.17018639
-1.7489941	C C C 4	-0.1640906
-1.5474747	O ) C 4	-0.15214983
-0.558512	C [NH2+] C 4	-0.15214983
-0.39255708	[NH2+] C [C@@H] 4	-0.15214983
-1.5783477	O ) C Cl	-0.15214983
-1.112832	c 5 C Cl	-0.1640906
-1.3405466	N c c Cl	-0.15214983
-1.6090196	C c c Cl	-0.15214983
-1.4682925	c c c Cl	-0.23466823
-1.1948743	6 c c Cl	-0.15214983
-1.2641329	5 c c Cl	-0.15214983
-1.0220703	c 5 c Cl	-0.15214983
-0.40376094	= C 6 Cl	-0.15214983
-1.3258228	c c 6 Cl	-0.15214983
-1.0820829	n c 6 Cl	-0.15214983
-1.4271097	c 6 ) Cl	-0.15214983
-1.1101555	N ) ) Cl	-0.15214983
-1.3145944	6 ) ) Cl	-0.1640906
-1.7650033	) ) ) Cl	-0.15214983
-1.0705822	c 5 ) Cl	-0.15214983
-0.95798016	n 5 ) Cl	-0.15214983
-0.99531865	s 5 ) Cl	-0.15214983
-0.9127349	o 5 ) Cl	-0.15214983
-0.7893796	[nH] c 5 Cl	-0.17018639
-1.7358084	N C C %10	-0.15214983
-1.3212324	6 C C %10	-0.15214983
-2.0264137	c c c %10	-0.15214983
-1.0420514	O ) c %10	-0.15214983
-0.9224336	O ) n %10	-0.15214983
-0.9470446	C C [C@@H] %10	-0.15214983
-0.3536484	6 [C@@H] [C@H] %10	-0.15214983
-1.4651581	c 6 ) [S@]	-0.15214983
-1.9383112	) ) ) [S@]	-0.15214983
-0.59172505	) N = [S@]	-0.15214983
-0.86063194	C C N S	-0.45651698
-1.1570201	) C N S	-0.15214983
-0.89837646	= C N S	-0.15214983
-0.6270788	3 C N S	-0.15214983
-1.319421	) ) N S	-0.15214983
-0.19243005	C 5 N S	-0.15214983
-1.3076488	N C C S	-0.17018639
-1.7090939	) C C S	-0.15214983
-1.3694736	6 ) C S	-0.15214983
-1.5088947	) ) C S	-0.17018639
-1.4659098	5 ) C S	-0.15214983
-1.4024014	C = C S	-0.15214983
-0.08455257	<s> F C S	-0.98799586
-1.5027119	c c 6 S	-0.15214983
-1.2817198	C 6 ) S	-0.15214983
-1.2801546	c 6 ) S	-0.15214983
-1.3079214	6 ) ) S	-0.17018639
-1.7532775	) ) ) S	-0.15214983
-1.507499	= O ) S	-0.15214983
-1.1894602	c 5 ) S	-0.15214983
-1.0485983	[nH] 5 ) S	-0.15214983
-2.0899477	<s> O = S	-0.23466823
-1.1921387	) ) O S	-0.15214983
-0.4851158	c 9 O S	-0.15214983
-1.2215564	c c 5 S	-0.17018639
-1.0680437	n c 5 S	-0.15214983
-1.1097579	c n 5 S	-0.15214983
-0.78992194	= C / S	-0.15214983
-0.95780104	) N c [nH]	-0.15214983
-1.2100652	C C c [nH]	-0.15214983
-0.9457137	) C c [nH]	-0.15214983
-0.7292005	[C@H] C c [nH]	-0.15214983
-0.86653244	5 C c [nH]	-0.15214983
-1.0929427	N c c [nH]	-0.17018639
-0.77991515	C c c [nH]	-0.51355284
-1.5412171	c c c [nH]	-0.15214983
-1.113373	6 c c [nH]	-0.15214983
-1.0262814	) c c [nH]	-0.20771621
-1.2522244	n c c [nH]	-0.15214983
-1.1909395	) ) c [nH]	-0.15214983
-0.9241624	O ) c [nH]	-0.15214983
-0.6369778	O = c [nH]	-0.15214983
-0.9812317	c n c [nH]	-0.21252282
-0.40029567	C c 6 [nH]	-0.15214983
-1.2718667	c c 6 [nH]	-0.17018639
-1.2679261	C 6 ) [nH]	-0.15214983
-1.263918	c 6 ) [nH]	-0.15214983
-1.5053282	) ) ) [nH]	-0.23466823
-1.4855149	= O ) [nH]	-0.15214983
-1.2495438	c 5 ) [nH]	-0.15214983
-0.8182504	c Cl ) [nH]	-0.15214983
-1.2567124	C c n [nH]	-0.15214983
-1.4545225	c c n [nH]	-0.15214983
-0.39800617	N c 5 [nH]	-0.15214983
-1.4082174	c c 5 [nH]	-0.15214983
-1.2919953	C N c s	-0.15214983
-1.1264708	N c c s	-0.17018639
-1.4105674	C c c s	-0.17018639
-1.2566998	c c c s	-0.21252282
-1.350109	) c c s	-0.1640906
-1.2975783	n c c s	-0.15214983
-1.0398307	5 c c s	-0.17018639
-1.5769831	c n c s	-0.15214983
-1.3433479	C 6 ) s	-0.15214983
-1.3538977	c 6 ) s	-0.15214983
-1.9383112	) ) ) s	-0.15214983
-1.0775274	C N c o	-0.15214983
-1.6547314	C c c o	-0.15214983
-1.741879	c c c o	-0.15214983
-1.4369106	) c c o	-0.1640906
-1.3940339	n c c o	-0.15214983
-1.327556	) ) c o	-0.15214983
-1.5325613	c n c o	-0.15214983
-1.5695946	c c n o	-0.15214983
-1.4614563	5 c c 9	-0.15214983
-0.48499498	c 6 [nH] 9	-0.15214983
-1.7113161	N C C [NH+]	-0.15214983
-1.9160722	C C C [NH+]	-0.15214983
-0.9450138	) c C [NH+]	-0.15214983
-1.8627983	) ) C [NH+]	-0.15214983
-1.5533795	c c 6 [N+]	-0.15214983
-1.5495715	6 ) ) [N+]	-0.15214983
-1.836706	) ) ) [N+]	-0.15214983
-1.193034	s 5 ) [N+]	-0.15214983
-1.3130801	= O ) [O-]	-0.20771621
-1.5565102	c c 6 Br	-0.15214983
-1.9403552	) ) ) Br	-0.15214983
-1.1938037	s 5 ) Br	-0.15214983
-1.4988738	C = C [C-]	-0.15214983
-1.4528065	C 6 ) [C-]	-0.15214983
-1.6377283	= O ) [CH-]	-0.15214983
-1.2051606	) ) N /	-0.17018639
-0.74396425	N # C /	-0.15214983
-1.8162781	) C C /	-0.15214983
-1.8273163	) ) C /	-0.15214983
-0.8015661	N = C /	-0.15214983
-1.307698	C = C /	-0.15214986
-1.4425957	c 6 ) /	-0.15214983
-1.9131348	) ) ) /	-0.15214983
-1.4319285	= O ) /	-0.15214983
-0.40091917	\ O ) /	-0.15214983
-2.0308757	C C C [N@@H+]	-0.15214983
-1.2195975	C [C@H] C [NH3+]	-0.15214983
-1.4927633	c 6 ) [NH3+]	-0.15214983
-0.5913741	) N = [S@@]	-0.15214983
-0.8631004	N = C \	-0.15214983
-1.9671437	) ) ) \	-0.15214983
-0.4845921	c 5 [nH] 8	-0.15214983
-1.7973658	N C C [NH2+]	-0.15214983
-1.5904459	O ) C [NH2+]	-0.15214983
-0.41867977	[C@@] C ) [NH2+]	-0.15214983
-1.383114	N C = [NH2+]	-0.15214983
-1.9496368	C C C [C@@]	-0.15214983
-1.807768	) C C [C@@]	-0.15214983

\5-grams:
-0.3517871	) C # N </s>	0
-0.8816389	O ) C N </s>	0
-0.4782435	= N ) N </s>	0
-0.57163656	c 6 ) N </s>	0
-0.7838836	C ) ) N </s>	0
-0.85333943	) ) ) N </s>	0
-0.39694092	O ) ) N </s>	0
-0.8556741	= O ) N </s>	0
-0.7971401	C # C C </s>	0
-1.4902097	) ) C C </s>	0
-1.2930112	O ) C C </s>	0
-0.9373943	n 5 C C </s>	0
-1.0545853	c c 6 C </s>	0
-0.78013873	n c 6 C </s>	0
-0.5014194	= N ) C </s>	0
-0.36045775	N C ) C </s>	0
-0.74376607	C C ) C </s>	0
-0.5676749	) C ) C </s>	0
-0.2826638	= C ) C </s>	0
-0.4273336	[NH+] C ) C </s>	0
-1.0106804	c 6 ) C </s>	0
-0.84800774	n 6 ) C </s>	0
-0.68084496	N ) ) C </s>	0
-0.8540368	C ) ) C </s>	0
-1.0366131	6 ) ) C </s>	0
-1.0954857	) ) ) C </s>	0
-0.78604037	C O ) C </s>	0
-0.578798	) O ) C </s>	0
-0.7513073	= O ) C </s>	0
-0.38559768	[C@H] O ) C </s>	0
-0.82228106	c 5 ) C </s>	0
-0.6963415	[nH] 5 ) C </s>	0
-0.6963415	s 5 ) C </s>	0
-0.79100144	o 5 ) C </s>	0
-0.6775957	c 6 O C </s>	0
-0.74965227	6 ) O C </s>	0
-0.7243888	) ) O C </s>	0
-0.5854478	C N C 6 </s>	0
-0.5849181	N C C 6 </s>	0
-0.61032456	C C C 6 </s>	0
-0.4763153	) C C 6 </s>	0
-0.54562145	O C C 6 </s>	0
-0.4763153	S C C 6 </s>	0
-0.31719854	[NH2+] C C 6 </s>	0
-0.9981629	c c c 6 </s>	0
-0.6421021	) c c 6 </s>	0
-0.9661858	n c c 6 </s>	0
-0.86801815	c n c 6 </s>	0
-0.61423045	c c n 6 </s>	0
-0.5427826	n c n 6 </s>	0
-0.11901941	O ) [nH] 6 </s>	0
-0.9373049	) ) C O </s>	0
-0.6927914	6 ) ) O </s>	0
-0.68870586	) ) ) O </s>	0
-0.6497579	O ) ) O </s>	0
-0.30972192	C O ) O </s>	0
-0.452608	= O ) O </s>	0
-1.1646723	) C = O </s>	0
-0.6471681	C 6 = O </s>	0
-0.11438727	C [C@@H] 4 O </s>	0
-0.39708966	c c 9 O </s>	0
-0.4939133	C C C 3 </s>	0
-0.3534491	c c 6 F </s>	0
-0.22846757	n c 6 F </s>	0
-0.4482501	c 6 ) F </s>	0
-0.23751238	N ) ) F </s>	0
-0.36555248	6 ) ) F </s>	0
-0.42709142	) ) ) F </s>	0
-0.55789155	) F ) F </s>	0
-0.55679965	C C C 7 </s>	0
-0.34351778	) C N 5 </s>	0
-0.41710755	O ) N 5 </s>	0
-0.61351496	C C C 5 </s>	0
-0.49842083	= C C 5 </s>	0
-0.49842083	O C C 5 </s>	0
-0.43442735	O ) C 5 </s>	0
-0.43442735	C = C 5 </s>	0
-0.7703854	c c c 5 </s>	0
-0.9782586	[nH] c c 5 </s>	0
-0.80884534	s c c 5 </s>	0
-0.7007318	c n c 5 </s>	0
-0.5201563	[nH] n c 5 </s>	0
-0.6657272	c [nH] c 5 </s>	0
-0.43537232	c s c 5 </s>	0
-0.15939814	C C O 5 </s>	0
-0.15939814	) C O 5 </s>	0
-0.7598012	c c n 5 </s>	0
-0.48198336	s c n 5 </s>	0
-0.5133894	c c [nH] 5 </s>	0
-0.24692151	) c [nH] 5 </s>	0
-0.37823537	n c [nH] 5 </s>	0
-0.5098601	c c s 5 </s>	0
-0.3787192	n c s 5 </s>	0
-0.48278144	c c o 5 </s>	0
-0.41487673	n c o 5 </s>	0
-0.5273482	C C C 4 </s>	0
-0.35167015	O ) C Cl </s>	0
-0.29647458	c 5 C Cl </s>	0
-0.39278075	c c 6 Cl </s>	0
-0.39278075	n c 6 Cl </s>	0
-0.3588859	c 6 ) Cl </s>	0
-0.18258347	N ) ) Cl </s>	0
-0.24598323	6 ) ) Cl </s>	0
-0.18258347	) ) ) Cl </s>	0
-0.3898073	s 5 ) Cl </s>	0
-0.25544414	o 5 ) Cl </s>	0
-0.08859221	[nH] c 5 Cl </s>	0
-0.48467207	= O ) S </s>	0
-0.3367047	5 c c 9 </s>	0
-0.08184872	c 6 [nH] 9 </s>	0
-0.2991865	= O ) [O-] </s>	0
-0.14305533	) ) ) Br </s>	0
-0.3542443	s 5 ) Br </s>	0
-0.0662316	= O ) [CH-] </s>	0
-0.30376887	6 ) C # N	-0.2364949
-0.51312655	) ) C # N	-1.1211015
-1.1588403	) ) N C N	-0.23791759
-0.9788556	<s> N C C N	-0.25315395
-0.60579526	C N C C N	-1.0743368
-0.9944252	) N C C N	-1.0359582
-0.78373724	N C C C N	-0.23730727
-0.6817814	# C C C N	-0.25315395
-0.7471464	C C C C N	-0.53916234
-0.58438116	c C C C N	-0.23791759
-0.7346899	6 C C C N	-0.23791759
-0.74722594	) C C C N	-1.1567894
-0.7949498	= C C C N	-0.25315395
-0.6121677	O C C C N	-0.9055017
-0.6527787	c c C C N	-0.30344173
-0.330943	) c C C N	-0.6709628
-0.5282217	5 c C C N	-0.25315395
-0.92871535	c 6 C C N	-0.82510173
-0.38215223	N ) C C N	-0.2429372
-0.38215223	C ) C C N	-0.23791759
-0.8546354	6 ) C C N	-0.2429372
-0.9175214	) ) C C N	-0.69722575
-0.737241	O ) C C N	-0.36143366
-0.57343405	4 ) C C N	-0.25315395
-0.87961966	O = C C N	-0.2364949
-0.98622435	<s> O C C N	-0.24060015
-0.7711423	C O C C N	-0.25315395
-0.3593448	6 O C C N	-0.25315395
-0.61953276	) O C C N	-0.23791759
-0.89399594	C [C@H] C C N	-0.25315395
-0.7399063	c 5 C C N	-0.75248355
-0.7345826	n 5 C C N	-0.25315395
-0.82178795	c c c C N	-0.45834368
-0.66132814	6 ) c C N	-0.96349365
-0.573357	C n c C N	-0.25315395
-0.96036404	c c 6 C N	-0.71418464
-0.9690604	c 6 ) C N	-0.5927827
-0.81896716	n 6 ) C N	-0.57948613
-1.0751266	6 ) ) C N	-0.47291923
-1.0077114	) ) ) C N	-0.74030644
-0.59052664	5 ) ) C N	-0.75937366
-1.1491008	= O ) C N	-0.69200176
-0.22037943	C F ) C N	-0.25315395
-0.83134735	C 5 ) C N	-0.25315395
-0.6875725	C 4 ) C N	-0.25315395
-0.19017546	<s> N = C N	-0.36143366
-0.6703817	6 C = C N	-0.25315395
-0.44203183	5 C = C N	-0.25315395
-0.30528393	<s> O = C N	-1.5375249
-0.19644868	6 ) n C N	-0.25315395
-0.36350584	C C 3 C N	-0.23791759
-0.14872694	[C@@H] [C@H] 3 C N	-0.25315395
-0.3363156	O ) [C@@H] C N	-0.23791759
-0.19876213	C O [C@@H] C N	-0.23791759
-0.77819437	O ) [C@H] C N	-0.25315395
-0.22540924	c 5 [C@H] C N	-0.25315395
-0.49936742	C C 5 C N	-0.25315395
-0.79690534	c c 5 C N	-0.25315395
-1.3903419	C C c c N	-0.36143366
-1.3704926	) C c c N	-0.5375249
-0.9525017	C c c c N	-1.1907375
-1.4064606	O c c c N	-0.23791759
-1.3008882	O ) c c N	-0.25315395
-0.93623245	N C C 6 N	-0.25315395
-0.9955143	C C C 6 N	-0.45834368
-1.2036945	c c c 6 N	-1.000268
-1.055198	) c c 6 N	-0.23791759
-1.0545751	n c c 6 N	-0.66246367
-0.46319273	C = N ) N	-0.5927827
-1.2392317	c c 6 ) N	-1.1304415
-0.8680217	c n 6 ) N	-0.25315395
-0.92413616	6 C ) ) N	-0.5375249
-1.0479429	) C ) ) N	-0.3066509
-0.9827232	C 6 ) ) N	-0.75248355
-1.0407002	c 6 ) ) N	-0.24060015
-0.9350068	n 6 ) ) N	-0.23791759
-0.9620655	6 ) ) ) N	-0.2364949
-1.4341133	) ) ) ) N	-1.4487338
-1.1872374	O ) ) ) N	-0.25315395
-0.84064573	C O ) ) N	-0.23791759
-0.9364001	[nH] 5 ) ) N	-0.25315395
-0.5956459	C = O ) N	-1.5496674
-1.0734181	) = O ) N	-1.0815929
-0.9248465	c n 5 ) N	-0.25315395
-0.9935165	c s 5 ) N	-0.2429372
-0.7696798	c o 5 ) N	-0.23791759
-0.12329901	C = [NH2+] ) N	-0.2364949
-0.95311815	<s> N C = N	-0.2364949
-1.1960825	C N C = N	-0.60447174
-1.0734249	N C C = N	-0.25315395
-1.1053587	) C C = N	-0.25315395
-0.82973635	6 ) C = N	-0.25315395
-0.4162984	= O ) = N	-0.45834368
-0.3261749	) ) ) [C@@H] N	-0.25315395
-0.4351223	= O ) [C@@H] N	-0.2364949
-0.17570092	C O [C@@H] [C@@H] N	-0.25315395
-0.42696106	N [C@H] O [C@H] N	-0.25315395
-0.2823968	O [C@H] O [C@H] N	-0.25315395
-0.5243877	C = C 5 N	-0.25315395
-0.18478969	N # C / N	-0.25315395
-0.18478969	) C C / N	-0.25315395
-0.33763635	N = C / N	-0.25315395
-0.09682294	) ) ) \ N	-0.25315395
-1.61641	C N C C #	-0.23791759
-1.3522984	O C C C #	-0.25315395
-0.93074864	c 5 C C #	-0.25315395
-1.2415227	c 6 ) C #	-0.5375249
-1.3857298	6 ) ) C #	-0.33751017
-1.2959232	) ) ) C #	-1.1304415
-0.7577791	3 ) ) C #	-0.23791759
-1.3974802	= O ) C #	-0.25315395
-0.14063306	) N C N C	-0.23791759
-0.42960086	N C C N C	-1.2843893
-0.3483394	C C C N C	-1.1687431
-0.47823945	c C C N C	-0.79336596
-0.4585694	6 C C N C	-0.46155286
-0.2943724	) C C N C	-0.8385549
-0.26367185	= C C N C	-0.2364949
-0.32427248	O C C N C	-0.33751017
-0.33843383	5 C C N C	-0.65805537
-0.1970256	c c C N C	-0.23706342
-0.1970256	) c C N C	-0.96349365
-0.35031188	c 6 C N C	-0.65805537
-0.286292	6 ) C N C	-0.6887926
-0.28620318	) ) C N C	-0.8137313
-0.32907498	O ) C N C	-0.60447174
-0.17667854	F ) C N C	-0.25315395
-0.17667854	5 ) C N C	-0.25315395
-0.17667854	4 ) C N C	-0.25315395
-0.37668207	C = C N C	-0.25315395
-0.37668207	O = C N C	-1.2291957
-0.14063306	) n C N C	-0.25315395
-0.22611274	[C@H] 3 C N C	-0.25315395
-0.22611274	) [C@@H] C N C	-0.23791759
-0.1423704	) [C@H] C N C	-0.25315395
-0.1423704	5 [C@H] C N C	-0.25315395
-0.22611274	c 5 C N C	-0.25315395
-0.41303566	C c c N C	-0.5375249
-0.25722566	c c c N C	-1.0004914
-0.12605964	C C 6 N C	-0.5375249
-0.23276225	c c 6 N C	-0.96349365
-0.4458009	c 6 ) N C	-1.0743368
-0.4458009	n 6 ) N C	-0.25315395
-0.62555474	C ) ) N C	-0.25315395
-0.39056444	6 ) ) N C	-0.31624466
-0.5931849	) ) ) N C	-1.0214354
-0.32488677	5 ) ) N C	-0.25315395
-0.7789742	= O ) N C	-1.4355644
-0.23573186	n 5 ) N C	-0.25315395
-0.3631631	s 5 ) N C	-0.23791759
-0.23573186	o 5 ) N C	-0.23791759
-0.30916014	) C = N C	-0.25315395
-0.15980943	) ) [C@@H] N C	-0.25315395
-0.15980943	O ) [C@@H] N C	-0.2364949
-0.055349987	<s> C C # C	-0.23791759
-0.057860497	N C C # C	-0.23791759
-0.057860497	C C C # C	-0.25315395
-0.057860497	5 C C # C	-0.25315395
-0.21755014	) ) C # C	-0.94970536
-0.15516908	O ) C # C	-0.25315395
-0.08182428	<s> Br C # C	-0.25315395
-0.24497068	<s> C N C C	-0.4523816
-0.31748524	N C N C C	-0.23791759
-0.49627256	C C N C C	-1.2192925
-0.54610664	c C N C C	-0.2364949
-0.54610664	6 C N C C	-0.49973634
-0.42804453	) C N C C	-0.6852904
-0.54610664	= C N C C	-0.8576869
-0.49476066	c c N C C	-0.88970745
-0.4774193	c 6 N C C	-0.38319147
-0.6510906	6 ) N C C	-0.25315395
-0.69236976	) ) N C C	-0.63677603
-0.6744114	O ) N C C	-1.1087219
-0.4253899	) [C@@H] N C C	-0.25315395
-1.5280875	<s> N # C C	-0.2429372
-0.6246851	) C # C C	-0.32226327
-0.52489656	<s> N C C C	-0.2364949
-0.67259985	C N C C C	-0.8208864
-0.5548497	c N C C C	-0.80076635
-0.5548497	6 N C C C	-0.33751017
-0.7119784	) N C C C	-0.8900397
-0.50353354	N # C C C	-0.23791759
-0.5777272	C # C C C	-0.24060015
-0.39850083	<s> C C C C	-0.24308202
-0.48988664	N C C C C	-1.0509651
-0.42513067	# C C C C	-0.33751017
-0.5018242	C C C C C	-1.490312
-0.50611013	c C C C C	-0.23791759
-0.62969804	6 C C C C	-0.2429372
-0.5387523	) C C C C	-0.56003267
-0.6755757	= C C C C	-1.3709339
-0.6475546	O C C C C	-1.069904
-0.33763427	5 C C C C	-0.23791759
-0.33763427	[NH3+] C C C C	-0.25315395
-0.69713706	c c C C C	-0.23791759
-0.3741647	n c C C C	-0.23791759
-0.38070205	N 6 C C C	-0.23791759
-0.7881656	c 6 C C C	-0.2397041
-0.7957791	6 ) C C C	-0.24167685
-0.56986845	) ) C C C	-0.84750974
-0.8510625	O ) C C C	-0.8284573
-0.6228828	5 ) C C C	-0.23791759
-0.38953468	%10 ) C C C	-0.25315395
-0.7780709	C = C C C	-0.23791759
-0.7588662	O = C C C	-0.9582558
-0.09357119	<s> O C C C	-0.68232924
-0.7369198	C O C C C	-0.45834368
-0.51676863	c O C C C	-0.7202033
-0.59347314	) O C C C	-0.45834368
-0.63007444	C [C@H] C C C	-0.24060015
-0.55936635	) [C@H] C C C	-0.23791759
-0.76838696	n 5 C C C	-0.23791759
-0.20892271	<s> [NH3+] C C C	-0.25315395
-0.538331	C c c C C	-0.23791759
-0.54332674	c c c C C	-0.46155286
-0.48748145	6 ) c C C	-0.96349365
-0.26605406	) ) c C C	-0.2364949
-0.33752912	6 n c C C	-0.23791759
-0.18471427	c 5 c C C	-0.25315395
-0.50907797	C N 6 C C	-0.23791759
-0.70359385	c c 6 C C	-0.8195596
-0.20116885	C [C@H] 6 C C	-0.25315395
-0.44377652	= N ) C C	-0.2364949
-0.43134174	[C@H] C ) C C	-0.23791759
-0.53694195	C 6 ) C C	-0.29682797
-0.7944916	c 6 ) C C	-0.37616915
-0.68857497	n 6 ) C C	-0.66246367
-0.49824563	N ) ) C C	-0.60447174
-0.609761	C ) ) C C	-0.25315395
-0.7086574	6 ) ) C C	-0.4798882
-0.615078	) ) ) C C	-0.91901696
-0.64573616	O ) ) C C	-0.66246367
-0.49824563	3 ) ) C C	-0.25315395
-0.5714612	7 ) ) C C	-0.25315395
-0.6897202	5 ) ) C C	-0.2364949
-0.33228302	[O-] ) ) C C	-0.25315395
-0.7732453	C O ) C C	-0.25315395
-0.5707053	) O ) C C	-0.25315395
-0.74016505	= O ) C C	-0.67693025
-0.66037947	c 5 ) C C	-0.36143366
-0.5683612	n 5 ) C C	-0.25315395
-0.5683612	[nH] 5 ) C C	-0.25315395
-0.5683612	s 5 ) C C	-0.25315395
-0.6368312	o 5 ) C C	-0.25315395
-0.4844665	C 4 ) C C	-0.25315395
-0.19589306	C %10 ) C C	-0.25315395
-0.19589306	C [NH3+] ) C C	-0.25315395
-0.3155186	<s> C = C C	-0.66246367
-0.45638797	N C = C C	-0.25315395
-0.5164807	C C = C C	-0.2429372
-0.45638797	6 C = C C	-0.25315395
-0.4488555	) C = C C	-0.24060015
-0.3032875	[C@@H] C = C C	-0.45834368
-0.3801289	<s> O = C C	-1.0948912
-0.4011718	<s> C O C C	-0.25315395
-0.37330744	C C O C C	-1.092708
-0.22616398	6 C O C C	-0.25315395
-0.3503801	O C O C C	-0.25315395
-0.22616398	[C@H] C O C C	-0.23791759
-0.22616398	5 C O C C	-0.25315395
-0.69123477	c c O C C	-0.71361613
-0.5508601	c 6 O C C	-0.25315395
-0.6997659	) ) O C C	-0.2429372
-0.5225639	O ) O C C	-0.45834368
-0.56148976	C C [C@@H] C C	-0.25315395
-0.52929145	C N [C@H] C C	-0.25315395
-0.50736165	C C [C@H] C C	-0.25315395
-0.63132846	) C [C@H] C C	-0.25315395
-0.33848298	= C [C@H] C C	-0.23706342
-0.727577	O ) [C@H] C C	-0.57948613
-0.35610715	c N 5 C C	-0.25315395
-0.64737666	c c 5 C C	-0.71418464
-0.6976705	[nH] c 5 C C	-0.25315395
-0.5614785	o c 5 C C	-0.25315395
-0.7707242	c n 5 C C	-0.24160022
-0.28334028	C C S C C	-0.2364949
-0.27507338	C C [NH+] C C	-0.23791759
-0.11183625	C C [N@@H+] C C	-0.25315395
-0.28160498	C C [NH2+] C C	-0.25315395
-0.39221165	C C [C@@] C C	-0.25315395
-1.1606197	C N c c C	-0.25315395
-1.0879223	) N c c C	-0.71418464
-1.3229301	C C c c C	-0.36143366
-1.2969687	) C c c C	-0.23791759
-1.0439214	N c c c C	-0.5375249
-1.176856	C c c c C	-0.47291923
-1.5455815	c c c c C	-0.23791759
-1.1699548	O c c c C	-0.25315395
-0.8240448	Cl c c c C	-0.25315395
-1.3950436	) ) c c C	-0.25315395
-1.1171476	c 5 c c C	-0.25315395
-0.88188165	c 6 ) c C	-0.9122519
-0.6668951	O ) ) c C	-0.25315395
-0.43996757	Cl ) ) c C	-0.23791759
-0.4989553	C C n c C	-0.25315395
-1.0379249	N c n c C	-0.25315395
-0.6506894	c 6 n c C	-0.23791759
-0.17838138	c n 7 c C	-0.25315395
-0.93098915	c c 5 c C	-0.23791759
-0.54018897	C C N 6 C	-0.23791759
-0.2737402	c C N 6 C	-0.25315395
-0.4129531	c c N 6 C	-0.23791759
-0.6692095	c c C 6 C	-0.25315395
-0.9325201	c c c 6 C	-1.121259
-0.7790064	) c c 6 C	-0.41579536
-0.8979336	n c c 6 C	-0.23791759
-0.8116747	c n c 6 C	-0.5076813
-0.788377	c c n 6 C	-0.23791759
-0.38398057	N C [C@@H] 6 C	-0.25315395
-0.10750085	N C [C@H] 6 C	-0.25315395
-0.492986	C = N ) C	-0.2364949
-0.28015333	) = N ) C	-0.45834368
-0.09464189	C N C ) C	-0.9207417
-0.16476257	) N C ) C	-0.23791759
-0.1733794	N C C ) C	-0.36143366
-0.28222203	C C C ) C	-0.2364949
-0.1733794	6 C C ) C	-0.25315395
-0.19404101	) C C ) C	-0.49973634
-0.1733794	[C@H] C C ) C	-0.25315395
-0.28722122	C 6 C ) C	-0.25315395
-0.7830127	C ) C ) C	-0.25315395
-0.45972678	6 ) C ) C	-0.25315395
-0.45972678	O ) C ) C	-0.23791759
-0.50552094	C = C ) C	-0.25315395
-0.16269703	6 [C@H] C ) C	-0.23791759
-0.15474162	C [NH+] C ) C	-0.25315395
-0.6890414	N C 6 ) C	-0.23791759
-0.7937381	C C 6 ) C	-0.24308202
-0.35313383	[C@@H] C 6 ) C	-0.2429372
-0.5128379	[C@H] C 6 ) C	-0.2364949
-1.0276649	c c 6 ) C	-0.8312045
-0.8146403	c n 6 ) C	-0.8401923
-0.9825381	) N ) ) C	-0.54163015
-0.7232957	C C ) ) C	-0.25315395
-0.90740675	) C ) ) C	-0.24474458
-0.6227595	7 C ) ) C	-0.25315395
-0.8345526	C 6 ) ) C	-1.0918934
-0.78958803	c 6 ) ) C	-0.40850714
-0.80049646	n 6 ) ) C	-0.25315395
-0.80223465	N ) ) ) C	-0.2429372
-1.0292603	C ) ) ) C	-0.2409224
-0.75749165	6 ) ) ) C	-0.25315395
-0.7630193	) ) ) ) C	-1.166081
-0.71540195	F ) ) ) C	-0.2429372
-0.71540195	4 ) ) ) C	-0.33751017
-0.80223465	Cl ) ) ) C	-0.25315395
-0.694778	6 O ) ) C	-0.25315395
-0.63655317	) O ) ) C	-0.5380934
-0.63655317	= O ) ) C	-0.2429372
-0.5804895	C 3 ) ) C	-0.2429372
-0.44968632	C 7 ) ) C	-0.25315395
-0.75107116	c 5 ) ) C	-0.25315395
-0.72031707	[nH] 5 ) ) C	-0.45145354
-0.57395464	s 5 ) ) C	-0.25315395
-0.44968632	) [O-] ) ) C	-0.25315395
-0.19922274	[nH] 8 ) ) C	-0.23791759
-0.35017592	C C O ) C	-0.25315395
-0.43736053	) C O ) C	-0.25315395
-0.7309242	) ) O ) C	-0.25315395
-0.75466883	C = O ) C	-1.1429268
-0.8067856	) = O ) C	-0.8961451
-0.4948279	5 = O ) C	-0.2364949
-1.0655075	S = O ) C	-0.25315395
-0.20510061	C [C@H] O ) C	-0.25315395
-0.35770985	F C F ) C	-0.25315395
-0.43785006	N C 5 ) C	-0.25315395
-0.6772588	C C 5 ) C	-0.23791759
-0.2901749	[C@H] C 5 ) C	-0.25315395
-0.79657257	c c 5 ) C	-0.32226327
-0.5354745	n c 5 ) C	-0.46155286
-0.56773466	c n 5 ) C	-0.25315395
-0.5019699	n n 5 ) C	-0.25315395
-0.66770697	c [nH] 5 ) C	-0.24546899
-0.7019931	c s 5 ) C	-0.44720203
-0.6539533	c o 5 ) C	-0.25315395
-0.2606828	N C 4 ) C	-0.25315395
-0.39696118	C C 4 ) C	-0.25315395
-0.3958534	C C %10 ) C	-0.25315395
-0.16816582	[C@H] C [NH3+] ) C	-0.25315395
-0.15142013	C / N = C	-0.25315395
-0.6946493	) N C = C	-0.23791759
-0.5460235	N C C = C	-0.25315395
-0.7879394	C C C = C	-0.23791759
-0.7085981	) C C = C	-0.36143366
-0.5388358	= C C = C	-0.23791759
-0.2905517	[C@H] C C = C	-0.80076635
-0.3534579	c c C = C	-0.23791759
-0.41355622	c 6 C = C	-0.25315395
-0.8697561	) ) C = C	-0.2429372
-0.47586867	O ) C = C	-0.38319147
-0.39662123	) [C@@H] C = C	-0.45834368
-0.26043442	) [C@H] C = C	-0.25315395
-0.64856505	c 5 C = C	-0.25315395
-0.14433718	C [C-] C = C	-0.25315395
-0.14433718	) [C-] C = C	-0.25315395
-0.1790443	N / C = C	-0.66246367
-0.28872108	C / C = C	-0.25315395
-0.14229819	) / C = C	-0.66246367
-0.5717082	c [nH] c = C	-0.25315395
-0.2988216	<s> C C O C	-0.25315395
-0.3793193	N C C O C	-1.1875647
-0.3152971	C C C O C	-0.66246367
-0.38536784	c 6 C O C	-0.25315395
-0.6634556	) ) C O C	-0.25315395
-0.34422475	C O C O C	-0.25315395
-0.22153166	) O C O C	-0.25315395
-0.2521816	C [C@H] C O C	-0.23791759
-0.161928	n 5 C O C	-0.25315395
-0.38089874	c c c O C	-0.7837722
-0.32240662	6 c c O C	-0.25315395
-0.48384804	5 c c O C	-0.25315395
-0.18226027	C n c O C	-0.25315395
-0.59177613	c c 6 O C	-0.25315395
-0.39951944	c 6 ) O C	-0.2429372
-0.26255056	n 6 ) O C	-0.23791759
-0.7225304	6 ) ) O C	-0.25315395
-0.71691895	) ) ) O C	-0.24160022
-0.6636386	= O ) O C	-0.41669142
-1.2906716	) c c n C	-0.25315395
-0.46841678	c c 6 n C	-0.2364949
-0.5067586	c 6 ) n C	-0.25315395
-0.5745125	C C C 3 C	-0.23791759
-0.14785229	[C@@H] [C@@H] [C@H] 3 C	-0.25315395
-0.22392899	[C@@H] C N 7 C	-0.23791759
-0.1388387	[C@@H] [C@@H] N 7 C	-0.25315395
-0.14718422	C C N [C@@H] C	-0.2364949
-0.30981982	) N C [C@@H] C	-0.25315395
-0.44608164	N C C [C@@H] C	-0.25315395
-0.29601765	) C C [C@@H] C	-0.25315395
-0.037998956	<s> O C [C@@H] C	-0.75937366
-0.15818153	c 6 ) [C@@H] C	-0.45834368
-0.42639154	6 ) ) [C@@H] C	-0.25315395
-0.37911886	= O ) [C@@H] C	-0.23791759
-0.3733071	C C O [C@@H] C	-0.23791759
-0.11082579	<s> C N [C@H] C	-0.25315395
-0.11082579	C C N [C@H] C	-0.23791759
-0.109523244	O ) N [C@H] C	-1.2065318
-0.18506089	6 C C [C@H] C	-0.25315395
-0.18506089	) C C [C@H] C	-0.25315395
-0.12554973	) ) C [C@H] C	-0.23883602
-0.13176739	5 ) C [C@H] C	-0.25315395
-0.37581608	O = C [C@H] C	-0.45834368
-0.07604846	<s> O C [C@H] C	-0.36143366
-0.13017966	<s> Cl C [C@H] C	-0.25315395
-0.081967816	c c 6 [C@H] C	-0.23791759
-0.07453784	c 6 ) [C@H] C	-0.25315395
-0.07453784	= O ) [C@H] C	-0.51483816
-0.12813291	C C O [C@H] C	-0.25315395
-0.37086463	N [C@H] O [C@H] C	-0.25315395
-0.21915482	N C [C@@H] [C@H] C	-0.25315395
-0.21915482	C C [C@@H] [C@H] C	-0.25315395
-0.081967816	c c 5 [C@H] C	-0.25315395
-0.44815856	C C N 5 C	-0.36143366
-0.30644903	5 C N 5 C	-0.25315395
-0.18685187	c c N 5 C	-0.25315395
-0.82631636	C C C 5 C	-0.33751017
-0.80068475	[nH] c c 5 C	-0.71682537
-0.60304433	c n c 5 C	-0.2429372
-0.5330128	[nH] n c 5 C	-0.25315395
-0.6837441	c [nH] c 5 C	-0.42083582
-0.19705665	c o c 5 C	-0.25315395
-0.7824906	c c n 5 C	-0.25315395
-0.5927343	) c n 5 C	-0.53916234
-0.10986348	C C [C@@H] 5 C	-0.45834368
-0.16377212	C [C@@H] [C@H] 5 C	-0.25315395
-0.11467545	6 [C@@H] [C@H] %10 C	-0.25315395
-0.48842445	N C C S C	-0.2364949
-0.023647275	<s> F C S C	-0.98982257
-0.065725304	N C C [NH+] C	-0.25315395
-0.065725304	C C C [NH+] C	-0.25315395
-0.064992726	) c C [NH+] C	-0.25315395
-0.064992726	) ) C [NH+] C	-0.25315395
-0.056884643	C = C [C-] C	-0.25315395
-0.056884643	C 6 ) [C-] C	-0.25315395
-0.08409101	) ) N / C	-0.66246367
-0.15943865	) ) C / C	-0.25315395
-0.5202401	C = C / C	-0.25315395
-0.09187642	c 6 ) / C	-0.25315395
-0.09187642	) ) ) / C	-0.25315395
-0.092945985	= O ) / C	-0.5375249
-0.092945985	\ O ) / C	-0.25315395
-0.06236277	C C C [N@@H+] C	-0.25315395
-0.071011774	N C C [NH2+] C	-0.25315395
-0.071011774	O ) C [NH2+] C	-0.25315395
-0.07805767	[C@@] C ) [NH2+] C	-0.25315395
-0.063063495	C C C [C@@] C	-0.25315395
-0.063063495	) C C [C@@] C	-0.25315395
-0.014144167	<s> C C N c	-1.0815929
-0.7351875	N C C N c	-0.2364949
-0.7982158	C C C N c	-0.2429372
-0.70993453	c C C N c	-0.23791759
-0.584222	6 C C N c	-0.25315395
-0.7366715	) C C N c	-0.36143366
-0.6898187	O C C N c	-0.25315395
-0.46472627	c 6 C N c	-0.25315395
-0.602475	6 ) C N c	-0.2429372
-0.9004657	) ) C N c	-0.2364949
-0.33385763	N = C N c	-0.36143366
-0.50055504	O = C N c	-1.2468827
-0.8042448	C ) ) N c	-0.36143366
-0.6660082	6 ) ) N c	-0.75248355
-0.7522733	) ) ) N c	-1.6344349
-0.8813068	= O ) N c	-1.5914388
-0.107120454	[C@H] O [C@H] N c	-0.23791759
-0.29237705	= C / N c	-0.25315395
-0.112302996	) ) \ N c	-0.25315395
-0.8234223	<s> C N C c	-0.5375249
-1.3396473	C C N C c	-0.25315395
-0.81631726	= C N C c	-0.33751017
-1.0123541	) ) N C c	-0.54163015
-0.87150234	O ) N C c	-1.0604037
-0.22629677	C = N C c	-0.25315395
-0.024732938	<s> N # C c	-1.3559707
-0.023334352	<s> C # C c	-0.63443494
-0.09483465	C C # C c	-0.5375249
-0.22638068	) C # C c	-0.873317
-0.16512786	Br C # C c	-0.25315395
-0.80110514	<s> N C C c	-0.23791759
-1.1381801	C N C C c	-0.2364949
-0.98298126	) N C C c	-1.3034418
-0.6024226	N # C C c	-0.25315395
-1.132371	<s> C C C c	-0.25315395
-1.0092748	N C C C c	-0.66246367
-1.2134019	C C C C c	-0.36143366
-0.9746835	) C C C c	-0.2364949
-0.7681497	[C@H] C C C c	-0.25315395
-0.8250008	6 ) C C c	-0.71361613
-0.5819162	) ) C C c	-0.66246367
-0.884783	O ) C C c	-0.36143366
-0.80284184	5 ) C C c	-0.24060015
-0.6030533	4 ) C C c	-0.25315395
-0.8687735	O = C C c	-1.1156614
-0.21885839	C [C@@H] C C c	-0.25315395
-0.3877358	N [C@H] C C c	-0.25315395
-0.7913632	C [C@H] C C c	-0.25315395
-0.6144368	c 5 C C c	-0.2364949
-0.21885839	C [C@@] C C c	-0.25315395
-0.96446025	c c 6 C c	-0.45834368
-0.20822583	c n 6 C c	-0.23791759
-0.20822583	C [C@@H] 6 C c	-0.25315395
-0.900399	n 6 ) C c	-1.0604037
-0.9599788	C ) ) C c	-0.25315395
-0.97687197	6 ) ) C c	-1.0918121
-1.0326767	) ) ) C c	-1.2778876
-0.8765167	O ) ) C c	-0.23791759
-0.76066476	7 ) ) C c	-0.25315395
-1.093166	= O ) C c	-1.1700191
-1.0454605	c 5 ) C c	-0.25315395
-0.42935544	<s> C = C c	-0.60447174
-0.669439	N C = C c	-0.23791759
-1.3277301	<s> O = C c	-0.8385549
-0.8892196	C C O C c	-0.25315395
-0.36866158	n c O C c	-0.25315395
-0.841624	) ) O C c	-0.25315395
-0.19231576	c c n C c	-0.25315395
-0.42085326	Cl C [C@H] C c	-0.25315395
-0.75010806	O ) [C@H] C c	-0.2364949
-0.321489	[C@H] O [C@H] C c	-0.25315395
-0.5461783	C N 5 C c	-0.25315395
-0.71878415	n c 5 C c	-0.25315395
-0.7787133	[nH] c 5 C c	-0.2397041
-0.792636	c n 5 C c	-0.45834368
-0.11743098	[C@@H] [C@H] %10 C c	-0.25315395
-0.1925531	<s> C N c c	-0.25315395
-0.21636398	C C N c c	-1.129158
-0.30618978	6 C N c c	-0.25315395
-0.25722337	) C N c c	-0.36143366
-0.29983374	= C N c c	-0.95130694
-0.2908175	) ) N c c	-1.5470252
-0.4027163	O ) N c c	-1.3205947
-0.12610295	O [C@H] N c c	-0.23791759
-0.12610295	C / N c c	-0.25315395
-0.12610295	) \ N c c	-0.25315395
-0.2625235	C N C c c	-0.4351307
-0.2697427	) N C c c	-1.1907375
-0.27910343	N # C c c	-1.2687993
-0.18532157	C # C c c	-0.9619397
-0.008098685	<s> C C c c	-1.1573137
-0.0726087	N C C c c	-0.7609753
-0.089469574	# C C c c	-0.25315395
-0.042093825	C C C c c	-0.42580944
-0.14173986	) C C c c	-0.7179004
-0.1764939	= C C c c	-0.70053035
-0.089469574	[C@@H] C C c c	-0.25315395
-0.0854466	[C@H] C C c c	-0.25315395
-0.089469574	[C@@] C C c c	-0.25315395
-0.092127055	c 6 C c c	-0.23706342
-0.092127055	n 6 C c c	-0.23791759
-0.092127055	[C@@H] 6 C c c	-0.25315395
-0.12350399	6 ) C c c	-1.0604037
-0.1238953	) ) C c c	-1.0621139
-0.21845514	O ) C c c	-0.80076635
-0.12350399	5 ) C c c	-0.25315395
-0.24616292	C = C c c	-0.23791759
-0.14562914	O = C c c	-0.8385549
-0.009762351	<s> O C c c	-0.96349365
-0.067199424	C O C c c	-0.25315395
-0.067199424	c O C c c	-0.25315395
-0.067199424	) O C c c	-0.25315395
-0.09547793	c n C c c	-0.25315395
-0.09547793	<s> F C c c	-0.25315395
-0.14562914	) [C@H] C c c	-0.2429372
-0.14562914	O [C@H] C c c	-0.25315395
-0.15305814	N 5 C c c	-0.25315395
-0.25084782	c 5 C c c	-0.23791759
-0.15305814	n 5 C c c	-0.45834368
-0.09547793	<s> Cl C c c	-0.25315395
-0.09547793	[C@H] %10 C c c	-0.25315395
-0.24382952	<s> N c c c	-0.23791759
-0.28809	C N c c c	-1.0159051
-0.5014163	) N c c c	-1.580101
-0.25792694	[C@H] N c c c	-0.23791759
-0.25792694	/ N c c c	-0.25315395
-0.07679543	<s> C c c c	-0.31624466
-0.32955486	N C c c c	-1.2507354
-0.3850377	# C c c c	-1.1325824
-0.34773055	C C c c c	-1.0097936
-0.23284225	6 C c c c	-0.5375249
-0.32840925	) C c c c	-1.1129117
-0.3370139	= C c c c	-0.8385549
-0.12096966	O C c c c	-0.73709726
-0.21608439	n C c c c	-0.25315395
-0.21608439	F C c c c	-0.25315395
-0.28388742	[C@H] C c c c	-0.23791759
-0.28388742	5 C c c c	-0.5375249
-0.21608439	Cl C c c c	-0.25315395
-0.21608439	%10 C c c c	-0.25315395
-0.33673865	N c c c c	-1.7622594
-0.33111635	C c c c c	-1.5529678
-0.37399408	c c c c c	-2.2771497
-0.27496684	6 c c c c	-0.6267243
-0.33976066	) c c c c	-1.2428582
-0.24973626	= c c c c	-0.25315395
-0.28158084	O c c c c	-1.3162447
-0.30518937	n c c c c	-1.1496128
-0.24973626	3 c c c c	-0.25315395
-0.24973626	F c c c c	-0.66246367
-0.24973626	7 c c c c	-0.2364949
-0.24973626	[C@@H] c c c c	-0.25315395
-0.24973626	[C@H] c c c c	-0.2364949
-0.24041505	5 c c c c	-0.9812224
-0.43693492	Cl c c c c	-1.2778876
-0.24973626	Br c c c c	-0.45834368
-0.24973626	/ c c c c	-0.60447174
-0.24973626	I c c c c	-0.25315395
-0.36031526	N 6 c c c	-0.45834368
-0.22119921	C 6 c c c	-0.2364949
-0.3836152	c 6 c c c	-0.63500345
-0.36031526	n 6 c c c	-0.25315395
-0.5271365	C ) c c c	-0.54163015
-0.3346162	6 ) c c c	-0.80076635
-0.3111566	) ) c c c	-1.3506966
-0.5233163	O ) c c c	-0.9196364
-0.49254575	F ) c c c	-0.33751017
-0.21763712	5 ) c c c	-0.60447174
-0.49254575	Cl ) c c c	-0.60447174
-0.49254575	%10 ) c c c	-0.80076635
-0.16146387	O = c c c	-0.25315395
-0.06283536	<s> O c c c	-0.32226327
-0.15057106	C O c c c	-0.6978947
-0.17120062	c O c c c	-0.36143366
-0.16274661	6 O c c c	-0.66246367
-0.17120062	) O c c c	-1.174347
-0.33987692	C n c c c	-0.2364949
-0.33538574	c n c c c	-1.5494242
-0.2649203	6 n c c c	-0.25315395
-0.20534132	) n c c c	-0.68422145
-0.40277112	n n c c c	-0.25315395
-0.16146387	[C@H] 3 c c c	-0.25315395
-0.04396976	<s> F c c c	-0.66246367
-0.16146387	N 7 c c c	-0.2364949
-0.16146387	) [C@@H] c c c	-0.25315395
-0.32452482	C [C@H] c c c	-0.2364949
-0.26301828	N 5 c c c	-0.23791759
-0.5551742	c 5 c c c	-1.1395849
-0.20457648	n 5 c c c	-0.66246367
-0.40016073	[C@H] 5 c c c	-0.71418464
-0.008663703	<s> Cl c c c	-0.9248248
-0.16146387	C S c c c	-0.25315395
-0.63756144	c [nH] c c c	-0.25315395
-0.43139106	c s c c c	-0.25315395
-0.072660565	<s> Br c c c	-0.45834368
-0.16146387	C / c c c	-0.60447174
-0.16146387	<s> I c c c	-0.25315395
-0.109482475	C N 6 c c	-0.45834368
-0.109482475	) N 6 c c	-0.25315395
-0.10444632	C C 6 c c	-0.23791759
-0.109482475	O C 6 c c	-0.25315395
-0.18770103	N c 6 c c	-0.23791759
-0.22587448	c c 6 c c	-0.82786596
-0.109482475	c n 6 c c	-0.25315395
-0.109482475	) n 6 c c	-0.23791759
-0.12170344	c C ) c c	-0.7159573
-0.12770122	n C ) c c	-0.2364949
-0.14450885	N 6 ) c c	-0.23791759
-0.08383557	C 6 ) c c	-0.41422358
-0.30513933	c 6 ) c c	-0.6694961
-0.14450885	n 6 ) c c	-0.23791759
-0.14450885	o 6 ) c c	-0.25315395
-0.07406773	C ) ) c c	-0.61727464
-0.22748934	6 ) ) c c	-0.75937366
-0.24709852	) ) ) c c	-1.3264222
-0.2706629	O ) ) c c	-0.37515286
-0.16495176	F ) ) c c	-0.25315395
-0.16495176	5 ) ) c c	-0.25315395
-0.29732126	c O ) c c	-0.572287
-0.18427911	= O ) c c	-0.8656558
-0.12616992	c F ) c c	-0.53986603
-0.12414642	c 5 ) c c	-0.2364949
-0.12414642	O 5 ) c c	-0.25315395
-0.12414642	[nH] 5 ) c c	-0.25315395
-0.12414642	s 5 ) c c	-0.23706342
-0.120254464	c Cl ) c c	-0.53986603
-0.12616992	C %10 ) c c	-0.5698292
-0.49204496	<s> O = c c	-0.25315395
-0.059626397	<s> C O c c	-0.7361607
-0.19795614	C C O c c	-0.25315395
-0.19795614	) C O c c	-0.23791759
-0.106955044	= C O c c	-0.25315395
-0.106955044	O C O c c	-0.25315395
-0.078518316	c c O c c	-0.36143366
-0.07941777	c 6 O c c	-0.5375249
-0.07941777	[C@@H] 6 O c c	-0.23791759
-0.07503126	) ) O c c	-1.174347
-0.078518316	C 5 O c c	-0.25315395
-0.43409	C C n c c	-0.23791759
-0.3717903	) C n c c	-0.25315395
-0.30902156	N c n c c	-0.7809182
-0.2598746	C c n c c	-0.7554658
