\data\
ngram 1=49
ngram 2=433
ngram 3=1668
ngram 4=4174
ngram 5=7793
ngram 6=11542
ngram 7=14264
ngram 8=15368
ngram 9=14733
ngram 10=12433

\1-grams:
-2.5432122	<unk>	0
0	<s>	-2.4760923
-1.3875445	</s>	0
-1.3637279	O	-0.6831682
-1.3875445	=	-0.6723123
-1.163153	C	-0.95870286
-1.2797054	c	-0.74154174
-1.7477703	[nH]	-0.45048243
-1.4127433	n	-0.6855798
-1.3411499	5	-0.6960633
-1.9607477	o	-0.41063514
-1.2430955	N	-0.7308393
-2.0636647	#	-0.36104938
-1.5313327	/	-0.5673648
-1.4394947	)	-0.6546551
-1.8078549	\	-0.39931688
-1.6055005	4	-0.5185042
-1.5668352	6	-0.7303734
-1.8776075	[O-]	-0.31164294
-1.5313327	[N+]	-0.5582203
-1.3637279	[C@@H]	-0.6527622
-1.3875445	[C@H]	-0.66728383
-1.6949972	[N-]	-0.501813
-1.7477703	F	-0.3898393
-1.6949972	[NH+]	-0.48517248
-1.6055005	[NH3+]	-0.58633155
-1.6949972	S	-0.39587292
-1.8078549	[n+]	-0.58633155
-1.5668352	[NH2+]	-0.47514597
-2.0636647	[C@]	-0.30998644
-1.4680027	3	-0.5991917
-1.9607477	[C@@]	-0.32787943
-2.0636647	7	-0.5221753
-2.1988034	[nH+]	-0.33878267
-2.0636647	s	-0.34826872
-1.6055005	Cl	-0.51555073
-1.8776075	P	-0.3329141
-2.3960426	[P@@]	-0.24755414
-2.3960426	[n-]	-0.24755414
-2.3960426	[S@]	-0.24755414
-2.3960426	[o+]	-0.24755414
-2.2863207	[C-]	-0.24755414
-2.3960426	[S-]	-0.24755414
-2.3960426	p	-0.24755414
-2.2863207	[O+]	-0.24755414
-2.3960426	[P@H]	-0.24755414
-2.3960426	8	-0.24755414
-2.3960426	[C+]	-0.24755414
-2.3960426	[S+]	-0.24755414

\2-grams:
-1.0806227	O </s>	0
-1.4166775	C </s>	0
-0.593659	5 </s>	0
-1.1370674	N </s>	0
-0.67295176	4 </s>	0
-0.23962207	6 </s>	0
-0.71025854	[O-] </s>	0
-1.2806687	[N-] </s>	0
-0.6195877	F </s>	0
-0.5572403	[NH3+] </s>	0
-1.1490335	S </s>	0
-1.5704942	[NH2+] </s>	0
-0.8010848	3 </s>	0
-0.14762719	7 </s>	0
-0.67285067	Cl </s>	0
-1.377765	P </s>	0
-0.61904734	[C-] </s>	0
-0.33946517	8 </s>	0
-0.7409799	<s> O	-1.7056254
-1.3854895	O O	-0.29231057
-0.65030736	= O	-0.8242118
-1.2766137	C O	-0.6053623
-1.1425786	5 O	-0.35616624
-1.3307114	N O	-0.3544299
-1.2633623	/ O	-0.28431714
-1.0977888	) O	-0.42311352
-1.0497384	\ O	-0.26359826
-1.3068856	4 O	-0.26606548
-1.6064645	[N+] O	-0.23120704
-1.0032247	[C@@H] O	-0.47086
-1.0046121	[C@H] O	-0.498664
-1.143389	S O	-0.26606548
-1.2820631	[C@] O	-0.23120704
-0.9385594	3 O	-0.29576546
-1.2695109	[C@@] O	-0.23120704
-1.122723	P O	-0.23120704
-1.0627645	[S-] O	-0.23120704
-1.9143711	O =	-0.23120704
-1.1559608	C =	-0.9134978
-1.3857334	c =	-0.39551145
-1.5891733	5 =	-0.24828665
-1.0318234	N =	-0.6076717
-1.8864479	) =	-0.23120704
-1.5622923	4 =	-0.23120704
-1.5158463	6 =	-0.23120704
-0.61855155	[N+] =	-0.551038
-1.2806687	[N-] =	-0.23120704
-0.79914653	[NH+] =	-0.54163945
-1.3161299	S =	-0.23120704
-1.5704942	[NH2+] =	-0.23120704
-1.3062882	3 =	-0.29860145
-0.9443581	P =	-0.26606548
-0.33946517	[P@@] =	-0.23120704
-0.33946517	[S@] =	-0.23120704
-0.33946517	[P@H] =	-0.23120704
-0.21669094	<s> C	-2.041997
-0.8821383	O C	-0.5085511
-0.6758526	= C	-0.44512695
-1.0889844	C C	-0.80697
-0.895753	5 C	-0.3918084
-0.95304346	N C	-0.5726177
-0.6388531	# C	-0.27475977
-0.52359635	/ C	-0.4741992
-0.88435626	) C	-0.6241015
-0.856023	\ C	-0.28179553
-0.7298721	4 C	-0.38561833
-1.2170442	[O-] C	-0.23120704
-0.7955715	[N+] C	-0.3749467
-0.7319577	[C@@H] C	-0.6330985
-0.76101464	[C@H] C	-0.6327877
-0.26064548	[N-] C	-0.5996314
-1.2712557	F C	-0.23120704
-0.64116067	[NH+] C	-0.38762936
-1.3773525	[NH3+] C	-0.23120704
-0.6315164	S C	-0.34630132
-0.4949731	[NH2+] C	-0.39844346
-0.6317105	[C@] C	-0.27041844
-0.6807971	3 C	-0.4611432
-0.60639405	[C@@] C	-0.27041844
-1.3582985	Cl C	-0.23120704
-0.746719	P C	-0.3634411
-0.99606496	[S-] C	-0.23120704
-0.7359646	[O+] C	-0.23120704
-0.3248415	[C+] C	-0.23120704
-0.3248415	[S+] C	-0.23120704
-3.5815222	<s> c	-0.23120704
-1.5828569	O c	-0.30758426
-1.0069805	= c	-0.308493
-1.6499679	C c	-0.50130516
-0.64983547	c c	-0.7774322
-0.643546	[nH] c	-0.3641823
-0.5131542	n c	-0.58857346
-1.7492096	5 c	-0.23120704
-0.6277577	o c	-0.29722008
-1.3793732	N c	-0.44515276
-1.5554823	) c	-0.23120704
-1.2775351	[O-] c	-0.23120704
-1.5637975	[N+] c	-0.23120704
-1.3282733	F c	-0.23120704
-1.465049	S c	-0.23120704
-0.18187869	[n+] c	-0.33496192
-1.644714	3 c	-0.23120704
-0.6040993	[nH+] c	-0.2846034
-0.69174004	s c	-0.2846034
-1.4101564	Cl c	-0.23120704
-1.3254421	P c	-0.23120704
-1.0373094	[S-] c	-0.23120704
-0.33331203	p c	-0.23120704
-3.8345804	<s> [nH]	-0.23120704
-1.1360996	c [nH]	-0.43566412
-1.5981591	[nH] [nH]	-0.23120704
-1.2244048	n [nH]	-0.2844125
-1.3939896	o [nH]	-0.23120704
-1.8722287	) [nH]	-0.26606548
-1.2040962	[nH+] [nH]	-0.23120704
-1.2884936	s [nH]	-0.23120704
-1.6334618	O n	-0.32360944
-1.6805826	C n	-0.50543797
-0.70476735	c n	-0.6736761
-1.2264726	[nH] n	-0.27062634
-0.73533535	n n	-0.4365526
-1.018605	o n	-0.27338597
-1.587732	N n	-0.39551145
-1.7441441	) n	-0.26606548
-1.3370694	[O-] n	-0.23120704
-1.3839157	F n	-0.23120704
-1.5420616	S n	-0.23120704
-1.2343524	[n+] n	-0.23120704
-0.8268102	[nH+] n	-0.23120704
-0.91235274	s n	-0.25708506
-1.4601372	Cl n	-0.23120704
-0.34070635	[n-] n	-0.23120704
-1.0760745	[S-] n	-0.23120704
-1.3000156	O 5	-0.44854817
-1.3240854	C 5	-0.62596035
-1.1072248	c 5	-0.39067978
-0.741626	[nH] 5	-0.4746927
-0.977307	n 5	-0.4285077
-0.63274693	o 5	-0.39551145
-1.2185353	N 5	-0.47604045
-1.2584099	/ 5	-0.32360944
-1.0452769	\ 5	-0.32360944
-1.503775	6 5	-0.23120704
-1.1851453	[C@@H] 5	-0.40523472
-1.2719427	[C@H] 5	-0.4047938
-1.3302879	[NH+] 5	-0.23120704
-1.299748	S 5	-0.2846034
-1.221175	[n+] 5	-0.23120704
-1.1564448	[NH2+] 5	-0.29860145
-0.817651	[nH+] 5	-0.26606548
-0.698427	s 5	-0.32360944
-1.3560737	P 5	-0.23120704
-0.7679997	[O+] 5	-0.23120704
-1.1436285	c o	-0.4047938
-1.3050236	[nH] o	-0.26606548
-1.2349366	n o	-0.29860145
-1.4239584	o o	-0.23120704
-2.1980054	) o	-0.23120704
-1.0772746	<s> N	-1.2946199
-1.1082635	O N	-0.43288383
-0.9297049	= N	-0.37261745
-1.2642777	C N	-0.5371274
-1.0387148	5 N	-0.42984867
-1.1195357	N N	-0.403976
-0.84901553	# N	-0.2846034
-0.8138331	/ N	-0.3906558
-1.036607	) N	-0.49140128
-0.8706196	\ N	-0.30356896
-0.9438625	4 N	-0.29860145
-1.0083456	[N+] N	-0.23120704
-1.1683863	[C@@H] N	-0.34690005
-1.1710695	[C@H] N	-0.34690005
-1.2404007	[N-] N	-0.23120704
-1.3112047	F N	-0.23120704
-1.2965287	[NH+] N	-0.23120704
-1.4095088	[NH3+] N	-0.23120704
-1.2613082	S N	-0.23120704
-1.2927914	[NH2+] N	-0.2846034
-1.2290081	[C@] N	-0.23120704
-1.4293413	3 N	-0.2846034
-1.2198502	[C@@] N	-0.23120704
-1.3061589	P N	-0.23120704
-0.7516868	[O+] N	-0.23120704
-1.3926976	C #	-0.89540905
-2.3466303	N #	-0.23120704
-0.8431248	[N+] #	-0.4303879
-0.6534017	[C-] #	-0.23120704
-1.670803	O /	-0.284358
-1.4313174	C /	-0.5030228
-1.5116135	N /	-0.39820322
-1.6436841	) /	-0.25708506
-1.3818381	[O-] /	-0.23120704
-1.6795301	[N+] /	-0.23120704
-1.7300966	[C@@H] /	-0.25708506
-1.7351466	[C@H] /	-0.25708506
-1.4254125	F /	-0.23120704
-1.6421942	[NH+] /	-0.23120704
-1.6022171	S /	-0.23120704
-1.4969695	Cl /	-0.23120704
-1.1039842	[S-] /	-0.23120704
-0.96849895	O )	-0.4182909
-1.2829157	C )	-0.65078396
-0.7679707	5 )	-0.58867836
-1.1422093	N )	-0.5649175
-0.9088651	) )	-0.5952329
-0.9685913	4 )	-0.29839247
-0.6847425	6 )	-0.34975395
-1.0789554	[O-] )	-0.25708506
-1.2928946	[N-] )	-0.23120704
-0.7461649	F )	-0.3286472
-0.4121854	[NH3+] )	-0.37051573
-1.3331541	S )	-0.24828665
-1.5962265	[NH2+] )	-0.23120704
-0.86904776	3 )	-0.4997007
-0.43311146	Cl )	-0.3634411
-1.1416756	P )	-0.2846034
-2.1604981	O \	-0.23120704
-2.163437	C \	-0.23120704
-2.0046124	N \	-0.25178465
-1.8891052	) \	-0.23120704
-2.0728092	[C@@H] \	-0.23120704
-2.0786965	[C@H] \	-0.23120704
-1.7385199	[NH+] \	-0.23120704
-1.5397536	O 4	-0.38676548
-1.4727867	C 4	-0.5779887
-1.2639745	[nH] 4	-0.2846034
-1.7799809	N 4	-0.27495533
-1.077503	[C@@H] 4	-0.4597607
-1.0784459	[C@H] 4	-0.4040919
-1.0310745	[NH2+] 4	-0.30758426
-1.3646901	[C@] 4	-0.23120704
-1.3460195	[C@@] 4	-0.23120704
-1.2630341	s 4	-0.23120704
-1.4635546	P 4	-0.23120704
-1.4223902	O 6	-0.38676548
-1.5964388	C 6	-0.46326977
-1.5754542	c 6	-0.29860145
-1.0565778	[nH] 6	-0.32360944
-1.5751648	n 6	-0.2846034
-1.3569995	o 6	-0.23120704
-1.4314954	N 6	-0.38676548
-1.6568367	[NH+] 6	-0.23120704
-1.3693457	S 6	-0.2846034
-1.1967813	[NH2+] 6	-0.26606548
-1.4502119	P 6	-0.23120704
-0.34696588	[o+] 6	-0.23120704
-1.3328774	<s> [O-]	-1.2700027
-2.3499768	C [O-]	-0.2846034
-1.486297	5 [O-]	-0.32360944
-1.8559157	/ [O-]	-0.23120704
-1.4300109	) [O-]	-0.44854817
-1.6446503	\ [O-]	-0.23120704
-2.0094643	O [N+]	-0.23120704
-1.2431315	= [N+]	-0.30356896
-1.7699682	C [N+]	-0.4047938
-1.42649	N [N+]	-0.3608319
-0.6724451	# [N+]	-0.24580522
-1.127334	/ [N+]	-0.29388508
-1.9816854	) [N+]	-0.23120704
-1.535947	\ [N+]	-0.23120704
-1.3818381	[O-] [N+]	-0.23120704
-1.5652359	[C@@H] [N+]	-0.26606548
-1.9460093	[C@H] [N+]	-0.23120704
-1.6421942	[NH+] [N+]	-0.23120704
-1.3800975	[NH2+] [N+]	-0.2846034
-1.0781251	O [C@@H]	-0.37463328
-1.2766137	C [C@@H]	-0.6320389
-1.2216295	N [C@@H]	-0.3639704
-1.6563103	/ [C@@H]	-0.23120704
-1.2772734	) [C@@H]	-0.46326977
-1.4604734	\ [C@@H]	-0.23120704
-1.3163046	[O-] [C@@H]	-0.23120704
-1.6064645	[N+] [C@@H]	-0.23120704
-1.2734096	[C@@H] [C@@H]	-0.3056351
-1.0046121	[C@H] [C@@H]	-0.33605954
-1.3645651	F [C@@H]	-0.23120704
-1.3373665	[NH+] [C@@H]	-0.23120704
-1.4515297	[NH3+] [C@@H]	-0.23120704
-1.5148448	S [C@@H]	-0.23120704
-1.5581782	[NH2+] [C@@H]	-0.23120704
-1.2820631	[C@] [C@@H]	-0.23120704
-1.472077	3 [C@@H]	-0.27338597
-1.2695109	[C@@] [C@@H]	-0.23120704
-1.0627645	[S-] [C@@H]	-0.23120704
-1.0384281	O [C@H]	-0.39393842
-1.2787042	C [C@H]	-0.62371707
-1.2762618	N [C@H]	-0.4059437
-1.6687976	/ [C@H]	-0.23120704
-1.2815003	) [C@H]	-0.4418935
-1.4721763	\ [C@H]	-0.23120704
-1.3265629	[O-] [C@H]	-0.23120704
-1.61782	[N+] [C@H]	-0.23120704
-1.1205716	[C@@H] [C@H]	-0.32849988
-1.2800908	[C@H] [C@H]	-0.31772932
-1.3741326	F [C@H]	-0.23120704
-1.3445624	[NH+] [C@H]	-0.23120704
-1.4589462	[NH3+] [C@H]	-0.23120704
-1.52824	S [C@H]	-0.23120704
-1.5704942	[NH2+] [C@H]	-0.23120704
-1.2915717	[C@] [C@H]	-0.23120704
-1.479627	3 [C@H]	-0.26606548
-1.0693685	[S-] [C@H]	-0.23120704
-2.1423278	<s> [N-]	-1.2647432
-1.9139254	= [N-]	-0.23120704
-2.4603386	C [N-]	-0.23120704
-2.177329	N [N-]	-0.23120704
-2.0765138	) [N-]	-0.23120704
-1.780894	[C@@H] [N-]	-0.2846034
-1.7847832	[C@H] [N-]	-0.2846034
-1.7039824	[NH+] [N-]	-0.23120704
-1.6720655	S [N-]	-0.23120704
-1.8189002	<s> F	-0.8959594
-1.7309757	C F	-0.62463945
-1.4740945	5 F	-0.32360944
-1.818584	/ F	-0.23120704
-1.1857349	) F	-0.62463945
-1.6107203	\ F	-0.23120704
-1.7945793	[C@@H] F	-0.2846034
-1.7981323	[C@H] F	-0.2846034
-1.4319836	= [NH+]	-0.24828665
-1.5186379	C [NH+]	-0.40554366
-1.6496582	N [NH+]	-0.30758426
-1.5161066	/ [NH+]	-0.26606548
-1.4124335	) [NH+]	-0.39551145
-1.5947002	\ [NH+]	-0.23120704
-1.373333	4 [NH+]	-0.2846034
-1.4359084	[C@@H] [NH+]	-0.27338597
-1.4376614	[C@H] [NH+]	-0.27338597
-1.4875144	<s> [NH3+]	-1.459272
-1.4373145	C [NH3+]	-0.7759071
-1.4564106	5 [NH3+]	-0.32360944
-2.1245844	N [NH3+]	-0.23120704
-1.5128455	) [NH3+]	-0.39551145
-1.3592052	4 [NH3+]	-0.26606548
-1.3082712	[C@@H] [NH3+]	-0.5454582
-1.3098766	[C@H] [NH3+]	-0.5454582
-1.3646901	[C@] [NH3+]	-0.23120704
-1.536507	3 [NH3+]	-0.2846034
-1.3460195	[C@@] [NH3+]	-0.23120704
-2.075615	<s> S	-0.57869416
-1.8831687	O S	-0.23120704
-1.6310126	= S	-0.26606548
-1.6097058	C S	-0.3696407
-1.5365325	N S	-0.3608319
-1.8559836	) S	-0.23120704
-2.0230086	[C@@H] S	-0.23120704
-2.029823	[C@H] S	-0.23120704
-1.5372174	Cl S	-0.23120704
-2.3259606	C [n+]	-0.2846034
-1.8103448	c [n+]	-0.2846034
-1.4070293	n [n+]	-0.26606548
-2.2373765	N [n+]	-0.23120704
-1.4590486	[O-] [n+]	-0.23120704
-1.496196	F [n+]	-0.23120704
-1.7117107	S [n+]	-0.23120704
-2.23411	<s> [NH2+]	-1.0225794
-1.4150177	= [NH2+]	-0.2846034
-1.4017313	C [NH2+]	-0.4716894
-1.6389722	5 [NH2+]	-0.2846034
-1.9193583	N [NH2+]	-0.2846034
-1.39554	) [NH2+]	-0.34234992
-1.6929986	[N+] [NH2+]	-0.23120704
-1.4180193	[C@@H] [NH2+]	-0.284358
-1.3054944	[C@H] [NH2+]	-0.29057547
-1.3534602	[C@] [NH2+]	-0.23120704
-1.3380822	3 [NH2+]	-0.32360944
-1.3356857	[C@@] [NH2+]	-0.23120704
-1.9709537	O [C@]	-0.2846034
-1.6327597	C [C@]	-0.34509438
-2.3466303	N [C@]	-0.23120704
-2.2345471	) [C@]	-0.23120704
-1.4061902	O 3	-0.44854817
-1.5383068	C 3	-0.53908193
-1.5553974	c 3	-0.26606548
-1.7372298	N 3	-0.26606548
-1.1201116	/ 3	-0.25178465
-0.90137243	\ 3	-0.25178465
-1.5969185	4 3	-0.23120704
-1.2055258	[N+] 3	-0.32360944
-1.400838	[C@@H] 3	-0.3056351
-1.2926068	[C@H] 3	-0.34679195
-0.89883393	[NH+] 3	-0.39551145
-1.3419232	S 3	-0.2846034
-1.3642726	[NH2+] 3	-0.2846034
-1.3214145	[C@] 3	-0.23120704
-1.014178	[C@@] 3	-0.26606548
-1.9519197	O [C@@]	-0.2846034
-1.5781804	C [C@@]	-0.36161298
-2.3070788	N [C@@]	-0.23120704
-2.1980054	) [C@@]	-0.23120704
-1.4389496	[C@] [C@@]	-0.23120704
-1.7688097	O 7	-0.32360944
-1.9269242	C 7	-0.5454582
-1.7960949	[NH+] 7	-0.23120704
-1.7943063	[NH2+] 7	-0.23120704
-1.3287629	c [nH+]	-0.29860145
-1.6750396	[nH] [nH+]	-0.23120704
-1.4286859	n [nH+]	-0.25708506
-2.011605	= s	-0.23120704
-1.3249029	c s	-0.27734736
-1.6585362	[nH] s	-0.23120704
-1.6423261	n s	-0.25708506
-2.4166608	<s> Cl	-0.54912084
-1.8524859	O Cl	-0.2846034
-1.7135202	C Cl	-0.44854817
-1.4986362	/ Cl	-0.26606548
-1.5128455	) Cl	-0.44854817
-1.5643308	\ Cl	-0.23120704
-1.7547531	[C@@H] Cl	-0.2846034
-1.7592561	[C@H] Cl	-0.2846034
-1.3646901	[C@] Cl	-0.23120704
-1.3460195	[C@@] Cl	-0.23120704
-1.4635546	P Cl	-0.23120704
-3.22024	<s> P	-0.25708506
-1.9336851	O P	-0.23120704
-1.4496394	= P	-0.27338597
-2.1798122	C P	-0.24251847
-2.164301	) P	-0.23120704
-1.5372119	P P	-0.23120704
-1.5358768	[O-] [P@@]	-0.23120704
-1.8734775	c [n-]	-0.2846034
-1.5358768	[O-] [S@]	-0.23120704
-2.22452	c [o+]	-0.23120704
-2.8034844	<s> [C-]	-0.8007307
-1.2964664	# [C-]	-0.23120704
-2.4482589	<s> [S-]	-0.42919943
-2.22452	c p	-0.23120704
-2.7414205	C [O+]	-0.23120704
-2.0989287	N [O+]	-0.23120704
-2.7729452	C [P@H]	-0.23120704
-2.7729452	C 8	-0.23120704
-1.6181041	Cl [C+]	-0.23120704
-2.7729452	C [S+]	-0.23120704

\3-grams:
-1.1148082	O O </s>	0
-0.5143875	= O </s>	0
-1.0938593	C O </s>	0
-0.53460914	5 O </s>	0
-1.0835081	N O </s>	0
-0.75822765	/ O </s>	0
-0.780049	) O </s>	0
-1.0138307	\ O </s>	0
-0.7384821	S O </s>	0
-0.69976443	3 O </s>	0
-1.2981703	O C </s>	0
-1.241419	= C </s>	0
-1.3853024	C C </s>	0
-0.6057667	5 C </s>	0
-1.5472261	N C </s>	0
-1.4168314	# C </s>	0
-1.1209866	/ C </s>	0
-0.9357967	) C </s>	0
-1.1956884	\ C </s>	0
-1.2398217	4 C </s>	0
-1.3659397	S C </s>	0
-1.2913696	[NH2+] C </s>	0
-0.80625474	3 C </s>	0
-0.3843255	O 5 </s>	0
-0.46603015	C 5 </s>	0
-0.80129737	c 5 </s>	0
-0.16657463	[nH] 5 </s>	0
-0.4055815	n 5 </s>	0
-0.20920569	o 5 </s>	0
-0.48676306	N 5 </s>	0
-0.18955486	/ 5 </s>	0
-0.18955486	\ 5 </s>	0
-0.24990807	6 5 </s>	0
-0.54171485	[NH+] 5 </s>	0
-0.21248275	S 5 </s>	0
-0.6357233	[NH2+] 5 </s>	0
-0.55952716	[nH+] 5 </s>	0
-0.18955486	s 5 </s>	0
-0.24990807	P 5 </s>	0
-1.0316595	O N </s>	0
-0.8621908	= N </s>	0
-1.4900749	C N </s>	0
-0.35349178	5 N </s>	0
-1.2615659	N N </s>	0
-0.5555868	# N </s>	0
-0.9309892	/ N </s>	0
-0.6857291	) N </s>	0
-0.67496675	\ N </s>	0
-0.3658552	4 N </s>	0
-0.2851684	[NH2+] N </s>	0
-0.606609	O 4 </s>	0
-0.45904908	C 4 </s>	0
-0.22841784	[nH] 4 </s>	0
-0.4254947	N 4 </s>	0
-0.52742773	[NH2+] 4 </s>	0
-0.26963496	s 4 </s>	0
-0.26963496	P 4 </s>	0
-0.17671277	O 6 </s>	0
-0.20264612	C 6 </s>	0
-0.16520824	c 6 </s>	0
-0.09760959	[nH] 6 </s>	0
-0.1080184	n 6 </s>	0
-0.124366686	o 6 </s>	0
-0.17671277	N 6 </s>	0
-0.124366686	[NH+] 6 </s>	0
-0.1080184	S 6 </s>	0
-0.34706715	[NH2+] 6 </s>	0
-0.124366686	P 6 </s>	0
-0.124366686	[o+] 6 </s>	0
-0.20913152	5 [O-] </s>	0
-0.27800876	/ [O-] </s>	0
-0.28703675	) [O-] </s>	0
-0.27800876	\ [O-] </s>	0
-0.6249492	= [N-] </s>	0
-0.44978866	C F </s>	0
-0.19429223	5 F </s>	0
-0.2566579	/ F </s>	0
-0.21825458	) F </s>	0
-0.2566579	\ F </s>	0
-0.42662308	C [NH3+] </s>	0
-0.18250118	5 [NH3+] </s>	0
-0.23991504	N [NH3+] </s>	0
-0.20294586	) [NH3+] </s>	0
-0.32726288	4 [NH3+] </s>	0
-0.41533569	3 [NH3+] </s>	0
-0.44498494	= S </s>	0
-1.1187565	C S </s>	0
-0.7465148	) S </s>	0
-0.5946135	= [NH2+] </s>	0
-0.29818952	O 3 </s>	0
-0.55591714	C 3 </s>	0
-0.39130488	c 3 </s>	0
-0.60921305	N 3 </s>	0
-0.7667594	/ 3 </s>	0
-0.7667594	\ 3 </s>	0
-0.24963047	S 3 </s>	0
-0.24963047	[NH2+] 3 </s>	0
-0.06388254	O 7 </s>	0
-0.03719176	C 7 </s>	0
-0.0805137	[NH+] 7 </s>	0
-0.0805137	[NH2+] 7 </s>	0
-0.22839896	O Cl </s>	0
-0.28181976	C Cl </s>	0
-0.36092588	/ Cl </s>	0
-0.14290142	) Cl </s>	0
-0.4800184	\ Cl </s>	0
-0.63638693	) P </s>	0
-0.25652027	# [C-] </s>	0
-0.1665164	C 8 </s>	0
-2.5950453	<s> O O	-0.20903136
-1.3127884	C O O	-0.24201739
-1.5578501	) O O	-0.20903136
-1.54268	[C@@H] O O	-0.20903136
-1.5559611	[C@H] O O	-0.20903136
-0.6730245	C = O	-0.92395085
-0.21811105	c = O	-0.3798828
-0.54281056	5 = O	-0.24136162
-0.7474239	N = O	-0.43103534
-0.26427543	) = O	-0.20903136
-0.57030636	4 = O	-0.20903136
-0.26427543	6 = O	-0.20903136
-0.3683193	[N+] = O	-0.6809128
-0.57030636	S = O	-0.20903136
-0.29543546	3 = O	-0.24300292
-0.35485423	P = O	-0.20903136
-0.26427543	[P@@] = O	-0.20903136
-0.26427543	[S@] = O	-0.20903136
-1.118028	<s> C O	-1.2411013
-1.3555758	O C O	-0.2295369
-1.2035084	= C O	-0.26610127
-1.1599538	C C O	-0.5330188
-1.4127712	5 C O	-0.20903136
-1.4912647	N C O	-0.24300292
-1.1555408	# C O	-0.24136162
-1.3851072	/ C O	-0.22489569
-1.1024129	) C O	-0.38766912
-1.1466321	\ C O	-0.22489569
-1.1967633	4 C O	-0.25847647
-0.96629167	[C@@H] C O	-0.41579145
-1.0121975	[C@H] C O	-0.407399
-1.1637719	F C O	-0.20903136
-1.2445052	[NH2+] C O	-0.24812683
-1.266189	[C@] C O	-0.20903136
-1.0739542	3 C O	-0.24809974
-1.266189	[C@@] C O	-0.20903136
-1.5349063	C 5 O	-0.20903136
-1.2045022	c 5 O	-0.25847647
-1.1268686	N 5 O	-0.25847647
-0.62218636	[C@@H] 5 O	-0.24584205
-0.67293864	[C@H] 5 O	-0.24136157
-1.3099895	<s> N O	-0.57234746
-1.2483261	= N O	-0.23799822
-1.4964484	C N O	-0.24584205
-1.1402092	/ N O	-0.25847647
-1.3791442	) N O	-0.25847647
-1.2564322	[C@@H] N O	-0.20903136
-1.2564322	[C@H] N O	-0.20903136
-1.5102655	C / O	-0.20903136
-1.2712241	N / O	-0.20903136
-1.0874206	) / O	-0.20903136
-1.0076114	O ) O	-0.22006257
-0.7852236	C ) O	-0.30051896
-0.99201024	5 ) O	-0.3821207
-1.3728263	N ) O	-0.20903136
-1.0285193	) ) O	-0.36774033
-1.1695288	4 ) O	-0.20903136
-0.6761436	6 ) O	-0.24300292
-1.1598135	F ) O	-0.20903136
-1.097995	[NH3+] ) O	-0.25847647
-1.0285122	C \ O	-0.20903136
-0.87777954	N \ O	-0.20903136
-0.8699084	) \ O	-0.20903136
-0.7730313	[C@@H] 4 O	-0.25847647
-1.0295953	[C@H] 4 O	-0.25847647
-0.9291137	[O-] [N+] O	-0.20903136
-1.0675495	O [C@@H] O	-0.22813933
-0.80866134	C [C@@H] O	-0.41547573
-0.9281854	N [C@@H] O	-0.24136162
-0.79187	/ [C@@H] O	-0.20903136
-0.6339276	) [C@@H] O	-0.23138125
-0.7080023	\ [C@@H] O	-0.20903136
-1.0439003	[C@@H] [C@@H] O	-0.20903136
-0.89031595	[C@H] [C@@H] O	-0.20903136
-0.8512596	[NH3+] [C@@H] O	-0.20903136
-1.0875332	O [C@H] O	-0.22813933
-0.81670684	C [C@H] O	-0.4016874
-0.9434683	N [C@H] O	-0.24136162
-0.79237026	/ [C@H] O	-0.20903136
-0.6580365	) [C@H] O	-0.22811717
-0.7084147	\ [C@H] O	-0.20903136
-1.1588135	[C@@H] [C@H] O	-0.20903136
-0.8423896	[C@H] [C@H] O	-0.20903136
-0.79237026	[NH3+] [C@H] O	-0.20903136
-1.2548124	<s> S O	-0.25494406
-0.6044915	O S O	-0.20903136
-1.2980452	C S O	-0.20903136
-1.1587679	C [C@] O	-0.24136162
-1.1345766	C 3 O	-0.20903136
-0.8819807	N 3 O	-0.20903136
-1.0075792	[C@@H] 3 O	-0.20903136
-1.0778396	[C@H] 3 O	-0.20903136
-0.56218606	[C@] 3 O	-0.20903136
-0.69891727	[C@@] 3 O	-0.20903136
-1.1459717	C [C@@] O	-0.25847647
-0.8389225	<s> P O	-0.20903136
-1.0506414	C P O	-0.20903136
-1.2680956	<s> [S-] O	-0.20903136
-0.30553976	<s> O =	-1.6776174
-1.1304286	<s> C =	-1.6023107
-0.8352768	O C =	-0.54639506
-1.0922618	= C =	-0.30655107
-1.0816467	C C =	-0.77433586
-0.8675416	5 C =	-0.31495103
-0.8189019	N C =	-0.62686163
-0.5506995	/ C =	-0.5076444
-1.0808295	) C =	-0.48658028
-0.966046	\ C =	-0.23659304
-1.0120786	4 C =	-0.24300292
-0.6066005	[O-] C =	-0.20903136
-1.194841	[N+] C =	-0.20903136
-0.99134356	[C@@H] C =	-0.4958738
-0.9949236	[C@H] C =	-0.4958738
-1.104959	F C =	-0.20903136
-1.3320775	[NH+] C =	-0.20903136
-0.71566373	S C =	-0.25847647
-1.1988435	[C@] C =	-0.20903136
-1.0447937	3 C =	-0.25222075
-1.1988435	[C@@] C =	-0.20903136
-0.6066005	Cl C =	-0.20903136
-1.0041913	P C =	-0.20903136
-0.34314007	[S-] C =	-0.20903136
-0.34314007	[C+] C =	-0.20903136
-1.9198084	c c =	-0.20903136
-0.9106159	[nH] c =	-0.24300292
-1.6845015	n c =	-0.20903136
-0.70805025	o c =	-0.25494406
-1.2802855	C 5 =	-0.24605384
-1.1882946	c 5 =	-0.25494406
-0.9460382	<s> N =	-1.0120108
-0.89965683	O N =	-0.41909418
-0.85908604	C N =	-0.46994847
-0.9138354	5 N =	-0.24136162
-0.87513995	N N =	-0.29612672
-0.5345808	/ N =	-0.424191
-0.8883703	) N =	-0.3527345
-1.0359197	\ N =	-0.20903136
-0.86286724	[N+] N =	-0.20903136
-0.91388714	[C@@H] N =	-0.24136162
-0.91388714	[C@H] N =	-0.24136162
-0.58341396	S N =	-0.20903136
-0.5396715	3 N =	-0.25847647
-0.33034602	P N =	-0.20903136
-1.8007827	O ) =	-0.20903136
-0.73698103	C 4 =	-0.44011265
-1.073398	C 6 =	-0.25847647
-0.25639388	O [N+] =	-0.20903136
-0.5305443	= [N+] =	-0.24584205
-0.37507552	C [N+] =	-0.37303847
-0.61580455	N [N+] =	-0.20903136
-0.4145345	/ [N+] =	-0.24136162
-0.4587608	) [N+] =	-0.20903136
-0.25639388	\ [N+] =	-0.20903136
-0.61166793	[O-] [N+] =	-0.20903136
-0.57181895	[C@@H] [N+] =	-0.20903136
-0.028105352	<s> [N-] =	-1.3341253
-0.5357823	C [NH+] =	-0.55597407
-0.5678301	N [NH+] =	-0.25847647
-0.3908953	/ [NH+] =	-0.25847647
-0.23726484	) [NH+] =	-0.25847647
-0.77682334	[C@@H] [NH+] =	-0.20903136
-0.77682334	[C@H] [NH+] =	-0.20903136
-0.5154081	<s> S =	-0.6229209
-1.3949765	C S =	-0.20903136
-0.8094291	<s> [NH2+] =	-0.33553484
-1.2649022	C 3 =	-0.24136162
-0.95772815	/ 3 =	-0.20903136
-0.95772815	\ 3 =	-0.20903136
-0.5636102	O P =	-0.20903136
-0.9550799	C P =	-0.20903136
-0.5636102	) P =	-0.20903136
-0.1665164	[O-] [P@@] =	-0.20903136
-0.1665164	[O-] [S@] =	-0.20903136
-0.1665164	C [P@H] =	-0.20903136
-0.5704769	<s> O C	-1.1603967
-0.5503898	O O C	-0.2359927
-0.8040472	C O C	-0.45916167
-0.89810103	5 O C	-0.25847647
-0.55924046	N O C	-0.31254038
-0.70006764	/ O C	-0.23799822
-0.73493594	) O C	-0.31717768
-0.5710683	\ O C	-0.23799822
-0.40718845	4 O C	-0.25847647
-0.7642819	[C@@H] O C	-0.2385276
-0.68816495	[C@H] O C	-0.23468262
-0.40718845	S O C	-0.20903136
-0.7890552	3 O C	-0.25847647
-0.5475628	P O C	-0.20903136
-0.30996373	[S-] O C	-0.20903136
-0.73794603	O = C	-0.20903136
-0.597123	C = C	-0.5770257
-0.72610915	5 = C	-0.20903136
-0.507425	N = C	-0.38746452
-0.5825955	4 = C	-0.20903136
-0.50372183	[N+] = C	-0.2651133
-0.1461082	[NH+] = C	-0.24557751
-0.5825955	S = C	-0.20903136
-0.48114672	[NH2+] = C	-0.20903136
-0.6793215	3 = C	-0.20903136
-0.598761	P = C	-0.20903136
-0.2703062	[P@H] = C	-0.20903136
-0.4356009	<s> C C	-1.5606155
-0.97173744	O C C	-0.35689002
-0.91498	= C C	-0.3583062
-1.0190561	C C C	-0.7057954
-1.2988437	5 C C	-0.20903136
-0.8798673	N C C	-0.39318615
-0.9515646	# C C	-0.24136162
-0.9409651	/ C C	-0.293708
-0.8989798	) C C	-0.46977112
-0.94226736	\ C C	-0.24584205
-0.8370566	4 C C	-0.24229877
-0.59476084	[O-] C C	-0.20903136
-0.60375285	[N+] C C	-0.24809974
-0.9040521	[C@@H] C C	-0.43405575
-0.907666	[C@H] C C	-0.41668165
-0.14418912	[N-] C C	-0.24229877
-1.0687032	F C C	-0.20903136
-0.559395	[NH+] C C	-0.28935352
-0.9713799	[NH3+] C C	-0.20903136
-0.7039852	S C C	-0.3002907
-0.6888116	[NH2+] C C	-0.3221194
-0.9837926	[C@] C C	-0.20903136
-0.83711094	3 C C	-0.2772998
-0.9837926	[C@@] C C	-0.20903136
-0.59476084	Cl C C	-0.20903136
-0.33290577	P C C	-0.24229877
-0.33664536	[O+] C C	-0.20903136
-0.8688406	C 5 C	-0.2804401
-0.75691414	c 5 C	-0.47679284
-0.89443284	n 5 C	-0.25847647
-0.9016013	N 5 C	-0.25635362
-0.58443	[C@@H] 5 C	-0.2803432
-0.51501185	[C@H] 5 C	-0.2803432
-0.6731551	[NH+] 5 C	-0.20903136
-0.3120767	[n+] 5 C	-0.20903136
-0.627831	<s> N C	-1.0975951
-0.80009395	O N C	-0.36610356
-0.884703	= N C	-0.27236623
-0.74816924	C N C	-0.50081366
-0.89003366	5 N C	-0.25847647
-0.65427005	N N C	-0.402036
-0.8765523	/ N C	-0.24557751
-0.71936053	) N C	-0.36490163
-0.7899159	\ N C	-0.23305063
-0.8297852	[N+] N C	-0.20903136
-0.4582651	[C@@H] N C	-0.2676932
-0.4582651	[C@H] N C	-0.30148408
-0.5657167	[NH3+] N C	-0.20903136
-0.5657167	S N C	-0.20903136
-0.52546376	3 N C	-0.25847647
-0.3203754	[O+] N C	-0.20903136
-0.33916825	C # C	-0.47160313
-0.46689814	N # C	-0.20903136
-0.840936	[N+] # C	-0.20903136
-0.5331869	O / C	-0.25847647
-0.31882998	C / C	-0.42813173
-0.40361652	N / C	-0.33726162
-0.5438162	) / C	-0.219543
-0.41763285	[O-] / C	-0.20903136
-0.23013353	[N+] / C	-0.20903136
-0.5704154	[C@@H] / C	-0.20903136
-0.5704154	[C@H] / C	-0.20903136
-0.23013353	F / C	-0.20903136
-0.41763285	[NH+] / C	-0.20903136
-0.23013353	S / C	-0.20903136
-0.23013353	Cl / C	-0.20903136
-0.23013353	[S-] / C	-0.20903136
-0.65195495	O ) C	-0.29289883
-0.5430131	C ) C	-0.40612695
-0.6410046	5 ) C	-0.44428995
-0.5778364	N ) C	-0.2894192
-0.763709	) ) C	-0.4787054
-0.62454593	4 ) C	-0.28187522
-0.46274614	6 ) C	-0.24809974
-0.5050575	[O-] ) C	-0.20903136
-0.5860502	F ) C	-0.22813933
-0.56302476	[NH3+] ) C	-0.35430866
-0.6309266	S ) C	-0.20903136
-0.8373307	[NH2+] ) C	-0.20903136
-0.66472316	3 ) C	-0.20903136
-1.0413439	Cl ) C	-0.20903136
-0.90980476	C \ C	-0.20903136
-0.7943202	N \ C	-0.20903136
-0.7842005	) \ C	-0.20903136
-0.54030836	[NH+] \ C	-0.20903136
-0.95925975	C 4 C	-0.24300292
-0.775485	N 4 C	-0.20903136
-0.4765187	[C@@H] 4 C	-0.24229877
-0.3711443	[C@H] 4 C	-0.24229877
-0.2821911	[C@] 4 C	-0.20903136
-0.2821911	[C@@] 4 C	-0.20903136
-0.21589391	<s> [O-] C	-1.6321288
-0.59397	= [N+] C	-0.22811717
-0.8803554	C [N+] C	-0.25847647
-0.89032525	N [N+] C	-0.20903136
-0.641565	# [N+] C	-0.25847647
-0.82337844	/ [N+] C	-0.20903136
-0.7050536	[O-] [N+] C	-0.20903136
-0.7092376	O [C@@H] C	-0.24810562
-0.7879412	C [C@@H] C	-0.44753382
-0.6012503	N [C@@H] C	-0.23515008
-0.673563	/ [C@@H] C	-0.20903136
-0.3811234	) [C@@H] C	-0.2610633
-0.6082736	\ [C@@H] C	-0.20903136
-0.6082736	[O-] [C@@H] C	-0.20903136
-0.28262714	[N+] [C@@H] C	-0.20903136
-0.4567922	[C@@H] [C@@H] C	-0.23468262
-0.56270385	[C@H] [C@@H] C	-0.23634277
-0.501349	F [C@@H] C	-0.20903136
-0.6082736	[NH+] [C@@H] C	-0.20903136
-0.7180357	[NH3+] [C@@H] C	-0.20903136
-0.501349	S [C@@H] C	-0.20903136
-0.6082736	[NH2+] [C@@H] C	-0.20903136
-0.53600633	3 [C@@H] C	-0.25847647
-0.73994887	O [C@H] C	-0.24713077
-0.8012999	C [C@H] C	-0.43173698
-0.5436523	N [C@H] C	-0.23335913
-0.68823594	/ [C@H] C	-0.20903136
-0.4094576	) [C@H] C	-0.26036403
-0.6208685	\ [C@H] C	-0.20903136
-0.7343208	[O-] [C@H] C	-0.20903136
-0.28853205	[N+] [C@H] C	-0.20903136
-0.5527795	[C@@H] [C@H] C	-0.23634277
-0.46722433	[C@H] [C@H] C	-0.23468262
-0.5111639	F [C@H] C	-0.20903136
-0.68823594	[NH+] [C@H] C	-0.20903136
-0.68823594	[NH3+] [C@H] C	-0.20903136
-0.28853205	S [C@H] C	-0.20903136
-0.6208685	[NH2+] [C@H] C	-0.20903136
-1.3873897	<s> [N-] C	-0.20903136
-0.13370857	C [N-] C	-0.20903136
-0.13370857	N [N-] C	-0.20903136
-0.115961514	[C@@H] [N-] C	-0.25847647
-0.115961514	[C@H] [N-] C	-0.25847647
-0.13370857	[NH+] [N-] C	-0.20903136
-0.13370857	S [N-] C	-0.20903136
-0.2323149	<s> F C	-0.54823315
-0.6796252	= [NH+] C	-0.22259355
-0.570888	C [NH+] C	-0.27344087
-0.36883497	N [NH+] C	-0.24300292
-0.5826744	/ [NH+] C	-0.20903136
-0.7583023	) [NH+] C	-0.20903136
-0.2620496	\ [NH+] C	-0.20903136
-0.5030205	[C@@H] [NH+] C	-0.20903136
-0.5030205	[C@H] [NH+] C	-0.20903136
-0.25193068	<s> [NH3+] C	-0.9873178
-0.5461817	<s> S C	-0.6823356
-0.4639837	O S C	-0.20903136
-0.43740094	C S C	-0.338266
-0.32810858	N S C	-0.25847647
-0.5610269	) S C	-0.20903136
-0.25966403	[C@@H] S C	-0.20903136
-0.25966403	[C@H] S C	-0.20903136
-0.25966403	Cl S C	-0.20903136
-0.10629187	<s> [NH2+] C	-0.59440273
-0.34828696	C [NH2+] C	-0.3804191
-0.18919875	5 [NH2+] C	-0.25847647
-0.18919875	N [NH2+] C	-0.20903136
-0.33027694	) [NH2+] C	-0.24812683
-0.22138256	[N+] [NH2+] C	-0.20903136
-0.5177486	[C@@H] [NH2+] C	-0.22087497
-0.46984857	[C@H] [NH2+] C	-0.23031528
-0.22138256	[C@] [NH2+] C	-0.20903136
-0.16929443	3 [NH2+] C	-0.24136162
-0.22138256	[C@@] [NH2+] C	-0.20903136
-0.22041997	O [C@] C	-0.20903136
-0.49027267	C [C@] C	-0.24022652
-0.25971243	N [C@] C	-0.20903136
-0.25971243	) [C@] C	-0.20903136
-0.53371704	C 3 C	-0.40747252
-0.5634282	N 3 C	-0.20903136
-0.5099238	/ 3 C	-0.25847647
-0.5099238	\ 3 C	-0.25847647
-0.20459148	[N+] 3 C	-0.24136162
-0.4427662	[C@@H] 3 C	-0.23857822
-0.43306616	[C@H] 3 C	-0.2682299
-0.2225114	[NH+] 3 C	-0.33991292
-0.48299453	[C@] 3 C	-0.20903136
-0.36301163	[C@@] 3 C	-0.20903136
-0.21520063	O [C@@] C	-0.20903136
-0.4730866	C [C@@] C	-0.24022652
-0.25326052	N [C@@] C	-0.20903136
-0.25326052	) [C@@] C	-0.20903136
-0.3087631	<s> Cl C	-0.5181855
-0.46917188	<s> P C	-0.25847647
-0.5063894	O P C	-0.20903136
-0.54095966	= P C	-0.20903136
-0.67915374	C P C	-0.24136162
-0.9189844	<s> [S-] C	-0.25494406
-0.28346023	C [O+] C	-0.20903136
-0.1606911	Cl [C+] C	-0.20903136
-0.1606911	C [S+] C	-0.20903136
-2.178133	<s> O c	-0.40248165
-1.9617105	C O c	-0.20903136
-1.5057036	N O c	-0.20903136
-0.9327255	O = c	-0.20903136
-1.6550194	C = c	-0.25847647
-1.4504812	N = c	-0.20903136
-1.2958404	[N+] = c	-0.20903136
-0.70911646	S = c	-0.20903136
-0.5781001	[NH2+] = c	-0.20903136
-1.6250808	<s> C c	-0.9652752
-1.9438367	O C c	-0.20903136
-1.7042453	= C c	-0.24812683
-2.3002043	C C c	-0.20903136
-1.2700683	# C c	-0.25847647
-1.2952201	F C c	-0.20903136
-1.141962	[NH3+] C c	-0.20903136
-0.26416147	<s> c c	-0.20903136
-0.3711004	O c c	-0.24557751
-0.61725646	= c c	-0.24300292
-0.4734896	C c c	-0.47404215
-0.61156493	c c c	-0.5940006
-0.4746656	[nH] c c	-0.29415545
-0.43831822	n c c	-0.41174787
-0.65798587	o c c	-0.22489569
-0.45651442	N c c	-0.31023723
-0.62947345	) c c	-0.20903136
-0.5700758	[O-] c c	-0.20903136
-0.47120547	F c c	-0.20903136
-0.26416147	S c c	-0.20903136
-0.560201	[n+] c c	-0.24584205
-0.47120547	3 c c	-0.20903136
-0.55824673	[nH+] c c	-0.24136162
-0.447748	s c c	-0.20903136
-0.26416147	Cl c c	-0.20903136
-0.47120547	[S-] c c	-0.20903136
-0.2626335	<s> [nH] c	-0.20903136
-0.5861513	c [nH] c	-0.33299223
-0.56699085	[nH] [nH] c	-0.20903136
-0.5329045	n [nH] c	-0.23138125
-0.2626335	o [nH] c	-0.20903136
-0.2626335	[nH+] [nH] c	-0.20903136
-0.17330568	O n c	-0.25635362
-0.2908923	C n c	-0.41909418
-0.53210664	c n c	-0.4607007
-0.54560983	[nH] n c	-0.22813933
-0.5929196	n n c	-0.338266
-0.44883242	o n c	-0.23305063
-0.19476818	N n c	-0.25494406
-0.31270197	) n c	-0.24136162
-0.22698739	[O-] n c	-0.20903136
-0.49791613	F n c	-0.20903136
-0.22698739	S n c	-0.20903136
-0.41279745	[n+] n c	-0.20903136
-0.49791613	[nH+] n c	-0.20903136
-0.56395113	s n c	-0.20903136
-0.22698739	Cl n c	-0.20903136
-0.22698739	[S-] n c	-0.20903136
-1.6679584	c 5 c	-0.20903136
-0.37712783	c o c	-0.34758076
-0.5762746	[nH] o c	-0.20903136
-0.50103074	n o c	-0.24812683
-0.25872347	o o c	-0.20903136
-0.80065155	<s> N c	-0.9633662
-1.585156	O N c	-0.20903136
-1.5638174	= N c	-0.20903136
-1.7716047	C N c	-0.20903136
-1.5586996	N N c	-0.20903136
-0.63655794	[NH3+] N c	-0.20903136
-1.6678562	O ) c	-0.20903136
-1.7810211	5 ) c	-0.20903136
-1.5014904	[NH3+] ) c	-0.20903136
-1.1082089	<s> [O-] c	-0.68173593
-1.1280044	# [N+] c	-0.20903136
-0.77136415	<s> F c	-0.787071
-1.1614741	<s> S c	-0.3798828
-0.084955975	C [n+] c	-0.20903136
-0.084955975	c [n+] c	-0.20903136
-0.16942358	n [n+] c	-0.24136162
-0.09740902	N [n+] c	-0.20903136
-0.2271753	[O-] [n+] c	-0.20903136
-0.09740902	F [n+] c	-0.20903136
-0.09740902	S [n+] c	-0.20903136
-0.8242635	c 3 c	-0.20903136
-0.491994	c [nH+] c	-0.23305063
-0.25266182	[nH] [nH+] c	-0.20903136
-0.42247894	n [nH+] c	-0.20903136
-0.27392185	= s c	-0.20903136
-0.5165888	c s c	-0.24300292
-0.6661429	n s c	-0.20903136
-1.2287387	<s> Cl c	-0.25847647
-0.8882412	<s> P c	-0.20903136
-0.4199161	<s> [S-] c	-0.3798828
-0.16407968	c p c	-0.20903136
-0.77661127	= c [nH]	-0.22813933
-1.3695449	C c [nH]	-0.20903136
-0.74016017	c c [nH]	-0.5198212
-1.2419245	n c [nH]	-0.24812683
-1.0820591	N c [nH]	-0.23305063
-0.8573979	[n+] c [nH]	-0.20903136
-0.7028976	[nH+] c [nH]	-0.20903136
-0.9652615	c [nH] [nH]	-0.25847647
-1.250619	C n [nH]	-0.20903136
-0.9429934	c n [nH]	-0.3640715
-1.2197726	n n [nH]	-0.20903136
-0.7629021	F n [nH]	-0.20903136
-1.1433027	n o [nH]	-0.20903136
-1.7962767	O ) [nH]	-0.20903136
-1.1153228	[NH2+] ) [nH]	-0.20903136
-1.080787	c [nH+] [nH]	-0.20903136
-1.1036217	c s [nH]	-0.20903136
-2.6599507	<s> O n	-0.25494406
-1.3347651	O O n	-0.20903136
-1.9910333	C O n	-0.20903136
-1.8908248	<s> C n	-1.0050423
-1.9622532	O C n	-0.20903136
-1.5733888	= C n	-0.25494406
-2.3213146	C C n	-0.20903136
-1.9860322	N C n	-0.20903136
-1.302958	F C n	-0.20903136
-1.1473846	[NH3+] C n	-0.20903136
-0.53837186	O c n	-0.20903136
-0.6414453	= c n	-0.24300292
-0.5526495	C c n	-0.36774033
-0.7504451	c c n	-0.51056856
-0.82560086	[nH] c n	-0.24136162
-0.62768924	n c n	-0.4264605
-0.6853505	o c n	-0.24136162
-0.5510462	N c n	-0.27776504
-0.65939283	) c n	-0.20903136
-0.59605384	[O-] c n	-0.20903136
-0.27681106	[N+] c n	-0.20903136
-0.49176678	F c n	-0.20903136
-0.80867547	[n+] c n	-0.20903136
-0.4649077	s c n	-0.25847647
-0.27681106	P c n	-0.20903136
-0.49176678	[S-] c n	-0.20903136
-0.27681106	p c n	-0.20903136
-0.79776114	c [nH] n	-0.28610912
-1.1151725	n [nH] n	-0.20903136
-0.5351784	C n n	-0.25494406
-0.67141217	c n n	-0.48155627
-0.6599167	[nH] n n	-0.25847647
-0.6014441	n n n	-0.24946004
-0.7433544	o n n	-0.20903136
-0.8053615	N n n	-0.20903136
-0.6247483	) n n	-0.20903136
-0.60976225	F n n	-0.20903136
-0.68833464	s n n	-0.20903136
-0.2833298	[n-] n n	-0.20903136
-0.8230596	c o n	-0.2359927
-1.000997	n o n	-0.20903136
-1.5395076	<s> N n	-0.5907362
-1.6870668	= N n	-0.20903136
-1.9100503	C N n	-0.20903136
-1.670617	N N n	-0.20903136
-1.7509842	O ) n	-0.20903136
-1.5632598	[NH3+] ) n	-0.20903136
-2.0359135	<s> [O-] n	-0.25494406
-1.589779	<s> F n	-0.20903136
-1.7651697	<s> S n	-0.20903136
-0.6186539	[O-] [n+] n	-0.20903136
-0.8978504	c [nH+] n	-0.20903136
-0.7313487	n [nH+] n	-0.20903136
-0.93476075	c s n	-0.20903136
-0.7672744	n s n	-0.20903136
-1.5167178	<s> Cl n	-0.20903136
-0.1440605	c [n-] n	-0.25847647
-0.942379	<s> [S-] n	-0.25494406
-1.140314	C O 5	-0.54403293
-1.2877221	5 O 5	-0.20903136
-1.3786584	N O 5	-0.20903136
-1.1852826	) O 5	-0.25494406
-1.4990674	[C@@H] O 5	-0.20903136
-1.5137153	[C@H] O 5	-0.20903136
-1.1944598	O C 5	-0.25067073
-1.314905	= C 5	-0.25359398
-1.3346306	C C 5	-0.469464
-1.2269738	5 C 5	-0.25847647
-1.0541804	N C 5	-0.4262194
-1.3651887	# C 5	-0.20903136
-1.4284395	) C 5	-0.3798828
-1.2124403	4 C 5	-0.25847647
-1.2644302	[N+] C 5	-0.20903136
-1.2456819	[C@@H] C 5	-0.55597407
-1.2490993	[C@H] C 5	-0.55597407
-1.1970962	[N-] C 5	-0.20903136
-0.88133407	[NH+] C 5	-0.33991292
-1.1107583	[NH2+] C 5	-0.24812683
-1.2904062	[C@] C 5	-0.20903136
-1.2904062	[C@@] C 5	-0.20903136
-1.1534038	c c 5	-0.40061077
-0.857482	[nH] c 5	-0.23799822
-0.88022894	n c 5	-0.31959742
-0.83495367	o c 5	-0.24136162
-0.8266044	) c 5	-0.20903136
-0.9990359	[n+] c 5	-0.25847647
-0.6972171	[nH+] c 5	-0.20903136
-0.7810457	c [nH] 5	-0.25494406
-0.6125174	[nH] [nH] 5	-0.20903136
-0.69678533	n [nH] 5	-0.25847647
-0.37806743	) [nH] 5	-0.25847647
-0.28462696	s [nH] 5	-0.20903136
-0.97659737	c n 5	-0.44437504
-0.75280315	[nH] n 5	-0.24136162
-0.740884	n n 5	-0.37303847
-0.60478747	o n 5	-0.24136162
-0.70012736	[nH+] n 5	-0.20903136
-0.52483046	s n 5	-0.25847647
-0.79481155	c o 5	-0.25847647
-0.3499634	[nH] o 5	-0.25847647
-0.5028978	n o 5	-0.25494406
-0.2599706	) o 5	-0.20903136
-0.943071	O N 5	-0.24229877
-1.3188025	= N 5	-0.25847647
-1.2281646	C N 5	-0.2896206
-1.1775413	N N 5	-0.23305063
-1.3352801	) N 5	-0.25847647
-1.2104267	[C@@H] N 5	-0.20903136
-1.2104267	[C@H] N 5	-0.20903136
-0.348438	[N-] N 5	-0.20903136
-0.76170474	[NH+] N 5	-0.20903136
-1.0573611	O / 5	-0.20903136
-1.3065442	C / 5	-0.25847647
-1.2692014	N / 5	-0.20903136
-0.586193	O \ 5	-0.20903136
-1.0260117	C \ 5	-0.20903136
-0.6148419	N \ 5	-0.25847647
-1.3711874	C 6 5	-0.20903136
-0.8396906	O [C@@H] 5	-0.24809974
-1.1400576	C [C@@H] 5	-0.4595107
-0.8212887	N [C@@H] 5	-0.28610912
-1.0930264	[C@H] [C@@H] 5	-0.24136162
-0.75464404	[NH+] [C@@H] 5	-0.20903136
-0.34569803	[C@] [C@@H] 5	-0.20903136
-0.87424856	O [C@H] 5	-0.25635362
-1.1641794	C [C@H] 5	-0.4595107
-0.7183297	N [C@H] 5	-0.35632
-1.3185227	[C@@H] [C@H] 5	-0.20903136
-0.870981	[NH+] [C@H] 5	-0.20903136
-0.97260904	= [NH+] 5	-0.25847647
-1.4088013	C [NH+] 5	-0.20903136
-1.1726749	C S 5	-0.25847647
-0.7980605	N S 5	-0.25847647
-0.7691361	n [n+] 5	-0.20903136
-1.1555477	C [NH2+] 5	-0.24300292
-0.5827231	[C@@H] [NH2+] 5	-0.25494406
-0.67605513	[C@H] [NH2+] 5	-0.25494406
-0.56301975	c [nH+] 5	-0.25635362
-0.72725743	n [nH+] 5	-0.20903136
-0.6460489	c s 5	-0.25847647
-0.2754133	[nH] s 5	-0.20903136
-0.45450765	n s 5	-0.25847647
-1.1483378	C P 5	-0.20903136
-0.5134588	N [O+] 5	-0.20903136
-0.93768346	= c o	-0.25847647
-1.3735919	C c o	-0.20903136
-1.0259802	c c o	-0.5002467
-1.3769913	n c o	-0.23305063
-1.3005266	N c o	-0.20903136
-0.74525255	[O-] c o	-0.20903136
-1.2165242	[n+] c o	-0.20903136
-1.258477	c [nH] o	-0.20903136
-0.7839798	) [nH] o	-0.20903136
-1.0198059	c n o	-0.37530798
-1.4223007	n n o	-0.20903136
-0.6187369	[n+] n o	-0.20903136
-0.76501846	[nH+] n o	-0.20903136
-1.3534131	c o o	-0.20903136
-1.8767271	O ) o	-0.20903136
-1.4685156	<s> O N	-0.6518405
-1.1298459	O O N	-0.20903136
-1.0455358	C O N	-0.356075
-0.98717564	5 O N	-0.25847647
-1.125542	/ O N	-0.20903136
-0.9780536	) O N	-0.24584205
-1.026529	\ O N	-0.20903136
-0.81228226	[C@@H] O N	-0.27344087
-0.8169141	[C@H] O N	-0.27344087
-0.89276266	O = N	-0.20903136
-0.74883395	C = N	-0.4880468
-0.8691067	5 = N	-0.20903136
-0.5836946	N = N	-0.31718534
-0.6847964	4 = N	-0.20903136
-1.0631319	[N+] = N	-0.20903136
-1.0326871	[NH+] = N	-0.20903136
-1.3403219	<s> C N	-0.9650648
-1.3509473	O C N	-0.23204821
-1.123032	= C N	-0.31418166
-1.207082	C C N	-0.43797716
-1.4058807	5 C N	-0.20903136
-1.2544453	N C N	-0.23335913
-1.1505402	# C N	-0.24136162
-1.3797495	/ C N	-0.20903136
-1.2280245	) C N	-0.27748877
-1.3260301	\ C N	-0.20903136
-0.9868651	[N+] C N	-0.23305063
-1.1647822	[C@@H] C N	-0.32523507
-1.1682423	[C@H] C N	-0.32523507
-1.3953793	[NH+] C N	-0.20903136
-1.0413245	[NH3+] C N	-0.20903136
-1.5069245	[NH2+] C N	-0.20903136
-1.2596838	[C@] C N	-0.20903136
-1.2596838	[C@@] C N	-0.20903136
-1.4712855	C 5 N	-0.20903136
-0.79448307	c 5 N	-0.47679284
-1.1643028	n 5 N	-0.20903136
-1.090609	N 5 N	-0.25847647
-1.0336934	[C@@H] 5 N	-0.23305063
-0.98009145	[C@H] 5 N	-0.23305063
-1.0084109	<s> N N	-0.6516668
-1.4132819	O N N	-0.20903136
-1.1620939	= N N	-0.24557751
-0.95805764	C N N	-0.38249484
-1.1821027	5 N N	-0.20903136
-1.1393582	N N N	-0.25635362
-1.2690389	/ N N	-0.20903136
-1.29072	) N N	-0.24136162
-0.89568305	[N+] N N	-0.20903136
-1.163911	[C@@H] N N	-0.20903136
-1.163911	[C@H] N N	-0.20903136
-0.34993243	C # N	-0.77782285
-0.2491761	[N+] # N	-0.32189086
-0.5158335	O / N	-0.25494406
-0.87264496	C / N	-0.28610912
-0.5858217	N / N	-0.22811717
-0.68800145	) / N	-0.20903136
-0.725538	[C@@H] / N	-0.20903136
-0.725538	[C@H] / N	-0.20903136
-0.5279107	[NH+] / N	-0.20903136
-0.9876997	O ) N	-0.22534655
-0.99996984	C ) N	-0.28610912
-0.70801026	5 ) N	-0.7320653
-0.8129574	N ) N	-0.25067073
-1.0780346	) ) N	-0.3565674
-1.0607482	6 ) N	-0.20903136
-1.1256354	F ) N	-0.20903136
-1.0708543	[NH3+] ) N	-0.25847647
-0.9183246	S ) N	-0.20903136
-0.9108985	[NH2+] ) N	-0.20903136
-0.9194511	C \ N	-0.20903136
-0.8013509	N \ N	-0.20903136
-0.791404	) \ N	-0.20903136
-0.5444019	[NH+] \ N	-0.20903136
-1.3377368	C 4 N	-0.20903136
-0.8886748	N 4 N	-0.20903136
-1.1954396	[C@@H] 4 N	-0.20903136
-1.1155877	[C@H] 4 N	-0.20903136
-1.02398	= [N+] N	-0.20903136
-0.96940255	C [N+] N	-0.25847647
-0.9405528	# [N+] N	-0.20903136
-0.79371136	[O-] [N+] N	-0.20903136
-1.3241879	O [C@@H] N	-0.20903136
-1.2180053	C [C@@H] N	-0.25374147
-1.1241531	N [C@@H] N	-0.25847647
-1.2755069	[C@H] [C@@H] N	-0.20903136
-0.60863554	F [C@@H] N	-0.20903136
-0.60863554	S [C@@H] N	-0.20903136
-1.3451121	O [C@H] N	-0.20903136
-1.2243894	C [C@H] N	-0.24812683
-1.1410563	N [C@H] N	-0.25847647
-0.9130685	[O-] [C@H] N	-0.20903136
-1.2629111	[C@@H] [C@H] N	-0.20903136
-0.6090686	F [C@H] N	-0.20903136
-0.35013005	) [N-] N	-0.20903136
-1.7283272	<s> F N	-0.20903136
-1.2012007	= [NH+] N	-0.20903136
-1.3925753	C [NH+] N	-0.20903136
-1.9600914	<s> [NH3+] N	-0.24136162
-1.2915337	<s> S N	-0.25494406
-1.1600537	C S N	-0.25847647
-1.532532	C [NH2+] N	-0.20903136
-1.1263002	) [NH2+] N	-0.20903136
-1.3342409	C [C@] N	-0.20903136
-1.2241145	[C@@H] 3 N	-0.20903136
-1.3142813	[C@H] 3 N	-0.20903136
-1.3292557	C [C@@] N	-0.20903136
-0.9630184	= P N	-0.20903136
-0.50806046	N [O+] N	-0.20903136
-1.9965174	<s> C #	-1.2691845
-1.2093114	O C #	-0.32189086
-1.1966857	C C #	-0.8501404
-1.1253831	N C #	-0.5116261
-1.1168187	/ C #	-0.33553484
-1.1808264	) C #	-0.5181855
-1.0324724	\ C #	-0.25635362
-1.2331219	4 C #	-0.25847647
-1.185864	[C@@H] C #	-0.55597407
-1.1895126	[C@H] C #	-0.55597407
-0.9327854	S C #	-0.25635362
-1.5924876	[NH2+] C #	-0.20903136
-1.3231179	[C@] C #	-0.20903136
-1.4128098	3 C #	-0.25847647
-1.3231179	[C@@] C #	-0.20903136
-0.76790017	<s> N #	-1.3401157
-0.77191985	C [N+] #	-0.25494406
-0.366004	N [N+] #	-0.3798828
-0.6322974	/ [N+] #	-0.25847647
-0.5366082	) [N+] #	-0.20903136
-0.30359143	[NH+] [N+] #	-0.20903136
-0.25551474	[NH2+] [N+] #	-0.25847647
-0.05703882	<s> [C-] #	-0.7320653
-1.6817052	<s> O /	-0.8584136
-1.3590599	C O /	-0.24229877
-1.3421041	/ O /	-0.20903136
-1.147929	<s> C /	-1.6371614
-1.546205	O C /	-0.24136162
-1.244883	= C /	-0.31271428
-1.7229831	C C /	-0.35144323
-1.5524595	N C /	-0.25494406
-1.211283	# C /	-0.24136162
-1.6478481	/ C /	-0.20903136
-1.8870066	) C /	-0.20903136
-1.4188198	\ C /	-0.20903136
-1.227112	F C /	-0.20903136
-1.093014	[NH3+] C /	-0.20903136
-1.3717487	S C /	-0.20903136
-1.6165287	[NH2+] C /	-0.20903136
-1.6132818	<s> N /	-0.44437504
-1.4435061	O N /	-0.20903136
-1.303593	= N /	-0.23138125
-1.6964139	C N /	-0.24812683
-1.6696424	) N /	-0.20903136
-1.7092304	O ) /	-0.20903136
-1.1805929	) ) /	-0.36616412
-1.3542193	Cl ) /	-0.20903136
-1.5181019	<s> [O-] /	-0.46047357
-0.93098044	= [N+] /	-0.25847647
-1.5747845	O [C@@H] /	-0.20903136
-1.6189992	C [C@@H] /	-0.20903136
-1.5955741	O [C@H] /	-0.20903136
-1.627161	C [C@H] /	-0.20903136
-1.7630198	<s> F /	-0.25847647
-1.3254377	= [NH+] /	-0.20903136
-1.5181826	C S /	-0.20903136
-0.86077344	<s> Cl /	-0.3798828
-1.0974572	<s> [S-] /	-0.25847647
-0.24203606	= O )	-0.2779436
-0.88724494	C O )	-0.5925508
-1.1726435	N O )	-0.20903136
-0.86648774	/ O )	-0.25847647
-0.9342277	) O )	-0.24809974
-0.9578203	\ O )	-0.20903136
-0.7080418	4 O )	-0.20903136
-0.32245773	[N+] O )	-0.20903136
-0.6994267	[C@@H] O )	-0.55597407
-0.7043563	[C@H] O )	-0.55597407
-0.5693868	[C@] O )	-0.20903136
-1.0191053	3 O )	-0.20903136
-0.32245773	[C@@] O )	-0.20903136
-1.3579088	O C )	-0.3798828
-1.2999928	= C )	-0.22990462
-1.2095835	C C )	-0.72317505
-1.1076915	N C )	-0.46047357
-1.1580629	# C )	-0.25847647
-1.0951602	/ C )	-0.3798828
-1.0043048	) C )	-0.60710233
-1.149063	\ C )	-0.25847647
-0.6567723	4 C )	-0.24584205
-0.6258903	[N+] C )	-0.3798828
-1.5544981	[C@@H] C )	-0.25695908
-1.5567983	[C@H] C )	-0.25695908
-1.0463645	[NH+] C )	-0.25494406
-1.2468328	[NH2+] C )	-0.25494406
-0.8980197	[C@] C )	-0.25847647
-0.8685067	3 C )	-0.25847647
-0.8980197	[C@@] C )	-0.25847647
-0.3532027	[S+] C )	-0.20903136
-0.417096	O 5 )	-0.24584205
-0.49212006	C 5 )	-0.42874187
-0.9074792	c 5 )	-0.24255466
-0.8996618	[nH] 5 )	-0.20903136
-0.5555249	n 5 )	-0.24584205
-0.8204805	o 5 )	-0.20903136
-0.5259926	N 5 )	-0.29774627
-0.623813	[NH+] 5 )	-0.20903136
-0.31895176	[NH2+] 5 )	-0.25635362
-0.38410667	[nH+] 5 )	-0.23305063
-0.28989944	[O+] 5 )	-0.20903136
-1.2902709	O N )	-0.25847647
-1.2763741	= N )	-0.22813933
-1.2040768	C N )	-0.25067073
-1.008535	N N )	-0.23305063
-0.5562831	# N )	-0.25847647
-0.93228483	/ N )	-0.25494406
-0.91157556	) N )	-0.41909418
-0.6758444	\ N )	-0.25494406
-0.90350074	[N+] N )	-0.20903136
-0.34187946	[C@] N )	-0.20903136
-0.34187946	[C@@] N )	-0.20903136
-0.712607	O ) )	-0.31861055
-0.6191298	C ) )	-0.5245097
-0.69040424	5 ) )	-0.4212712
-0.44082347	N ) )	-0.32571757
-0.8032003	) ) )	-0.50499964
-0.77698106	4 ) )	-0.24300292
-0.76588947	[O-] ) )	-0.20903136
-0.31405932	[N-] ) )	-0.20903136
-0.8799779	F ) )	-0.24136162
-0.89413923	[NH3+] ) )	-0.23659304
-0.85874856	S ) )	-0.20903136
-0.850073	[NH2+] ) )	-0.20903136
-0.2616341	3 ) )	-0.35962138
-0.73341185	Cl ) )	-0.24136162
-0.324723	O 4 )	-0.25695908
-0.68950546	C 4 )	-0.23515008
-0.9000625	N 4 )	-0.20903136
-0.43398258	[NH2+] 4 )	-0.24300292
-0.61072624	O 6 )	-0.25847647
-0.7159086	C 6 )	-0.25036925
-0.6838045	c 6 )	-0.20903136
-0.61072624	N 6 )	-0.25847647
-0.36403674	[NH2+] 6 )	-0.25847647
-0.2806511	C [O-] )	-0.20903136
-0.644584	) [O-] )	-0.24136162
-0.6265161	= [N-] )	-0.20903136
-0.29478207	C F )	-0.41186103
-0.5896528	) F )	-0.2803432
-0.24117407	[C@@H] F )	-0.24136162
-0.24117407	[C@H] F )	-0.24136162
-0.24464363	C [NH3+] )	-0.4664416
-0.6229428	) [NH3+] )	-0.20903136
-0.4592081	4 [NH3+] )	-0.20903136
-0.08331283	[C@@H] [NH3+] )	-0.33726162
-0.08331283	[C@H] [NH3+] )	-0.33726162
-0.19375566	[C@] [NH3+] )	-0.20903136
-0.35519722	3 [NH3+] )	-0.25847647
-0.19375566	[C@@] [NH3+] )	-0.20903136
-0.7884498	= S )	-0.20903136
-1.4036082	C S )	-0.20903136
-0.59598714	= [NH2+] )	-0.20903136
-0.61060715	O 3 )	-0.24300292
-0.72567546	C 3 )	-0.33991292
-0.8475227	N 3 )	-0.20903136
-0.8005997	/ 3 )	-0.20903136
-0.8005997	\ 3 )	-0.20903136
-0.3078788	4 3 )	-0.20903136
-0.86347497	[NH+] 3 )	-0.20903136
-0.48369986	C Cl )	-0.23305063
-0.47172415	/ Cl )	-0.20903136
-0.3736526	\ Cl )	-0.20903136
-0.17245157	[C@@H] Cl )	-0.25847647
-0.17245157	[C@H] Cl )	-0.25847647
-0.20107177	[C@] Cl )	-0.20903136
-0.20107177	[C@@] Cl )	-0.20903136
-0.20107177	P Cl )	-0.20903136
-1.059723	C P )	-0.20903136
-0.3418298	P P )	-0.20903136
-1.7290725	C O \	-0.24136162
-2.1826458	O C \	-0.20903136
-1.4700899	= C \	-0.26369554
-2.163384	C C \	-0.25494406
-1.8602735	= N \	-0.20903136
-2.1150692	C N \	-0.20903136
-1.2981648	) ) \	-0.30182326
-1.3980511	Cl ) \	-0.20903136
-1.6510665	O [C@@H] \	-0.20903136
-1.6713072	O [C@H] \	-0.20903136
-1.349618	= [NH+] \	-0.20903136
-1.7570186	C O 4	-0.24136162
-1.4070394	) O 4	-0.24136162
-1.6108145	[C@@H] O 4	-0.20903136
-1.6216762	[C@H] O 4	-0.20903136
-1.6824116	O C 4	-0.24136162
-1.6233215	= C 4	-0.24136162
-1.8320456	C C 4	-0.25036925
-1.5106298	5 C 4	-0.20903136
-1.6977018	N C 4	-0.22813933
-1.4682587	) C 4	-0.31504652
-1.9221137	[C@@H] C 4	-0.20903136
-1.9233955	[C@H] C 4	-0.20903136
-1.4984199	[NH+] C 4	-0.20903136
-1.3875675	S C 4	-0.20903136
-1.4521927	[NH2+] C 4	-0.24136162
-1.6531091	3 C 4	-0.20903136
-1.4455618	c [nH] 4	-0.20903136
-0.869291	n [nH] 4	-0.25847647
-1.7789247	= N 4	-0.20903136
-1.4587741	C N 4	-0.24809974
-1.4940331	) N 4	-0.24136162
-1.1023201	O [C@@H] 4	-0.24136162
-1.5011772	C [C@@H] 4	-0.20903136
-1.2530426	N [C@@H] 4	-0.20903136
-1.217942	) [C@@H] 4	-0.20903136
-1.0826738	[C@@H] [C@@H] 4	-0.20903136
-1.0496867	[C@H] [C@@H] 4	-0.23305063
-0.8957343	3 [C@@H] 4	-0.20903136
-0.33543864	[C@@] [C@@H] 4	-0.20903136
-1.1220464	O [C@H] 4	-0.24136162
-1.2901531	C [C@H] 4	-0.24136162
-1.2803637	N [C@H] 4	-0.20903136
-1.2243097	) [C@H] 4	-0.20903136
-1.0334215	[C@@H] [C@H] 4	-0.25847647
-1.0891519	[C@H] [C@H] 4	-0.20903136
-0.33553883	[C@] [C@H] 4	-0.20903136
-0.73794454	3 [C@H] 4	-0.20903136
-1.2240245	C [NH2+] 4	-0.24136162
-1.0272338	) [NH2+] 4	-0.20903136
-0.9692419	[C@@H] [NH2+] 4	-0.20903136
-1.0289695	[C@H] [NH2+] 4	-0.20903136
-1.0243133	C [C@] 4	-0.25494406
-1.006984	C [C@@] 4	-0.25494406
-1.0946692	c s 4	-0.20903136
-1.1834857	C P 4	-0.20903136
-1.2701247	O O 6	-0.20903136
-1.5795964	C O 6	-0.24300292
-1.0689173	5 O 6	-0.25847647
-1.4392027	N O 6	-0.20903136
-1.5602101	[C@@H] O 6	-0.20903136
-1.9104077	O C 6	-0.20903136
-1.5481104	= C 6	-0.25494406
-1.6117225	C C 6	-0.46994847
-1.1195252	5 C 6	-0.25494406
-1.603968	N C 6	-0.2359927
-1.9990188	[C@@H] C 6	-0.20903136
-1.6675043	[C@H] C 6	-0.25494406
-1.5478903	[NH+] C 6	-0.20903136
-1.7099621	[NH2+] C 6	-0.20903136
-1.7836916	c c 6	-0.24136162
-1.4088181	[nH] c 6	-0.20903136
-1.7715352	n c 6	-0.20903136
-1.1600717	c [nH] 6	-0.25847647
-0.72320443	[nH] [nH] 6	-0.20903136
-1.0387197	n [nH] 6	-0.20903136
-1.6360236	c n 6	-0.25847647
-1.3170261	n n 6	-0.25847647
-1.0655948	c o 6	-0.25847647
-1.6152931	O N 6	-0.20903136
-1.4195439	= N 6	-0.25847647
-1.2812446	C N 6	-0.47679284
-1.3915693	N N 6	-0.25847647
-1.2919488	[C@@H] N 6	-0.20903136
-1.2919488	[C@H] N 6	-0.20903136
-1.3293754	= [NH+] 6	-0.20903136
-1.1936643	C S 6	-0.25847647
-1.1102315	N S 6	-0.20903136
-1.303355	C [NH2+] 6	-0.25847647
-1.0362289	[C@@H] [NH2+] 6	-0.20903136
-1.1055591	[C@H] [NH2+] 6	-0.20903136
-0.67533123	= P 6	-0.25847647
-0.16945857	c [o+] 6	-0.20903136
-2.178035	= C [O-]	-0.20903136
-2.1877012	C C [O-]	-0.25494406
-1.7019523	C 5 [O-]	-0.20903136
-0.9909656	c 5 [O-]	-0.3798828
-1.4304044	[C@@H] 5 [O-]	-0.20903136
-1.7414697	C / [O-]	-0.20903136
-1.6013027	O ) [O-]	-0.20903136
-1.5026561	5 ) [O-]	-0.25847647
-1.335275	4 ) [O-]	-0.20903136
-0.9074477	[O-] ) [O-]	-0.20903136
-0.85804224	F ) [O-]	-0.24136162
-1.0183307	) \ [O-]	-0.20903136
-2.385307	<s> O [N+]	-0.47679284
-1.0337752	O = [N+]	-0.20903136
-1.2585287	C = [N+]	-0.33991292
-1.2464652	N = [N+]	-0.20903136
-0.35033587	[N-] = [N+]	-0.20903136
-2.2272189	<s> C [N+]	-0.63148814
-1.9535803	= C [N+]	-0.20903136
-1.7105808	C C [N+]	-0.36403313
-1.8022369	/ C [N+]	-0.20903136
-2.0925367	[C@@H] C [N+]	-0.20903136
-2.094586	[C@H] C [N+]	-0.20903136
-2.37781	<s> N [N+]	-0.20903136
-1.6124654	O N [N+]	-0.20903136
-1.593778	= N [N+]	-0.20903136
-1.6565223	C N [N+]	-0.25847647
-1.6280539	) N [N+]	-0.20903136
-0.91353273	4 N [N+]	-0.20903136
-1.3732778	C # [N+]	-0.20903136
-0.47986558	N # [N+]	-0.20903136
-0.26951736	[C-] # [N+]	-0.20903136
-1.4296588	C / [N+]	-0.20903136
-1.2106305	N / [N+]	-0.20903136
-1.0321538	) / [N+]	-0.20903136
-0.60172343	[O-] / [N+]	-0.20903136
-1.437188	) ) [N+]	-0.24300292
-1.2337868	C \ [N+]	-0.20903136
-1.0660708	<s> [O-] [N+]	-0.61834604
-0.8136762	[O-] [C@@H] [N+]	-0.20903136
-1.2616819	[C@@H] [C@@H] [N+]	-0.20903136
-1.4649898	[C@H] [C@@H] [N+]	-0.20903136
-1.5490175	[C@@H] [C@H] [N+]	-0.20903136
-1.528729	C [NH+] [N+]	-0.20903136
-1.0465693	C [NH2+] [N+]	-0.3798828
-1.1725522	[C@H] [NH2+] [N+]	-0.20903136
-1.0782771	<s> O [C@@H]	-1.2207265
-1.113428	O O [C@@H]	-0.20903136
-1.0932192	C O [C@@H]	-0.35096252
-0.9508482	N O [C@@H]	-0.23305063
-1.1089869	/ O [C@@H]	-0.20903136
-1.2232211	) O [C@@H]	-0.20903136
-1.0126617	\ O [C@@H]	-0.20903136
-0.91991657	[C@@H] O [C@@H]	-0.3798828
-0.9262903	[C@H] O [C@@H]	-0.33991292
-1.0780194	3 O [C@@H]	-0.20903136
-0.9320908	<s> C [C@@H]	-1.340669
-1.2608137	O C [C@@H]	-0.29612672
-1.2976302	= C [C@@H]	-0.26802856
-1.3266876	C C [C@@H]	-0.48099038
-1.1065586	N C [C@@H]	-0.35096252
-1.1555408	# C [C@@H]	-0.25847647
-1.5556803	/ C [C@@H]	-0.20903136
-1.4135401	) C [C@@H]	-0.29832804
-1.3334205	\ C [C@@H]	-0.20903136
-1.0084603	[C@@H] C [C@@H]	-0.4969625
-1.0121975	[C@H] C [C@@H]	-0.45653138
-1.1637719	F C [C@@H]	-0.20903136
-1.1974509	[NH+] C [C@@H]	-0.20903136
-1.04562	[NH3+] C [C@@H]	-0.20903136
-1.0986648	[NH2+] C [C@@H]	-0.28286186
-1.266189	[C@] C [C@@H]	-0.20903136
-1.5394688	3 C [C@@H]	-0.20903136
-1.266189	[C@@] C [C@@H]	-0.20903136
-1.4230728	<s> N [C@@H]	-0.60710233
-1.0544975	O N [C@@H]	-0.24812683
-1.0687423	= N [C@@H]	-0.23799822
-1.3243935	C N [C@@H]	-0.22489569
-1.3039418	N N [C@@H]	-0.25847647
-1.511037	) N [C@@H]	-0.20903136
-1.2117902	[C@H] N [C@@H]	-0.20903136
-0.616821	F N [C@@H]	-0.20903136
-0.76233757	[NH+] N [C@@H]	-0.20903136
-1.6842682	C / [C@@H]	-0.20903136
-1.5083531	O ) [C@@H]	-0.20903136
-1.6783028	C ) [C@@H]	-0.20903136
-1.466625	) ) [C@@H]	-0.2359927
-1.2669163	4 ) [C@@H]	-0.20903136
-1.0107781	[NH3+] ) [C@@H]	-0.24300292
-1.0008272	[NH2+] ) [C@@H]	-0.20903136
-1.2102953	C \ [C@@H]	-0.20903136
-1.2834758	<s> [O-] [C@@H]	-0.65096605
-1.1365472	# [N+] [C@@H]	-0.20903136
-1.3845599	O [C@@H] [C@@H]	-0.20903136
-1.1571897	C [C@@H] [C@@H]	-0.2804401
-1.3695315	N [C@@H] [C@@H]	-0.20903136
-0.94368017	[NH3+] [C@@H] [C@@H]	-0.20903136
-0.7724082	[NH2+] [C@@H] [C@@H]	-0.20903136
-1.2373873	O [C@H] [C@@H]	-0.20903136
-0.9841053	C [C@H] [C@@H]	-0.32145357
-1.2327591	N [C@H] [C@@H]	-0.20903136
-1.1853994	) [C@H] [C@@H]	-0.20903136
-0.8518332	[O-] [C@H] [C@@H]	-0.20903136
-1.1588135	[C@@H] [C@H] [C@@H]	-0.20903136
-0.79237026	[NH+] [C@H] [C@@H]	-0.20903136
-0.79237026	[NH3+] [C@H] [C@@H]	-0.20903136
-0.7084147	[NH2+] [C@H] [C@@H]	-0.20903136
-1.409568	<s> F [C@@H]	-0.24300292
-1.2192383	= [NH+] [C@@H]	-0.20903136
-1.4121206	C [NH+] [C@@H]	-0.20903136
-0.7127257	<s> [NH3+] [C@@H]	-0.8534222
-1.3495626	<s> S [C@@H]	-0.24136162
-1.4246576	C [NH2+] [C@@H]	-0.23305063
-1.3639846	C [C@] [C@@H]	-0.20903136
-1.2368522	[C@@H] 3 [C@@H]	-0.20903136
-1.0499619	[C@H] 3 [C@@H]	-0.20903136
-1.3563378	C [C@@] [C@@H]	-0.20903136
-1.2680956	<s> [S-] [C@@H]	-0.20903136
-1.1586753	<s> O [C@H]	-1.1392535
-1.0910153	O O [C@H]	-0.20903136
-1.0826703	C O [C@H]	-0.35096252
-0.93734974	N O [C@H]	-0.23305063
-1.0863947	/ O [C@H]	-0.20903136
-1.2018411	) O [C@H]	-0.20903136
-0.9936013	\ O [C@H]	-0.20903136
-0.9102593	[C@@H] O [C@H]	-0.33991292
-0.91709316	[C@H] O [C@H]	-0.3798828
-0.5847868	[C@] O [C@H]	-0.20903136
-0.6905328	3 O [C@H]	-0.25494406
-0.9444722	<s> C [C@H]	-1.3596011
-1.2614377	O C [C@H]	-0.2874465
-1.4189987	= C [C@H]	-0.23734191
-1.3270528	C C [C@H]	-0.47046027
-1.1760039	N C [C@H]	-0.2359927
-1.1563799	# C [C@H]	-0.25847647
-1.557013	/ C [C@H]	-0.20903136
-1.4142199	) C [C@H]	-0.29832804
-1.3346646	\ C [C@H]	-0.20903136
-1.1078404	[C@@H] C [C@H]	-0.39438346
-1.0591333	[C@H] C [C@H]	-0.46220037
-1.1647173	F C [C@H]	-0.20903136
-1.4033117	[NH+] C [C@H]	-0.20903136
-1.04634	[NH3+] C [C@H]	-0.20903136
-1.0992181	[NH2+] C [C@H]	-0.2804401
-1.2672827	[C@] C [C@H]	-0.20903136
-1.3679882	3 C [C@H]	-0.25847647
-1.2672827	[C@@] C [C@H]	-0.20903136
-1.4863973	<s> N [C@H]	-0.5491104
-1.0675873	O N [C@H]	-0.24812683
-1.0843264	= N [C@H]	-0.23799822
-1.2445132	C N [C@H]	-0.24229877
-1.1973908	N N [C@H]	-0.24136162
-1.234976	[C@@H] N [C@H]	-0.20903136
-0.6243749	F N [C@H]	-0.20903136
-0.7729352	[NH+] N [C@H]	-0.20903136
-1.6884106	C / [C@H]	-0.20903136
-1.5110952	O ) [C@H]	-0.20903136
-1.680676	C ) [C@H]	-0.20903136
-1.4682802	) ) [C@H]	-0.2359927
-1.2689873	4 ) [C@H]	-0.20903136
-1.0117494	[NH3+] ) [C@H]	-0.24300292
-1.0021361	[NH2+] ) [C@H]	-0.20903136
-1.2141234	C \ [C@H]	-0.20903136
-1.2496815	<s> [O-] [C@H]	-0.52914715
-1.1387094	# [N+] [C@H]	-0.20903136
-1.2946745	O [C@@H] [C@H]	-0.20903136
-0.90352046	C [C@@H] [C@H]	-0.42831075
-0.96731704	N [C@@H] [C@H]	-0.24136162
-1.1037024	[C@@H] [C@@H] [C@H]	-0.20903136
-0.7397314	[NH+] [C@@H] [C@H]	-0.20903136
-0.8960461	[NH3+] [C@@H] [C@H]	-0.20903136
-0.7397314	[NH2+] [C@@H] [C@H]	-0.20903136
-1.4074945	O [C@H] [C@H]	-0.20903136
-1.0943159	C [C@H] [C@H]	-0.2834101
-1.3951116	N [C@H] [C@H]	-0.20903136
-0.94550616	[O-] [C@H] [C@H]	-0.20903136
-0.77363825	[NH2+] [C@H] [C@H]	-0.20903136
-1.2855809	<s> F [C@H]	-0.33991292
-1.2223186	= [NH+] [C@H]	-0.20903136
-1.1814373	C [NH+] [C@H]	-0.20903136
-0.6862617	<s> [NH3+] [C@H]	-0.99729806
-1.5203266	<s> S [C@H]	-0.25847647
-1.4276819	C [NH2+] [C@H]	-0.23305063
-1.3691461	C [C@] [C@H]	-0.20903136
-1.2390119	[C@@H] 3 [C@H]	-0.20903136
-1.0512381	[C@H] 3 [C@H]	-0.20903136
-1.2720275	<s> [S-] [C@H]	-0.20903136
-1.5790417	[N+] = [N-]	-0.20903136
-1.9995253	C C [N-]	-0.3798828
-2.1719959	C N [N-]	-0.20903136
-1.8519144	O ) [N-]	-0.20903136
-2.0445938	C [C@@H] [N-]	-0.20903136
-1.0348767	[NH3+] [C@@H] [N-]	-0.20903136
-2.0487626	C [C@H] [N-]	-0.20903136
-0.94755167	[NH3+] [C@H] [N-]	-0.20903136
-1.5465214	C [NH+] [N-]	-0.20903136
-1.8177747	<s> S [N-]	-0.20903136
-1.4754802	O C F	-0.24300292
-1.9317948	= C F	-0.20903136
-1.4630996	C C F	-0.64094293
-2.012544	N C F	-0.20903136
-2.066284	) C F	-0.20903136
-2.0730247	[C@@H] C F	-0.20903136
-1.4663631	S C F	-0.20903136
-1.6971675	C 5 F	-0.20903136
-1.3296944	c 5 F	-0.25847647
-1.4261454	[C@@H] 5 F	-0.20903136
-1.2218499	) / F	-0.20903136
-1.4467238	O ) F	-0.20903136
-1.2787766	5 ) F	-0.25494406
-1.114812	) ) F	-0.55597407
-1.2195438	4 ) F	-0.20903136
-0.9806737	F ) F	-0.24136162
-0.9762969	S ) F	-0.20903136
-0.486467	Cl ) F	-0.25635362
-0.28854373	P ) F	-0.20903136
-1.0134587	) \ F	-0.20903136
-2.0504012	C [C@@H] F	-0.20903136
-1.5751486	N [C@@H] F	-0.20903136
-2.0545428	C [C@H] F	-0.20903136
-1.5865773	N [C@H] F	-0.20903136
-1.0931934	O = [NH+]	-0.20903136
-1.1992264	C = [NH+]	-0.2682299
-1.2863265	N = [NH+]	-0.25494406
-2.1954849	<s> C [NH+]	-0.9419729
-1.5215838	= C [NH+]	-0.25494406
-1.3604416	C C [NH+]	-0.558212
-1.8911117	N C [NH+]	-0.20903136
-1.6939104	/ C [NH+]	-0.20903136
-1.771845	) C [NH+]	-0.25847647
-1.4609698	\ C [NH+]	-0.20903136
-1.6418529	[C@@H] C [NH+]	-0.25847647
-1.644737	[C@H] C [NH+]	-0.25847647
-1.2571526	F C [NH+]	-0.20903136
-1.6678581	[NH2+] C [NH+]	-0.20903136
-1.8412434	<s> N [NH+]	-0.6229209
-1.7189711	= N [NH+]	-0.20903136
-1.7524151	C N [NH+]	-0.20903136
-1.6990842	N N [NH+]	-0.20903136
-1.0202898	C / [NH+]	-0.24300292
-1.357196	N / [NH+]	-0.20903136
-1.7491295	C ) [NH+]	-0.20903136
-1.5061952	N ) [NH+]	-0.20903136
-1.8165457	) ) [NH+]	-0.20903136
-1.3280798	4 ) [NH+]	-0.20903136
-1.042681	S ) [NH+]	-0.20903136
-1.2501849	C \ [NH+]	-0.20903136
-1.1472634	[C@@H] 4 [NH+]	-0.25847647
-1.0426207	[C@H] 4 [NH+]	-0.25847647
-1.6867688	C [C@@H] [NH+]	-0.24136162
-0.79827803	[O-] [C@@H] [NH+]	-0.20903136
-1.2261293	[C@@H] [C@@H] [NH+]	-0.20903136
-1.4130586	[C@H] [C@@H] [NH+]	-0.20903136
-1.6902196	C [C@H] [NH+]	-0.20903136
-0.98299366	[O-] [C@H] [NH+]	-0.20903136
-1.3972237	[C@@H] [C@H] [NH+]	-0.20903136
-1.2303089	[C@H] [C@H] [NH+]	-0.20903136
-2.058936	<s> C [NH3+]	-1.2091866
-1.6642272	O C [NH3+]	-0.25847647
-1.4291384	C C [NH3+]	-0.6229209
-1.4276749	# C [NH3+]	-0.20903136
-1.447211	/ C [NH3+]	-0.24136162
-1.3486984	) C [NH3+]	-0.3798828
-1.4218549	\ C [NH3+]	-0.20903136
-1.2453765	4 C [NH3+]	-0.25847647
-1.2654943	[C@@H] C [NH3+]	-0.55597407
-1.2690866	[C@H] C [NH3+]	-0.55597407
-1.342945	[C@] C [NH3+]	-0.20903136
-1.4284465	3 C [NH3+]	-0.25847647
-1.342945	[C@@] C [NH3+]	-0.20903136
-1.5458492	c 5 [NH3+]	-0.20903136
-1.1529975	[C@@H] 5 [NH3+]	-0.25847647
-1.083858	[C@H] 5 [NH3+]	-0.25847647
-2.156204	C N [NH3+]	-0.20903136
-1.3779641	C ) [NH3+]	-0.25494406
-1.3591857	5 ) [NH3+]	-0.25494406
-1.2608278	) ) [NH3+]	-0.41909418
-1.3669008	4 ) [NH3+]	-0.20903136
-0.77806246	[C@@H] 4 [NH3+]	-0.25847647
-1.0399841	[C@H] 4 [NH3+]	-0.25847647
-1.0905869	C [C@@H] [NH3+]	-0.6229209
-0.8791871	/ [C@@H] [NH3+]	-0.20903136
-1.0415311	) [C@@H] [NH3+]	-0.25847647
-0.77865916	\ [C@@H] [NH3+]	-0.20903136
-0.6605627	3 [C@@H] [NH3+]	-0.25847647
-1.0988028	C [C@H] [NH3+]	-0.6229209
-0.8795376	/ [C@H] [NH3+]	-0.20903136
-1.0635587	) [C@H] [NH3+]	-0.25847647
-0.77893716	\ [C@H] [NH3+]	-0.20903136
-0.45962852	3 [C@H] [NH3+]	-0.25847647
-1.185143	C [C@] [NH3+]	-0.25847647
-1.2544385	[C@@H] 3 [NH3+]	-0.20903136
-1.3483738	[C@H] 3 [NH3+]	-0.20903136
-1.169555	C [C@@] [NH3+]	-0.25847647
-3.1482084	<s> O S	-0.20903136
-2.1143272	C O S	-0.20903136
-0.9844132	C = S	-0.65288407
-1.086174	5 = S	-0.20903136
-2.1361594	<s> C S	-0.7647102
-1.6874226	= C S	-0.22813933
-1.7701098	C C S	-0.30182326
-1.9462917	N C S	-0.20903136
-1.5087065	# C S	-0.20903136
-1.9997115	) C S	-0.20903136
-1.8144045	[C@@H] C S	-0.20903136
-1.8169928	[C@H] C S	-0.20903136
-1.2844105	F C S	-0.20903136
-2.6094139	<s> N S	-0.20903136
-1.459844	= N S	-0.20903136
-1.7073092	C N S	-0.20903136
-1.645419	N N S	-0.20903136
-1.0016134	[N+] N S	-0.20903136
-1.8869388	5 ) S	-0.20903136
-1.4267468	) ) S	-0.25635362
-2.1323714	C [C@@H] S	-0.20903136
-2.1393878	C [C@H] S	-0.20903136
-1.540055	<s> Cl S	-0.20903136
-2.5967302	<s> C [n+]	-0.7320653
-2.647058	C C [n+]	-0.20903136
-2.1110644	c c [n+]	-0.20903136
-1.8520436	n c [n+]	-0.20903136
-1.5886315	c n [n+]	-0.25847647
-1.1390342	[nH] n [n+]	-0.20903136
-1.5107828	n n [n+]	-0.20903136
-2.3929598	<s> N [n+]	-0.25494406
-1.3686657	<s> [O-] [n+]	-0.5987763
-2.0262003	<s> F [n+]	-0.20903136
-1.8319855	<s> S [n+]	-0.20903136
-1.0734483	C = [NH2+]	-0.5987763
-1.0086523	c = [NH2+]	-0.20903136
-1.0433023	5 = [NH2+]	-0.20903136
-1.6662062	<s> C [NH2+]	-1.0337355
-1.5340098	O C [NH2+]	-0.25494406
-1.3831017	C C [NH2+]	-0.4314116
-1.2506739	5 C [NH2+]	-0.25847647
-1.6643496	N C [NH2+]	-0.20903136
-1.6312532	/ C [NH2+]	-0.20903136
-1.2545763	) C [NH2+]	-0.35632
-1.4035437	\ C [NH2+]	-0.20903136
-1.259722	[C@@H] C [NH2+]	-0.30607232
-1.2632625	[C@H] C [NH2+]	-0.30607232
-1.4661083	[NH+] C [NH2+]	-0.20903136
-0.9216386	[C@] C [NH2+]	-0.25494406
-1.4160603	3 C [NH2+]	-0.24136162
-0.9216386	[C@@] C [NH2+]	-0.25494406
-1.4773732	[C@@H] 5 [NH2+]	-0.20903136
-1.4142414	[C@H] 5 [NH2+]	-0.20903136
-2.1710637	<s> N [NH2+]	-0.3798828
-2.081161	C N [NH2+]	-0.20903136
-1.7408508	C ) [NH2+]	-0.20903136
-1.704396	5 ) [NH2+]	-0.20903136
-1.8055913	) ) [NH2+]	-0.20903136
-1.3210019	4 ) [NH2+]	-0.20903136
-1.1948924	6 ) [NH2+]	-0.20903136
-1.1519138	# [N+] [NH2+]	-0.20903136
-1.3860394	C [C@@H] [NH2+]	-0.2480804
-0.9009246	/ [C@@H] [NH2+]	-0.20903136
-1.2205911	[C@@H] [C@@H] [NH2+]	-0.20903136
-1.1660928	[C@H] [C@@H] [NH2+]	-0.24136162
-1.3646683	C [C@H] [NH2+]	-0.24300292
-0.8785785	/ [C@H] [NH2+]	-0.20903136
-1.115535	[C@@H] [C@H] [NH2+]	-0.24136162
-1.1864858	[C@H] [C@H] [NH2+]	-0.20903136
-0.8785785	[NH+] [C@H] [NH2+]	-0.20903136
-1.4014739	C [C@] [NH2+]	-0.20903136
-1.5161483	C 3 [NH2+]	-0.20903136
-1.193871	[C@@H] 3 [NH2+]	-0.20903136
-1.2805617	[C@H] 3 [NH2+]	-0.20903136
-1.390228	C [C@@] [NH2+]	-0.20903136
-2.8975792	<s> O [C@]	-0.25847647
-2.149275	C O [C@]	-0.20903136
-1.7914464	<s> C [C@]	-0.833116
-1.4569086	O C [C@]	-0.25847647
-1.5594428	= C [C@]	-0.24300292
-1.7752061	C C [C@]	-0.23305063
-1.9595302	N C [C@]	-0.20903136
-1.5182625	# C [C@]	-0.20903136
-2.020011	[C@@H] C [C@]	-0.20903136
-2.0216963	[C@H] C [C@]	-0.20903136
-1.7284294	[NH2+] C [C@]	-0.20903136
-2.9167614	<s> N [C@]	-0.20903136
-1.8831582	O ) [C@]	-0.20903136
-1.2642348	O O 3	-0.20903136
-1.2295771	C O 3	-0.47679284
-1.0657082	5 O 3	-0.24136162
-1.1997186	N O 3	-0.25847647
-1.2134787	) O 3	-0.25494406
-1.5863081	O C 3	-0.25602794
-1.8118353	= C 3	-0.20903136
-1.4009739	C C 3	-0.44437504
-1.285617	5 C 3	-0.25847647
-1.7801095	) C 3	-0.25847647
-1.7863891	[C@@H] C 3	-0.25847647
-1.7887957	[C@H] C 3	-0.25847647
-1.5256839	[NH+] C 3	-0.20903136
-1.3243517	[NH2+] C 3	-0.23305063
-1.4601053	3 C 3	-0.20903136
-2.00847	c c 3	-0.20903136
-0.367405	5 c 3	-0.20903136
-0.9224756	) c 3	-0.20903136
-1.3263419	O N 3	-0.25494406
-1.7603256	= N 3	-0.20903136
-1.452593	C N 3	-0.25036925
-1.0071232	O / 3	-0.20903136
-1.4250951	C / 3	-0.20903136
-0.54925853	[C@@H] / 3	-0.25847647
-0.54925853	[C@H] / 3	-0.25847647
-0.5527065	O \ 3	-0.20903136
-0.9394113	C \ 3	-0.20903136
-0.3129326	[C@@H] \ 3	-0.20903136
-0.3129326	[C@H] \ 3	-0.20903136
-1.6466333	C 4 3	-0.20903136
-1.267493	C [N+] 3	-0.20903136
-0.45069695	[C@@H] [N+] 3	-0.25847647
-0.34739336	[C@H] [N+] 3	-0.20903136
-0.7463833	O [C@@H] 3	-0.47679284
-1.0387173	C [C@@H] 3	-0.37524775
-1.4336407	N [C@@H] 3	-0.20903136
-1.1615905	[C@H] [C@@H] 3	-0.25847647
-0.65849286	O [C@H] 3	-0.3821207
-1.0347047	C [C@H] 3	-0.37524775
-1.4014719	N [C@H] 3	-0.20903136
-0.9527933	[C@@H] [C@H] 3	-0.25494406
-1.1817268	[C@H] [C@H] 3	-0.20903136
-0.97606987	= [NH+] 3	-0.20903136
-1.0101558	C [NH+] 3	-0.25847647
-0.26258913	4 [NH+] 3	-0.25847647
-0.58577234	[C@@H] [NH+] 3	-0.25847647
-0.58577234	[C@H] [NH+] 3	-0.25847647
-1.185674	C S 3	-0.25847647
-0.78431237	) S 3	-0.20903136
-1.2150819	C [NH2+] 3	-0.25494406
-0.8543929	) [NH2+] 3	-0.25847647
-1.1717553	C [C@] 3	-0.25847647
-0.9176002	C [C@@] 3	-0.25635362
-0.3282483	[C@] [C@@] 3	-0.20903136
-2.8943546	<s> O [C@@]	-0.25847647
-2.142057	C O [C@@]	-0.20903136
-1.8086698	<s> C [C@@]	-0.8153872
-1.4450439	O C [C@@]	-0.25847647
-1.5421648	= C [C@@]	-0.25494406
-1.866777	C C [C@@]	-0.23659304
-1.9277067	N C [C@@]	-0.20903136
-1.4951557	# C [C@@]	-0.20903136
-1.9810454	) C [C@@]	-0.20903136
-1.9881874	[C@@H] C [C@@]	-0.20903136
-1.9897316	[C@H] C [C@@]	-0.20903136
-1.7003922	[NH2+] C [C@@]	-0.20903136
-2.9090219	<s> N [C@@]	-0.20903136
-1.8767271	O ) [C@@]	-0.20903136
-1.4425079	C [C@] [C@@]	-0.20903136
-1.3656596	O O 7	-0.20903136
-1.6742548	C O 7	-0.25494406
-1.5656531	N O 7	-0.20903136
-1.853655	O C 7	-0.25847647
-2.0324647	= C 7	-0.20903136
-2.2692003	C C 7	-0.25847647
-2.1018052	N C 7	-0.20903136
-1.5754664	[NH2+] C 7	-0.25847647
-1.3622323	= [NH+] 7	-0.20903136
-1.4723951	C [NH2+] 7	-0.25847647
-1.462868	C c [nH+]	-0.20903136
-1.1868815	c c [nH+]	-0.24809974
-1.3205833	[nH] c [nH+]	-0.20903136
-1.4492012	n c [nH+]	-0.20903136
-1.3860334	N c [nH+]	-0.20903136
-1.6266012	c [nH] [nH+]	-0.20903136
-1.5954888	c n [nH+]	-0.20903136
-1.1451896	[nH] n [nH+]	-0.20903136
-1.5207132	n n [nH+]	-0.20903136
-1.1891806	O = s	-0.20903136
-1.2391335	= c s	-0.20903136
-1.0452722	c c s	-0.3293094
-1.4478838	n c s	-0.25847647
-0.8963649	[n+] c s	-0.25494406
-0.6304401	3 c s	-0.20903136
-1.6211184	c [nH] s	-0.20903136
-1.1558421	c n s	-0.24809974
-1.32978	n n s	-0.25847647
-1.7583932	) O Cl	-0.20903136
-0.6682842	P O Cl	-0.20903136
-1.9814852	O C Cl	-0.20903136
-2.0549924	C C Cl	-0.24136162
-2.0572193	) C Cl	-0.20903136
-2.0640066	[C@@H] C Cl	-0.20903136
-2.0659053	[C@H] C Cl	-0.20903136
-1.462022	S C Cl	-0.20903136
-1.1125263	P C Cl	-0.20903136
-1.6248567	C / Cl	-0.20903136
-1.1602148	) / Cl	-0.20903136
-1.6462532	O ) Cl	-0.20903136
-1.7949619	C ) Cl	-0.20903136
-1.6893581	) ) Cl	-0.25847647
-1.3215272	Cl ) Cl	-0.20903136
-1.2419084	C \ Cl	-0.20903136
-2.0332067	C [C@@H] Cl	-0.20903136
-0.37353724	[S-] [C@@H] Cl	-0.20903136
-1.7995524	C [C@H] Cl	-0.25847647
-0.37364662	[S-] [C@H] Cl	-0.20903136
-1.4071038	C [C@] Cl	-0.20903136
-1.3952928	C [C@@] Cl	-0.20903136
-1.1834857	C P Cl	-0.20903136
-2.8911538	<s> O P	-0.25847647
-2.1349568	C O P	-0.20903136
-1.0978754	O = P	-0.20903136
-2.0615351	C = P	-0.20903136
-1.2893906	N = P	-0.24136162
-2.723262	<s> C P	-0.23659304
-2.1658974	C C P	-0.23305063
-1.3829184	F C P	-0.20903136
-1.8703897	O ) P	-0.20903136
-1.2043159	C P P	-0.20903136
-2.477863	<s> [O-] [P@@]	-0.20903136
-0.89658815	C c [n-]	-0.3798828
-1.2121329	N c [n-]	-0.25847647
-2.477863	<s> [O-] [S@]	-0.20903136
-2.210744	c c [o+]	-0.20903136
-1.1094319	[N+] # [C-]	-0.20903136
-1.6668195	C c p	-0.20903136
-2.7446074	C C [O+]	-0.20903136
-2.148029	C N [O+]	-0.20903136
-1.8447337	N N [O+]	-0.20903136
-3.821379	<s> C [P@H]	-0.20903136
-2.248777	= C 8	-0.20903136
-1.5615573	<s> Cl [C+]	-0.20903136
-2.7494116	C C [S+]	-0.20903136

\4-grams:
-0.36706722	) O O </s>	0
-0.43210912	C = O </s>	0
-0.32375646	5 = O </s>	0
-0.42886233	N = O </s>	0
-0.42014095	4 = O </s>	0
-0.24330294	6 = O </s>	0
-0.29426837	3 = O </s>	0
-0.42014095	P = O </s>	0
-0.98634315	C C O </s>	0
-0.76055706	# C O </s>	0
-0.7044115	/ C O </s>	0
-0.7341105	) C O </s>	0
-0.7044115	\ C O </s>	0
-0.30719122	4 C O </s>	0
-0.70993775	3 C O </s>	0
-0.24989344	C 5 O </s>	0
-0.21498302	c 5 O </s>	0
-0.21498302	N 5 O </s>	0
-0.5760022	[C@@H] 5 O </s>	0
-0.57319856	[C@H] 5 O </s>	0
-0.30624813	/ N O </s>	0
-0.5690154	) N O </s>	0
-0.7657315	C / O </s>	0
-0.6917827	N / O </s>	0
-0.5245548	) / O </s>	0
-0.675758	O ) O </s>	0
-0.87646157	C ) O </s>	0
-0.2637241	5 ) O </s>	0
-0.48680422	) ) O </s>	0
-0.3146395	4 ) O </s>	0
-0.3146395	F ) O </s>	0
-0.60054386	) \ O </s>	0
-0.3055051	O S O </s>	0
-0.2963676	N 3 O </s>	0
-0.50254154	[C@@H] 3 O </s>	0
-0.50254154	[C@H] 3 O </s>	0
-1.2981628	C O C </s>	0
-1.1287576	N O C </s>	0
-0.7086202	/ O C </s>	0
-0.8852224	) O C </s>	0
-0.7086202	\ O C </s>	0
-1.1592029	C = C </s>	0
-0.645011	5 = C </s>	0
-1.3043283	N = C </s>	0
-1.0523216	[NH+] = C </s>	0
-0.37937182	3 = C </s>	0
-1.4632461	O C C </s>	0
-1.6084805	= C C </s>	0
-1.5116074	C C C </s>	0
-1.4895684	N C C </s>	0
-1.2146674	# C C </s>	0
-0.8794534	/ C C </s>	0
-1.0190947	) C C </s>	0
-0.90990615	\ C C </s>	0
-0.8189487	4 C C </s>	0
-1.4780985	[NH2+] C C </s>	0
-1.0368925	3 C C </s>	0
-0.77428275	C 5 C </s>	0
-0.12545897	c 5 C </s>	0
-0.23267767	n 5 C </s>	0
-0.3938545	N 5 C </s>	0
-0.48902166	[C@@H] 5 C </s>	0
-0.48902166	[C@H] 5 C </s>	0
-0.27147728	[n+] 5 C </s>	0
-1.5478574	= N C </s>	0
-0.8919571	/ N C </s>	0
-1.1379205	) N C </s>	0
-1.1095297	C # C </s>	0
-1.3671936	C / C </s>	0
-1.1120373	N / C </s>	0
-1.0550207	) / C </s>	0
-0.8468603	[NH+] / C </s>	0
-0.90713453	O ) C </s>	0
-0.6574195	C ) C </s>	0
-0.31856993	5 ) C </s>	0
-0.9903216	N ) C </s>	0
-0.70172465	) ) C </s>	0
-0.9042894	4 ) C </s>	0
-0.58061135	[O-] ) C </s>	0
-0.8387381	F ) C </s>	0
-1.0435804	[NH3+] ) C </s>	0
-0.7768943	[NH2+] ) C </s>	0
-0.70117867	3 ) C </s>	0
-0.34325907	Cl ) C </s>	0
-1.1626186	C \ C </s>	0
-0.77800405	) \ C </s>	0
-0.89245135	[C@@H] 4 C </s>	0
-0.89245135	[C@H] 4 C </s>	0
-0.6622949	) S C </s>	0
-1.3416404	C [NH2+] C </s>	0
-0.6813421	) [NH2+] C </s>	0
-0.48366868	3 [NH2+] C </s>	0
-0.9847234	C 3 C </s>	0
-0.6499765	N 3 C </s>	0
-0.27190557	/ 3 C </s>	0
-0.27190557	\ 3 C </s>	0
-0.7732738	[C@@H] 3 C </s>	0
-0.82147473	[C@H] 3 C </s>	0
-0.8302442	[NH+] 3 C </s>	0
-0.1054382	C O 5 </s>	0
-0.19580013	5 O 5 </s>	0
-0.35059252	N O 5 </s>	0
-0.17166463	) O 5 </s>	0
-0.44550103	O C 5 </s>	0
-0.5535935	= C 5 </s>	0
-0.28120768	C C 5 </s>	0
-0.19578765	5 C 5 </s>	0
-0.4555629	N C 5 </s>	0
-0.22669111	# C 5 </s>	0
-0.13929826	) C 5 </s>	0
-0.19578765	4 C 5 </s>	0
-0.22669111	[N-] C 5 </s>	0
-0.6331273	[NH+] C 5 </s>	0
-0.42882922	[NH2+] C 5 </s>	0
-0.6000321	c c 5 </s>	0
-0.7287331	n c 5 </s>	0
-0.3190502	) c 5 </s>	0
-0.22121637	c [nH] 5 </s>	0
-0.09521052	[nH] [nH] 5 </s>	0
-0.08390356	n [nH] 5 </s>	0
-0.08390356	) [nH] 5 </s>	0
-0.09521052	s [nH] 5 </s>	0
-0.3524375	c n 5 </s>	0
-0.28027764	[nH] n 5 </s>	0
-0.23433445	n n 5 </s>	0
-0.28027764	o n 5 </s>	0
-0.17700247	s n 5 </s>	0
-0.24801199	c o 5 </s>	0
-0.102820985	[nH] o 5 </s>	0
-0.103769474	n o 5 </s>	0
-0.11704077	) o 5 </s>	0
-0.42376527	O N 5 </s>	0
-0.39356288	= N 5 </s>	0
-0.55540496	C N 5 </s>	0
-0.5434292	N N 5 </s>	0
-0.20182201	) N 5 </s>	0
-0.23396213	[N-] N 5 </s>	0
-0.107108	O / 5 </s>	0
-0.094229296	C / 5 </s>	0
-0.107108	N / 5 </s>	0
-0.107108	O \ 5 </s>	0
-0.107108	C \ 5 </s>	0
-0.094229296	N \ 5 </s>	0
-0.13690753	C 6 5 </s>	0
-0.41716027	= [NH+] 5 </s>	0
-0.104232505	C S 5 </s>	0
-0.104232505	N S 5 </s>	0
-0.33233136	C [NH2+] 5 </s>	0
-0.47858766	c [nH+] 5 </s>	0
-0.094229296	c s 5 </s>	0
-0.107108	[nH] s 5 </s>	0
-0.094229296	n s 5 </s>	0
-0.13690753	C P 5 </s>	0
-1.1060807	C O N </s>	0
-0.35706013	/ O N </s>	0
-0.81685436	) O N </s>	0
-0.35706013	\ O N </s>	0
-0.9323894	C = N </s>	0
-0.33077347	5 = N </s>	0
-1.0336314	N = N </s>	0
-0.33077347	4 = N </s>	0
-0.7924187	[N+] = N </s>	0
-0.55926603	[NH+] = N </s>	0
-0.67570144	/ C N </s>	0
-1.1358215	) C N </s>	0
-0.18319178	C 5 N </s>	0
-0.089253746	c 5 N </s>	0
-0.18319178	n 5 N </s>	0
-0.32917464	N 5 N </s>	0
-0.315731	[C@@H] 5 N </s>	0
-0.315731	[C@H] 5 N </s>	0
-1.413263	C N N </s>	0
-0.7992779	) N N </s>	0
-0.38403803	C # N </s>	0
-0.33185017	[N+] # N </s>	0
-0.96491694	C / N </s>	0
-0.906925	N / N </s>	0
-0.7748272	) / N </s>	0
-0.82387894	O ) N </s>	0
-0.81120396	C ) N </s>	0
-0.0691084	5 ) N </s>	0
-0.5493196	N ) N </s>	0
-0.39777303	) ) N </s>	0
-0.2928995	F ) N </s>	0
-0.5938631	S ) N </s>	0
-0.6518361	[NH2+] ) N </s>	0
-0.64565194	C \ N </s>	0
-0.5884469	N \ N </s>	0
-0.2901825	) \ N </s>	0
-0.18831092	N 4 N </s>	0
-0.18831092	[C@@H] 4 N </s>	0
-0.18831092	[C@H] 4 N </s>	0
-0.1533489	C [NH2+] N </s>	0
-0.1533489	) [NH2+] N </s>	0
-0.3556264	C O 4 </s>	0
-0.3556264	) O 4 </s>	0
-0.45736504	O C 4 </s>	0
-0.30246007	= C 4 </s>	0
-0.4643846	C C 4 </s>	0
-0.22419193	5 C 4 </s>	0
-0.5498964	N C 4 </s>	0
-0.29982987	) C 4 </s>	0
-0.22419193	S C 4 </s>	0
-0.30246007	[NH2+] C 4 </s>	0
-0.3917336	3 C 4 </s>	0
-0.12653694	c [nH] 4 </s>	0
-0.11101002	n [nH] 4 </s>	0
-0.21181698	= N 4 </s>	0
-0.4418396	C N 4 </s>	0
-0.288726	) N 4 </s>	0
-0.32853368	C [NH2+] 4 </s>	0
-0.24757658	) [NH2+] 4 </s>	0
-0.14619367	c s 4 </s>	0
-0.14619367	C P 4 </s>	0
-0.10049672	O O 6 </s>	0
-0.14663249	C O 6 </s>	0
-0.08849604	5 O 6 </s>	0
-0.10049672	N O 6 </s>	0
-0.113749854	O C 6 </s>	0
-0.10089643	= C 6 </s>	0
-0.1274184	C C 6 </s>	0
-0.10089643	5 C 6 </s>	0
-0.2002238	N C 6 </s>	0
-0.113749854	[NH+] C 6 </s>	0
-0.113749854	[NH2+] C 6 </s>	0
-0.16042851	c c 6 </s>	0
-0.09449352	[nH] c 6 </s>	0
-0.09449352	n c 6 </s>	0
-0.051100425	c [nH] 6 </s>	0
-0.05768932	[nH] [nH] 6 </s>	0
-0.05768932	n [nH] 6 </s>	0
-0.056226477	c n 6 </s>	0
-0.056226477	n n 6 </s>	0
-0.064151734	c o 6 </s>	0
-0.10049672	O N 6 </s>	0
-0.08849604	= N 6 </s>	0
-0.051349018	C N 6 </s>	0
-0.08849604	N N 6 </s>	0
-0.07256908	= [NH+] 6 </s>	0
-0.056226477	C S 6 </s>	0
-0.063526064	N S 6 </s>	0
-0.15705982	C [NH2+] 6 </s>	0
-0.064151734	= P 6 </s>	0
-0.07256908	c [o+] 6 </s>	0
-0.117003724	C 5 [O-] </s>	0
-0.07538905	c 5 [O-] </s>	0
-0.117003724	[C@@H] 5 [O-] </s>	0
-0.15006806	C / [O-] </s>	0
-0.29232946	O ) [O-] </s>	0
-0.13472243	5 ) [O-] </s>	0
-0.29232946	4 ) [O-] </s>	0
-0.15420024	[O-] ) [O-] </s>	0
-0.37309116	F ) [O-] </s>	0
-0.15006806	) \ [O-] </s>	0
-0.47162917	[N+] = [N-] </s>	0
-0.52524096	O C F </s>	0
-0.386808	= C F </s>	0
-0.92318094	C C F </s>	0
-0.386808	) C F </s>	0
-0.386808	S C F </s>	0
-0.10952288	C 5 F </s>	0
-0.09632056	c 5 F </s>	0
-0.10952288	[C@@H] 5 F </s>	0
-0.14011002	) / F </s>	0
-0.24804498	O ) F </s>	0
-0.10769284	5 ) F </s>	0
-0.05051685	) ) F </s>	0
-0.12153992	4 ) F </s>	0
-0.18972579	F ) F </s>	0
-0.12153992	S ) F </s>	0
-0.2884636	Cl ) F </s>	0
-0.24804498	P ) F </s>	0
-0.14011002	) \ F </s>	0
-0.2663938	C C [NH3+] </s>	0
-0.21224295	# C [NH3+] </s>	0
-0.28919813	/ C [NH3+] </s>	0
-0.24211691	) C [NH3+] </s>	0
-0.3742713	\ C [NH3+] </s>	0
-0.18374635	4 C [NH3+] </s>	0
-0.18374635	3 C [NH3+] </s>	0
-0.10348841	c 5 [NH3+] </s>	0
-0.09109184	[C@@H] 5 [NH3+] </s>	0
-0.09109184	[C@H] 5 [NH3+] </s>	0
-0.1321182	C N [NH3+] </s>	0
-0.10102822	C ) [NH3+] </s>	0
-0.10102822	5 ) [NH3+] </s>	0
-0.1001223	) ) [NH3+] </s>	0
-0.11390078	4 ) [NH3+] </s>	0
-0.31530035	[C@@H] 4 [NH3+] </s>	0
-0.1499044	[C@H] 4 [NH3+] </s>	0
-0.36805186	[C@@H] 3 [NH3+] </s>	0
-0.36805186	[C@H] 3 [NH3+] </s>	0
-0.5200481	C = S </s>	0
-0.21907847	5 = S </s>	0
-0.86125183	C C S </s>	0
-0.36750162	) C S </s>	0
-0.43680832	) ) S </s>	0
-0.83679694	C = [NH2+] </s>	0
-0.26825577	5 = [NH2+] </s>	0
-0.29927248	O O 3 </s>	0
-0.3967533	C O 3 </s>	0
-0.2308295	5 O 3 </s>	0
-0.13901952	N O 3 </s>	0
-0.14035971	) O 3 </s>	0
-0.59064746	O C 3 </s>	0
-0.5241053	= C 3 </s>	0
-0.46559352	C C 3 </s>	0
-0.22051129	5 C 3 </s>	0
-0.22051129	) C 3 </s>	0
-0.58825576	[NH2+] C 3 </s>	0
-0.44030243	3 C 3 </s>	0
-0.1985809	5 c 3 </s>	0
-0.1985809	) c 3 </s>	0
-0.27246085	= N 3 </s>	0
-0.5433618	C N 3 </s>	0
-0.31179303	O / 3 </s>	0
-0.31179303	O \ 3 </s>	0
-0.11981119	C S 3 </s>	0
-0.13677523	) S 3 </s>	0
-0.1209394	C [NH2+] 3 </s>	0
-0.11981119	) [NH2+] 3 </s>	0
-0.03835642	O O 7 </s>	0
-0.034351885	C O 7 </s>	0
-0.03835642	N O 7 </s>	0
-0.020115267	O C 7 </s>	0
-0.022605058	= C 7 </s>	0
-0.020115267	C C 7 </s>	0
-0.022605058	N C 7 </s>	0
-0.020115267	[NH2+] C 7 </s>	0
-0.047969762	= [NH+] 7 </s>	0
-0.042545885	C [NH2+] 7 </s>	0
-0.12652773	) O Cl </s>	0
-0.12652773	P O Cl </s>	0
-0.15181805	O C Cl </s>	0
-0.2227112	C C Cl </s>	0
-0.15181805	) C Cl </s>	0
-0.15181805	S C Cl </s>	0
-0.15181805	P C Cl </s>	0
-0.33705893	C / Cl </s>	0
-0.18628013	) / Cl </s>	0
-0.082637176	O ) Cl </s>	0
-0.082637176	C ) Cl </s>	0
-0.072951116	) ) Cl </s>	0
-0.082637176	Cl ) Cl </s>	0
-0.40270516	C \ Cl </s>	0
-0.47655797	O ) P </s>	0
-0.14004497	[N+] # [C-] </s>	0
-0.09517997	= C 8 </s>	0
-1.3422614	= C O O	-0.1871037
-1.3091887	C C O O	-0.1871037
-1.4431335	[C@@H] C O O	-0.1871037
-1.4185305	[C@H] C O O	-0.1871037
-0.6554361	F C O O	-0.1871037
-1.3141552	O ) O O	-0.1871037
-1.6392206	C [C@@H] O O	-0.1871037
-1.631754	C [C@H] O O	-0.1871037
-0.47099042	O C = O	-0.56103224
-0.6161918	= C = O	-0.3222017
-0.6492142	C C = O	-0.80407023
-0.40415505	5 C = O	-0.38494092
-0.5892038	N C = O	-0.627979
-0.95116526	/ C = O	-0.26000223
-0.6024961	) C = O	-0.5232436
-0.5998315	\ C = O	-0.20793095
-0.34261006	4 C = O	-0.26000223
-0.644529	[O-] C = O	-0.1871037
-0.5915379	[C@@H] C = O	-0.56103224
-0.5234448	[C@H] C = O	-0.627979
-0.58746237	F C = O	-0.1871037
-0.5741501	S C = O	-0.1871037
-0.49185124	[C@] C = O	-0.1871037
-0.59861606	3 C = O	-0.24302046
-0.49185124	[C@@] C = O	-0.1871037
-0.49185124	Cl C = O	-0.1871037
-0.49185124	[S-] C = O	-0.1871037
-0.12146894	c c = O	-0.1871037
-0.16821547	[nH] c = O	-0.26000223
-0.12146894	n c = O	-0.1871037
-0.107630976	o c = O	-0.26000223
-0.52898294	C 5 = O	-0.24302046
-0.21944146	c 5 = O	-0.26000223
-0.97685283	C N = O	-0.20793095
-0.6383503	5 N = O	-0.1871037
-0.7443317	N N = O	-0.20793095
-0.67241406	) N = O	-0.20793095
-0.77914107	[C@@H] N = O	-0.1871037
-0.77914107	[C@H] N = O	-0.1871037
-0.14369285	O ) = O	-0.1871037
-0.194405	C 4 = O	-0.326949
-0.12574115	C 6 = O	-0.2187315
-0.54427576	= [N+] = O	-0.1871037
-0.53234154	C [N+] = O	-0.2187315
-0.3413683	N [N+] = O	-0.1871037
-0.2638666	/ [N+] = O	-0.2187315
-0.18932098	) [N+] = O	-0.1871037
-0.18932098	\ [N+] = O	-0.1871037
-0.3413683	[O-] [N+] = O	-0.1871037
-0.18932098	[C@@H] [N+] = O	-0.1871037
-0.26102912	C S = O	-0.1871037
-0.22947451	C 3 = O	-0.2187315
-0.15800257	/ 3 = O	-0.1871037
-0.15800257	\ 3 = O	-0.1871037
-0.18376006	C P = O	-0.1871037
-0.18376006	) P = O	-0.1871037
-0.14369285	[O-] [P@@] = O	-0.1871037
-0.14369285	[O-] [S@] = O	-0.1871037
-1.38411	<s> O C O	-0.4451032
-1.0437367	C O C O	-0.22431983
-1.3413306	[C@@H] O C O	-0.1871037
-1.3287119	[C@H] O C O	-0.1871037
-1.1342596	O = C O	-0.1871037
-1.2708212	C = C O	-0.2452023
-1.3641568	N = C O	-0.1871037
-0.91081244	[N+] = C O	-0.26000223
-1.2259734	[NH+] = C O	-0.1871037
-1.1058757	<s> C C O	-0.8906257
-1.1377428	O C C O	-0.2140698
-1.1516329	= C C O	-0.24542648
-1.2042497	C C C O	-0.35464674
-1.2894555	N C C O	-0.21686117
-1.113128	# C C O	-0.19947983
-1.2726601	/ C C O	-0.1871037
-1.313448	) C C O	-0.1871037
-1.1492622	[N+] C C O	-0.1871037
-1.1475526	[C@@H] C C O	-0.22629634
-1.1301786	[C@H] C C O	-0.22629634
-1.0947938	[NH+] C C O	-0.20793095
-1.1107678	[NH3+] C C O	-0.1871037
-1.3316208	[NH2+] C C O	-0.1871037
-0.97293955	[C@] C C O	-0.1871037
-0.9720505	3 C C O	-0.24302046
-0.97293955	[C@@] C C O	-0.1871037
-0.92385715	Cl C C O	-0.1871037
-0.9587157	C 5 C O	-0.2187315
-1.5170305	= N C O	-0.1871037
-1.599721	C N C O	-0.2187315
-1.4829136	N N C O	-0.1871037
-1.4658614	C # C O	-0.1871037
-1.0412071	N # C O	-0.1871037
-1.5219173	C / C O	-0.1871037
-1.1719918	) / C O	-0.1871037
-0.97871727	O ) C O	-0.28897196
-1.0628204	C ) C O	-0.20489377
-1.1214088	5 ) C O	-0.20793095
-0.8192504	N ) C O	-0.30854082
-1.044248	) ) C O	-0.32909262
-0.97735405	4 ) C O	-0.2187315
-0.9096724	F ) C O	-0.1871037
-0.87634903	[NH3+] ) C O	-0.3891485
-1.133852	C \ C O	-0.1871037
-0.76590717	) \ C O	-0.1871037
-1.1960377	[C@@H] 4 C O	-0.1871037
-1.1960377	[C@H] 4 C O	-0.1871037
-0.999823	O [C@@H] C O	-0.1871037
-0.7938098	C [C@@H] C O	-0.3994779
-1.044917	N [C@@H] C O	-0.1871037
-0.91592383	/ [C@@H] C O	-0.1871037
-0.7239896	) [C@@H] C O	-0.24059871
-0.8845357	\ [C@@H] C O	-0.1871037
-0.78880674	[C@@H] [C@@H] C O	-0.2187315
-1.0243392	[C@H] [C@@H] C O	-0.1871037
-0.8440862	[NH3+] [C@@H] C O	-0.1871037
-0.8845357	[NH2+] [C@@H] C O	-0.1871037
-0.2940286	3 [C@@H] C O	-0.2187315
-1.0098561	O [C@H] C O	-0.1871037
-0.8381709	C [C@H] C O	-0.37599677
-1.0847006	N [C@H] C O	-0.1871037
-0.94058365	/ [C@H] C O	-0.1871037
-0.75417155	) [C@H] C O	-0.24059871
-0.90742993	\ [C@H] C O	-0.1871037
-1.0542402	[C@@H] [C@H] C O	-0.1871037
-0.8060065	[C@H] [C@H] C O	-0.2187315
-0.86489487	[NH3+] [C@H] C O	-0.1871037
-0.90742993	[NH2+] [C@H] C O	-0.1871037
-1.4099405	<s> F C O	-0.1871037
-1.319097	C [NH2+] C O	-0.2187315
-1.0861844	[C@@H] [NH2+] C O	-0.1871037
-1.1194266	[C@H] [NH2+] C O	-0.1871037
-1.091539	C [C@] C O	-0.20793095
-1.1477313	[C@@H] 3 C O	-0.1871037
-1.0441569	[C@H] 3 C O	-0.1871037
-0.61415195	[C@] 3 C O	-0.1871037
-0.8308305	[C@@] 3 C O	-0.1871037
-1.091539	C [C@@] C O	-0.20793095
-1.1187414	= C 5 O	-0.2187315
-1.0764819	[nH] c 5 O	-0.1871037
-1.3177863	n c 5 O	-0.1871037
-1.011819	O N 5 O	-0.1871037
-0.94660586	C N 5 O	-0.2187315
-0.54619753	O [C@@H] 5 O	-0.1871037
-0.61704314	C [C@@H] 5 O	-0.28897196
-0.7663334	N [C@@H] 5 O	-0.1871037
-0.3605793	[C@H] [C@@H] 5 O	-0.2187315
-0.2761136	[C@] [C@@H] 5 O	-0.1871037
-0.52710825	O [C@H] 5 O	-0.1871037
-0.63379335	C [C@H] 5 O	-0.2748531
-0.85004723	N [C@H] 5 O	-0.1871037
-0.4918163	[C@@H] [C@H] 5 O	-0.1871037
-1.0431076	C = N O	-0.3717631
-1.2710056	N = N O	-0.1871037
-0.95354015	[N+] = N O	-0.1871037
-2.0039725	<s> C N O	-0.2187315
-1.3232751	= C N O	-0.19739248
-1.562762	C C N O	-0.20262977
-1.0694413	C / N O	-0.1871037
-0.853086	) / N O	-0.1871037
-0.920788	O ) N O	-0.20793095
-1.0837935	) ) N O	-0.1871037
-0.94907475	C [C@@H] N O	-0.1871037
-0.9172213	C [C@H] N O	-0.1871037
-1.2226826	= C / O	-0.19590765
-1.0217966	= N / O	-0.1871037
-0.9821574	) ) / O	-0.20793095
-1.1928898	= O ) O	-0.1871037
-0.75308967	C O ) O	-0.24302046
-0.92383	) O ) O	-0.1871037
-0.35383967	3 O ) O	-0.1871037
-0.88171405	= C ) O	-0.1871037
-1.2152474	C C ) O	-0.20793095
-0.71496147	4 C ) O	-0.2187315
-0.5512319	[C@@H] C ) O	-0.20793095
-0.5512319	[C@H] C ) O	-0.20262977
-0.5021152	[C@] C ) O	-0.1871037
-0.6934477	3 C ) O	-0.2187315
-0.5021152	[C@@] C ) O	-0.1871037
-0.8027135	O 5 ) O	-0.2187315
-1.0590396	C 5 ) O	-0.24059871
-0.9987993	n 5 ) O	-0.1871037
-0.80010325	[NH+] 5 ) O	-0.1871037
-0.6273502	[NH2+] 5 ) O	-0.2187315
-0.99366784	= N ) O	-0.1871037
-1.1068553	O ) ) O	-0.20262977
-1.097933	C ) ) O	-0.29175124
-1.0046699	5 ) ) O	-0.26000223
-1.2157778	N ) ) O	-0.1871037
-0.9858157	) ) ) O	-0.33750874
-0.738828	[NH3+] ) ) O	-0.2187315
-1.138176	3 ) ) O	-0.1871037
-1.1760575	C 4 ) O	-0.1871037
-0.57439244	C 6 ) O	-0.24059871
-0.24812496	N 6 ) O	-0.2187315
-0.46786952	[NH2+] 6 ) O	-0.2187315
-0.9544839	) F ) O	-0.2187315
-1.1015265	[C@@H] [NH3+] ) O	-0.1871037
-1.1015265	[C@H] [NH3+] ) O	-0.1871037
-1.0667359	= C \ O	-0.1871037
-0.7510729	= N \ O	-0.1871037
-0.77725196	) ) \ O	-0.1871037
-0.64959115	O [C@@H] 4 O	-0.1871037
-0.6995703	C [C@@H] 4 O	-0.1871037
-0.6353375	[C@@H] [C@@H] 4 O	-0.1871037
-0.7119378	[C@H] [C@@H] 4 O	-0.1871037
-0.7424949	O [C@H] 4 O	-0.1871037
-0.9308636	C [C@H] 4 O	-0.1871037
-1.3321644	<s> [O-] [N+] O	-0.1871037
-1.3098742	<s> O [C@@H] O	-0.22935958
-1.1841756	C O [C@@H] O	-0.1871037
-0.9619891	<s> C [C@@H] O	-0.8071303
-0.70959693	O C [C@@H] O	-0.19739248
-0.8542483	= C [C@@H] O	-0.20489377
-0.9074069	C C [C@@H] O	-0.21621515
-1.0153342	N C [C@@H] O	-0.1871037
-0.5087216	# C [C@@H] O	-0.1871037
-0.65101266	/ C [C@@H] O	-0.1871037
-1.1031394	[C@@H] C [C@@H] O	-0.1871037
-1.0981632	[C@H] C [C@@H] O	-0.1871037
-0.5420847	[NH+] C [C@@H] O	-0.1871037
-0.82390076	[NH2+] C [C@@H] O	-0.2187315
-0.3205392	3 C [C@@H] O	-0.1871037
-1.2754643	<s> N [C@@H] O	-0.1871037
-0.9356972	= N [C@@H] O	-0.1871037
-0.8730071	C N [C@@H] O	-0.1871037
-0.7092984	C / [C@@H] O	-0.1871037
-0.6214757	O ) [C@@H] O	-0.1871037
-0.47550443	C ) [C@@H] O	-0.1871037
-0.6750456	) ) [C@@H] O	-0.1871037
-0.6415554	[NH3+] ) [C@@H] O	-0.1871037
-0.60486037	C \ [C@@H] O	-0.1871037
-1.0675777	C [C@@H] [C@@H] O	-0.1871037
-0.7568147	O [C@H] [C@@H] O	-0.1871037
-1.0887597	C [C@H] [C@@H] O	-0.1871037
-0.33575255	[O-] [C@H] [C@@H] O	-0.1871037
-1.5042435	<s> [NH3+] [C@@H] O	-0.1871037
-1.5674127	<s> O [C@H] O	-0.1871037
-1.1957139	C O [C@H] O	-0.1871037
-0.9634543	<s> C [C@H] O	-0.79554844
-0.73357993	O C [C@H] O	-0.19739248
-0.82943964	= C [C@H] O	-0.19947983
-0.9991036	C C [C@H] O	-0.21329765
-0.8969642	N C [C@H] O	-0.1871037
-0.5109307	# C [C@H] O	-0.1871037
-0.6544528	/ C [C@H] O	-0.1871037
-1.0414759	[C@@H] C [C@H] O	-0.1871037
-1.0734073	[C@H] C [C@H] O	-0.1871037
-0.32214314	[NH+] C [C@H] O	-0.1871037
-0.77041554	[NH2+] C [C@H] O	-0.2187315
-0.2735728	3 C [C@H] O	-0.2187315
-1.2258078	<s> N [C@H] O	-0.1871037
-0.9446211	= N [C@H] O	-0.1871037
-0.92164016	C N [C@H] O	-0.1871037
-0.7095539	C / [C@H] O	-0.1871037
-0.6732223	O ) [C@H] O	-0.1871037
-0.48568574	C ) [C@H] O	-0.1871037
-0.69028264	) ) [C@H] O	-0.1871037
-0.65541387	[NH3+] ) [C@H] O	-0.1871037
-0.60506123	C \ [C@H] O	-0.1871037
-1.371768	C [C@@H] [C@H] O	-0.1871037
-0.96026355	C [C@H] [C@H] O	-0.1871037
-0.32710618	[O-] [C@H] [C@H] O	-0.1871037
-1.5663009	<s> [NH3+] [C@H] O	-0.1871037
-0.2711119	C O S O	-0.1871037
-0.8000956	# C S O	-0.1871037
-1.0139897	<s> C [C@] O	-0.3222017
-1.0539345	C C [C@] O	-0.1871037
-0.95985013	O C 3 O	-0.20793095
-1.359209	C C 3 O	-0.1871037
-0.76094127	C N 3 O	-0.2187315
-1.0750315	C [C@@H] 3 O	-0.2187315
-1.1082009	C [C@H] 3 O	-0.2187315
-0.42551804	C [C@] 3 O	-0.2187315
-0.53721356	C [C@@] 3 O	-0.2187315
-1.4124906	<s> C [C@@] O	-0.26000223
-1.017652	C C [C@@] O	-0.1871037
-0.9739196	<s> C P O	-0.1871037
-1.3963188	<s> O C =	-0.48463207
-0.45434675	O O C =	-0.20793095
-0.77438635	C O C =	-0.57813525
-0.69742906	N O C =	-0.26000223
-0.8786769	/ O C =	-0.1871037
-0.6539338	) O C =	-0.24931106
-0.8786769	\ O C =	-0.1871037
-0.27645275	4 O C =	-0.2187315
-0.98097426	[C@@H] O C =	-0.1871037
-0.97328067	[C@H] O C =	-0.1871037
-0.5508072	S O C =	-0.1871037
-0.27645275	3 O C =	-0.2187315
-0.32575533	P O C =	-0.1871037
-1.0721189	O = C =	-0.1871037
-0.99492234	C = C =	-0.50304025
-0.8611152	N = C =	-0.3412901
-0.36451834	4 = C =	-0.1871037
-0.99138796	[NH+] = C =	-0.1871037
-0.61801213	S = C =	-0.1871037
-0.7425808	<s> C C =	-1.289866
-0.9385652	O C C =	-0.36607984
-0.8919628	= C C =	-0.36934945
-1.0150834	C C C =	-0.6359054
-0.79010373	N C C =	-0.5266318
-1.0710415	# C C =	-0.1871037
-0.9764708	/ C C =	-0.20793095
-0.9592822	) C C =	-0.34329748
-1.0482141	\ C C =	-0.1871037
-0.9152254	[N+] C C =	-0.1871037
-0.9376345	[C@@H] C C =	-0.36688116
-1.0011036	[C@H] C C =	-0.32909262
-0.9913759	[N-] C C =	-0.1871037
-0.83353084	F C C =	-0.1871037
-1.0584259	[NH+] C C =	-0.1871037
-1.065825	[NH3+] C C =	-0.1871037
-0.47754216	S C C =	-0.3222017
-1.2748168	[NH2+] C C =	-0.1871037
-1.0410967	3 C C =	-0.2187315
-0.89410925	Cl C C =	-0.1871037
-0.7555225	P C C =	-0.1871037
-0.9612719	C 5 C =	-0.1871037
-0.59415597	N 5 C =	-0.2187315
-0.73957974	[C@@H] 5 C =	-0.22935958
-0.73957974	[C@H] 5 C =	-0.22935958
-0.10745208	<s> N C =	-0.89122045
-0.60131824	O N C =	-0.32909262
-0.7919287	= N C =	-0.2778148
-0.7287109	C N C =	-0.4463093
-0.46754965	N N C =	-0.37232757
-0.8730372	/ N C =	-0.1871037
-0.6636382	) N C =	-0.2842883
-0.7346341	\ N C =	-0.1871037
-0.3225766	[N+] N C =	-0.1871037
-0.5586785	[C@@H] N C =	-0.2140698
-0.45165592	[C@H] N C =	-0.22952747
-0.3225766	S N C =	-0.1871037
-0.6322914	3 N C =	-0.2187315
-0.21917613	O / C =	-0.20793095
-0.26692802	C / C =	-0.54632884
-0.30132416	N / C =	-0.27752903
-0.56959844	) / C =	-0.20793095
-0.25499076	[O-] / C =	-0.1871037
-0.43782383	[N+] / C =	-0.1871037
-0.25499076	[C@@H] / C =	-0.1871037
-0.25499076	[C@H] / C =	-0.1871037
-0.25499076	F / C =	-0.1871037
-0.25499076	S / C =	-0.1871037
-0.25499076	Cl / C =	-0.1871037
-0.25499076	[S-] / C =	-0.1871037
-1.1007525	O ) C =	-0.22119944
-1.2680454	C ) C =	-0.20793095
-1.3014439	5 ) C =	-0.1871037
-0.81336963	N ) C =	-0.3001334
-0.88568383	) ) C =	-0.39765516
-0.9564006	6 ) C =	-0.1871037
-0.87057215	[NH3+] ) C =	-0.4451032
-0.83324546	S ) C =	-0.1871037
-1.016783	C \ C =	-0.1871037
-0.7896024	N \ C =	-0.1871037
-0.71182853	) \ C =	-0.1871037
-0.72712636	N 4 C =	-0.1871037
-0.8215462	[C@@H] 4 C =	-0.24059871
-0.8215462	[C@H] 4 C =	-0.26000223
-0.030970836	<s> [O-] C =	-1.4148047
-1.0346274	= [N+] C =	-0.1871037
-0.9372931	O [C@@H] C =	-0.2331866
-0.96415824	C [C@@H] C =	-0.35054058
-0.81104416	N [C@@H] C =	-0.24302046
-0.92953086	/ [C@@H] C =	-0.1871037
-0.97567946	) [C@@H] C =	-0.19947983
-0.89718	\ [C@@H] C =	-0.1871037
-0.85559106	[O-] [C@@H] C =	-0.1871037
-0.5950716	[N+] [C@@H] C =	-0.1871037
-0.5950716	S [C@@H] C =	-0.1871037
-0.89718	[NH2+] [C@@H] C =	-0.1871037
-0.91827667	O [C@H] C =	-0.2331866
-0.9502735	C [C@H] C =	-0.35054058
-0.8299658	N [C@H] C =	-0.26000223
-0.931446	/ [C@H] C =	-0.1871037
-0.9007936	) [C@H] C =	-0.19947983
-0.8989574	\ [C@H] C =	-0.1871037
-0.85720587	[O-] [C@H] C =	-0.1871037
-0.59595716	[N+] [C@H] C =	-0.1871037
-0.59595716	S [C@H] C =	-0.1871037
-0.8989574	[NH2+] [C@H] C =	-0.1871037
-0.69174457	<s> F C =	-0.3462211
-0.8067831	= [NH+] C =	-0.20793095
-0.3001953	O S C =	-0.1871037
-0.52786285	C S C =	-0.35812536
-0.48096097	N S C =	-0.2187315
-0.3001953	Cl S C =	-0.1871037
-1.0643815	C [C@] C =	-0.20793095
-0.73735017	N 3 C =	-0.1871037
-0.9794612	[C@@H] 3 C =	-0.19947983
-1.0292308	[C@H] 3 C =	-0.21221898
-0.8203101	[C@@] 3 C =	-0.1871037
-1.0643815	C [C@@] C =	-0.20793095
-0.42257476	<s> Cl C =	-0.33750874
-0.59822434	= P C =	-0.1871037
-0.15718901	<s> [S-] C =	-0.20793095
-0.17883977	Cl [C+] C =	-0.1871037
-1.964178	c c c =	-0.1871037
-1.037168	c [nH] c =	-0.1871037
-0.6919435	[nH] [nH] c =	-0.1871037
-0.8671559	n [nH] c =	-0.1871037
-1.7103755	c n c =	-0.1871037
-0.89901024	c o c =	-0.1871037
-0.29837564	[nH] o c =	-0.1871037
-0.29837564	o o c =	-0.1871037
-0.84900063	O C 5 =	-0.20793095
-1.0371711	C C 5 =	-0.22119944
-0.6165542	N C 5 =	-0.3754876
-1.3728518	c c 5 =	-0.1871037
-0.6904101	[nH] c 5 =	-0.26000223
-0.7288737	o c 5 =	-0.2187315
-1.3935077	<s> O N =	-0.1871037
-0.5564765	C O N =	-0.5416287
-0.94317245	) O N =	-0.1871037
-0.82775235	[C@@H] O N =	-0.2187315
-0.82775235	[C@H] O N =	-0.2187315
-1.4093434	<s> C N =	-0.48185095
-0.76757157	O C N =	-0.2187315
-0.9405293	= C N =	-0.2331866
-0.7063381	C C N =	-0.49829295
-0.77049345	N C N =	-0.26000223
-0.55830854	/ C N =	-0.1871037
-0.8061196	) C N =	-0.19947983
-0.55830854	\ C N =	-0.1871037
-0.51548934	[N+] C N =	-0.1871037
-0.8533453	[C@@H] C N =	-0.2187315
-0.8533453	[C@H] C N =	-0.2187315
-0.5353416	N 5 N =	-0.1871037
-0.77777517	[C@@H] 5 N =	-0.1871037
-1.0624335	<s> N N =	-0.38494092
-0.7261552	= N N =	-0.21221898
-0.5568562	C N N =	-0.293933
-0.4681495	N N N =	-0.24059871
-0.42540172	) N N =	-0.2187315
-0.21725318	O / N =	-0.26000223
-0.35396412	C / N =	-0.3068005
-0.4400935	N / N =	-0.24302046
-0.5591383	) / N =	-0.1871037
-0.24988438	[C@@H] / N =	-0.1871037
-0.24988438	[C@H] / N =	-0.1871037
-0.85066193	O ) N =	-0.20262977
-0.9405575	C ) N =	-0.1871037
-0.73344916	N ) N =	-0.1871037
-0.9173264	) ) N =	-0.20793095
-0.68350077	S ) N =	-0.1871037
-0.81701857	C \ N =	-0.1871037
-0.33089635	= [N+] N =	-0.1871037
-0.8252745	C [C@@H] N =	-0.19947983
-0.53535354	N [C@@H] N =	-0.1871037
-0.7997828	C [C@H] N =	-0.19947983
-0.53535354	N [C@H] N =	-0.1871037
-0.2273526	C S N =	-0.2187315
-0.4325337	[C@@H] 3 N =	-0.1871037
-0.4325337	[C@H] 3 N =	-0.1871037
-0.17337772	= P N =	-0.1871037
-1.6847528	= O ) =	-0.1871037
-0.5941032	O C 4 =	-0.2187315
-0.60038924	C C 4 =	-0.2187315
-0.5409487	N C 4 =	-0.2187315
-0.66381896	) C 4 =	-0.20793095
-0.30516234	[C@@H] C 4 =	-0.1871037
-0.30516234	[C@H] C 4 =	-0.1871037
-1.1750821	C C 6 =	-0.1871037
-0.9015214	N C 6 =	-0.1871037
-0.06993683	<s> O [N+] =	-0.48185095
-0.43419752	C = [N+] =	-0.19947983
-0.5093523	N = [N+] =	-0.1871037
-0.24858524	[N-] = [N+] =	-0.1871037
-0.19226663	<s> C [N+] =	-0.71772
-0.19207318	= C [N+] =	-0.1871037
-0.33722642	C C [N+] =	-0.24302046
-0.19207318	/ C [N+] =	-0.1871037
-0.34527943	[C@@H] C [N+] =	-0.1871037
-0.34527943	[C@H] C [N+] =	-0.1871037
-0.46763524	<s> N [N+] =	-0.1871037
-0.2743265	= N [N+] =	-0.1871037
-0.43739256	C / [N+] =	-0.1871037
-0.20764337	N / [N+] =	-0.1871037
-0.20764337	[O-] / [N+] =	-0.1871037
-0.531321	) ) [N+] =	-0.1871037
-0.13998526	C \ [N+] =	-0.1871037
-0.18968412	<s> [O-] [N+] =	-0.627979
-0.26148713	[O-] [C@@H] [N+] =	-0.1871037
-0.21757458	= C [NH+] =	-0.26000223
-0.54237837	C C [NH+] =	-0.56103224
-0.25026947	N C [NH+] =	-0.1871037
-0.21529263	) C [NH+] =	-0.2187315
-0.41469455	[C@@H] C [NH+] =	-0.2187315
-0.41469455	[C@H] C [NH+] =	-0.2187315
-0.26027688	= N [NH+] =	-0.1871037
-0.4459029	C N [NH+] =	-0.1871037
-0.24768549	C / [NH+] =	-0.26000223
-0.19841842	N / [NH+] =	-0.1871037
-0.13083842	C ) [NH+] =	-0.1871037
-0.13083842	N ) [NH+] =	-0.1871037
-0.13083842	) ) [NH+] =	-0.1871037
-0.13083842	S ) [NH+] =	-0.1871037
-0.6512242	C [C@@H] [NH+] =	-0.1871037
-0.5311731	C [C@H] [NH+] =	-0.1871037
-1.6283185	<s> C S =	-0.1871037
-0.87744987	O C 3 =	-0.26000223
-0.9012379	C C 3 =	-0.3222017
-0.5864844	C / 3 =	-0.1871037
-0.5864844	C \ 3 =	-0.1871037
-0.25898808	C O P =	-0.1871037
-0.924845	<s> C P =	-0.1871037
-0.44392836	O ) P =	-0.1871037
-0.09517997	<s> [O-] [P@@] =	-0.1871037
-0.09517997	<s> [O-] [S@] =	-0.1871037
-0.09517997	<s> C [P@H] =	-0.1871037
-0.5209222	<s> O O C	-0.1871037
-0.60034335	C O O C	-0.1871037
-0.25489393	[C@@H] O O C	-0.1871037
-0.25489393	[C@H] O O C	-0.1871037
-0.25013378	<s> C O C	-0.91234106
-0.80511445	O C O C	-0.20489377
-0.69531924	= C O C	-0.24440558
-0.6984737	C C O C	-0.39971858
-0.3739157	N C O C	-0.20262977
-0.40994895	# C O C	-0.20793095
-0.8034805	/ C O C	-0.1871037
-0.5133178	) C O C	-0.42822775
-0.8034805	\ C O C	-0.1871037
-0.6742049	[C@@H] C O C	-0.23841894
-0.6419544	[C@H] C O C	-0.23109192
-0.5405358	F C O C	-0.1871037
-0.8171377	3 C O C	-0.1871037
-0.76583284	[C@@H] 5 O C	-0.2187315
-0.7639513	[C@H] 5 O C	-0.2187315
-0.17973153	<s> N O C	-0.46423748
-0.48677	= N O C	-0.21302806
-0.516194	C N O C	-0.22935958
-0.42432976	) N O C	-0.1871037
-0.44187295	[C@@H] N O C	-0.1871037
-0.44187295	[C@H] N O C	-0.1871037
-0.7282658	C / O C	-0.1871037
-0.6599737	N / O C	-0.1871037
-0.50266045	) / O C	-0.1871037
-0.8454131	O ) O C	-0.1871037
-0.6541949	C ) O C	-0.19479735
-0.88289756	5 ) O C	-0.1871037
-0.6792757	N ) O C	-0.1871037
-0.6652939	) ) O C	-0.27752903
-0.25959283	[NH3+] ) O C	-0.2187315
-0.58264846	C \ O C	-0.1871037
-0.4474112	N \ O C	-0.1871037
-0.4474112	) \ O C	-0.1871037
-0.3563451	[C@@H] 4 O C	-0.2187315
-0.17752536	[C@H] 4 O C	-0.2187315
-0.5510286	O [C@@H] O C	-0.1871037
-0.6331411	C [C@@H] O C	-0.31187543
-0.40041432	N [C@@H] O C	-0.1871037
-0.52672964	/ [C@@H] O C	-0.1871037
-0.73815876	[C@H] [C@@H] O C	-0.1871037
-0.521917	O [C@H] O C	-0.1871037
-0.5963425	C [C@H] O C	-0.317475
-0.38024265	N [C@H] O C	-0.1871037
-0.49795267	/ [C@H] O C	-0.1871037
-0.7548933	) [C@H] O C	-0.1871037
-0.6532267	[C@H] [C@H] O C	-0.1871037
-0.17932001	<s> S O C	-0.26000223
-0.20480938	C S O C	-0.1871037
-0.5354275	[C@@H] 3 O C	-0.1871037
-0.5354275	[C@H] 3 O C	-0.1871037
-0.25400722	<s> P O C	-0.1871037
-0.16448507	<s> [S-] O C	-0.1871037
-0.040169366	<s> O = C	-1.3922809
-0.030473122	<s> C = C	-1.1087685
-0.49995363	O C = C	-0.32826558
-0.6920994	= C = C	-0.20629287
-0.5677228	C C = C	-0.6078528
-0.6297225	5 C = C	-0.2187315
-0.6110772	N C = C	-0.32657006
-0.39754802	/ C = C	-0.53569764
-0.51621336	) C = C	-0.32134417
-0.560981	\ C = C	-0.19739248
-0.5990025	[O-] C = C	-0.1871037
-0.26898578	[N+] C = C	-0.1871037
-0.44851148	[C@@H] C = C	-0.35295537
-0.44851148	[C@H] C = C	-0.36371747
-0.5472908	F C = C	-0.1871037
-0.4593286	[NH+] C = C	-0.1871037
-0.539172	S C = C	-0.19393572
-0.4593286	[C@] C = C	-0.1871037
-0.63606304	3 C = C	-0.2187315
-0.4593286	[C@@] C = C	-0.1871037
-0.4593286	Cl C = C	-0.1871037
-0.26898578	P C = C	-0.1871037
-0.4593286	[S-] C = C	-0.1871037
-0.26898578	[C+] C = C	-0.1871037
-0.8391642	C 5 = C	-0.1871037
-0.15684286	<s> N = C	-0.890277
-0.17148149	O N = C	-0.22037521
-0.2823697	C N = C	-0.37329113
-0.40848383	N N = C	-0.22155313
-0.22301222	/ N = C	-0.43609345
-0.64264977	) N = C	-0.1871037
-0.48434496	[C@@H] N = C	-0.1871037
-0.48434496	[C@H] N = C	-0.1871037
-0.24098566	S N = C	-0.1871037
-0.20763452	3 N = C	-0.2187315
-0.24098566	P N = C	-0.1871037
-0.84570044	C 4 = C	-0.1871037
-0.23974304	O [N+] = C	-0.1871037
-0.55645615	= [N+] = C	-0.20793095
-0.2601732	C [N+] = C	-0.2172761
-0.41480285	N [N+] = C	-0.1871037
-0.5125854	/ [N+] = C	-0.1871037
-0.41480285	[O-] [N+] = C	-0.1871037
-0.035936624	C [NH+] = C	-0.33621663
-0.07445352	N [NH+] = C	-0.1871037
-0.07445352	/ [NH+] = C	-0.20793095
-0.20887761	) [NH+] = C	-0.1871037
-0.0843592	[C@@H] [NH+] = C	-0.1871037
-0.0843592	[C@H] [NH+] = C	-0.1871037
-0.13734639	<s> S = C	-0.6799314
-0.26664558	<s> [NH2+] = C	-0.24059871
-0.60663503	C 3 = C	-0.1871037
-0.2694606	O P = C	-0.1871037
-0.14650574	C [P@H] = C	-0.1871037
-0.32619378	<s> O C C	-0.8590956
-0.8589008	O O C C	-0.1871037
-0.8528021	C O C C	-0.33044517
-0.62510234	N O C C	-0.22946292
-0.960782	/ O C C	-0.1871037
-0.9509249	) O C C	-0.1871037
-0.960782	\ O C C	-0.1871037
-0.96323	[C@@H] O C C	-0.19590765
-0.8659062	[C@H] O C C	-0.20262977
-0.9590412	O = C C	-0.1871037
-0.81049114	C = C C	-0.44491827
-0.87037456	N = C C	-0.2837217
-0.65457404	[N+] = C C	-0.22460383
-0.9025333	[NH+] = C C	-0.1871037
-0.57483363	S = C C	-0.1871037
-0.57483363	[NH2+] = C C	-0.1871037
-0.33990467	P = C C	-0.1871037
-0.33990467	[P@H] = C C	-0.1871037
-0.46986267	<s> C C C	-1.1766354
-0.9885944	O C C C	-0.26513135
-0.8733064	= C C C	-0.26720512
-0.920609	C C C C	-0.6258441
-0.8786066	N C C C	-0.33902073
-1.034899	# C C C	-0.21406975
-0.95039755	/ C C C	-0.1871037
-0.767543	) C C C	-0.43092227
-0.8124492	\ C C C	-0.19739248
-0.7293514	[O-] C C C	-0.1871037
-0.7823527	[N+] C C C	-0.19947983
-0.7471612	[C@@H] C C C	-0.32678393
-0.7297871	[C@H] C C C	-0.32582518
-0.61069393	[N-] C C C	-0.20793095
-0.8106464	F C C C	-0.1871037
-0.66602665	[NH+] C C C	-0.23318665
-1.0274543	[NH3+] C C C	-0.1871037
-0.79569805	S C C C	-0.1871037
-0.6983144	[NH2+] C C C	-0.26313218
-0.91074634	[C@] C C C	-0.1871037
-0.7612473	3 C C C	-0.20793095
-0.91074634	[C@@] C C C	-0.1871037
-0.61069393	P C C C	-0.20793095
-0.3553916	[O+] C C C	-0.1871037
-0.58577335	C 5 C C	-0.38494092
-0.97568727	<s> N C C	-0.3789014
-0.61641186	O N C C	-0.29175124
-0.82146126	= N C C	-0.24154261
-0.7435481	C N C C	-0.2968268
-0.6427829	N N C C	-0.30399355
-0.7280547	/ N C C	-0.1871037
-0.6811577	) N C C	-0.21754035
-0.7629291	\ N C C	-0.1871037
-0.8358018	[C@@H] N C C	-0.20262977
-1.0101064	[C@H] N C C	-0.1871037
-0.3339337	[NH3+] N C C	-0.1871037
-0.52729195	C # C C	-0.3031718
-0.93240196	N # C C	-0.1871037
-0.58485574	[N+] # C C	-0.1871037
-1.2407844	C / C C	-0.1871037
-1.0216229	N / C C	-0.1871037
-0.9525313	) / C C	-0.1871037
-0.582015	[N+] / C C	-0.1871037
-0.77910197	[NH+] / C C	-0.1871037
-0.8891864	O ) C C	-0.23995174
-0.88985527	C ) C C	-0.22119944
-1.0334854	5 ) C C	-0.20793095
-0.89199036	N ) C C	-0.22202519
-0.90233046	) ) C C	-0.33237883
-0.8860072	4 ) C C	-0.20262977
-0.57025564	[O-] ) C C	-0.1871037
-0.8209366	F ) C C	-0.1871037
-0.8130096	[NH3+] ) C C	-0.28998935
-0.7607304	S ) C C	-0.1871037
-0.7607304	[NH2+] ) C C	-0.1871037
-0.6875608	3 ) C C	-0.1871037
-1.0001304	C \ C C	-0.1871037
-0.7796559	N \ C C	-0.1871037
-0.5823667	[NH+] \ C C	-0.1871037
-0.7479434	C 4 C C	-0.1871037
-0.66299164	N 4 C C	-0.1871037
-0.83157516	[C@@H] 4 C C	-0.1871037
-0.83157516	[C@H] 4 C C	-0.1871037
-1.2425736	<s> [O-] C C	-0.40927786
-0.4716344	= [N+] C C	-0.19947983
-0.4417768	C [N+] C C	-0.1871037
-0.27089992	N [N+] C C	-0.1871037
-0.23220645	# [N+] C C	-0.1871037
-0.89157057	O [C@@H] C C	-0.21416275
-0.93290406	C [C@@H] C C	-0.3080291
-0.7754026	N [C@@H] C C	-0.2187315
-0.88057584	/ [C@@H] C C	-0.1871037
-0.8465601	) [C@@H] C C	-0.1871037
-0.8515611	\ [C@@H] C C	-0.1871037
-0.8139449	[O-] [C@@H] C C	-0.1871037
-0.57171994	[N+] [C@@H] C C	-0.1871037
-0.57171994	F [C@@H] C C	-0.1871037
-0.8139449	[NH3+] [C@@H] C C	-0.1871037
-0.57171994	S [C@@H] C C	-0.1871037
